const models = [{ "w": [[0.161, 0.414, 0.002, 0.001, 0.005], [0.509, 0.009, 0.001, 0.002, 0.001], [-0.015, 0.383, 0.002, 0.003, 0.001], [-0.045, 0.523, 0.0, 0.002, 0.002], [0.053, -0.046, -0.0, -0.018, -0.003], [-0.05, 0.081, 0.004, 0.004, -0.003], [-0.025, 0.019, 0.007, 0.006, -0.005], [0.084, -0.065, 0.003, 0.002, 0.005], [0.097, -0.062, 0.008, -0.003, -0.001], [0.049, -0.063, 0.0, -0.0, 0.008], [0.059, -0.05, 0.012, -0.002, -0.011], [0.009, 0.038, 0.005, -0.007, -0.011]], "b": [0.327, 0.259, 0.304, 0.323, 0.422, 0.444, 0.458, 0.419, 0.373, 0.247, 0.438, 0.396] }, { "w": [[0.161, 0.414, 0.002, 0.001, 0.005, -0.008], [0.509, 0.009, 0.001, 0.002, 0.001, -0.003], [-0.015, 0.384, 0.002, 0.002, 0.001, -0.008], [-0.045, 0.523, 0.0, 0.002, 0.002, -0.005], [0.05, -0.061, -0.002, -0.015, 0.001, 0.394], [-0.053, 0.068, 0.002, 0.007, 0.001, 0.33], [-0.028, 0.005, 0.005, 0.008, -0.001, 0.354], [0.081, -0.078, 0.002, 0.004, 0.009, 0.345], [0.094, -0.079, 0.006, 0.001, 0.004, 0.447], [0.049, -0.064, -0.0, -0.0, 0.008, 0.014], [0.056, -0.063, 0.01, 0.0, -0.007, 0.339]], "b": [0.33, 0.26, 0.307, 0.325, 0.266, 0.313, 0.318, 0.282, 0.196, 0.241, 0.304] }, { "w": [[0.161, 0.414, 0.002, 0.001, 0.005, -0.002], [0.508, 0.009, 0.001, 0.002, 0.001, 0.001], [-0.015, 0.383, 0.002, 0.003, 0.001, -0.001], [-0.045, 0.523, 0.0, 0.002, 0.002, -0.001], [0.031, -0.027, -0.005, -0.017, 0.001, 0.373], [-0.068, 0.096, -0.0, 0.005, 0.0, 0.309], [-0.046, 0.036, 0.003, 0.007, -0.002, 0.345], [0.065, -0.049, -0.0, 0.002, 0.009, 0.315], [0.071, -0.04, 0.002, -0.002, 0.004, 0.451], [0.047, -0.062, -0.0, -0.0, 0.008, 0.026], [-0.012, 0.055, 0.001, -0.007, -0.007, 0.345]], "b": [0.327, 0.259, 0.305, 0.323, 0.259, 0.308, 0.307, 0.281, 0.176, 0.235, 0.245] }, { "w": [[0.161, 0.414, 0.002, 0.001, 0.005, 0.001, -0.009], [0.508, 0.009, 0.001, 0.002, 0.001, 0.003, -0.004], [-0.015, 0.384, 0.002, 0.002, 0.001, 0.001, -0.008], [-0.045, 0.523, 0.0, 0.002, 0.002, 0.001, -0.005], [0.034, -0.044, -0.005, -0.015, 0.003, 0.269, 0.303], [-0.065, 0.082, -0.0, 0.007, 0.002, 0.221, 0.255], [-0.043, 0.021, 0.003, 0.008, 0.0, 0.253, 0.268], [0.068, -0.064, -0.001, 0.004, 0.011, 0.222, 0.27], [0.075, -0.058, 0.002, 0.001, 0.007, 0.336, 0.333], [0.047, -0.062, -0.0, -0.0, 0.008, 0.023, 0.006]], "b": [0.33, 0.26, 0.307, 0.325, 0.185, 0.246, 0.241, 0.215, 0.094, 0.234] }, { "w": [[0.161, 0.414, 0.002, 0.001, 0.005, -0.005], [0.509, 0.009, 0.001, 0.002, 0.001, -0.004], [-0.014, 0.383, 0.002, 0.003, 0.001, -0.009], [-0.045, 0.523, 0.0, 0.002, 0.002, -0.0], [0.051, -0.044, -0.0, -0.018, -0.004, 0.04], [-0.051, 0.082, 0.004, 0.004, -0.003, 0.022], [-0.027, 0.021, 0.007, 0.006, -0.006, 0.031], [0.084, -0.065, 0.003, 0.002, 0.005, -0.003], [0.097, -0.062, 0.008, -0.003, -0.001, 0.003], [0.056, -0.047, 0.012, -0.002, -0.011, 0.057], [0.007, 0.04, 0.005, -0.007, -0.011, 0.033]], "b": [0.328, 0.26, 0.306, 0.323, 0.413, 0.438, 0.45, 0.42, 0.372, 0.424, 0.388] }, { "w": [[0.161, 0.414, 0.002, 0.001, 0.005, -0.005, -0.008], [0.509, 0.009, 0.001, 0.002, 0.001, -0.004, -0.003], [-0.014, 0.383, 0.002, 0.002, 0.001, -0.008, -0.007], [-0.045, 0.523, 0.0, 0.002, 0.002, 0.0, -0.005], [0.048, -0.059, -0.002, -0.015, 0.001, 0.027, 0.393], [-0.053, 0.069, 0.002, 0.007, 0.001, 0.011, 0.33], [-0.029, 0.007, 0.005, 0.008, -0.001, 0.02, 0.354], [0.082, -0.078, 0.002, 0.004, 0.009, -0.015, 0.345], [0.094, -0.08, 0.006, 0.001, 0.004, -0.011, 0.447], [0.054, -0.06, 0.01, 0.0, -0.008, 0.046, 0.338]], "b": [0.331, 0.261, 0.309, 0.325, 0.26, 0.31, 0.313, 0.286, 0.199, 0.293] }, { "w": [[0.161, 0.414, 0.002, 0.001, 0.005, -0.005, -0.001], [0.509, 0.009, 0.001, 0.002, 0.001, -0.004, 0.001], [-0.014, 0.383, 0.002, 0.003, 0.001, -0.009, -0.001], [-0.045, 0.523, 0.0, 0.002, 0.002, -0.0, -0.001], [0.03, -0.026, -0.005, -0.017, 0.001, 0.019, 0.373], [-0.068, 0.096, -0.0, 0.005, 0.0, 0.005, 0.308], [-0.046, 0.037, 0.003, 0.007, -0.002, 0.012, 0.345], [0.066, -0.05, -0.0, 0.002, 0.009, -0.021, 0.316], [0.072, -0.041, 0.002, -0.002, 0.004, -0.023, 0.451], [-0.012, 0.056, 0.001, -0.007, -0.007, 0.013, 0.345]], "b": [0.329, 0.26, 0.307, 0.323, 0.254, 0.307, 0.304, 0.286, 0.181, 0.242] }, { "w": [[0.161, 0.414, 0.002, 0.001, 0.005, -0.005, 0.002, -0.009], [0.509, 0.009, 0.001, 0.002, 0.001, -0.004, 0.003, -0.004], [-0.014, 0.383, 0.002, 0.002, 0.001, -0.008, 0.002, -0.008], [-0.045, 0.523, 0.0, 0.002, 0.002, 0.0, 0.001, -0.005], [0.034, -0.043, -0.005, -0.015, 0.003, 0.015, 0.269, 0.303], [-0.065, 0.082, -0.0, 0.007, 0.002, 0.001, 0.22, 0.255], [-0.043, 0.022, 0.003, 0.008, 0.0, 0.008, 0.252, 0.268], [0.07, -0.065, -0.001, 0.004, 0.011, -0.025, 0.223, 0.27], [0.076, -0.06, 0.002, 0.001, 0.007, -0.027, 0.336, 0.333]], "b": [0.331, 0.261, 0.309, 0.325, 0.181, 0.245, 0.239, 0.22, 0.1] }, { "w": [[0.161, 0.414, 0.002, 0.001, 0.005, -0.002], [0.508, 0.009, 0.001, 0.002, 0.001, 0.001], [-0.015, 0.383, 0.002, 0.003, 0.001, -0.0], [-0.046, 0.523, 0.0, 0.002, 0.002, 0.002], [0.011, -0.019, -0.003, -0.017, -0.003, 0.429], [-0.084, 0.103, 0.001, 0.005, -0.003, 0.354], [-0.066, 0.044, 0.004, 0.007, -0.005, 0.415], [0.047, -0.041, 0.0, 0.003, 0.006, 0.373], [0.049, -0.063, -0.0, -0.0, 0.008, 0.001], [0.022, -0.027, 0.009, -0.001, -0.011, 0.376], [-0.028, 0.061, 0.002, -0.006, -0.011, 0.38]], "b": [0.328, 0.259, 0.304, 0.323, 0.262, 0.312, 0.303, 0.28, 0.246, 0.298, 0.255] }, { "w": [[0.16, 0.414, 0.002, 0.001, 0.005, 0.001, -0.009], [0.508, 0.009, 0.001, 0.002, 0.001, 0.002, -0.004], [-0.015, 0.384, 0.002, 0.002, 0.001, 0.003, -0.009], [-0.046, 0.523, 0.0, 0.002, 0.002, 0.004, -0.007], [0.018, -0.034, -0.004, -0.015, -0.0, 0.337, 0.243], [-0.079, 0.09, 0.0, 0.007, -0.0, 0.275, 0.207], [-0.06, 0.032, 0.003, 0.008, -0.003, 0.338, 0.203], [0.054, -0.054, -0.0, 0.004, 0.008, 0.292, 0.214], [0.049, -0.064, -0.0, -0.0, 0.008, -0.005, 0.017], [0.028, -0.039, 0.009, -0.0, -0.008, 0.298, 0.206]], "b": [0.33, 0.26, 0.306, 0.324, 0.2, 0.259, 0.251, 0.225, 0.242, 0.246] }, { "w": [[0.161, 0.414, 0.002, 0.001, 0.005, -0.002, -0.001], [0.508, 0.009, 0.001, 0.002, 0.001, 0.0, 0.001], [-0.015, 0.383, 0.002, 0.003, 0.001, 0.0, -0.002], [-0.045, 0.523, 0.0, 0.002, 0.002, 0.002, -0.002], [0.006, -0.014, -0.005, -0.016, -0.001, 0.348, 0.217], [-0.088, 0.107, -0.001, 0.006, -0.001, 0.286, 0.18], [-0.07, 0.049, 0.002, 0.007, -0.003, 0.343, 0.191], [0.043, -0.037, -0.001, 0.003, 0.008, 0.307, 0.177], [0.048, -0.062, -0.0, -0.0, 0.008, -0.01, 0.03], [-0.033, 0.067, -0.0, -0.006, -0.009, 0.301, 0.209]], "b": [0.328, 0.259, 0.305, 0.323, 0.198, 0.258, 0.246, 0.227, 0.237, 0.192] }, { "w": [[0.16, 0.415, 0.002, 0.001, 0.005, 0.001, 0.001, -0.009], [0.508, 0.009, 0.001, 0.002, 0.001, 0.002, 0.002, -0.005], [-0.015, 0.384, 0.002, 0.002, 0.001, 0.003, 0.0, -0.009], [-0.046, 0.523, 0.0, 0.002, 0.002, 0.004, -0.0, -0.007], [0.013, -0.028, -0.005, -0.015, 0.001, 0.285, 0.173, 0.208], [-0.083, 0.095, -0.001, 0.007, 0.001, 0.232, 0.143, 0.178], [-0.064, 0.038, 0.002, 0.008, -0.001, 0.291, 0.155, 0.171], [0.05, -0.049, -0.001, 0.004, 0.009, 0.251, 0.138, 0.186], [0.048, -0.063, -0.0, -0.0, 0.008, -0.013, 0.028, 0.011]], "b": [0.329, 0.259, 0.306, 0.324, 0.158, 0.224, 0.213, 0.191, 0.235] }, { "w": [[0.161, 0.414, 0.002, 0.001, 0.005, -0.002, -0.005], [0.509, 0.009, 0.001, 0.002, 0.001, 0.001, -0.004], [-0.014, 0.383, 0.002, 0.003, 0.001, -0.0, -0.009], [-0.045, 0.523, 0.0, 0.002, 0.002, 0.002, -0.0], [0.009, -0.017, -0.003, -0.017, -0.003, 0.429, 0.039], [-0.085, 0.104, 0.001, 0.005, -0.003, 0.354, 0.021], [-0.067, 0.046, 0.004, 0.007, -0.005, 0.415, 0.03], [0.048, -0.042, 0.0, 0.003, 0.006, 0.373, -0.005], [0.02, -0.023, 0.009, -0.001, -0.011, 0.376, 0.056], [-0.03, 0.063, 0.002, -0.006, -0.011, 0.38, 0.032]], "b": [0.329, 0.26, 0.306, 0.323, 0.253, 0.307, 0.296, 0.281, 0.284, 0.247] }, { "w": [[0.161, 0.414, 0.002, 0.001, 0.005, 0.001, -0.005, -0.009], [0.509, 0.009, 0.001, 0.002, 0.001, 0.002, -0.004, -0.004], [-0.015, 0.383, 0.002, 0.002, 0.001, 0.003, -0.008, -0.009], [-0.046, 0.523, 0.0, 0.002, 0.002, 0.004, 0.0, -0.007], [0.016, -0.032, -0.004, -0.015, -0.001, 0.337, 0.031, 0.243], [-0.079, 0.091, 0.0, 0.007, -0.001, 0.275, 0.015, 0.207], [-0.061, 0.033, 0.003, 0.008, -0.003, 0.338, 0.024, 0.203], [0.054, -0.055, -0.0, 0.004, 0.008, 0.292, -0.011, 0.215], [0.026, -0.036, 0.009, -0.0, -0.009, 0.298, 0.05, 0.205]], "b": [0.331, 0.261, 0.308, 0.324, 0.193, 0.255, 0.246, 0.228, 0.234] }, { "w": [[0.161, 0.414, 0.002, 0.001, 0.005, -0.002, -0.005, -0.001], [0.509, 0.009, 0.001, 0.002, 0.001, 0.0, -0.004, 0.001], [-0.014, 0.383, 0.002, 0.003, 0.001, 0.0, -0.009, -0.001], [-0.045, 0.523, 0.0, 0.002, 0.002, 0.002, 0.0, -0.002], [0.005, -0.012, -0.005, -0.016, -0.001, 0.348, 0.027, 0.216], [-0.089, 0.108, -0.001, 0.006, -0.001, 0.286, 0.011, 0.179], [-0.071, 0.051, 0.002, 0.007, -0.003, 0.343, 0.019, 0.19], [0.044, -0.038, -0.001, 0.003, 0.008, 0.307, -0.014, 0.177], [-0.034, 0.068, -0.0, -0.006, -0.009, 0.302, 0.02, 0.209]], "b": [0.329, 0.26, 0.307, 0.323, 0.191, 0.256, 0.242, 0.23, 0.188] }, { "w": [[0.161, 0.414, 0.002, 0.001, 0.005, 0.001, -0.005, 0.001, -0.009], [0.508, 0.009, 0.001, 0.002, 0.001, 0.002, -0.004, 0.002, -0.005], [-0.015, 0.383, 0.002, 0.002, 0.001, 0.003, -0.008, 0.001, -0.009], [-0.046, 0.523, 0.0, 0.002, 0.002, 0.004, 0.0, -0.0, -0.007], [0.012, -0.026, -0.005, -0.015, 0.001, 0.286, 0.023, 0.173, 0.207], [-0.083, 0.096, -0.001, 0.007, 0.001, 0.232, 0.008, 0.142, 0.178], [-0.065, 0.039, 0.002, 0.008, -0.002, 0.292, 0.016, 0.154, 0.171], [0.051, -0.05, -0.001, 0.004, 0.009, 0.251, -0.018, 0.139, 0.186]], "b": [0.331, 0.26, 0.308, 0.324, 0.152, 0.222, 0.21, 0.195] }, { "w": [[0.161, 0.414, 0.002, 0.002, 0.005, -0.004], [0.509, 0.009, 0.001, 0.002, 0.001, -0.0], [-0.015, 0.383, 0.002, 0.003, 0.001, -0.002], [-0.045, 0.523, 0.0, 0.002, 0.002, -0.001], [0.019, -0.02, -0.001, -0.018, -0.006, 0.402], [-0.076, 0.101, 0.003, 0.004, -0.005, 0.317], [-0.055, 0.042, 0.006, 0.005, -0.007, 0.358], [0.059, -0.032, 0.006, -0.003, -0.003, 0.461], [0.049, -0.063, 0.0, -0.0, 0.008, -0.002], [0.032, -0.029, 0.011, -0.003, -0.013, 0.325], [-0.022, 0.061, 0.004, -0.008, -0.013, 0.362]], "b": [0.328, 0.259, 0.305, 0.323, 0.254, 0.311, 0.308, 0.18, 0.247, 0.302, 0.245] }, { "w": [[0.161, 0.414, 0.002, 0.001, 0.005, -0.001, -0.008], [0.509, 0.009, 0.001, 0.002, 0.001, 0.001, -0.003], [-0.015, 0.384, 0.002, 0.002, 0.001, 0.001, -0.008], [-0.045, 0.523, 0.0, 0.002, 0.002, 0.001, -0.005], [0.026, -0.038, -0.002, -0.016, -0.002, 0.296, 0.292], [-0.071, 0.086, 0.002, 0.006, -0.001, 0.226, 0.252], [-0.05, 0.026, 0.005, 0.007, -0.004, 0.263, 0.263], [0.066, -0.053, 0.005, -0.001, 0.001, 0.342, 0.329], [0.049, -0.064, -0.0, -0.0, 0.008, -0.008, 0.017], [0.037, -0.045, 0.01, -0.001, -0.009, 0.231, 0.259]], "b": [0.33, 0.26, 0.307, 0.325, 0.183, 0.249, 0.243, 0.099, 0.243, 0.239] }, { "w": [[0.161, 0.414, 0.002, 0.002, 0.005, -0.004, -0.0], [0.509, 0.009, 0.001, 0.002, 0.001, -0.001, 0.002], [-0.015, 0.383, 0.002, 0.003, 0.001, -0.001, -0.001], [-0.045, 0.523, 0.0, 0.002, 0.002, -0.0, -0.001], [0.011, -0.012, -0.004, -0.018, -0.002, 0.312, 0.275], [-0.084, 0.108, 0.0, 0.004, -0.002, 0.241, 0.233], [-0.064, 0.049, 0.003, 0.006, -0.004, 0.274, 0.259], [0.048, -0.023, 0.003, -0.002, 0.001, 0.35, 0.34], [0.048, -0.063, -0.0, -0.0, 0.008, -0.011, 0.029], [-0.03, 0.068, 0.001, -0.007, -0.01, 0.278, 0.257]], "b": [0.328, 0.259, 0.305, 0.324, 0.171, 0.241, 0.23, 0.077, 0.238, 0.167] }, { "w": [[0.161, 0.414, 0.002, 0.001, 0.005, -0.001, 0.002, -0.008], [0.508, 0.009, 0.001, 0.002, 0.001, 0.0, 0.003, -0.004], [-0.015, 0.384, 0.002, 0.002, 0.001, 0.001, 0.001, -0.008], [-0.045, 0.523, 0.0, 0.002, 0.002, 0.001, 0.001, -0.006], [0.018, -0.028, -0.005, -0.016, 0.0, 0.247, 0.214, 0.236], [-0.078, 0.094, -0.0, 0.006, 0.0, 0.184, 0.18, 0.206], [-0.057, 0.035, 0.003, 0.007, -0.002, 0.216, 0.205, 0.21], [0.056, -0.04, 0.002, -0.001, 0.004, 0.278, 0.274, 0.258], [0.048, -0.063, -0.0, -0.0, 0.008, -0.014, 0.026, 0.01]], "b": [0.33, 0.26, 0.306, 0.325, 0.132, 0.206, 0.195, 0.034, 0.237] }, { "w": [[0.161, 0.414, 0.002, 0.001, 0.005, -0.004, -0.005], [0.509, 0.009, 0.001, 0.002, 0.001, -0.001, -0.004], [-0.014, 0.383, 0.002, 0.003, 0.001, -0.002, -0.009], [-0.045, 0.523, 0.0, 0.002, 0.002, -0.001, -0.0], [0.017, -0.018, -0.001, -0.018, -0.006, 0.402, 0.041], [-0.078, 0.102, 0.003, 0.004, -0.005, 0.317, 0.023], [-0.057, 0.044, 0.006, 0.005, -0.007, 0.358, 0.033], [0.059, -0.032, 0.006, -0.003, -0.003, 0.461, 0.005], [0.029, -0.025, 0.011, -0.003, -0.013, 0.325, 0.058], [-0.023, 0.063, 0.004, -0.008, -0.013, 0.362, 0.034]], "b": [0.33, 0.26, 0.307, 0.323, 0.244, 0.305, 0.3, 0.179, 0.288, 0.237] }, { "w": [[0.161, 0.414, 0.002, 0.001, 0.005, -0.001, -0.005, -0.008], [0.509, 0.009, 0.001, 0.002, 0.001, 0.001, -0.004, -0.003], [-0.014, 0.383, 0.002, 0.002, 0.001, 0.001, -0.008, -0.008], [-0.045, 0.523, 0.0, 0.002, 0.002, 0.001, 0.0, -0.005], [0.024, -0.036, -0.002, -0.016, -0.002, 0.296, 0.032, 0.291], [-0.072, 0.087, 0.002, 0.006, -0.002, 0.226, 0.015, 0.252], [-0.051, 0.027, 0.005, 0.007, -0.004, 0.263, 0.024, 0.263], [0.066, -0.053, 0.005, -0.001, 0.001, 0.342, -0.006, 0.329], [0.035, -0.042, 0.01, -0.001, -0.01, 0.231, 0.05, 0.258]], "b": [0.331, 0.261, 0.309, 0.325, 0.175, 0.246, 0.238, 0.101, 0.227] }, { "w": [[0.161, 0.414, 0.002, 0.001, 0.005, -0.004, -0.005, -0.0], [0.509, 0.009, 0.001, 0.002, 0.001, -0.001, -0.004, 0.002], [-0.014, 0.383, 0.002, 0.003, 0.001, -0.001, -0.009, -0.001], [-0.045, 0.523, 0.0, 0.002, 0.002, -0.0, -0.0, -0.001], [0.009, -0.011, -0.004, -0.018, -0.002, 0.313, 0.025, 0.274], [-0.084, 0.108, 0.0, 0.004, -0.002, 0.241, 0.01, 0.232], [-0.064, 0.05, 0.003, 0.006, -0.004, 0.274, 0.018, 0.258], [0.049, -0.023, 0.003, -0.002, 0.001, 0.35, -0.015, 0.341], [-0.031, 0.07, 0.001, -0.007, -0.01, 0.278, 0.019, 0.257]], "b": [0.33, 0.26, 0.307, 0.324, 0.165, 0.238, 0.225, 0.081, 0.163] }, { "w": [[0.161, 0.414, 0.002, 0.001, 0.005, -0.001, -0.005, 0.002, -0.008], [0.509, 0.009, 0.001, 0.002, 0.001, 0.0, -0.004, 0.003, -0.004], [-0.015, 0.383, 0.002, 0.002, 0.001, 0.001, -0.008, 0.001, -0.008], [-0.045, 0.523, 0.0, 0.002, 0.002, 0.001, 0.0, 0.001, -0.006], [0.017, -0.027, -0.005, -0.016, 0.0, 0.247, 0.021, 0.214, 0.236], [-0.078, 0.094, -0.0, 0.006, 0.0, 0.184, 0.006, 0.179, 0.206], [-0.058, 0.036, 0.003, 0.007, -0.002, 0.216, 0.014, 0.204, 0.21], [0.057, -0.041, 0.002, -0.001, 0.004, 0.278, -0.02, 0.274, 0.258]], "b": [0.331, 0.261, 0.308, 0.325, 0.127, 0.205, 0.191, 0.039] }, { "w": [[0.161, 0.414, 0.002, 0.001, 0.005, -0.003, -0.001], [0.509, 0.009, 0.001, 0.002, 0.001, -0.001, 0.001], [-0.015, 0.383, 0.002, 0.003, 0.001, -0.002, 0.0], [-0.045, 0.523, 0.0, 0.002, 0.002, -0.002, 0.002], [-0.001, -0.009, -0.004, -0.017, -0.004, 0.246, 0.337], [-0.093, 0.11, 0.001, 0.005, -0.004, 0.186, 0.284], [-0.075, 0.053, 0.004, 0.006, -0.006, 0.202, 0.339], [0.049, -0.063, -0.0, -0.0, 0.008, -0.003, 0.002], [0.014, -0.019, 0.009, -0.002, -0.012, 0.183, 0.308], [-0.039, 0.071, 0.002, -0.007, -0.012, 0.225, 0.296]], "b": [0.328, 0.259, 0.305, 0.323, 0.194, 0.26, 0.247, 0.247, 0.247, 0.192] }, { "w": [[0.161, 0.414, 0.002, 0.001, 0.005, -0.001, 0.001, -0.008], [0.508, 0.009, 0.001, 0.002, 0.001, -0.0, 0.002, -0.004], [-0.015, 0.384, 0.002, 0.002, 0.001, 0.0, 0.003, -0.009], [-0.046, 0.523, 0.0, 0.002, 0.002, -0.0, 0.004, -0.007], [0.007, -0.023, -0.004, -0.016, -0.002, 0.201, 0.278, 0.2], [-0.086, 0.098, 0.0, 0.006, -0.002, 0.146, 0.232, 0.176], [-0.069, 0.041, 0.003, 0.007, -0.004, 0.164, 0.29, 0.168], [0.05, -0.065, -0.0, -0.0, 0.008, -0.007, -0.003, 0.018], [0.021, -0.032, 0.009, -0.001, -0.01, 0.144, 0.256, 0.175]], "b": [0.33, 0.26, 0.306, 0.324, 0.155, 0.226, 0.215, 0.243, 0.213] }, { "w": [[0.161, 0.414, 0.002, 0.001, 0.005, -0.003, -0.001, -0.0], [0.509, 0.009, 0.001, 0.002, 0.001, -0.001, 0.001, 0.001], [-0.015, 0.383, 0.002, 0.003, 0.001, -0.001, 0.001, -0.001], [-0.045, 0.523, 0.0, 0.002, 0.002, -0.001, 0.003, -0.001], [-0.003, -0.006, -0.005, -0.017, -0.002, 0.213, 0.282, 0.179], [-0.095, 0.113, -0.001, 0.005, -0.002, 0.158, 0.237, 0.152], [-0.077, 0.056, 0.002, 0.007, -0.004, 0.173, 0.29, 0.16], [0.048, -0.063, -0.0, -0.0, 0.008, -0.008, -0.008, 0.032], [-0.041, 0.074, 0.0, -0.007, -0.01, 0.193, 0.242, 0.175]], "b": [0.328, 0.259, 0.305, 0.323, 0.149, 0.222, 0.207, 0.239, 0.148] }, { "w": [[0.161, 0.414, 0.002, 0.001, 0.005, -0.002, 0.001, 0.001, -0.009], [0.508, 0.009, 0.001, 0.002, 0.001, -0.0, 0.002, 0.002, -0.005], [-0.015, 0.384, 0.002, 0.002, 0.001, 0.0, 0.003, 0.0, -0.009], [-0.046, 0.523, 0.0, 0.002, 0.002, -0.0, 0.004, -0.0, -0.007], [0.004, -0.019, -0.005, -0.016, -0.001, 0.18, 0.24, 0.148, 0.174], [-0.089, 0.102, -0.001, 0.006, -0.0, 0.128, 0.2, 0.125, 0.154], [-0.071, 0.045, 0.002, 0.008, -0.003, 0.145, 0.255, 0.135, 0.144], [0.049, -0.064, -0.0, -0.0, 0.008, -0.011, -0.011, 0.029, 0.013]], "b": [0.33, 0.26, 0.306, 0.324, 0.123, 0.199, 0.186, 0.237] }, { "w": [[0.161, 0.413, 0.002, 0.001, 0.005, -0.003, -0.001, -0.005], [0.509, 0.009, 0.001, 0.002, 0.001, -0.001, 0.001, -0.004], [-0.014, 0.383, 0.002, 0.003, 0.001, -0.002, 0.0, -0.009], [-0.045, 0.523, 0.0, 0.002, 0.002, -0.002, 0.002, -0.0], [-0.003, -0.007, -0.004, -0.017, -0.005, 0.246, 0.337, 0.04], [-0.094, 0.112, 0.001, 0.005, -0.004, 0.186, 0.284, 0.022], [-0.077, 0.055, 0.004, 0.006, -0.006, 0.202, 0.339, 0.031], [0.011, -0.016, 0.009, -0.002, -0.012, 0.183, 0.308, 0.057], [-0.041, 0.073, 0.002, -0.007, -0.012, 0.226, 0.296, 0.033]], "b": [0.33, 0.26, 0.307, 0.323, 0.184, 0.254, 0.239, 0.233, 0.184] }, { "w": [[0.161, 0.414, 0.002, 0.001, 0.005, -0.001, 0.001, -0.005, -0.008], [0.509, 0.009, 0.001, 0.002, 0.001, -0.0, 0.002, -0.004, -0.004], [-0.015, 0.383, 0.002, 0.002, 0.001, 0.0, 0.003, -0.008, -0.009], [-0.046, 0.523, 0.0, 0.002, 0.002, -0.0, 0.004, 0.0, -0.007], [0.006, -0.021, -0.004, -0.016, -0.002, 0.201, 0.278, 0.033, 0.2], [-0.087, 0.099, 0.0, 0.006, -0.002, 0.146, 0.232, 0.016, 0.175], [-0.07, 0.043, 0.003, 0.007, -0.004, 0.164, 0.29, 0.026, 0.167], [0.018, -0.028, 0.009, -0.001, -0.01, 0.144, 0.256, 0.051, 0.174]], "b": [0.331, 0.261, 0.308, 0.324, 0.147, 0.222, 0.208, 0.201] }, { "w": [[0.161, 0.413, 0.002, 0.001, 0.005, -0.003, -0.001, -0.005, 0.0], [0.509, 0.009, 0.001, 0.002, 0.001, -0.001, 0.001, -0.004, 0.002], [-0.014, 0.383, 0.002, 0.003, 0.001, -0.002, 0.001, -0.009, -0.001], [-0.045, 0.523, 0.0, 0.002, 0.002, -0.001, 0.003, -0.0, -0.001], [-0.004, -0.004, -0.005, -0.017, -0.003, 0.214, 0.283, 0.03, 0.178], [-0.096, 0.114, -0.001, 0.005, -0.002, 0.158, 0.238, 0.013, 0.151], [-0.079, 0.057, 0.002, 0.007, -0.004, 0.173, 0.29, 0.022, 0.159], [-0.043, 0.075, 0.0, -0.007, -0.01, 0.194, 0.242, 0.023, 0.174]], "b": [0.33, 0.26, 0.307, 0.323, 0.142, 0.219, 0.202, 0.143] }, { "w": [[0.161, 0.414, 0.002, 0.001, 0.005, -0.002, 0.001, -0.005, 0.002, -0.008], [0.509, 0.009, 0.001, 0.002, 0.001, -0.0, 0.002, -0.004, 0.002, -0.005], [-0.015, 0.383, 0.002, 0.002, 0.001, 0.0, 0.003, -0.008, 0.001, -0.009], [-0.046, 0.523, 0.0, 0.002, 0.002, -0.0, 0.004, 0.0, -0.0, -0.007], [0.003, -0.017, -0.005, -0.016, -0.001, 0.18, 0.241, 0.026, 0.148, 0.174], [-0.089, 0.102, -0.001, 0.006, -0.001, 0.128, 0.2, 0.01, 0.125, 0.154], [-0.072, 0.046, 0.002, 0.008, -0.003, 0.145, 0.255, 0.019, 0.134, 0.144]], "b": [0.331, 0.26, 0.308, 0.324, 0.117, 0.197, 0.181] }, { "w": [[0.16, 0.414, 0.002, 0.002, 0.005, -0.002], [0.509, 0.009, 0.001, 0.002, 0.001, 0.001], [-0.015, 0.383, 0.002, 0.003, 0.001, -0.003], [-0.045, 0.523, 0.0, 0.002, 0.002, 0.0], [0.063, -0.054, -0.003, -0.02, -0.001, 0.412], [-0.041, 0.074, 0.001, 0.002, -0.001, 0.336], [0.093, -0.071, 0.001, -0.0, 0.007, 0.343], [0.11, -0.071, 0.004, -0.006, 0.002, 0.49], [0.049, -0.064, -0.0, -0.0, 0.008, 0.014], [0.068, -0.057, 0.009, -0.004, -0.009, 0.341], [0.018, 0.031, 0.002, -0.009, -0.009, 0.356]], "b": [0.328, 0.259, 0.305, 0.323, 0.234, 0.29, 0.262, 0.149, 0.24, 0.282, 0.234] }, { "w": [[0.161, 0.414, 0.002, 0.001, 0.005, 0.001, -0.009], [0.509, 0.009, 0.001, 0.002, 0.001, 0.002, -0.004], [-0.015, 0.384, 0.002, 0.002, 0.001, -0.0, -0.007], [-0.045, 0.523, 0.0, 0.002, 0.002, 0.002, -0.006], [0.058, -0.063, -0.004, -0.017, 0.001, 0.311, 0.284], [-0.046, 0.067, 0.001, 0.005, 0.001, 0.25, 0.242], [0.088, -0.079, 0.0, 0.002, 0.01, 0.252, 0.256], [0.104, -0.081, 0.004, -0.003, 0.005, 0.379, 0.313], [0.049, -0.064, -0.0, -0.0, 0.008, 0.01, 0.011], [0.063, -0.064, 0.009, -0.002, -0.007, 0.252, 0.25]], "b": [0.33, 0.26, 0.307, 0.324, 0.168, 0.234, 0.202, 0.075, 0.238, 0.224] }, { "w": [[0.161, 0.414, 0.002, 0.002, 0.005, -0.002, -0.001], [0.508, 0.009, 0.001, 0.002, 0.001, 0.0, 0.001], [-0.015, 0.383, 0.002, 0.003, 0.001, -0.003, -0.0], [-0.045, 0.523, 0.0, 0.002, 0.002, 0.001, -0.001], [0.046, -0.039, -0.006, -0.019, 0.001, 0.322, 0.262], [-0.056, 0.087, -0.001, 0.003, 0.001, 0.261, 0.218], [0.077, -0.058, -0.001, 0.001, 0.009, 0.267, 0.223], [0.088, -0.053, 0.001, -0.004, 0.005, 0.382, 0.319], [0.048, -0.062, -0.0, -0.0, 0.008, 0.006, 0.023], [0.001, 0.045, -0.0, -0.008, -0.007, 0.27, 0.252]], "b": [0.328, 0.258, 0.305, 0.323, 0.16, 0.228, 0.199, 0.058, 0.234, 0.162] }, { "w": [[0.161, 0.414, 0.002, 0.001, 0.005, 0.001, 0.001, -0.009], [0.508, 0.009, 0.001, 0.002, 0.001, 0.002, 0.002, -0.005], [-0.015, 0.384, 0.002, 0.002, 0.001, -0.001, 0.002, -0.008], [-0.045, 0.523, 0.0, 0.002, 0.002, 0.002, 0.001, -0.006], [0.045, -0.05, -0.005, -0.017, 0.003, 0.26, 0.203, 0.233], [-0.056, 0.078, -0.001, 0.005, 0.002, 0.207, 0.168, 0.2], [0.077, -0.068, -0.001, 0.002, 0.011, 0.21, 0.169, 0.213], [0.088, -0.065, 0.001, -0.002, 0.006, 0.315, 0.256, 0.249], [0.048, -0.063, -0.0, -0.0, 0.008, 0.004, 0.022, 0.005]], "b": [0.329, 0.259, 0.307, 0.324, 0.122, 0.196, 0.164, 0.018, 0.233] }, { "w": [[0.161, 0.414, 0.002, 0.002, 0.005, -0.002, -0.005], [0.509, 0.009, 0.001, 0.002, 0.001, 0.001, -0.004], [-0.015, 0.383, 0.002, 0.003, 0.001, -0.003, -0.009], [-0.045, 0.523, 0.0, 0.002, 0.002, 0.0, -0.0], [0.062, -0.052, -0.003, -0.02, -0.001, 0.411, 0.027], [-0.042, 0.075, 0.001, 0.002, -0.001, 0.335, 0.012], [0.093, -0.072, 0.001, -0.0, 0.007, 0.344, -0.014], [0.11, -0.072, 0.004, -0.006, 0.002, 0.491, -0.012], [0.065, -0.054, 0.009, -0.004, -0.01, 0.34, 0.047], [0.017, 0.032, 0.002, -0.009, -0.009, 0.355, 0.022]], "b": [0.329, 0.26, 0.307, 0.323, 0.227, 0.287, 0.265, 0.151, 0.271, 0.228] }, { "w": [[0.161, 0.414, 0.002, 0.001, 0.005, 0.001, -0.005, -0.008], [0.509, 0.009, 0.001, 0.002, 0.001, 0.002, -0.004, -0.004], [-0.014, 0.383, 0.002, 0.002, 0.001, -0.0, -0.008, -0.007], [-0.045, 0.523, 0.0, 0.002, 0.002, 0.002, 0.0, -0.006], [0.057, -0.061, -0.004, -0.017, 0.001, 0.311, 0.021, 0.284], [-0.046, 0.067, 0.001, 0.005, 0.001, 0.25, 0.006, 0.242], [0.089, -0.08, 0.0, 0.002, 0.01, 0.253, -0.02, 0.256], [0.105, -0.082, 0.004, -0.003, 0.005, 0.379, -0.019, 0.313], [0.061, -0.062, 0.009, -0.002, -0.007, 0.252, 0.041, 0.249]], "b": [0.331, 0.261, 0.309, 0.324, 0.163, 0.232, 0.207, 0.08, 0.214] }, { "w": [[0.161, 0.414, 0.002, 0.002, 0.005, -0.002, -0.005, -0.001], [0.509, 0.009, 0.001, 0.002, 0.001, 0.0, -0.004, 0.001], [-0.015, 0.383, 0.002, 0.003, 0.001, -0.003, -0.009, -0.0], [-0.045, 0.523, 0.0, 0.002, 0.002, 0.001, -0.0, -0.001], [0.045, -0.038, -0.006, -0.019, 0.001, 0.322, 0.015, 0.262], [-0.056, 0.087, -0.001, 0.003, 0.001, 0.261, 0.002, 0.218], [0.079, -0.06, -0.001, 0.001, 0.009, 0.267, -0.025, 0.224], [0.09, -0.055, 0.001, -0.004, 0.005, 0.382, -0.027, 0.319], [0.0, 0.046, -0.0, -0.008, -0.007, 0.27, 0.01, 0.252]], "b": [0.329, 0.259, 0.307, 0.323, 0.156, 0.228, 0.204, 0.065, 0.16] }, { "w": [[0.161, 0.414, 0.002, 0.001, 0.005, 0.001, -0.005, 0.001, -0.009], [0.509, 0.009, 0.001, 0.002, 0.001, 0.002, -0.004, 0.002, -0.005], [-0.015, 0.383, 0.002, 0.002, 0.001, -0.001, -0.008, 0.002, -0.008], [-0.045, 0.523, 0.0, 0.002, 0.002, 0.002, 0.0, 0.001, -0.006], [0.045, -0.049, -0.005, -0.017, 0.003, 0.26, 0.013, 0.203, 0.233], [-0.056, 0.078, -0.001, 0.005, 0.002, 0.207, -0.0, 0.168, 0.2], [0.079, -0.07, -0.001, 0.002, 0.011, 0.21, -0.027, 0.17, 0.213], [0.09, -0.066, 0.001, -0.002, 0.007, 0.315, -0.029, 0.257, 0.249]], "b": [0.33, 0.26, 0.309, 0.324, 0.119, 0.196, 0.17, 0.025] }, { "w": [[0.161, 0.414, 0.002, 0.001, 0.005, -0.001, -0.002], [0.509, 0.009, 0.001, 0.002, 0.001, 0.001, 0.0], [-0.015, 0.383, 0.002, 0.003, 0.001, -0.003, 0.001], [-0.046, 0.523, 0.0, 0.002, 0.002, -0.001, 0.002], [0.028, -0.031, -0.004, -0.018, -0.002, 0.253, 0.325], [-0.071, 0.093, 0.0, 0.004, -0.002, 0.204, 0.269], [0.061, -0.05, -0.0, 0.001, 0.007, 0.201, 0.29], [0.05, -0.064, -0.0, -0.0, 0.008, 0.017, -0.006], [0.035, -0.035, 0.008, -0.003, -0.01, 0.196, 0.295], [-0.014, 0.052, 0.001, -0.008, -0.01, 0.213, 0.292]], "b": [0.328, 0.259, 0.305, 0.323, 0.186, 0.25, 0.219, 0.241, 0.239, 0.19] }, { "w": [[0.161, 0.414, 0.002, 0.001, 0.005, 0.001, 0.001, -0.009], [0.508, 0.009, 0.001, 0.002, 0.001, 0.002, 0.002, -0.005], [-0.015, 0.384, 0.002, 0.003, 0.001, -0.002, 0.004, -0.009], [-0.046, 0.523, 0.0, 0.002, 0.002, 0.001, 0.004, -0.007], [0.031, -0.041, -0.005, -0.017, 0.0, 0.21, 0.266, 0.201], [-0.069, 0.085, -0.0, 0.005, -0.0, 0.167, 0.219, 0.173], [0.063, -0.06, -0.001, 0.003, 0.008, 0.163, 0.237, 0.181], [0.05, -0.065, -0.0, -0.0, 0.008, 0.014, -0.01, 0.014], [0.038, -0.044, 0.008, -0.001, -0.008, 0.159, 0.244, 0.173]], "b": [0.33, 0.26, 0.307, 0.324, 0.148, 0.217, 0.184, 0.238, 0.206] }, { "w": [[0.161, 0.414, 0.002, 0.001, 0.005, -0.001, -0.002, -0.0], [0.508, 0.009, 0.001, 0.002, 0.001, 0.0, 0.0, 0.001], [-0.015, 0.383, 0.002, 0.003, 0.001, -0.003, 0.001, -0.001], [-0.045, 0.523, 0.0, 0.002, 0.002, -0.0, 0.002, -0.002], [0.022, -0.025, -0.006, -0.018, -0.0, 0.218, 0.273, 0.175], [-0.076, 0.099, -0.001, 0.004, -0.0, 0.175, 0.226, 0.146], [0.056, -0.045, -0.002, 0.002, 0.008, 0.173, 0.248, 0.144], [0.049, -0.063, -0.0, -0.0, 0.008, 0.011, -0.014, 0.028], [-0.021, 0.058, -0.0, -0.007, -0.008, 0.178, 0.24, 0.175]], "b": [0.328, 0.258, 0.305, 0.323, 0.144, 0.215, 0.184, 0.234, 0.148] }, { "w": [[0.16, 0.414, 0.002, 0.001, 0.005, 0.001, 0.001, 0.001, -0.009], [0.508, 0.009, 0.001, 0.002, 0.001, 0.001, 0.001, 0.002, -0.005], [-0.015, 0.384, 0.002, 0.003, 0.001, -0.002, 0.003, 0.001, -0.009], [-0.046, 0.523, 0.0, 0.002, 0.002, 0.001, 0.004, -0.0, -0.007], [0.025, -0.035, -0.006, -0.017, 0.001, 0.187, 0.231, 0.144, 0.176], [-0.073, 0.09, -0.001, 0.005, 0.001, 0.148, 0.189, 0.12, 0.153], [0.059, -0.055, -0.001, 0.003, 0.009, 0.144, 0.209, 0.116, 0.161], [0.049, -0.064, -0.0, -0.0, 0.008, 0.009, -0.016, 0.026, 0.009]], "b": [0.329, 0.259, 0.307, 0.324, 0.118, 0.192, 0.16, 0.233] }, { "w": [[0.161, 0.414, 0.002, 0.001, 0.005, -0.001, -0.002, -0.005], [0.509, 0.009, 0.001, 0.002, 0.001, 0.001, 0.0, -0.004], [-0.015, 0.383, 0.002, 0.003, 0.001, -0.003, 0.001, -0.009], [-0.046, 0.523, 0.0, 0.002, 0.002, -0.001, 0.002, -0.0], [0.026, -0.029, -0.004, -0.018, -0.002, 0.252, 0.325, 0.031], [-0.072, 0.094, 0.0, 0.004, -0.002, 0.203, 0.269, 0.015], [0.061, -0.051, -0.0, 0.001, 0.007, 0.201, 0.29, -0.011], [0.033, -0.032, 0.008, -0.003, -0.01, 0.195, 0.295, 0.05], [-0.016, 0.053, 0.001, -0.008, -0.01, 0.212, 0.292, 0.025]], "b": [0.329, 0.26, 0.307, 0.323, 0.178, 0.246, 0.221, 0.227, 0.184] }, { "w": [[0.161, 0.414, 0.002, 0.001, 0.005, 0.001, 0.001, -0.005, -0.009], [0.509, 0.009, 0.001, 0.002, 0.001, 0.002, 0.002, -0.004, -0.005], [-0.015, 0.383, 0.002, 0.003, 0.001, -0.002, 0.004, -0.008, -0.008], [-0.046, 0.523, 0.0, 0.002, 0.002, 0.001, 0.004, 0.0, -0.007], [0.029, -0.039, -0.005, -0.017, -0.0, 0.21, 0.266, 0.026, 0.2], [-0.069, 0.085, -0.0, 0.005, -0.0, 0.167, 0.219, 0.011, 0.173], [0.064, -0.061, -0.001, 0.003, 0.009, 0.163, 0.237, -0.015, 0.182], [0.036, -0.041, 0.008, -0.001, -0.008, 0.159, 0.245, 0.046, 0.173]], "b": [0.331, 0.261, 0.309, 0.324, 0.141, 0.215, 0.188, 0.195] }, { "w": [[0.161, 0.414, 0.002, 0.001, 0.005, -0.001, -0.002, -0.005, -0.0], [0.509, 0.009, 0.001, 0.002, 0.001, 0.0, 0.0, -0.004, 0.001], [-0.015, 0.383, 0.002, 0.003, 0.001, -0.003, 0.001, -0.009, -0.001], [-0.045, 0.523, 0.0, 0.002, 0.002, -0.0, 0.002, 0.0, -0.002], [0.02, -0.023, -0.006, -0.018, -0.0, 0.218, 0.273, 0.022, 0.174], [-0.077, 0.099, -0.001, 0.004, -0.0, 0.175, 0.226, 0.008, 0.146], [0.056, -0.046, -0.002, 0.002, 0.008, 0.173, 0.247, -0.018, 0.145], [-0.021, 0.059, -0.0, -0.007, -0.008, 0.178, 0.24, 0.016, 0.175]], "b": [0.329, 0.259, 0.307, 0.323, 0.139, 0.213, 0.188, 0.145] }, { "w": [[0.161, 0.414, 0.002, 0.001, 0.005, 0.001, 0.0, -0.005, 0.001, -0.009], [0.509, 0.009, 0.001, 0.002, 0.001, 0.001, 0.001, -0.004, 0.002, -0.005], [-0.015, 0.383, 0.002, 0.003, 0.001, -0.002, 0.003, -0.008, 0.001, -0.009], [-0.046, 0.523, 0.0, 0.002, 0.002, 0.001, 0.004, 0.0, -0.0, -0.007], [0.024, -0.033, -0.006, -0.017, 0.001, 0.187, 0.231, 0.02, 0.144, 0.175], [-0.073, 0.09, -0.001, 0.005, 0.001, 0.148, 0.189, 0.005, 0.12, 0.152], [0.06, -0.056, -0.002, 0.003, 0.01, 0.144, 0.208, -0.02, 0.116, 0.162]], "b": [0.33, 0.26, 0.309, 0.324, 0.113, 0.191, 0.165] }, { "w": [[0.161, 0.414, 0.002, 0.002, 0.005, -0.001, -0.003], [0.509, 0.009, 0.001, 0.002, 0.001, 0.001, -0.001], [-0.015, 0.383, 0.002, 0.003, 0.001, -0.003, -0.001], [-0.045, 0.523, 0.0, 0.002, 0.002, 0.0, -0.001], [0.037, -0.033, -0.003, -0.02, -0.003, 0.312, 0.29], [-0.062, 0.09, 0.001, 0.002, -0.003, 0.259, 0.224], [0.08, -0.048, 0.004, -0.005, -0.001, 0.379, 0.325], [0.05, -0.064, -0.0, -0.0, 0.008, 0.016, -0.007], [0.046, -0.04, 0.009, -0.004, -0.011, 0.262, 0.231], [-0.007, 0.05, 0.002, -0.009, -0.011, 0.264, 0.267]], "b": [0.328, 0.259, 0.305, 0.323, 0.158, 0.231, 0.063, 0.242, 0.222, 0.164] }, { "w": [[0.161, 0.414, 0.002, 0.001, 0.005, 0.001, -0.001, -0.008], [0.509, 0.009, 0.001, 0.002, 0.001, 0.002, 0.0, -0.004], [-0.015, 0.384, 0.002, 0.002, 0.001, -0.001, 0.001, -0.008], [-0.045, 0.523, 0.0, 0.002, 0.002, 0.002, 0.001, -0.006], [0.038, -0.045, -0.004, -0.018, -0.001, 0.253, 0.23, 0.225], [-0.061, 0.08, 0.001, 0.004, -0.001, 0.206, 0.171, 0.198], [0.082, -0.061, 0.003, -0.003, 0.002, 0.314, 0.259, 0.247], [0.05, -0.065, -0.0, -0.0, 0.008, 0.013, -0.011, 0.014], [0.048, -0.05, 0.009, -0.002, -0.009, 0.207, 0.177, 0.205]], "b": [0.33, 0.26, 0.307, 0.324, 0.121, 0.199, 0.023, 0.24, 0.188] }, { "w": [[0.161, 0.414, 0.002, 0.002, 0.005, -0.001, -0.003, -0.0], [0.509, 0.009, 0.001, 0.002, 0.001, 0.001, -0.001, 0.001], [-0.015, 0.383, 0.002, 0.003, 0.001, -0.003, -0.001, -0.0], [-0.045, 0.523, 0.0, 0.002, 0.002, 0.001, -0.001, -0.001], [0.027, -0.025, -0.005, -0.019, -0.001, 0.258, 0.242, 0.208], [-0.07, 0.097, -0.001, 0.003, -0.001, 0.212, 0.183, 0.178], [0.068, -0.038, 0.002, -0.004, 0.002, 0.311, 0.265, 0.26], [0.049, -0.063, -0.0, -0.0, 0.008, 0.009, -0.014, 0.027], [-0.016, 0.058, 0.0, -0.008, -0.009, 0.211, 0.22, 0.203]], "b": [0.329, 0.259, 0.306, 0.323, 0.112, 0.192, 0.006, 0.236, 0.119] }, { "w": [[0.161, 0.414, 0.002, 0.001, 0.005, 0.001, -0.002, 0.001, -0.009], [0.509, 0.009, 0.001, 0.002, 0.001, 0.002, -0.0, 0.002, -0.005], [-0.015, 0.384, 0.002, 0.002, 0.001, -0.001, 0.001, 0.001, -0.008], [-0.045, 0.523, 0.0, 0.002, 0.002, 0.002, 0.001, 0.0, -0.006], [0.03, -0.036, -0.005, -0.018, 0.001, 0.218, 0.2, 0.17, 0.191], [-0.068, 0.088, -0.001, 0.005, 0.001, 0.177, 0.146, 0.143, 0.169], [0.071, -0.05, 0.002, -0.003, 0.004, 0.268, 0.22, 0.219, 0.202], [0.049, -0.064, -0.0, -0.0, 0.008, 0.008, -0.015, 0.025, 0.009]], "b": [0.33, 0.259, 0.307, 0.324, 0.089, 0.172, -0.018, 0.235] }, { "w": [[0.161, 0.414, 0.002, 0.002, 0.005, -0.001, -0.004, -0.005], [0.509, 0.008, 0.001, 0.002, 0.001, 0.001, -0.001, -0.004], [-0.014, 0.383, 0.002, 0.003, 0.001, -0.003, -0.001, -0.009], [-0.045, 0.523, 0.0, 0.002, 0.002, 0.0, -0.001, -0.0], [0.035, -0.031, -0.003, -0.02, -0.004, 0.312, 0.29, 0.031], [-0.063, 0.091, 0.001, 0.002, -0.003, 0.258, 0.224, 0.015], [0.08, -0.049, 0.004, -0.005, -0.0, 0.379, 0.325, -0.008], [0.044, -0.037, 0.009, -0.004, -0.011, 0.261, 0.232, 0.05], [-0.008, 0.052, 0.002, -0.009, -0.011, 0.264, 0.267, 0.025]], "b": [0.33, 0.26, 0.308, 0.323, 0.151, 0.228, 0.065, 0.21, 0.158] }, { "w": [[0.161, 0.414, 0.002, 0.001, 0.005, 0.002, -0.001, -0.005, -0.008], [0.509, 0.009, 0.001, 0.002, 0.001, 0.002, 0.0, -0.004, -0.004], [-0.015, 0.383, 0.002, 0.002, 0.001, -0.001, 0.001, -0.008, -0.008], [-0.045, 0.523, 0.0, 0.002, 0.002, 0.002, 0.001, 0.0, -0.006], [0.037, -0.043, -0.004, -0.018, -0.001, 0.253, 0.23, 0.026, 0.225], [-0.061, 0.081, 0.001, 0.004, -0.001, 0.206, 0.171, 0.01, 0.198], [0.082, -0.061, 0.003, -0.003, 0.002, 0.314, 0.259, -0.014, 0.247], [0.046, -0.047, 0.009, -0.002, -0.009, 0.207, 0.177, 0.045, 0.204]], "b": [0.331, 0.261, 0.309, 0.324, 0.115, 0.197, 0.026, 0.178] }, { "w": [[0.161, 0.414, 0.002, 0.002, 0.005, -0.001, -0.003, -0.005, -0.0], [0.509, 0.009, 0.001, 0.002, 0.001, 0.001, -0.001, -0.004, 0.002], [-0.014, 0.383, 0.002, 0.003, 0.001, -0.003, -0.001, -0.009, -0.0], [-0.045, 0.523, 0.0, 0.002, 0.002, 0.001, -0.001, -0.0, -0.001], [0.026, -0.024, -0.005, -0.019, -0.001, 0.258, 0.242, 0.021, 0.208], [-0.071, 0.098, -0.001, 0.003, -0.001, 0.212, 0.183, 0.006, 0.177], [0.069, -0.039, 0.002, -0.004, 0.002, 0.311, 0.265, -0.021, 0.26], [-0.017, 0.059, 0.0, -0.008, -0.009, 0.211, 0.221, 0.015, 0.202]], "b": [0.33, 0.26, 0.308, 0.323, 0.107, 0.191, 0.011, 0.115] }, { "w": [[0.161, 0.414, 0.002, 0.001, 0.005, 0.001, -0.002, -0.005, 0.002, -0.008], [0.509, 0.009, 0.001, 0.002, 0.001, 0.002, -0.0, -0.004, 0.002, -0.005], [-0.015, 0.383, 0.002, 0.002, 0.001, -0.001, 0.001, -0.008, 0.001, -0.008], [-0.045, 0.523, 0.0, 0.002, 0.002, 0.002, 0.001, 0.0, 0.0, -0.006], [0.029, -0.035, -0.005, -0.017, 0.0, 0.218, 0.2, 0.018, 0.169, 0.19], [-0.068, 0.088, -0.001, 0.005, 0.001, 0.177, 0.146, 0.003, 0.143, 0.169], [0.072, -0.051, 0.002, -0.003, 0.004, 0.268, 0.22, -0.024, 0.219, 0.202]], "b": [0.331, 0.26, 0.309, 0.324, 0.085, 0.171, -0.013] }, { "w": [[0.161, 0.414, 0.002, 0.002, 0.005, -0.0, -0.003, -0.001], [0.509, 0.009, 0.001, 0.002, 0.001, 0.001, -0.001, 0.001], [-0.015, 0.383, 0.002, 0.003, 0.001, -0.003, -0.001, 0.001], [-0.045, 0.523, 0.0, 0.002, 0.002, -0.0, -0.002, 0.002], [0.015, -0.02, -0.004, -0.019, -0.003, 0.212, 0.203, 0.266], [-0.08, 0.101, 0.0, 0.004, -0.003, 0.173, 0.151, 0.225], [0.05, -0.064, -0.0, -0.0, 0.008, 0.018, -0.006, -0.004], [0.026, -0.028, 0.008, -0.003, -0.011, 0.166, 0.149, 0.252], [-0.026, 0.061, 0.001, -0.008, -0.011, 0.174, 0.19, 0.237]], "b": [0.329, 0.259, 0.305, 0.323, 0.141, 0.217, 0.242, 0.206, 0.149] }, { "w": [[0.161, 0.414, 0.002, 0.001, 0.005, 0.001, -0.002, 0.001, -0.008], [0.508, 0.009, 0.001, 0.002, 0.001, 0.002, -0.0, 0.002, -0.005], [-0.015, 0.384, 0.002, 0.003, 0.001, -0.002, 0.001, 0.004, -0.009], [-0.046, 0.523, 0.0, 0.002, 0.002, 0.001, -0.0, 0.004, -0.007], [0.02, -0.031, -0.005, -0.017, -0.001, 0.182, 0.171, 0.225, 0.17], [-0.076, 0.092, -0.0, 0.005, -0.001, 0.147, 0.122, 0.19, 0.151], [0.051, -0.065, -0.0, -0.0, 0.008, 0.015, -0.009, -0.008, 0.016], [0.03, -0.037, 0.008, -0.002, -0.009, 0.14, 0.121, 0.216, 0.151]], "b": [0.33, 0.26, 0.307, 0.324, 0.116, 0.195, 0.24, 0.183] }, { "w": [[0.161, 0.414, 0.002, 0.002, 0.005, -0.0, -0.003, -0.001, -0.0], [0.509, 0.009, 0.001, 0.002, 0.001, 0.001, -0.001, 0.0, 0.001], [-0.015, 0.383, 0.002, 0.003, 0.001, -0.003, -0.001, 0.002, -0.001], [-0.045, 0.523, 0.0, 0.002, 0.002, -0.0, -0.001, 0.003, -0.001], [0.011, -0.016, -0.006, -0.018, -0.002, 0.187, 0.181, 0.228, 0.149], [-0.084, 0.105, -0.001, 0.004, -0.001, 0.152, 0.132, 0.193, 0.127], [0.049, -0.063, -0.0, -0.0, 0.008, 0.013, -0.011, -0.011, 0.029], [-0.03, 0.066, -0.0, -0.008, -0.009, 0.149, 0.168, 0.199, 0.151]], "b": [0.329, 0.259, 0.306, 0.323, 0.111, 0.191, 0.236, 0.118] }, { "w": [[0.161, 0.414, 0.002, 0.001, 0.005, 0.001, -0.002, 0.001, 0.001, -0.009], [0.508, 0.009, 0.001, 0.002, 0.001, 0.001, -0.001, 0.001, 0.002, -0.005], [-0.015, 0.384, 0.002, 0.003, 0.001, -0.002, 0.001, 0.003, 0.001, -0.009], [-0.046, 0.523, 0.0, 0.002, 0.002, 0.001, -0.0, 0.004, -0.0, -0.007], [0.016, -0.026, -0.006, -0.017, -0.0, 0.165, 0.156, 0.198, 0.126, 0.151], [-0.079, 0.096, -0.001, 0.005, -0.0, 0.132, 0.109, 0.167, 0.107, 0.135], [0.05, -0.064, -0.0, -0.0, 0.008, 0.011, -0.012, -0.014, 0.028, 0.011]], "b": [0.33, 0.259, 0.307, 0.324, 0.093, 0.175, 0.235] }, { "w": [[0.161, 0.414, 0.002, 0.001, 0.005, -0.0, -0.003, -0.001, -0.005], [0.509, 0.008, 0.001, 0.002, 0.001, 0.001, -0.001, 0.001, -0.004], [-0.015, 0.383, 0.002, 0.003, 0.001, -0.003, -0.001, 0.001, -0.009], [-0.045, 0.523, 0.0, 0.002, 0.002, -0.0, -0.002, 0.002, -0.0], [0.014, -0.018, -0.004, -0.019, -0.003, 0.211, 0.204, 0.266, 0.033], [-0.081, 0.102, 0.0, 0.004, -0.003, 0.173, 0.151, 0.225, 0.017], [0.024, -0.025, 0.008, -0.003, -0.011, 0.165, 0.15, 0.252, 0.052], [-0.027, 0.063, 0.001, -0.008, -0.011, 0.174, 0.19, 0.237, 0.027]], "b": [0.33, 0.26, 0.307, 0.323, 0.133, 0.213, 0.193, 0.142] }, { "w": [[0.161, 0.414, 0.002, 0.001, 0.005, 0.001, -0.002, 0.001, -0.005, -0.008], [0.509, 0.009, 0.001, 0.002, 0.001, 0.002, -0.0, 0.002, -0.004, -0.004], [-0.015, 0.383, 0.002, 0.003, 0.001, -0.002, 0.001, 0.003, -0.008, -0.009], [-0.046, 0.523, 0.0, 0.002, 0.002, 0.001, -0.0, 0.004, 0.0, -0.007], [0.018, -0.029, -0.005, -0.017, -0.002, 0.182, 0.171, 0.226, 0.029, 0.169], [-0.077, 0.093, -0.0, 0.005, -0.001, 0.147, 0.122, 0.19, 0.012, 0.151], [0.028, -0.034, 0.008, -0.002, -0.009, 0.139, 0.121, 0.216, 0.048, 0.151]], "b": [0.331, 0.261, 0.309, 0.324, 0.109, 0.192, 0.172] }, { "w": [[0.161, 0.414, 0.002, 0.001, 0.005, -0.0, -0.003, -0.001, -0.005, 0.0], [0.509, 0.009, 0.001, 0.002, 0.001, 0.001, -0.001, 0.0, -0.004, 0.001], [-0.015, 0.383, 0.002, 0.003, 0.001, -0.003, -0.001, 0.002, -0.009, -0.001], [-0.045, 0.523, 0.0, 0.002, 0.002, -0.0, -0.001, 0.003, -0.0, -0.001], [0.01, -0.015, -0.006, -0.018, -0.002, 0.187, 0.181, 0.228, 0.026, 0.148], [-0.084, 0.105, -0.001, 0.004, -0.001, 0.152, 0.132, 0.193, 0.01, 0.127], [-0.031, 0.067, -0.0, -0.008, -0.01, 0.149, 0.168, 0.199, 0.019, 0.151]], "b": [0.33, 0.26, 0.308, 0.323, 0.105, 0.188, 0.113] }, { "w": [[0.161, 0.414, 0.002, 0.001, 0.005, 0.001, -0.002, 0.001, -0.005, 0.001, -0.009], [0.509, 0.009, 0.001, 0.002, 0.001, 0.001, -0.001, 0.001, -0.004, 0.002, -0.005], [-0.015, 0.383, 0.002, 0.003, 0.001, -0.002, 0.0, 0.003, -0.008, 0.001, -0.009], [-0.046, 0.523, 0.0, 0.002, 0.002, 0.001, -0.0, 0.004, 0.0, -0.0, -0.007], [0.015, -0.025, -0.006, -0.017, -0.0, 0.164, 0.156, 0.199, 0.023, 0.126, 0.15], [-0.08, 0.096, -0.001, 0.005, -0.0, 0.132, 0.109, 0.167, 0.007, 0.107, 0.135]], "b": [0.331, 0.26, 0.309, 0.324, 0.088, 0.173] }, { "w": [[0.16, 0.414, 0.002, 0.002, 0.005, -0.002], [0.509, 0.009, 0.001, 0.002, 0.001, 0.002], [-0.015, 0.383, 0.002, 0.003, 0.001, -0.001], [-0.045, 0.523, 0.0, 0.002, 0.002, 0.002], [0.072, -0.077, -0.001, -0.019, -0.002, 0.382], [-0.008, -0.01, 0.006, 0.004, -0.004, 0.353], [0.1, -0.09, 0.002, 0.0, 0.006, 0.319], [0.119, -0.098, 0.006, -0.005, 0.001, 0.44], [0.049, -0.064, -0.0, -0.0, 0.008, 0.01], [0.075, -0.076, 0.011, -0.004, -0.01, 0.32], [0.026, 0.009, 0.004, -0.009, -0.01, 0.349]], "b": [0.328, 0.258, 0.304, 0.322, 0.253, 0.301, 0.277, 0.178, 0.242, 0.296, 0.242] }, { "w": [[0.161, 0.414, 0.002, 0.001, 0.005, 0.001, -0.008], [0.509, 0.009, 0.001, 0.002, 0.001, 0.004, -0.004], [-0.015, 0.383, 0.002, 0.002, 0.001, 0.002, -0.008], [-0.045, 0.523, 0.0, 0.002, 0.002, 0.004, -0.006], [0.064, -0.08, -0.003, -0.017, 0.001, 0.276, 0.303], [-0.015, -0.012, 0.005, 0.007, -0.002, 0.259, 0.268], [0.093, -0.093, 0.001, 0.003, 0.009, 0.225, 0.271], [0.111, -0.101, 0.005, -0.002, 0.004, 0.321, 0.341], [0.049, -0.064, -0.0, -0.0, 0.008, 0.006, 0.012], [0.068, -0.078, 0.01, -0.001, -0.007, 0.229, 0.264]], "b": [0.33, 0.259, 0.306, 0.324, 0.18, 0.236, 0.212, 0.096, 0.239, 0.233] }, { "w": [[0.16, 0.414, 0.002, 0.002, 0.005, -0.002, -0.001], [0.509, 0.009, 0.001, 0.002, 0.001, 0.002, 0.001], [-0.015, 0.383, 0.002, 0.003, 0.001, -0.0, -0.001], [-0.045, 0.523, 0.0, 0.002, 0.002, 0.003, -0.002], [0.051, -0.055, -0.005, -0.018, 0.001, 0.291, 0.284], [-0.027, 0.01, 0.003, 0.005, -0.002, 0.269, 0.262], [0.082, -0.072, -0.0, 0.001, 0.009, 0.242, 0.241], [0.093, -0.071, 0.002, -0.003, 0.004, 0.328, 0.349], [0.048, -0.062, -0.0, -0.0, 0.008, 0.002, 0.025], [0.006, 0.029, 0.001, -0.008, -0.007, 0.264, 0.263]], "b": [0.328, 0.258, 0.305, 0.323, 0.169, 0.224, 0.206, 0.074, 0.235, 0.164] }, { "w": [[0.161, 0.414, 0.002, 0.001, 0.005, 0.0, 0.001, -0.009], [0.509, 0.009, 0.001, 0.002, 0.001, 0.003, 0.002, -0.005], [-0.015, 0.384, 0.002, 0.002, 0.001, 0.002, 0.001, -0.009], [-0.045, 0.523, 0.0, 0.002, 0.002, 0.004, 0.0, -0.006], [0.049, -0.063, -0.005, -0.016, 0.002, 0.226, 0.219, 0.245], [-0.029, 0.004, 0.003, 0.007, -0.0, 0.212, 0.206, 0.214], [0.08, -0.079, -0.001, 0.003, 0.01, 0.183, 0.182, 0.223], [0.091, -0.079, 0.002, -0.001, 0.006, 0.257, 0.279, 0.268], [0.048, -0.062, -0.0, -0.0, 0.008, 0.001, 0.023, 0.006]], "b": [0.329, 0.259, 0.306, 0.324, 0.129, 0.189, 0.169, 0.031, 0.234] }, { "w": [[0.161, 0.414, 0.002, 0.002, 0.005, -0.002, -0.005], [0.509, 0.008, 0.001, 0.002, 0.001, 0.002, -0.004], [-0.014, 0.383, 0.002, 0.003, 0.001, -0.0, -0.009], [-0.045, 0.523, 0.0, 0.002, 0.002, 0.002, -0.0], [0.07, -0.075, -0.001, -0.019, -0.003, 0.381, 0.032], [-0.009, -0.008, 0.006, 0.004, -0.004, 0.352, 0.024], [0.1, -0.091, 0.002, 0.0, 0.006, 0.319, -0.01], [0.12, -0.098, 0.006, -0.005, 0.001, 0.44, -0.007], [0.073, -0.073, 0.011, -0.004, -0.01, 0.32, 0.05], [0.025, 0.011, 0.004, -0.009, -0.01, 0.348, 0.025]], "b": [0.329, 0.259, 0.306, 0.322, 0.245, 0.296, 0.28, 0.18, 0.284, 0.236] }, { "w": [[0.161, 0.414, 0.002, 0.001, 0.005, 0.001, -0.005, -0.008], [0.509, 0.008, 0.001, 0.002, 0.001, 0.004, -0.004, -0.004], [-0.014, 0.383, 0.002, 0.002, 0.001, 0.002, -0.008, -0.008], [-0.045, 0.523, 0.0, 0.002, 0.002, 0.004, 0.0, -0.006], [0.063, -0.078, -0.003, -0.017, 0.001, 0.276, 0.024, 0.302], [-0.015, -0.011, 0.005, 0.007, -0.002, 0.259, 0.017, 0.268], [0.094, -0.094, 0.001, 0.003, 0.009, 0.225, -0.017, 0.271], [0.111, -0.102, 0.005, -0.002, 0.004, 0.321, -0.015, 0.341], [0.066, -0.076, 0.01, -0.001, -0.008, 0.228, 0.044, 0.263]], "b": [0.331, 0.26, 0.308, 0.324, 0.174, 0.232, 0.216, 0.099, 0.222] }, { "w": [[0.161, 0.414, 0.002, 0.002, 0.005, -0.002, -0.005, -0.001], [0.509, 0.008, 0.001, 0.002, 0.001, 0.002, -0.004, 0.001], [-0.014, 0.383, 0.002, 0.003, 0.001, -0.0, -0.009, -0.001], [-0.045, 0.523, 0.0, 0.002, 0.002, 0.003, -0.0, -0.002], [0.05, -0.054, -0.005, -0.018, 0.0, 0.291, 0.017, 0.283], [-0.028, 0.011, 0.003, 0.005, -0.002, 0.269, 0.01, 0.262], [0.083, -0.073, -0.0, 0.001, 0.009, 0.242, -0.022, 0.241], [0.094, -0.073, 0.002, -0.003, 0.004, 0.328, -0.024, 0.35], [0.006, 0.03, 0.001, -0.008, -0.008, 0.264, 0.012, 0.263]], "b": [0.329, 0.259, 0.307, 0.323, 0.165, 0.221, 0.211, 0.08, 0.161] }, { "w": [[0.161, 0.414, 0.002, 0.001, 0.005, 0.0, -0.005, 0.001, -0.009], [0.509, 0.009, 0.001, 0.002, 0.001, 0.003, -0.004, 0.002, -0.005], [-0.014, 0.383, 0.002, 0.002, 0.001, 0.002, -0.008, 0.001, -0.008], [-0.045, 0.523, 0.0, 0.002, 0.002, 0.004, 0.0, 0.0, -0.006], [0.048, -0.062, -0.005, -0.016, 0.002, 0.226, 0.015, 0.219, 0.245], [-0.029, 0.004, 0.003, 0.007, -0.0, 0.212, 0.008, 0.206, 0.214], [0.082, -0.08, -0.001, 0.003, 0.011, 0.183, -0.025, 0.182, 0.223], [0.093, -0.081, 0.002, -0.001, 0.006, 0.257, -0.027, 0.28, 0.268]], "b": [0.331, 0.26, 0.308, 0.324, 0.126, 0.187, 0.175, 0.037] }, { "w": [[0.161, 0.414, 0.002, 0.001, 0.005, -0.002, -0.002], [0.509, 0.009, 0.001, 0.002, 0.001, 0.002, -0.0], [-0.015, 0.383, 0.002, 0.003, 0.001, -0.001, -0.0], [-0.045, 0.523, 0.0, 0.002, 0.002, 0.002, 0.001], [0.03, -0.043, -0.004, -0.018, -0.002, 0.229, 0.349], [-0.049, 0.024, 0.004, 0.006, -0.004, 0.202, 0.343], [0.063, -0.06, 0.0, 0.002, 0.006, 0.184, 0.308], [0.05, -0.064, -0.0, -0.0, 0.008, 0.012, -0.003], [0.038, -0.046, 0.009, -0.002, -0.01, 0.184, 0.311], [-0.01, 0.039, 0.002, -0.007, -0.01, 0.215, 0.304]], "b": [0.328, 0.258, 0.304, 0.322, 0.191, 0.24, 0.222, 0.243, 0.241, 0.188] }, { "w": [[0.161, 0.414, 0.002, 0.001, 0.005, 0.0, 0.001, -0.009], [0.509, 0.009, 0.001, 0.002, 0.001, 0.003, 0.001, -0.005], [-0.015, 0.384, 0.002, 0.002, 0.001, 0.001, 0.003, -0.009], [-0.045, 0.523, 0.0, 0.002, 0.002, 0.003, 0.003, -0.007], [0.032, -0.051, -0.004, -0.016, -0.0, 0.184, 0.286, 0.205], [-0.047, 0.017, 0.003, 0.007, -0.003, 0.166, 0.292, 0.169], [0.065, -0.067, -0.0, 0.003, 0.008, 0.144, 0.252, 0.185], [0.05, -0.065, -0.0, -0.0, 0.008, 0.008, -0.007, 0.015], [0.04, -0.052, 0.009, -0.001, -0.008, 0.146, 0.258, 0.175]], "b": [0.33, 0.259, 0.306, 0.323, 0.153, 0.209, 0.188, 0.24, 0.208] }, { "w": [[0.161, 0.414, 0.002, 0.001, 0.005, -0.002, -0.002, -0.0], [0.509, 0.009, 0.001, 0.002, 0.001, 0.002, -0.0, 0.001], [-0.015, 0.383, 0.002, 0.003, 0.001, -0.0, 0.0, -0.001], [-0.045, 0.523, 0.0, 0.002, 0.002, 0.002, 0.002, -0.002], [0.024, -0.035, -0.005, -0.017, -0.001, 0.195, 0.292, 0.182], [-0.055, 0.031, 0.002, 0.006, -0.003, 0.173, 0.294, 0.16], [0.057, -0.053, -0.001, 0.002, 0.008, 0.156, 0.262, 0.149], [0.049, -0.063, -0.0, -0.0, 0.008, 0.006, -0.012, 0.029], [-0.017, 0.047, 0.0, -0.007, -0.008, 0.183, 0.249, 0.176]], "b": [0.328, 0.258, 0.305, 0.323, 0.147, 0.202, 0.186, 0.236, 0.145] }, { "w": [[0.16, 0.415, 0.002, 0.001, 0.005, 0.0, 0.001, 0.001, -0.009], [0.509, 0.009, 0.001, 0.002, 0.001, 0.003, 0.001, 0.002, -0.005], [-0.015, 0.384, 0.002, 0.002, 0.001, 0.001, 0.003, 0.0, -0.009], [-0.045, 0.523, 0.0, 0.002, 0.002, 0.003, 0.003, -0.001, -0.007], [0.027, -0.043, -0.005, -0.016, 0.001, 0.163, 0.248, 0.15, 0.179], [-0.052, 0.024, 0.002, 0.007, -0.002, 0.146, 0.257, 0.134, 0.145], [0.06, -0.061, -0.001, 0.003, 0.009, 0.126, 0.221, 0.12, 0.163], [0.049, -0.064, -0.0, -0.0, 0.008, 0.004, -0.014, 0.027, 0.01]], "b": [0.329, 0.259, 0.306, 0.324, 0.121, 0.181, 0.163, 0.234] }, { "w": [[0.161, 0.414, 0.002, 0.001, 0.005, -0.002, -0.002, -0.005], [0.509, 0.008, 0.001, 0.002, 0.001, 0.002, -0.0, -0.004], [-0.014, 0.383, 0.002, 0.003, 0.001, -0.0, -0.0, -0.009], [-0.045, 0.523, 0.0, 0.002, 0.002, 0.002, 0.001, -0.0], [0.029, -0.041, -0.004, -0.018, -0.003, 0.228, 0.349, 0.034], [-0.05, 0.025, 0.004, 0.006, -0.005, 0.202, 0.343, 0.026], [0.063, -0.061, 0.0, 0.002, 0.006, 0.184, 0.308, -0.008], [0.035, -0.042, 0.009, -0.002, -0.011, 0.183, 0.312, 0.052], [-0.012, 0.041, 0.002, -0.007, -0.01, 0.215, 0.304, 0.027]], "b": [0.329, 0.259, 0.306, 0.322, 0.183, 0.234, 0.224, 0.228, 0.181] }, { "w": [[0.161, 0.414, 0.002, 0.001, 0.005, 0.0, 0.001, -0.005, -0.009], [0.509, 0.009, 0.001, 0.002, 0.001, 0.003, 0.001, -0.004, -0.005], [-0.015, 0.383, 0.002, 0.002, 0.001, 0.002, 0.003, -0.008, -0.009], [-0.045, 0.523, 0.0, 0.002, 0.002, 0.003, 0.003, 0.0, -0.007], [0.031, -0.049, -0.004, -0.016, -0.001, 0.184, 0.286, 0.028, 0.205], [-0.048, 0.018, 0.003, 0.007, -0.003, 0.165, 0.292, 0.021, 0.168], [0.065, -0.068, -0.0, 0.003, 0.008, 0.144, 0.252, -0.013, 0.185], [0.037, -0.049, 0.009, -0.001, -0.009, 0.145, 0.258, 0.047, 0.175]], "b": [0.331, 0.26, 0.308, 0.323, 0.146, 0.203, 0.191, 0.197] }, { "w": [[0.161, 0.414, 0.002, 0.001, 0.005, -0.002, -0.002, -0.005, -0.0], [0.509, 0.008, 0.001, 0.002, 0.001, 0.002, -0.0, -0.004, 0.001], [-0.014, 0.383, 0.002, 0.003, 0.001, -0.0, 0.0, -0.009, -0.001], [-0.045, 0.523, 0.0, 0.002, 0.002, 0.002, 0.002, -0.0, -0.002], [0.022, -0.033, -0.005, -0.017, -0.001, 0.195, 0.292, 0.025, 0.181], [-0.056, 0.032, 0.002, 0.006, -0.003, 0.172, 0.294, 0.018, 0.159], [0.058, -0.054, -0.001, 0.002, 0.008, 0.156, 0.262, -0.016, 0.149], [-0.018, 0.048, 0.0, -0.007, -0.009, 0.183, 0.249, 0.018, 0.176]], "b": [0.329, 0.259, 0.307, 0.323, 0.142, 0.198, 0.19, 0.141] }, { "w": [[0.161, 0.414, 0.002, 0.001, 0.005, 0.0, 0.001, -0.005, 0.001, -0.009], [0.509, 0.009, 0.001, 0.002, 0.001, 0.003, 0.001, -0.004, 0.002, -0.005], [-0.015, 0.383, 0.002, 0.002, 0.001, 0.001, 0.003, -0.008, 0.0, -0.009], [-0.045, 0.523, 0.0, 0.002, 0.002, 0.003, 0.003, 0.0, -0.001, -0.007], [0.025, -0.042, -0.005, -0.016, 0.001, 0.162, 0.248, 0.021, 0.149, 0.179], [-0.053, 0.025, 0.002, 0.007, -0.002, 0.146, 0.258, 0.015, 0.134, 0.145], [0.061, -0.062, -0.001, 0.003, 0.009, 0.127, 0.221, -0.019, 0.121, 0.164]], "b": [0.331, 0.26, 0.308, 0.324, 0.116, 0.177, 0.167] }, { "w": [[0.161, 0.414, 0.002, 0.002, 0.005, -0.001, -0.003], [0.509, 0.009, 0.001, 0.002, 0.001, 0.003, -0.001], [-0.015, 0.383, 0.002, 0.003, 0.001, -0.0, -0.002], [-0.045, 0.523, 0.0, 0.002, 0.002, 0.002, -0.001], [0.041, -0.049, -0.002, -0.019, -0.004, 0.282, 0.312], [-0.035, 0.015, 0.005, 0.004, -0.006, 0.265, 0.274], [0.084, -0.065, 0.005, -0.005, -0.002, 0.325, 0.358], [0.05, -0.065, -0.0, -0.0, 0.008, 0.012, -0.005], [0.05, -0.054, 0.01, -0.004, -0.012, 0.241, 0.249], [-0.002, 0.035, 0.003, -0.009, -0.012, 0.26, 0.28]], "b": [0.329, 0.259, 0.305, 0.323, 0.167, 0.225, 0.079, 0.243, 0.227, 0.164] }, { "w": [[0.161, 0.414, 0.002, 0.001, 0.005, 0.001, -0.001, -0.008], [0.509, 0.009, 0.001, 0.002, 0.001, 0.004, -0.0, -0.004], [-0.015, 0.384, 0.002, 0.002, 0.001, 0.002, 0.001, -0.009], [-0.045, 0.523, 0.0, 0.002, 0.002, 0.004, 0.0, -0.006], [0.041, -0.057, -0.003, -0.017, -0.001, 0.221, 0.246, 0.236], [-0.035, 0.008, 0.005, 0.006, -0.003, 0.211, 0.215, 0.21], [0.084, -0.074, 0.005, -0.002, 0.001, 0.257, 0.284, 0.264], [0.05, -0.065, -0.0, -0.0, 0.008, 0.008, -0.009, 0.015], [0.051, -0.061, 0.01, -0.002, -0.009, 0.186, 0.189, 0.212]], "b": [0.33, 0.259, 0.306, 0.324, 0.128, 0.191, 0.035, 0.241, 0.193] }, { "w": [[0.161, 0.414, 0.002, 0.002, 0.005, -0.001, -0.003, -0.0], [0.509, 0.009, 0.001, 0.002, 0.001, 0.002, -0.002, 0.001], [-0.015, 0.383, 0.002, 0.003, 0.001, 0.0, -0.001, -0.001], [-0.045, 0.523, 0.0, 0.002, 0.002, 0.003, -0.001, -0.001], [0.03, -0.037, -0.004, -0.019, -0.002, 0.229, 0.257, 0.222], [-0.046, 0.026, 0.003, 0.005, -0.004, 0.215, 0.222, 0.209], [0.07, -0.05, 0.003, -0.004, 0.002, 0.258, 0.288, 0.28], [0.049, -0.063, -0.0, -0.0, 0.008, 0.005, -0.012, 0.028], [-0.012, 0.046, 0.001, -0.008, -0.009, 0.209, 0.228, 0.209]], "b": [0.329, 0.258, 0.305, 0.323, 0.116, 0.178, 0.015, 0.237, 0.117] }, { "w": [[0.161, 0.414, 0.002, 0.001, 0.005, 0.001, -0.001, 0.002, -0.008], [0.509, 0.009, 0.001, 0.002, 0.001, 0.003, -0.0, 0.002, -0.005], [-0.015, 0.384, 0.002, 0.002, 0.001, 0.002, 0.001, 0.001, -0.009], [-0.045, 0.523, 0.0, 0.002, 0.002, 0.004, 0.0, 0.0, -0.006], [0.032, -0.046, -0.005, -0.017, 0.0, 0.187, 0.212, 0.18, 0.198], [-0.043, 0.018, 0.003, 0.006, -0.002, 0.179, 0.183, 0.173, 0.173], [0.072, -0.06, 0.002, -0.002, 0.004, 0.213, 0.239, 0.235, 0.214], [0.049, -0.064, -0.0, -0.0, 0.008, 0.003, -0.014, 0.026, 0.009]], "b": [0.33, 0.259, 0.306, 0.324, 0.093, 0.158, -0.01, 0.236] }, { "w": [[0.161, 0.414, 0.002, 0.002, 0.005, -0.001, -0.003, -0.005], [0.509, 0.008, 0.001, 0.002, 0.001, 0.003, -0.001, -0.004], [-0.014, 0.383, 0.002, 0.003, 0.001, 0.0, -0.002, -0.009], [-0.045, 0.523, 0.0, 0.002, 0.002, 0.002, -0.001, -0.0], [0.039, -0.046, -0.002, -0.019, -0.005, 0.282, 0.312, 0.035], [-0.036, 0.017, 0.005, 0.004, -0.006, 0.265, 0.274, 0.026], [0.084, -0.065, 0.005, -0.005, -0.002, 0.325, 0.358, -0.003], [0.048, -0.05, 0.01, -0.004, -0.012, 0.24, 0.249, 0.053], [-0.003, 0.037, 0.003, -0.009, -0.012, 0.259, 0.28, 0.028]], "b": [0.33, 0.26, 0.307, 0.323, 0.158, 0.219, 0.08, 0.215, 0.157] }, { "w": [[0.161, 0.414, 0.002, 0.001, 0.005, 0.001, -0.001, -0.005, -0.008], [0.509, 0.008, 0.001, 0.002, 0.001, 0.004, -0.0, -0.004, -0.004], [-0.014, 0.383, 0.002, 0.002, 0.001, 0.002, 0.001, -0.008, -0.008], [-0.045, 0.523, 0.0, 0.002, 0.002, 0.004, 0.0, 0.0, -0.006], [0.04, -0.055, -0.003, -0.017, -0.002, 0.221, 0.246, 0.028, 0.236], [-0.036, 0.009, 0.005, 0.006, -0.004, 0.211, 0.216, 0.021, 0.21], [0.085, -0.075, 0.005, -0.002, 0.001, 0.257, 0.284, -0.01, 0.265], [0.048, -0.058, 0.01, -0.002, -0.009, 0.186, 0.19, 0.047, 0.212]], "b": [0.331, 0.26, 0.308, 0.324, 0.121, 0.186, 0.038, 0.181] }, { "w": [[0.161, 0.414, 0.002, 0.002, 0.005, -0.001, -0.003, -0.005, 0.0], [0.509, 0.008, 0.001, 0.002, 0.001, 0.002, -0.002, -0.004, 0.001], [-0.014, 0.383, 0.002, 0.003, 0.001, 0.0, -0.001, -0.009, -0.001], [-0.045, 0.523, 0.0, 0.002, 0.002, 0.003, -0.001, -0.0, -0.001], [0.029, -0.035, -0.004, -0.019, -0.002, 0.229, 0.257, 0.023, 0.221], [-0.046, 0.027, 0.003, 0.005, -0.004, 0.215, 0.222, 0.015, 0.208], [0.071, -0.051, 0.003, -0.004, 0.002, 0.258, 0.288, -0.018, 0.281], [-0.013, 0.047, 0.001, -0.008, -0.01, 0.209, 0.228, 0.017, 0.208]], "b": [0.33, 0.259, 0.307, 0.323, 0.111, 0.174, 0.019, 0.113] }, { "w": [[0.161, 0.414, 0.002, 0.001, 0.005, 0.001, -0.001, -0.005, 0.002, -0.008], [0.509, 0.009, 0.001, 0.002, 0.001, 0.003, -0.001, -0.004, 0.002, -0.005], [-0.014, 0.383, 0.002, 0.002, 0.001, 0.002, 0.001, -0.008, 0.001, -0.009], [-0.045, 0.523, 0.0, 0.002, 0.002, 0.004, 0.0, 0.0, 0.0, -0.006], [0.031, -0.045, -0.005, -0.017, 0.0, 0.187, 0.212, 0.02, 0.18, 0.198], [-0.044, 0.019, 0.003, 0.006, -0.002, 0.179, 0.183, 0.013, 0.172, 0.173], [0.073, -0.062, 0.002, -0.002, 0.004, 0.213, 0.239, -0.021, 0.236, 0.215]], "b": [0.331, 0.26, 0.308, 0.324, 0.088, 0.155, -0.005] }, { "w": [[0.161, 0.414, 0.002, 0.002, 0.005, -0.001, -0.003, -0.001], [0.509, 0.009, 0.001, 0.002, 0.001, 0.002, -0.001, 0.0], [-0.015, 0.383, 0.002, 0.003, 0.001, -0.0, -0.002, 0.0], [-0.045, 0.523, 0.0, 0.002, 0.002, 0.002, -0.002, 0.002], [0.017, -0.03, -0.004, -0.018, -0.004, 0.19, 0.211, 0.284], [-0.059, 0.034, 0.004, 0.006, -0.005, 0.171, 0.17, 0.291], [0.05, -0.065, -0.0, -0.0, 0.008, 0.012, -0.005, -0.001], [0.028, -0.036, 0.009, -0.003, -0.011, 0.155, 0.154, 0.264], [-0.022, 0.051, 0.002, -0.008, -0.011, 0.18, 0.192, 0.245]], "b": [0.329, 0.259, 0.305, 0.323, 0.144, 0.202, 0.244, 0.207, 0.145] }, { "w": [[0.161, 0.414, 0.002, 0.001, 0.005, 0.0, -0.001, 0.001, -0.008], [0.509, 0.009, 0.001, 0.002, 0.001, 0.003, -0.001, 0.002, -0.005], [-0.015, 0.384, 0.002, 0.002, 0.001, 0.001, 0.0, 0.003, -0.009], [-0.045, 0.523, 0.0, 0.002, 0.002, 0.003, -0.001, 0.003, -0.007], [0.021, -0.039, -0.004, -0.017, -0.002, 0.159, 0.178, 0.241, 0.172], [-0.056, 0.027, 0.003, 0.007, -0.004, 0.145, 0.143, 0.256, 0.142], [0.05, -0.066, -0.0, -0.0, 0.008, 0.009, -0.008, -0.005, 0.016], [0.032, -0.044, 0.009, -0.001, -0.009, 0.128, 0.125, 0.227, 0.152]], "b": [0.33, 0.259, 0.306, 0.324, 0.119, 0.182, 0.241, 0.185] }, { "w": [[0.161, 0.414, 0.002, 0.002, 0.005, -0.001, -0.003, -0.001, 0.0], [0.509, 0.009, 0.001, 0.002, 0.001, 0.002, -0.002, 0.0, 0.001], [-0.015, 0.383, 0.002, 0.003, 0.001, -0.0, -0.001, 0.001, -0.001], [-0.045, 0.523, 0.0, 0.002, 0.002, 0.002, -0.002, 0.002, -0.002], [0.013, -0.025, -0.005, -0.018, -0.002, 0.166, 0.187, 0.243, 0.154], [-0.063, 0.039, 0.002, 0.006, -0.004, 0.149, 0.149, 0.255, 0.137], [0.049, -0.064, -0.0, -0.0, 0.008, 0.008, -0.009, -0.009, 0.03], [-0.027, 0.056, 0.0, -0.007, -0.01, 0.156, 0.169, 0.205, 0.151]], "b": [0.329, 0.258, 0.305, 0.323, 0.112, 0.174, 0.237, 0.114] }, { "w": [[0.161, 0.414, 0.002, 0.001, 0.005, 0.0, -0.002, 0.001, 0.001, -0.009], [0.509, 0.009, 0.001, 0.002, 0.001, 0.003, -0.001, 0.001, 0.002, -0.005], [-0.015, 0.384, 0.002, 0.002, 0.001, 0.001, 0.0, 0.003, 0.0, -0.009], [-0.045, 0.523, 0.0, 0.002, 0.002, 0.003, -0.001, 0.004, -0.001, -0.007], [0.017, -0.033, -0.005, -0.017, -0.001, 0.142, 0.161, 0.212, 0.131, 0.152], [-0.06, 0.032, 0.002, 0.007, -0.003, 0.13, 0.128, 0.229, 0.119, 0.124], [0.05, -0.064, -0.0, -0.0, 0.008, 0.006, -0.012, -0.012, 0.029, 0.012]], "b": [0.33, 0.259, 0.306, 0.324, 0.095, 0.16, 0.236] }, { "w": [[0.161, 0.414, 0.002, 0.002, 0.005, -0.001, -0.003, -0.001, -0.005], [0.509, 0.008, 0.001, 0.002, 0.001, 0.003, -0.001, 0.0, -0.004], [-0.014, 0.383, 0.002, 0.003, 0.001, -0.0, -0.002, 0.0, -0.009], [-0.045, 0.523, 0.0, 0.002, 0.002, 0.002, -0.002, 0.002, -0.0], [0.015, -0.028, -0.004, -0.018, -0.004, 0.189, 0.211, 0.284, 0.036], [-0.061, 0.036, 0.004, 0.006, -0.006, 0.17, 0.17, 0.291, 0.027], [0.026, -0.033, 0.009, -0.003, -0.012, 0.155, 0.154, 0.264, 0.053], [-0.024, 0.053, 0.002, -0.008, -0.012, 0.18, 0.192, 0.245, 0.029]], "b": [0.33, 0.26, 0.307, 0.323, 0.135, 0.196, 0.194, 0.138] }, { "w": [[0.161, 0.414, 0.002, 0.001, 0.005, 0.001, -0.002, 0.001, -0.005, -0.008], [0.509, 0.009, 0.001, 0.002, 0.001, 0.003, -0.001, 0.002, -0.004, -0.005], [-0.015, 0.383, 0.002, 0.002, 0.001, 0.002, 0.0, 0.003, -0.008, -0.009], [-0.045, 0.523, 0.0, 0.002, 0.002, 0.003, -0.001, 0.003, 0.0, -0.007], [0.019, -0.037, -0.004, -0.017, -0.002, 0.159, 0.178, 0.242, 0.031, 0.172], [-0.057, 0.028, 0.003, 0.007, -0.004, 0.145, 0.143, 0.256, 0.023, 0.142], [0.029, -0.041, 0.009, -0.001, -0.01, 0.127, 0.125, 0.227, 0.049, 0.152]], "b": [0.331, 0.26, 0.308, 0.324, 0.112, 0.176, 0.173] }, { "w": [[0.161, 0.414, 0.002, 0.002, 0.005, -0.001, -0.003, -0.001, -0.005, 0.0], [0.509, 0.008, 0.001, 0.002, 0.001, 0.002, -0.002, 0.0, -0.004, 0.001], [-0.014, 0.383, 0.002, 0.003, 0.001, 0.0, -0.002, 0.001, -0.009, -0.001], [-0.045, 0.523, 0.0, 0.002, 0.002, 0.002, -0.002, 0.002, -0.0, -0.002], [0.011, -0.023, -0.005, -0.018, -0.002, 0.166, 0.187, 0.243, 0.028, 0.153], [-0.064, 0.04, 0.002, 0.006, -0.004, 0.149, 0.149, 0.255, 0.02, 0.137], [-0.028, 0.057, 0.0, -0.007, -0.01, 0.156, 0.169, 0.205, 0.021, 0.151]], "b": [0.33, 0.259, 0.307, 0.323, 0.106, 0.169, 0.109] }, { "w": [[0.161, 0.414, 0.002, 0.001, 0.005, 0.0, -0.002, 0.001, -0.005, 0.002, -0.009], [0.509, 0.009, 0.001, 0.002, 0.001, 0.003, -0.001, 0.001, -0.004, 0.002, -0.005], [-0.015, 0.383, 0.002, 0.002, 0.001, 0.001, -0.0, 0.003, -0.008, 0.0, -0.009], [-0.045, 0.523, 0.0, 0.002, 0.002, 0.003, -0.001, 0.004, 0.0, -0.001, -0.007], [0.016, -0.032, -0.005, -0.017, -0.001, 0.142, 0.162, 0.212, 0.024, 0.13, 0.152], [-0.061, 0.033, 0.002, 0.007, -0.003, 0.13, 0.128, 0.229, 0.017, 0.118, 0.124]], "b": [0.331, 0.26, 0.308, 0.324, 0.089, 0.156] }, { "w": [[0.16, 0.414, 0.002, 0.002, 0.005, -0.002, -0.001], [0.509, 0.009, 0.001, 0.002, 0.001, 0.002, 0.0], [-0.015, 0.383, 0.002, 0.003, 0.001, 0.001, -0.003], [-0.045, 0.523, 0.0, 0.002, 0.002, 0.002, -0.001], [0.074, -0.074, -0.003, -0.021, -0.001, 0.268, 0.322], [0.102, -0.088, 0.001, -0.001, 0.007, 0.225, 0.268], [0.122, -0.094, 0.004, -0.006, 0.002, 0.302, 0.389], [0.05, -0.064, -0.0, -0.0, 0.008, 0.006, 0.012], [0.077, -0.073, 0.009, -0.005, -0.009, 0.227, 0.265], [0.028, 0.012, 0.002, -0.01, -0.009, 0.253, 0.271]], "b": [0.328, 0.258, 0.305, 0.322, 0.156, 0.197, 0.061, 0.238, 0.217, 0.16] }, { "w": [[0.161, 0.414, 0.002, 0.001, 0.005, 0.0, 0.001, -0.009], [0.509, 0.009, 0.001, 0.002, 0.001, 0.003, 0.001, -0.005], [-0.015, 0.383, 0.002, 0.002, 0.001, 0.003, -0.001, -0.008], [-0.045, 0.523, 0.0, 0.001, 0.002, 0.004, 0.001, -0.007], [0.068, -0.077, -0.004, -0.018, 0.001, 0.209, 0.259, 0.233], [0.096, -0.09, 0.0, 0.001, 0.009, 0.17, 0.21, 0.214], [0.115, -0.097, 0.003, -0.004, 0.004, 0.238, 0.32, 0.255], [0.049, -0.064, -0.0, -0.0, 0.008, 0.004, 0.009, 0.01], [0.071, -0.076, 0.009, -0.003, -0.007, 0.174, 0.208, 0.208]], "b": [0.33, 0.259, 0.306, 0.323, 0.119, 0.162, 0.02, 0.237, 0.183] }, { "w": [[0.16, 0.414, 0.002, 0.002, 0.005, -0.002, -0.001, -0.001], [0.509, 0.009, 0.001, 0.002, 0.001, 0.002, -0.0, 0.001], [-0.015, 0.383, 0.002, 0.003, 0.001, 0.001, -0.003, -0.001], [-0.045, 0.523, 0.0, 0.002, 0.002, 0.003, -0.0, -0.001], [0.058, -0.058, -0.005, -0.02, 0.001, 0.22, 0.265, 0.214], [0.088, -0.074, -0.001, -0.0, 0.009, 0.183, 0.219, 0.183], [0.102, -0.074, 0.001, -0.005, 0.005, 0.242, 0.319, 0.266], [0.048, -0.062, -0.0, -0.0, 0.008, 0.001, 0.006, 0.023], [0.012, 0.027, 0.0, -0.009, -0.007, 0.206, 0.216, 0.207]], "b": [0.328, 0.258, 0.305, 0.323, 0.11, 0.157, 0.003, 0.233, 0.115] }, { "w": [[0.161, 0.414, 0.002, 0.001, 0.005, 0.0, 0.001, 0.001, -0.009], [0.509, 0.009, 0.001, 0.002, 0.001, 0.003, 0.001, 0.002, -0.005], [-0.015, 0.384, 0.002, 0.002, 0.001, 0.002, -0.001, 0.001, -0.008], [-0.045, 0.523, 0.0, 0.001, 0.002, 0.004, 0.001, -0.0, -0.007], [0.056, -0.063, -0.005, -0.018, 0.002, 0.179, 0.223, 0.173, 0.197], [0.085, -0.079, -0.001, 0.002, 0.01, 0.145, 0.18, 0.145, 0.184], [0.099, -0.08, 0.001, -0.003, 0.006, 0.199, 0.273, 0.223, 0.209], [0.048, -0.062, -0.0, -0.0, 0.008, -0.0, 0.004, 0.022, 0.005]], "b": [0.329, 0.259, 0.306, 0.323, 0.087, 0.136, -0.021, 0.233] }, { "w": [[0.161, 0.414, 0.002, 0.002, 0.005, -0.002, -0.001, -0.005], [0.509, 0.008, 0.001, 0.002, 0.001, 0.002, 0.0, -0.004], [-0.015, 0.383, 0.002, 0.003, 0.001, 0.001, -0.003, -0.009], [-0.045, 0.523, 0.0, 0.002, 0.002, 0.002, -0.001, -0.0], [0.073, -0.072, -0.003, -0.021, -0.001, 0.268, 0.322, 0.024], [0.103, -0.089, 0.001, -0.001, 0.008, 0.225, 0.268, -0.017], [0.123, -0.095, 0.004, -0.006, 0.002, 0.302, 0.389, -0.016], [0.075, -0.071, 0.009, -0.005, -0.009, 0.227, 0.264, 0.044], [0.027, 0.013, 0.002, -0.01, -0.009, 0.253, 0.271, 0.019]], "b": [0.329, 0.259, 0.307, 0.322, 0.15, 0.201, 0.065, 0.206, 0.156] }, { "w": [[0.161, 0.414, 0.002, 0.001, 0.005, 0.0, 0.001, -0.005, -0.009], [0.509, 0.008, 0.001, 0.002, 0.001, 0.003, 0.002, -0.004, -0.005], [-0.014, 0.383, 0.002, 0.002, 0.001, 0.003, -0.001, -0.008, -0.008], [-0.045, 0.523, 0.0, 0.001, 0.002, 0.004, 0.001, 0.0, -0.007], [0.067, -0.075, -0.004, -0.018, 0.001, 0.209, 0.258, 0.02, 0.233], [0.097, -0.092, 0.0, 0.001, 0.01, 0.171, 0.21, -0.021, 0.215], [0.116, -0.098, 0.003, -0.004, 0.005, 0.238, 0.32, -0.02, 0.256], [0.069, -0.073, 0.009, -0.003, -0.007, 0.174, 0.208, 0.04, 0.207]], "b": [0.331, 0.26, 0.308, 0.323, 0.114, 0.167, 0.025, 0.174] }, { "w": [[0.161, 0.414, 0.002, 0.002, 0.005, -0.002, -0.001, -0.005, -0.001], [0.509, 0.008, 0.001, 0.002, 0.001, 0.002, -0.0, -0.004, 0.001], [-0.014, 0.383, 0.002, 0.003, 0.001, 0.001, -0.003, -0.009, -0.0], [-0.045, 0.523, 0.0, 0.002, 0.002, 0.003, -0.0, -0.0, -0.001], [0.057, -0.057, -0.005, -0.02, 0.001, 0.22, 0.265, 0.015, 0.214], [0.089, -0.076, -0.001, -0.0, 0.009, 0.183, 0.22, -0.025, 0.184], [0.103, -0.076, 0.001, -0.005, 0.005, 0.242, 0.319, -0.027, 0.267], [0.012, 0.028, 0.0, -0.009, -0.007, 0.206, 0.216, 0.01, 0.207]], "b": [0.329, 0.259, 0.307, 0.323, 0.106, 0.163, 0.01, 0.113] }, { "w": [[0.161, 0.414, 0.002, 0.001, 0.005, 0.0, 0.001, -0.005, 0.001, -0.009], [0.509, 0.009, 0.001, 0.002, 0.001, 0.003, 0.001, -0.004, 0.002, -0.005], [-0.014, 0.383, 0.002, 0.002, 0.001, 0.002, -0.001, -0.008, 0.001, -0.008], [-0.045, 0.523, 0.0, 0.001, 0.002, 0.004, 0.001, 0.0, -0.0, -0.007], [0.055, -0.063, -0.005, -0.018, 0.002, 0.179, 0.222, 0.013, 0.173, 0.197], [0.087, -0.081, -0.001, 0.002, 0.011, 0.145, 0.18, -0.027, 0.145, 0.184], [0.101, -0.082, 0.001, -0.003, 0.006, 0.199, 0.273, -0.029, 0.223, 0.209]], "b": [0.33, 0.26, 0.308, 0.323, 0.084, 0.142, -0.014] }, { "w": [[0.161, 0.414, 0.002, 0.002, 0.005, -0.001, -0.001, -0.001], [0.509, 0.009, 0.001, 0.002, 0.001, 0.002, 0.0, -0.0], [-0.015, 0.383, 0.002, 0.003, 0.001, 0.0, -0.004, 0.001], [-0.045, 0.523, 0.0, 0.002, 0.002, 0.002, -0.001, 0.001], [0.041, -0.048, -0.004, -0.019, -0.002, 0.185, 0.215, 0.275], [0.071, -0.064, -0.0, 0.001, 0.007, 0.149, 0.171, 0.25], [0.05, -0.065, -0.0, -0.0, 0.008, 0.009, 0.015, -0.008], [0.046, -0.049, 0.008, -0.003, -0.009, 0.15, 0.166, 0.255], [-0.002, 0.035, 0.001, -0.008, -0.01, 0.18, 0.176, 0.244]], "b": [0.328, 0.258, 0.305, 0.322, 0.139, 0.181, 0.239, 0.201, 0.145] }, { "w": [[0.161, 0.414, 0.002, 0.001, 0.005, 0.0, 0.001, 0.001, -0.009], [0.509, 0.009, 0.001, 0.002, 0.001, 0.003, 0.001, 0.001, -0.005], [-0.015, 0.384, 0.002, 0.002, 0.001, 0.002, -0.002, 0.003, -0.009], [-0.045, 0.523, 0.0, 0.002, 0.002, 0.003, 0.0, 0.003, -0.007], [0.041, -0.054, -0.005, -0.018, 0.0, 0.154, 0.184, 0.232, 0.174], [0.072, -0.07, -0.001, 0.002, 0.008, 0.12, 0.142, 0.211, 0.161], [0.051, -0.065, -0.0, -0.0, 0.008, 0.006, 0.013, -0.011, 0.013], [0.046, -0.055, 0.008, -0.002, -0.008, 0.123, 0.139, 0.218, 0.152]], "b": [0.329, 0.259, 0.306, 0.323, 0.114, 0.158, 0.237, 0.179] }, { "w": [[0.161, 0.414, 0.002, 0.002, 0.005, -0.001, -0.001, -0.001, -0.0], [0.509, 0.009, 0.001, 0.002, 0.001, 0.002, 0.0, -0.0, 0.001], [-0.015, 0.383, 0.002, 0.003, 0.001, 0.0, -0.003, 0.001, -0.001], [-0.045, 0.523, 0.0, 0.002, 0.002, 0.002, -0.001, 0.002, -0.002], [0.034, -0.041, -0.006, -0.019, -0.0, 0.162, 0.19, 0.236, 0.151], [0.065, -0.058, -0.001, 0.001, 0.008, 0.13, 0.15, 0.218, 0.125], [0.049, -0.063, -0.0, -0.0, 0.008, 0.004, 0.01, -0.015, 0.027], [-0.009, 0.043, -0.0, -0.008, -0.008, 0.157, 0.151, 0.205, 0.152]], "b": [0.328, 0.258, 0.305, 0.323, 0.109, 0.156, 0.233, 0.115] }, { "w": [[0.16, 0.414, 0.002, 0.001, 0.005, -0.0, 0.001, 0.001, 0.001, -0.009], [0.509, 0.009, 0.001, 0.002, 0.001, 0.003, 0.001, 0.001, 0.002, -0.005], [-0.015, 0.384, 0.002, 0.002, 0.001, 0.002, -0.002, 0.003, 0.0, -0.009], [-0.045, 0.523, 0.0, 0.002, 0.002, 0.003, 0.0, 0.003, -0.001, -0.007], [0.035, -0.047, -0.006, -0.017, 0.001, 0.138, 0.167, 0.205, 0.128, 0.155], [0.067, -0.064, -0.001, 0.002, 0.009, 0.108, 0.128, 0.188, 0.103, 0.145], [0.049, -0.064, -0.0, -0.0, 0.008, 0.003, 0.009, -0.017, 0.026, 0.009]], "b": [0.329, 0.259, 0.306, 0.324, 0.091, 0.14, 0.232] }, { "w": [[0.161, 0.414, 0.002, 0.001, 0.005, -0.001, -0.001, -0.001, -0.005], [0.509, 0.008, 0.001, 0.002, 0.001, 0.002, 0.0, -0.0, -0.004], [-0.015, 0.383, 0.002, 0.003, 0.001, 0.0, -0.003, 0.001, -0.009], [-0.045, 0.523, 0.0, 0.002, 0.002, 0.002, -0.001, 0.001, -0.0], [0.039, -0.046, -0.004, -0.019, -0.002, 0.185, 0.215, 0.275, 0.028], [0.072, -0.065, -0.0, 0.001, 0.007, 0.149, 0.171, 0.25, -0.013], [0.044, -0.046, 0.008, -0.003, -0.01, 0.15, 0.165, 0.255, 0.048], [-0.003, 0.036, 0.001, -0.008, -0.01, 0.179, 0.176, 0.244, 0.022]], "b": [0.329, 0.259, 0.307, 0.322, 0.133, 0.184, 0.19, 0.14] }, { "w": [[0.161, 0.414, 0.002, 0.001, 0.005, 0.0, 0.001, 0.001, -0.005, -0.009], [0.509, 0.009, 0.001, 0.002, 0.001, 0.003, 0.001, 0.001, -0.004, -0.005], [-0.015, 0.383, 0.002, 0.002, 0.001, 0.002, -0.002, 0.003, -0.008, -0.009], [-0.045, 0.523, 0.0, 0.002, 0.002, 0.003, 0.0, 0.003, 0.0, -0.007], [0.04, -0.053, -0.005, -0.018, -0.0, 0.154, 0.184, 0.233, 0.024, 0.174], [0.072, -0.071, -0.001, 0.002, 0.009, 0.12, 0.143, 0.211, -0.016, 0.161], [0.044, -0.052, 0.008, -0.002, -0.008, 0.122, 0.138, 0.218, 0.045, 0.151]], "b": [0.331, 0.26, 0.308, 0.323, 0.108, 0.162, 0.168] }, { "w": [[0.161, 0.414, 0.002, 0.001, 0.005, -0.001, -0.001, -0.001, -0.005, -0.0], [0.509, 0.008, 0.001, 0.002, 0.001, 0.002, 0.0, -0.0, -0.004, 0.001], [-0.015, 0.383, 0.002, 0.003, 0.001, 0.0, -0.003, 0.001, -0.009, -0.001], [-0.045, 0.523, 0.0, 0.002, 0.002, 0.002, -0.001, 0.002, -0.0, -0.002], [0.033, -0.039, -0.006, -0.019, -0.0, 0.162, 0.19, 0.237, 0.021, 0.151], [0.066, -0.059, -0.001, 0.001, 0.008, 0.131, 0.15, 0.218, -0.019, 0.126], [-0.009, 0.043, -0.0, -0.008, -0.008, 0.157, 0.151, 0.205, 0.015, 0.152]], "b": [0.329, 0.259, 0.307, 0.323, 0.104, 0.161, 0.111] }, { "w": [[0.161, 0.414, 0.002, 0.001, 0.005, 0.0, 0.001, 0.0, -0.005, 0.001, -0.009], [0.509, 0.009, 0.001, 0.002, 0.001, 0.003, 0.001, 0.001, -0.004, 0.002, -0.005], [-0.015, 0.383, 0.002, 0.002, 0.001, 0.002, -0.002, 0.003, -0.008, 0.001, -0.009], [-0.045, 0.523, 0.0, 0.002, 0.002, 0.003, 0.0, 0.003, 0.0, -0.001, -0.007], [0.034, -0.046, -0.006, -0.017, 0.001, 0.138, 0.166, 0.205, 0.019, 0.127, 0.154], [0.068, -0.066, -0.001, 0.002, 0.009, 0.108, 0.128, 0.188, -0.021, 0.103, 0.145]], "b": [0.33, 0.26, 0.308, 0.324, 0.087, 0.144] }, { "w": [[0.161, 0.414, 0.002, 0.002, 0.005, -0.001, -0.0, -0.003], [0.509, 0.009, 0.001, 0.002, 0.001, 0.002, 0.001, -0.001], [-0.015, 0.383, 0.002, 0.003, 0.001, 0.001, -0.003, -0.001], [-0.045, 0.523, 0.0, 0.002, 0.002, 0.003, -0.0, -0.001], [0.05, -0.053, -0.003, -0.021, -0.003, 0.214, 0.257, 0.242], [0.095, -0.07, 0.004, -0.006, 0.0, 0.241, 0.316, 0.271], [0.05, -0.065, -0.0, -0.0, 0.008, 0.008, 0.014, -0.009], [0.058, -0.057, 0.009, -0.005, -0.01, 0.184, 0.214, 0.19], [0.006, 0.032, 0.002, -0.01, -0.011, 0.203, 0.211, 0.222]], "b": [0.329, 0.258, 0.305, 0.323, 0.109, 0.008, 0.24, 0.179, 0.117] }, { "w": [[0.161, 0.414, 0.002, 0.001, 0.005, 0.001, 0.001, -0.001, -0.008], [0.509, 0.009, 0.001, 0.002, 0.001, 0.003, 0.002, -0.0, -0.005], [-0.015, 0.384, 0.002, 0.002, 0.001, 0.002, -0.001, 0.001, -0.008], [-0.045, 0.523, 0.0, 0.001, 0.002, 0.004, 0.001, 0.0, -0.007], [0.049, -0.059, -0.004, -0.019, -0.001, 0.175, 0.217, 0.199, 0.191], [0.094, -0.077, 0.003, -0.004, 0.002, 0.199, 0.273, 0.225, 0.207], [0.05, -0.065, -0.0, -0.0, 0.008, 0.006, 0.012, -0.012, 0.013], [0.057, -0.062, 0.009, -0.003, -0.008, 0.149, 0.177, 0.151, 0.175]], "b": [0.33, 0.259, 0.306, 0.323, 0.086, -0.017, 0.239, 0.159] }, { "w": [[0.161, 0.414, 0.002, 0.002, 0.005, -0.001, -0.0, -0.003, -0.0], [0.509, 0.009, 0.001, 0.002, 0.001, 0.002, 0.0, -0.002, 0.001], [-0.015, 0.383, 0.002, 0.003, 0.001, 0.001, -0.003, -0.001, -0.0], [-0.045, 0.523, 0.0, 0.002, 0.002, 0.003, 0.0, -0.001, -0.001], [0.04, -0.043, -0.005, -0.02, -0.001, 0.181, 0.219, 0.208, 0.176], [0.082, -0.057, 0.002, -0.005, 0.002, 0.2, 0.268, 0.228, 0.224], [0.049, -0.063, -0.0, -0.0, 0.008, 0.003, 0.009, -0.014, 0.026], [-0.004, 0.041, 0.0, -0.009, -0.009, 0.172, 0.175, 0.189, 0.172]], "b": [0.329, 0.258, 0.305, 0.323, 0.077, -0.033, 0.236, 0.086] }, { "w": [[0.161, 0.414, 0.002, 0.001, 0.005, 0.0, 0.001, -0.002, 0.001, -0.009], [0.509, 0.009, 0.001, 0.002, 0.001, 0.003, 0.001, -0.001, 0.002, -0.005], [-0.015, 0.384, 0.002, 0.002, 0.001, 0.002, -0.001, 0.001, 0.001, -0.008], [-0.045, 0.523, 0.0, 0.001, 0.002, 0.004, 0.001, 0.0, -0.0, -0.007], [0.04, -0.049, -0.005, -0.018, 0.001, 0.153, 0.191, 0.177, 0.148, 0.165], [0.083, -0.064, 0.002, -0.003, 0.004, 0.17, 0.238, 0.196, 0.194, 0.173], [0.049, -0.064, -0.0, -0.0, 0.008, 0.002, 0.007, -0.016, 0.024, 0.008]], "b": [0.33, 0.259, 0.306, 0.323, 0.063, -0.047, 0.235] }, { "w": [[0.161, 0.414, 0.002, 0.002, 0.005, -0.001, -0.0, -0.003, -0.005], [0.509, 0.008, 0.001, 0.002, 0.001, 0.002, 0.001, -0.001, -0.004], [-0.014, 0.383, 0.002, 0.003, 0.001, 0.001, -0.003, -0.001, -0.009], [-0.045, 0.523, 0.0, 0.002, 0.002, 0.003, -0.0, -0.001, -0.0], [0.048, -0.051, -0.003, -0.021, -0.003, 0.214, 0.257, 0.242, 0.028], [0.095, -0.071, 0.004, -0.006, 0.0, 0.242, 0.317, 0.271, -0.011], [0.055, -0.054, 0.009, -0.005, -0.011, 0.184, 0.213, 0.19, 0.047], [0.004, 0.033, 0.002, -0.01, -0.011, 0.203, 0.211, 0.222, 0.022]], "b": [0.33, 0.259, 0.307, 0.323, 0.102, 0.01, 0.168, 0.111] }, { "w": [[0.161, 0.414, 0.002, 0.001, 0.005, 0.001, 0.001, -0.001, -0.005, -0.008], [0.509, 0.008, 0.001, 0.002, 0.001, 0.003, 0.002, -0.0, -0.004, -0.005], [-0.014, 0.383, 0.002, 0.002, 0.001, 0.002, -0.001, 0.001, -0.008, -0.008], [-0.045, 0.523, 0.0, 0.001, 0.002, 0.004, 0.001, 0.0, 0.0, -0.007], [0.048, -0.057, -0.004, -0.019, -0.001, 0.175, 0.216, 0.2, 0.024, 0.19], [0.094, -0.078, 0.003, -0.004, 0.002, 0.199, 0.273, 0.225, -0.016, 0.207], [0.055, -0.059, 0.009, -0.003, -0.009, 0.148, 0.176, 0.152, 0.043, 0.175]], "b": [0.331, 0.26, 0.308, 0.323, 0.081, -0.013, 0.149] }, { "w": [[0.161, 0.414, 0.002, 0.002, 0.005, -0.001, -0.0, -0.003, -0.005, 0.0], [0.509, 0.008, 0.001, 0.002, 0.001, 0.002, 0.0, -0.002, -0.004, 0.001], [-0.014, 0.383, 0.002, 0.003, 0.001, 0.001, -0.003, -0.001, -0.009, -0.0], [-0.045, 0.523, 0.0, 0.002, 0.002, 0.003, 0.0, -0.001, -0.0, -0.001], [0.039, -0.041, -0.005, -0.02, -0.001, 0.181, 0.219, 0.209, 0.02, 0.175], [0.083, -0.059, 0.002, -0.005, 0.003, 0.2, 0.269, 0.228, -0.022, 0.225], [-0.005, 0.042, 0.0, -0.009, -0.009, 0.172, 0.174, 0.189, 0.014, 0.172]], "b": [0.33, 0.259, 0.307, 0.323, 0.072, -0.027, 0.082] }, { "w": [[0.161, 0.414, 0.002, 0.001, 0.005, 0.0, 0.001, -0.002, -0.005, 0.002, -0.009], [0.509, 0.009, 0.001, 0.002, 0.001, 0.003, 0.001, -0.001, -0.004, 0.002, -0.005], [-0.014, 0.383, 0.002, 0.002, 0.001, 0.002, -0.001, 0.001, -0.008, 0.001, -0.008], [-0.045, 0.523, 0.0, 0.001, 0.002, 0.004, 0.001, 0.0, 0.0, -0.0, -0.007], [0.04, -0.048, -0.005, -0.018, 0.0, 0.153, 0.191, 0.177, 0.018, 0.147, 0.165], [0.084, -0.066, 0.002, -0.003, 0.004, 0.17, 0.238, 0.195, -0.024, 0.195, 0.173]], "b": [0.331, 0.26, 0.308, 0.323, 0.059, -0.042] }, { "w": [[0.161, 0.414, 0.002, 0.002, 0.005, -0.001, -0.0, -0.003, -0.001], [0.509, 0.009, 0.001, 0.002, 0.001, 0.002, 0.0, -0.002, 0.0], [-0.015, 0.383, 0.002, 0.003, 0.001, 0.0, -0.003, -0.001, 0.001], [-0.045, 0.523, 0.0, 0.002, 0.002, 0.002, -0.001, -0.002, 0.002], [0.028, -0.036, -0.004, -0.019, -0.003, 0.158, 0.184, 0.179, 0.23], [0.051, -0.065, -0.0, -0.0, 0.008, 0.01, 0.016, -0.008, -0.006], [0.037, -0.041, 0.008, -0.003, -0.01, 0.131, 0.144, 0.13, 0.222], [-0.014, 0.046, 0.001, -0.009, -0.011, 0.155, 0.148, 0.167, 0.202]], "b": [0.329, 0.258, 0.305, 0.323, 0.107, 0.24, 0.178, 0.115] }, { "w": [[0.161, 0.414, 0.002, 0.001, 0.005, 0.0, 0.001, -0.002, 0.001, -0.009], [0.509, 0.009, 0.001, 0.002, 0.001, 0.003, 0.001, -0.001, 0.001, -0.005], [-0.015, 0.384, 0.002, 0.002, 0.001, 0.002, -0.002, 0.0, 0.003, -0.009], [-0.045, 0.523, 0.0, 0.002, 0.002, 0.003, 0.0, -0.001, 0.003, -0.007], [0.03, -0.043, -0.005, -0.018, -0.001, 0.135, 0.162, 0.155, 0.2, 0.149], [0.051, -0.066, -0.0, -0.0, 0.008, 0.007, 0.014, -0.01, -0.009, 0.014], [0.039, -0.047, 0.008, -0.002, -0.009, 0.11, 0.124, 0.107, 0.195, 0.135]], "b": [0.33, 0.259, 0.306, 0.324, 0.09, 0.239, 0.162] }, { "w": [[0.161, 0.414, 0.002, 0.002, 0.005, -0.001, -0.0, -0.003, -0.001, 0.0], [0.509, 0.009, 0.001, 0.002, 0.001, 0.002, 0.0, -0.002, -0.0, 0.001], [-0.015, 0.383, 0.002, 0.003, 0.001, 0.0, -0.003, -0.001, 0.002, -0.001], [-0.045, 0.523, 0.0, 0.002, 0.002, 0.002, -0.0, -0.002, 0.002, -0.002], [0.023, -0.031, -0.005, -0.019, -0.001, 0.141, 0.166, 0.162, 0.201, 0.131], [0.05, -0.064, -0.0, -0.0, 0.008, 0.006, 0.012, -0.011, -0.012, 0.029], [-0.018, 0.051, -0.0, -0.008, -0.009, 0.137, 0.128, 0.15, 0.172, 0.134]], "b": [0.329, 0.258, 0.305, 0.323, 0.084, 0.235, 0.091] }, { "w": [[0.161, 0.414, 0.002, 0.001, 0.005, 0.0, 0.001, -0.002, 0.001, 0.001, -0.009], [0.509, 0.009, 0.001, 0.002, 0.001, 0.003, 0.001, -0.001, 0.001, 0.002, -0.005], [-0.015, 0.384, 0.002, 0.002, 0.001, 0.002, -0.002, 0.0, 0.003, 0.0, -0.009], [-0.045, 0.523, 0.0, 0.002, 0.002, 0.003, 0.0, -0.001, 0.003, -0.001, -0.007], [0.026, -0.038, -0.005, -0.018, -0.0, 0.123, 0.148, 0.142, 0.178, 0.113, 0.134], [0.05, -0.065, -0.0, -0.0, 0.008, 0.004, 0.011, -0.013, -0.014, 0.027, 0.011]], "b": [0.33, 0.259, 0.306, 0.324, 0.071, 0.234] }, { "w": [[0.161, 0.414, 0.002, 0.002, 0.005, -0.001, -0.0, -0.003, -0.001, -0.005], [0.509, 0.008, 0.001, 0.002, 0.001, 0.002, 0.001, -0.002, 0.0, -0.004], [-0.015, 0.383, 0.002, 0.003, 0.001, 0.0, -0.003, -0.001, 0.001, -0.009], [-0.045, 0.523, 0.0, 0.002, 0.002, 0.002, -0.001, -0.002, 0.002, -0.0], [0.026, -0.034, -0.004, -0.019, -0.003, 0.158, 0.184, 0.18, 0.23, 0.031], [0.034, -0.038, 0.008, -0.003, -0.011, 0.13, 0.143, 0.13, 0.222, 0.05], [-0.015, 0.047, 0.001, -0.009, -0.011, 0.154, 0.147, 0.167, 0.202, 0.025]], "b": [0.33, 0.259, 0.307, 0.323, 0.1, 0.166, 0.109] }, { "w": [[0.161, 0.414, 0.002, 0.001, 0.005, 0.0, 0.001, -0.002, 0.001, -0.005, -0.008], [0.509, 0.008, 0.001, 0.002, 0.001, 0.003, 0.001, -0.001, 0.001, -0.004, -0.005], [-0.015, 0.383, 0.002, 0.002, 0.001, 0.002, -0.002, 0.0, 0.003, -0.008, -0.009], [-0.045, 0.523, 0.0, 0.002, 0.002, 0.003, 0.0, -0.001, 0.003, 0.0, -0.007], [0.029, -0.042, -0.005, -0.018, -0.001, 0.135, 0.162, 0.155, 0.2, 0.027, 0.149], [0.036, -0.044, 0.008, -0.002, -0.009, 0.11, 0.123, 0.108, 0.195, 0.046, 0.134]], "b": [0.331, 0.26, 0.308, 0.323, 0.083, 0.151] }, { "w": [[0.161, 0.414, 0.002, 0.002, 0.005, -0.001, -0.0, -0.003, -0.001, -0.005, 0.0], [0.509, 0.008, 0.001, 0.002, 0.001, 0.002, 0.0, -0.002, -0.0, -0.004, 0.001], [-0.015, 0.383, 0.002, 0.003, 0.001, 0.001, -0.003, -0.001, 0.001, -0.009, -0.001], [-0.045, 0.523, 0.0, 0.002, 0.002, 0.002, -0.0, -0.002, 0.002, -0.0, -0.002], [0.022, -0.03, -0.005, -0.019, -0.002, 0.141, 0.165, 0.163, 0.201, 0.024, 0.13], [-0.019, 0.052, 0.0, -0.008, -0.009, 0.137, 0.128, 0.15, 0.172, 0.018, 0.133]], "b": [0.33, 0.259, 0.307, 0.323, 0.078, 0.087] }, { "w": [[0.161, 0.414, 0.002, 0.001, 0.005, 0.0, 0.001, -0.002, 0.001, -0.005, 0.001, -0.009], [0.509, 0.009, 0.001, 0.002, 0.001, 0.003, 0.001, -0.001, 0.001, -0.004, 0.002, -0.005], [-0.015, 0.383, 0.002, 0.002, 0.001, 0.002, -0.002, 0.0, 0.003, -0.008, 0.001, -0.009], [-0.045, 0.523, 0.0, 0.002, 0.002, 0.003, 0.0, -0.001, 0.003, 0.0, -0.001, -0.007], [0.025, -0.037, -0.005, -0.018, -0.0, 0.123, 0.148, 0.143, 0.178, 0.022, 0.112, 0.134]], "b": [0.331, 0.26, 0.308, 0.324, 0.066] }, { "w": [[0.16, 0.414, 0.002, 0.002, 0.005, 0.001], [0.508, 0.009, 0.001, 0.002, 0.001, 0.003], [-0.015, 0.383, 0.002, 0.003, 0.001, 0.004], [-0.045, 0.523, 0.0, 0.002, 0.002, 0.001], [-0.068, 0.097, 0.004, 0.01, -0.002, 0.348], [-0.046, 0.037, 0.007, 0.013, -0.004, 0.395], [0.064, -0.048, 0.003, 0.008, 0.007, 0.369], [0.072, -0.04, 0.008, 0.006, 0.001, 0.487], [0.048, -0.063, 0.0, -0.0, 0.008, 0.017], [0.04, -0.034, 0.012, 0.004, -0.01, 0.354], [-0.011, 0.055, 0.005, -0.001, -0.01, 0.38]], "b": [0.326, 0.258, 0.302, 0.323, 0.297, 0.291, 0.263, 0.167, 0.239, 0.289, 0.236] }, { "w": [[0.16, 0.415, 0.002, 0.002, 0.005, 0.005, -0.01], [0.508, 0.009, 0.001, 0.002, 0.001, 0.005, -0.005], [-0.015, 0.384, 0.002, 0.003, 0.001, 0.008, -0.011], [-0.046, 0.523, 0.0, 0.002, 0.002, 0.004, -0.006], [-0.066, 0.084, 0.003, 0.011, 0.0, 0.262, 0.227], [-0.044, 0.024, 0.006, 0.013, -0.002, 0.306, 0.233], [0.067, -0.06, 0.002, 0.008, 0.009, 0.28, 0.235], [0.075, -0.056, 0.006, 0.006, 0.004, 0.373, 0.3], [0.048, -0.063, -0.0, -0.0, 0.008, 0.014, 0.009], [0.043, -0.047, 0.011, 0.004, -0.007, 0.264, 0.235]], "b": [0.329, 0.259, 0.305, 0.324, 0.243, 0.236, 0.208, 0.097, 0.237, 0.234] }, { "w": [[0.161, 0.414, 0.002, 0.002, 0.005, 0.002, -0.002], [0.508, 0.009, 0.001, 0.002, 0.001, 0.003, 0.0], [-0.015, 0.383, 0.002, 0.003, 0.001, 0.005, -0.003], [-0.045, 0.523, 0.0, 0.002, 0.002, 0.002, -0.001], [-0.077, 0.104, 0.001, 0.01, 0.0, 0.275, 0.206], [-0.055, 0.045, 0.004, 0.012, -0.002, 0.314, 0.228], [0.056, -0.041, 0.001, 0.007, 0.009, 0.297, 0.204], [0.059, -0.029, 0.004, 0.005, 0.004, 0.377, 0.31], [0.047, -0.062, -0.0, -0.0, 0.008, 0.009, 0.022], [-0.021, 0.063, 0.002, -0.002, -0.008, 0.297, 0.234]], "b": [0.327, 0.258, 0.303, 0.323, 0.237, 0.225, 0.204, 0.078, 0.233, 0.168] }, { "w": [[0.16, 0.415, 0.002, 0.002, 0.005, 0.005, -0.0, -0.01], [0.508, 0.009, 0.001, 0.002, 0.001, 0.004, 0.002, -0.005], [-0.015, 0.384, 0.002, 0.003, 0.001, 0.008, -0.001, -0.011], [-0.046, 0.523, 0.0, 0.002, 0.002, 0.004, 0.0, -0.006], [-0.073, 0.092, 0.001, 0.01, 0.002, 0.219, 0.162, 0.189], [-0.051, 0.033, 0.004, 0.012, -0.0, 0.258, 0.183, 0.19], [0.06, -0.053, 0.0, 0.008, 0.01, 0.238, 0.158, 0.197], [0.064, -0.044, 0.004, 0.005, 0.006, 0.306, 0.253, 0.241], [0.047, -0.062, -0.0, -0.0, 0.008, 0.008, 0.021, 0.004]], "b": [0.329, 0.259, 0.305, 0.324, 0.205, 0.193, 0.171, 0.037, 0.232] }, { "w": [[0.161, 0.414, 0.002, 0.002, 0.005, 0.002, -0.005], [0.509, 0.009, 0.001, 0.002, 0.001, 0.003, -0.004], [-0.015, 0.383, 0.002, 0.003, 0.001, 0.004, -0.009], [-0.045, 0.523, 0.0, 0.002, 0.002, 0.001, -0.0], [-0.069, 0.097, 0.004, 0.01, -0.002, 0.348, 0.008], [-0.047, 0.038, 0.007, 0.013, -0.004, 0.395, 0.016], [0.065, -0.049, 0.003, 0.008, 0.007, 0.369, -0.018], [0.072, -0.041, 0.008, 0.006, 0.001, 0.487, -0.016], [0.038, -0.031, 0.012, 0.004, -0.01, 0.353, 0.043], [-0.012, 0.056, 0.005, -0.001, -0.01, 0.379, 0.018]], "b": [0.327, 0.259, 0.304, 0.323, 0.295, 0.287, 0.267, 0.171, 0.279, 0.232] }, { "w": [[0.161, 0.414, 0.002, 0.002, 0.005, 0.005, -0.005, -0.01], [0.509, 0.009, 0.001, 0.002, 0.001, 0.005, -0.004, -0.005], [-0.015, 0.384, 0.002, 0.003, 0.001, 0.008, -0.009, -0.011], [-0.046, 0.523, 0.0, 0.002, 0.002, 0.004, -0.0, -0.006], [-0.066, 0.084, 0.003, 0.011, 0.0, 0.262, 0.004, 0.227], [-0.044, 0.025, 0.006, 0.013, -0.002, 0.306, 0.012, 0.233], [0.068, -0.062, 0.002, 0.008, 0.009, 0.28, -0.022, 0.235], [0.076, -0.058, 0.006, 0.006, 0.004, 0.373, -0.022, 0.3], [0.041, -0.044, 0.011, 0.004, -0.008, 0.264, 0.039, 0.234]], "b": [0.33, 0.26, 0.307, 0.324, 0.242, 0.233, 0.213, 0.102, 0.224] }, { "w": [[0.161, 0.414, 0.002, 0.002, 0.005, 0.002, -0.005, -0.002], [0.509, 0.009, 0.001, 0.002, 0.001, 0.003, -0.004, 0.0], [-0.015, 0.383, 0.002, 0.003, 0.001, 0.005, -0.009, -0.003], [-0.045, 0.523, 0.0, 0.002, 0.002, 0.002, -0.0, -0.001], [-0.077, 0.104, 0.001, 0.01, 0.0, 0.275, -0.001, 0.206], [-0.056, 0.045, 0.004, 0.012, -0.002, 0.314, 0.006, 0.228], [0.057, -0.042, 0.001, 0.007, 0.009, 0.297, -0.027, 0.205], [0.061, -0.031, 0.004, 0.005, 0.004, 0.378, -0.03, 0.31], [-0.021, 0.063, 0.002, -0.002, -0.008, 0.297, 0.007, 0.234]], "b": [0.328, 0.259, 0.305, 0.323, 0.237, 0.224, 0.21, 0.085, 0.167] }, { "w": [[0.161, 0.414, 0.002, 0.002, 0.005, 0.005, -0.005, 0.0, -0.01], [0.508, 0.009, 0.001, 0.002, 0.001, 0.004, -0.004, 0.002, -0.005], [-0.015, 0.384, 0.002, 0.003, 0.001, 0.008, -0.009, -0.001, -0.01], [-0.046, 0.523, 0.0, 0.002, 0.002, 0.004, -0.0, 0.0, -0.006], [-0.073, 0.092, 0.001, 0.01, 0.002, 0.219, -0.002, 0.162, 0.189], [-0.052, 0.033, 0.004, 0.012, -0.0, 0.258, 0.004, 0.183, 0.19], [0.062, -0.055, 0.0, 0.008, 0.01, 0.238, -0.028, 0.159, 0.198], [0.066, -0.046, 0.004, 0.005, 0.006, 0.306, -0.031, 0.254, 0.241]], "b": [0.33, 0.26, 0.307, 0.324, 0.206, 0.192, 0.177, 0.045] }, { "w": [[0.161, 0.414, 0.002, 0.002, 0.005, 0.003, -0.004], [0.508, 0.009, 0.001, 0.002, 0.001, 0.003, -0.001], [-0.015, 0.383, 0.002, 0.003, 0.001, 0.005, -0.003], [-0.046, 0.523, 0.0, 0.002, 0.002, 0.001, 0.001], [-0.087, 0.107, 0.002, 0.009, -0.002, 0.223, 0.258], [-0.068, 0.049, 0.005, 0.011, -0.004, 0.244, 0.31], [0.045, -0.037, 0.001, 0.006, 0.006, 0.237, 0.272], [0.049, -0.063, 0.0, 0.0, 0.008, 0.021, -0.008], [0.02, -0.023, 0.01, 0.002, -0.01, 0.215, 0.284], [-0.031, 0.066, 0.003, -0.002, -0.01, 0.246, 0.274]], "b": [0.327, 0.258, 0.303, 0.322, 0.253, 0.239, 0.217, 0.241, 0.242, 0.19] }, { "w": [[0.16, 0.415, 0.002, 0.002, 0.005, 0.006, -0.001, -0.01], [0.508, 0.009, 0.001, 0.002, 0.001, 0.004, 0.001, -0.005], [-0.015, 0.384, 0.002, 0.003, 0.001, 0.008, 0.0, -0.011], [-0.046, 0.524, 0.0, 0.002, 0.002, 0.003, 0.003, -0.007], [-0.082, 0.096, 0.001, 0.009, -0.0, 0.183, 0.213, 0.163], [-0.064, 0.039, 0.004, 0.011, -0.003, 0.206, 0.268, 0.153], [0.05, -0.048, 0.001, 0.007, 0.008, 0.196, 0.226, 0.167], [0.049, -0.064, 0.0, 0.0, 0.008, 0.018, -0.011, 0.012], [0.025, -0.033, 0.009, 0.003, -0.008, 0.175, 0.239, 0.163]], "b": [0.329, 0.259, 0.305, 0.324, 0.222, 0.21, 0.186, 0.238, 0.211] }, { "w": [[0.161, 0.414, 0.002, 0.002, 0.005, 0.004, -0.003, -0.001], [0.508, 0.009, 0.001, 0.002, 0.001, 0.003, -0.001, 0.001], [-0.015, 0.383, 0.002, 0.003, 0.001, 0.006, -0.002, -0.003], [-0.045, 0.523, 0.0, 0.002, 0.002, 0.001, 0.002, -0.002], [-0.09, 0.11, 0.0, 0.009, -0.001, 0.193, 0.219, 0.138], [-0.071, 0.052, 0.003, 0.011, -0.003, 0.213, 0.269, 0.144], [0.042, -0.034, -0.0, 0.006, 0.008, 0.208, 0.234, 0.132], [0.048, -0.062, -0.0, -0.0, 0.008, 0.015, -0.015, 0.027], [-0.034, 0.07, 0.001, -0.003, -0.008, 0.211, 0.228, 0.164]], "b": [0.327, 0.258, 0.303, 0.323, 0.22, 0.204, 0.186, 0.234, 0.151] }, { "w": [[0.16, 0.415, 0.002, 0.002, 0.005, 0.006, -0.001, 0.0, -0.01], [0.508, 0.009, 0.001, 0.002, 0.001, 0.004, 0.001, 0.002, -0.006], [-0.015, 0.384, 0.002, 0.003, 0.001, 0.008, 0.001, -0.001, -0.011], [-0.046, 0.524, 0.0, 0.002, 0.002, 0.003, 0.003, -0.001, -0.007], [-0.085, 0.1, 0.0, 0.009, 0.001, 0.162, 0.186, 0.114, 0.144], [-0.067, 0.043, 0.003, 0.011, -0.002, 0.185, 0.239, 0.123, 0.133], [0.047, -0.044, -0.0, 0.007, 0.009, 0.177, 0.2, 0.108, 0.149], [0.048, -0.063, -0.0, -0.0, 0.008, 0.013, -0.017, 0.025, 0.008]], "b": [0.329, 0.259, 0.305, 0.324, 0.198, 0.184, 0.163, 0.233] }, { "w": [[0.161, 0.414, 0.002, 0.002, 0.005, 0.003, -0.004, -0.005], [0.509, 0.009, 0.001, 0.002, 0.001, 0.003, -0.001, -0.004], [-0.014, 0.383, 0.002, 0.003, 0.001, 0.005, -0.003, -0.009], [-0.046, 0.523, 0.0, 0.002, 0.002, 0.001, 0.001, -0.0], [-0.087, 0.108, 0.002, 0.009, -0.002, 0.222, 0.258, 0.012], [-0.069, 0.05, 0.005, 0.011, -0.004, 0.243, 0.31, 0.021], [0.045, -0.038, 0.001, 0.006, 0.006, 0.237, 0.272, -0.014], [0.018, -0.02, 0.01, 0.002, -0.01, 0.214, 0.284, 0.048], [-0.032, 0.067, 0.003, -0.002, -0.01, 0.246, 0.275, 0.022]], "b": [0.328, 0.259, 0.305, 0.322, 0.25, 0.234, 0.221, 0.23, 0.185] }, { "w": [[0.161, 0.414, 0.002, 0.002, 0.005, 0.006, -0.001, -0.005, -0.01], [0.508, 0.009, 0.001, 0.002, 0.001, 0.004, 0.001, -0.004, -0.005], [-0.015, 0.384, 0.002, 0.003, 0.001, 0.008, 0.0, -0.009, -0.011], [-0.046, 0.524, 0.0, 0.002, 0.002, 0.003, 0.003, 0.0, -0.007], [-0.082, 0.097, 0.001, 0.009, -0.0, 0.182, 0.213, 0.009, 0.163], [-0.064, 0.04, 0.004, 0.011, -0.003, 0.206, 0.268, 0.017, 0.153], [0.051, -0.049, 0.001, 0.007, 0.008, 0.196, 0.226, -0.017, 0.167], [0.023, -0.031, 0.009, 0.003, -0.009, 0.174, 0.24, 0.044, 0.162]], "b": [0.33, 0.26, 0.307, 0.324, 0.22, 0.206, 0.19, 0.2] }, { "w": [[0.161, 0.414, 0.002, 0.002, 0.005, 0.004, -0.003, -0.005, -0.001], [0.509, 0.009, 0.001, 0.002, 0.001, 0.003, -0.001, -0.004, 0.001], [-0.014, 0.383, 0.002, 0.003, 0.001, 0.006, -0.002, -0.009, -0.003], [-0.045, 0.523, 0.0, 0.002, 0.002, 0.001, 0.002, -0.0, -0.002], [-0.09, 0.11, 0.0, 0.009, -0.001, 0.193, 0.219, 0.006, 0.138], [-0.072, 0.053, 0.003, 0.011, -0.003, 0.213, 0.269, 0.014, 0.144], [0.043, -0.035, -0.0, 0.006, 0.008, 0.209, 0.234, -0.02, 0.132], [-0.035, 0.071, 0.001, -0.003, -0.009, 0.211, 0.228, 0.014, 0.163]], "b": [0.328, 0.259, 0.305, 0.323, 0.219, 0.201, 0.19, 0.147] }, { "w": [[0.161, 0.414, 0.002, 0.002, 0.005, 0.006, -0.001, -0.005, 0.0, -0.01], [0.508, 0.009, 0.001, 0.002, 0.001, 0.004, 0.0, -0.004, 0.002, -0.005], [-0.015, 0.384, 0.002, 0.003, 0.001, 0.008, 0.001, -0.009, -0.001, -0.011], [-0.046, 0.524, 0.0, 0.002, 0.002, 0.003, 0.003, 0.0, -0.001, -0.007], [-0.085, 0.1, 0.0, 0.009, 0.001, 0.162, 0.186, 0.004, 0.114, 0.144], [-0.067, 0.044, 0.003, 0.011, -0.002, 0.185, 0.239, 0.012, 0.122, 0.133], [0.048, -0.046, -0.0, 0.007, 0.009, 0.177, 0.2, -0.022, 0.108, 0.149]], "b": [0.33, 0.26, 0.307, 0.324, 0.197, 0.182, 0.168] }, { "w": [[0.161, 0.414, 0.002, 0.002, 0.005, 0.003, -0.005], [0.509, 0.009, 0.001, 0.002, 0.001, 0.003, -0.002], [-0.015, 0.383, 0.002, 0.003, 0.001, 0.005, -0.004], [-0.045, 0.523, 0.0, 0.002, 0.002, 0.002, -0.001], [-0.082, 0.106, 0.003, 0.009, -0.003, 0.271, 0.208], [-0.061, 0.048, 0.006, 0.011, -0.005, 0.308, 0.234], [0.052, -0.025, 0.007, 0.003, -0.001, 0.372, 0.311], [0.049, -0.063, 0.0, 0.0, 0.008, 0.021, -0.01], [0.027, -0.024, 0.011, 0.002, -0.011, 0.274, 0.215], [-0.027, 0.067, 0.004, -0.003, -0.011, 0.289, 0.246]], "b": [0.327, 0.259, 0.303, 0.323, 0.242, 0.229, 0.086, 0.242, 0.233, 0.171] }, { "w": [[0.16, 0.415, 0.002, 0.002, 0.005, 0.006, -0.003, -0.01], [0.508, 0.009, 0.001, 0.002, 0.001, 0.005, -0.001, -0.005], [-0.015, 0.384, 0.002, 0.003, 0.001, 0.008, -0.001, -0.01], [-0.046, 0.523, 0.0, 0.002, 0.002, 0.004, 0.0, -0.006], [-0.077, 0.094, 0.002, 0.009, -0.001, 0.217, 0.161, 0.189], [-0.056, 0.035, 0.006, 0.011, -0.003, 0.254, 0.188, 0.189], [0.058, -0.041, 0.006, 0.004, 0.002, 0.302, 0.252, 0.241], [0.049, -0.064, -0.0, 0.0, 0.008, 0.017, -0.013, 0.012], [0.032, -0.037, 0.01, 0.003, -0.009, 0.218, 0.167, 0.196]], "b": [0.329, 0.259, 0.305, 0.324, 0.21, 0.197, 0.044, 0.24, 0.199] }, { "w": [[0.161, 0.414, 0.002, 0.002, 0.005, 0.004, -0.005, -0.001], [0.509, 0.009, 0.001, 0.002, 0.001, 0.003, -0.002, 0.001], [-0.015, 0.383, 0.002, 0.003, 0.001, 0.006, -0.003, -0.003], [-0.045, 0.523, 0.0, 0.002, 0.002, 0.002, -0.001, -0.001], [-0.086, 0.111, 0.001, 0.008, -0.001, 0.225, 0.171, 0.171], [-0.066, 0.052, 0.004, 0.01, -0.003, 0.257, 0.194, 0.188], [0.045, -0.019, 0.004, 0.003, 0.002, 0.301, 0.256, 0.257], [0.048, -0.062, -0.0, 0.0, 0.008, 0.014, -0.015, 0.025], [-0.032, 0.071, 0.002, -0.003, -0.009, 0.236, 0.204, 0.192]], "b": [0.328, 0.258, 0.304, 0.323, 0.202, 0.186, 0.026, 0.236, 0.127] }, { "w": [[0.16, 0.415, 0.002, 0.002, 0.005, 0.006, -0.003, 0.0, -0.01], [0.508, 0.009, 0.001, 0.002, 0.001, 0.004, -0.001, 0.002, -0.005], [-0.015, 0.384, 0.002, 0.003, 0.001, 0.009, -0.001, -0.001, -0.01], [-0.046, 0.523, 0.0, 0.002, 0.002, 0.004, 0.0, 0.0, -0.006], [-0.081, 0.099, 0.001, 0.009, 0.0, 0.186, 0.138, 0.14, 0.162], [-0.061, 0.041, 0.004, 0.011, -0.002, 0.219, 0.162, 0.158, 0.158], [0.051, -0.033, 0.003, 0.003, 0.004, 0.254, 0.216, 0.219, 0.198], [0.048, -0.063, -0.0, 0.0, 0.008, 0.012, -0.017, 0.024, 0.007]], "b": [0.329, 0.259, 0.305, 0.324, 0.182, 0.166, 0.001, 0.235] }, { "w": [[0.161, 0.414, 0.002, 0.002, 0.005, 0.003, -0.005, -0.005], [0.509, 0.009, 0.001, 0.002, 0.001, 0.003, -0.002, -0.004], [-0.014, 0.383, 0.002, 0.003, 0.001, 0.006, -0.004, -0.009], [-0.045, 0.523, 0.0, 0.002, 0.002, 0.002, -0.001, -0.0], [-0.082, 0.107, 0.003, 0.009, -0.003, 0.271, 0.208, 0.012], [-0.062, 0.049, 0.006, 0.011, -0.006, 0.308, 0.235, 0.02], [0.052, -0.026, 0.007, 0.003, -0.001, 0.372, 0.311, -0.011], [0.024, -0.021, 0.011, 0.002, -0.012, 0.273, 0.215, 0.047], [-0.028, 0.068, 0.004, -0.003, -0.012, 0.289, 0.246, 0.022]], "b": [0.329, 0.26, 0.305, 0.323, 0.239, 0.225, 0.088, 0.221, 0.166] }, { "w": [[0.161, 0.414, 0.002, 0.002, 0.005, 0.006, -0.003, -0.005, -0.01], [0.509, 0.009, 0.001, 0.002, 0.001, 0.005, -0.001, -0.004, -0.005], [-0.015, 0.383, 0.002, 0.003, 0.001, 0.009, -0.001, -0.009, -0.01], [-0.046, 0.523, 0.0, 0.002, 0.002, 0.004, 0.0, -0.0, -0.006], [-0.077, 0.094, 0.002, 0.009, -0.001, 0.217, 0.161, 0.008, 0.189], [-0.057, 0.036, 0.006, 0.011, -0.003, 0.253, 0.188, 0.016, 0.189], [0.059, -0.042, 0.006, 0.004, 0.002, 0.302, 0.252, -0.016, 0.241], [0.03, -0.034, 0.01, 0.003, -0.009, 0.217, 0.167, 0.043, 0.195]], "b": [0.33, 0.26, 0.307, 0.324, 0.208, 0.193, 0.048, 0.189] }, { "w": [[0.161, 0.414, 0.002, 0.002, 0.005, 0.004, -0.005, -0.005, -0.001], [0.509, 0.009, 0.001, 0.002, 0.001, 0.003, -0.002, -0.004, 0.001], [-0.014, 0.383, 0.002, 0.003, 0.001, 0.006, -0.003, -0.009, -0.002], [-0.045, 0.523, 0.0, 0.002, 0.002, 0.002, -0.001, -0.0, -0.001], [-0.086, 0.111, 0.001, 0.008, -0.001, 0.225, 0.171, 0.004, 0.171], [-0.067, 0.053, 0.004, 0.01, -0.003, 0.257, 0.194, 0.011, 0.188], [0.046, -0.02, 0.004, 0.003, 0.002, 0.302, 0.256, -0.023, 0.258], [-0.033, 0.072, 0.002, -0.003, -0.009, 0.236, 0.205, 0.013, 0.192]], "b": [0.329, 0.259, 0.306, 0.323, 0.201, 0.183, 0.031, 0.124] }, { "w": [[0.161, 0.414, 0.002, 0.002, 0.005, 0.006, -0.003, -0.005, 0.001, -0.01], [0.509, 0.009, 0.001, 0.002, 0.001, 0.004, -0.001, -0.004, 0.002, -0.005], [-0.015, 0.383, 0.002, 0.003, 0.001, 0.009, -0.001, -0.009, -0.001, -0.01], [-0.046, 0.523, 0.0, 0.002, 0.002, 0.004, 0.0, -0.0, 0.0, -0.006], [-0.081, 0.099, 0.001, 0.009, 0.0, 0.186, 0.138, 0.002, 0.14, 0.162], [-0.062, 0.042, 0.004, 0.011, -0.002, 0.219, 0.162, 0.009, 0.157, 0.158], [0.052, -0.035, 0.003, 0.003, 0.004, 0.255, 0.215, -0.025, 0.22, 0.198]], "b": [0.33, 0.26, 0.307, 0.324, 0.181, 0.164, 0.007] }, { "w": [[0.161, 0.414, 0.002, 0.002, 0.005, 0.004, -0.004, -0.002], [0.509, 0.009, 0.001, 0.002, 0.001, 0.003, -0.002, -0.0], [-0.015, 0.383, 0.002, 0.003, 0.001, 0.006, -0.003, -0.002], [-0.045, 0.523, 0.0, 0.002, 0.002, 0.001, -0.002, 0.002], [-0.093, 0.112, 0.001, 0.008, -0.003, 0.19, 0.139, 0.22], [-0.075, 0.055, 0.005, 0.01, -0.005, 0.208, 0.151, 0.269], [0.049, -0.063, 0.0, 0.0, 0.008, 0.023, -0.008, -0.005], [0.014, -0.017, 0.01, 0.001, -0.011, 0.183, 0.138, 0.246], [-0.039, 0.072, 0.002, -0.003, -0.011, 0.205, 0.175, 0.227]], "b": [0.328, 0.259, 0.303, 0.323, 0.223, 0.206, 0.242, 0.212, 0.152] }, { "w": [[0.161, 0.415, 0.002, 0.002, 0.005, 0.006, -0.003, -0.0, -0.01], [0.508, 0.009, 0.001, 0.002, 0.001, 0.004, -0.001, 0.001, -0.005], [-0.015, 0.384, 0.002, 0.003, 0.001, 0.008, -0.001, 0.001, -0.011], [-0.046, 0.524, 0.0, 0.002, 0.002, 0.003, -0.001, 0.003, -0.007], [-0.088, 0.102, 0.001, 0.009, -0.001, 0.16, 0.114, 0.188, 0.144], [-0.07, 0.045, 0.004, 0.01, -0.004, 0.181, 0.128, 0.239, 0.131], [0.049, -0.064, 0.0, 0.0, 0.008, 0.02, -0.011, -0.009, 0.014], [0.019, -0.028, 0.009, 0.002, -0.009, 0.153, 0.113, 0.214, 0.144]], "b": [0.329, 0.259, 0.305, 0.324, 0.201, 0.186, 0.24, 0.19] }, { "w": [[0.161, 0.414, 0.002, 0.002, 0.005, 0.004, -0.004, -0.002, -0.001], [0.509, 0.009, 0.001, 0.002, 0.001, 0.003, -0.002, -0.0, 0.001], [-0.015, 0.383, 0.002, 0.003, 0.001, 0.006, -0.003, -0.001, -0.002], [-0.045, 0.523, 0.0, 0.002, 0.002, 0.002, -0.002, 0.002, -0.002], [-0.095, 0.114, 0.0, 0.008, -0.002, 0.167, 0.122, 0.19, 0.122], [-0.077, 0.057, 0.003, 0.01, -0.004, 0.185, 0.133, 0.238, 0.127], [0.049, -0.063, -0.0, 0.0, 0.008, 0.017, -0.012, -0.012, 0.028], [-0.041, 0.075, 0.001, -0.004, -0.01, 0.178, 0.155, 0.192, 0.143]], "b": [0.328, 0.258, 0.304, 0.323, 0.197, 0.18, 0.236, 0.122] }, { "w": [[0.161, 0.415, 0.002, 0.002, 0.005, 0.006, -0.003, -0.0, 0.0, -0.01], [0.508, 0.009, 0.001, 0.002, 0.001, 0.004, -0.001, 0.001, 0.002, -0.005], [-0.015, 0.384, 0.002, 0.003, 0.001, 0.008, -0.001, 0.001, -0.001, -0.01], [-0.046, 0.524, 0.0, 0.002, 0.002, 0.003, -0.001, 0.003, -0.001, -0.007], [-0.09, 0.104, 0.0, 0.008, -0.0, 0.144, 0.102, 0.166, 0.103, 0.129], [-0.072, 0.048, 0.003, 0.01, -0.003, 0.164, 0.115, 0.216, 0.11, 0.116], [0.049, -0.063, -0.0, 0.0, 0.008, 0.016, -0.014, -0.014, 0.027, 0.01]], "b": [0.329, 0.259, 0.305, 0.324, 0.182, 0.166, 0.235] }, { "w": [[0.161, 0.414, 0.002, 0.002, 0.005, 0.004, -0.004, -0.002, -0.005], [0.509, 0.009, 0.001, 0.002, 0.001, 0.003, -0.002, -0.0, -0.004], [-0.014, 0.383, 0.002, 0.003, 0.001, 0.006, -0.003, -0.002, -0.009], [-0.045, 0.523, 0.0, 0.002, 0.002, 0.001, -0.002, 0.002, -0.0], [-0.094, 0.113, 0.001, 0.008, -0.003, 0.189, 0.139, 0.22, 0.014], [-0.076, 0.056, 0.005, 0.01, -0.005, 0.208, 0.151, 0.269, 0.023], [0.011, -0.014, 0.01, 0.001, -0.011, 0.182, 0.138, 0.247, 0.05], [-0.04, 0.074, 0.002, -0.003, -0.011, 0.204, 0.175, 0.227, 0.024]], "b": [0.329, 0.26, 0.306, 0.323, 0.22, 0.201, 0.2, 0.146] }, { "w": [[0.161, 0.414, 0.002, 0.002, 0.005, 0.006, -0.003, -0.0, -0.005, -0.009], [0.509, 0.009, 0.001, 0.002, 0.001, 0.005, -0.001, 0.001, -0.004, -0.005], [-0.015, 0.383, 0.002, 0.003, 0.001, 0.008, -0.001, 0.001, -0.009, -0.011], [-0.046, 0.524, 0.0, 0.002, 0.002, 0.003, -0.001, 0.003, 0.0, -0.007], [-0.088, 0.102, 0.001, 0.009, -0.001, 0.16, 0.114, 0.188, 0.011, 0.144], [-0.071, 0.046, 0.004, 0.01, -0.004, 0.181, 0.128, 0.239, 0.02, 0.131], [0.017, -0.025, 0.009, 0.002, -0.01, 0.152, 0.113, 0.214, 0.046, 0.144]], "b": [0.33, 0.26, 0.307, 0.324, 0.199, 0.182, 0.179] }, { "w": [[0.161, 0.414, 0.002, 0.002, 0.005, 0.005, -0.004, -0.002, -0.005, -0.001], [0.509, 0.009, 0.001, 0.002, 0.001, 0.003, -0.002, -0.0, -0.004, 0.001], [-0.014, 0.383, 0.002, 0.003, 0.001, 0.007, -0.003, -0.001, -0.009, -0.002], [-0.045, 0.523, 0.0, 0.002, 0.002, 0.002, -0.002, 0.002, -0.0, -0.002], [-0.095, 0.115, 0.0, 0.008, -0.002, 0.167, 0.123, 0.19, 0.008, 0.122], [-0.078, 0.058, 0.003, 0.01, -0.004, 0.185, 0.133, 0.238, 0.016, 0.126], [-0.042, 0.076, 0.001, -0.004, -0.01, 0.178, 0.156, 0.192, 0.017, 0.143]], "b": [0.329, 0.259, 0.306, 0.323, 0.195, 0.176, 0.118] }, { "w": [[0.161, 0.414, 0.002, 0.002, 0.005, 0.006, -0.003, -0.0, -0.005, 0.001, -0.01], [0.509, 0.009, 0.001, 0.002, 0.001, 0.004, -0.001, 0.001, -0.004, 0.002, -0.005], [-0.015, 0.383, 0.002, 0.003, 0.001, 0.008, -0.001, 0.001, -0.009, -0.001, -0.01], [-0.046, 0.524, 0.0, 0.002, 0.002, 0.003, -0.001, 0.003, 0.0, -0.001, -0.007], [-0.09, 0.105, 0.0, 0.008, -0.0, 0.144, 0.103, 0.166, 0.006, 0.103, 0.129], [-0.073, 0.049, 0.003, 0.01, -0.003, 0.164, 0.115, 0.216, 0.014, 0.11, 0.115]], "b": [0.33, 0.26, 0.307, 0.324, 0.18, 0.162] }, { "w": [[0.16, 0.414, 0.002, 0.002, 0.005, 0.003, -0.003], [0.508, 0.009, 0.001, 0.002, 0.001, 0.003, -0.0], [-0.015, 0.384, 0.002, 0.003, 0.001, 0.006, -0.005], [-0.045, 0.523, 0.0, 0.002, 0.002, 0.002, -0.0], [-0.058, 0.088, 0.002, 0.008, -0.001, 0.258, 0.23], [0.075, -0.056, 0.002, 0.005, 0.008, 0.279, 0.228], [0.088, -0.052, 0.005, 0.002, 0.002, 0.35, 0.346], [0.048, -0.063, -0.0, -0.0, 0.008, 0.014, 0.008], [0.051, -0.042, 0.01, 0.001, -0.009, 0.261, 0.233], [-0.0, 0.046, 0.003, -0.004, -0.009, 0.286, 0.238]], "b": [0.327, 0.258, 0.304, 0.323, 0.23, 0.196, 0.067, 0.237, 0.221, 0.167] }, { "w": [[0.16, 0.415, 0.002, 0.002, 0.005, 0.006, -0.001, -0.01], [0.508, 0.009, 0.001, 0.002, 0.001, 0.004, 0.001, -0.005], [-0.015, 0.384, 0.002, 0.003, 0.001, 0.009, -0.003, -0.01], [-0.045, 0.523, 0.0, 0.002, 0.002, 0.004, 0.001, -0.007], [-0.058, 0.08, 0.001, 0.008, 0.001, 0.205, 0.186, 0.183], [0.075, -0.065, 0.001, 0.006, 0.009, 0.224, 0.183, 0.192], [0.088, -0.063, 0.005, 0.002, 0.004, 0.284, 0.291, 0.232], [0.048, -0.063, -0.0, -0.0, 0.008, 0.012, 0.006, 0.008], [0.051, -0.051, 0.01, 0.002, -0.007, 0.207, 0.188, 0.191]], "b": [0.329, 0.259, 0.306, 0.324, 0.199, 0.164, 0.028, 0.236, 0.189] }, { "w": [[0.16, 0.414, 0.002, 0.002, 0.005, 0.003, -0.003, -0.002], [0.508, 0.009, 0.001, 0.002, 0.001, 0.003, -0.0, 0.0], [-0.015, 0.384, 0.002, 0.003, 0.001, 0.007, -0.005, -0.002], [-0.045, 0.523, 0.0, 0.002, 0.002, 0.002, -0.0, -0.001], [-0.066, 0.095, 0.0, 0.007, 0.001, 0.215, 0.192, 0.162], [0.067, -0.049, 0.0, 0.005, 0.009, 0.237, 0.191, 0.161], [0.075, -0.042, 0.003, 0.001, 0.004, 0.286, 0.289, 0.244], [0.047, -0.062, -0.0, -0.0, 0.008, 0.008, 0.003, 0.021], [-0.01, 0.054, 0.001, -0.004, -0.007, 0.236, 0.194, 0.19]], "b": [0.327, 0.258, 0.304, 0.323, 0.194, 0.161, 0.013, 0.232, 0.125] }, { "w": [[0.16, 0.415, 0.002, 0.002, 0.005, 0.006, -0.001, 0.0, -0.01], [0.508, 0.009, 0.001, 0.002, 0.001, 0.004, 0.001, 0.002, -0.006], [-0.015, 0.384, 0.002, 0.003, 0.001, 0.009, -0.003, -0.0, -0.01], [-0.045, 0.523, 0.0, 0.002, 0.002, 0.004, 0.001, -0.0, -0.007], [-0.064, 0.086, 0.0, 0.008, 0.002, 0.178, 0.161, 0.132, 0.158], [0.068, -0.058, -0.0, 0.006, 0.01, 0.197, 0.159, 0.129, 0.167], [0.077, -0.053, 0.003, 0.002, 0.006, 0.241, 0.252, 0.207, 0.193], [0.047, -0.062, -0.0, -0.0, 0.008, 0.007, 0.003, 0.021, 0.004]], "b": [0.329, 0.259, 0.306, 0.324, 0.174, 0.14, -0.011, 0.232] }, { "w": [[0.161, 0.414, 0.002, 0.002, 0.005, 0.003, -0.003, -0.005], [0.509, 0.009, 0.001, 0.002, 0.001, 0.003, -0.0, -0.004], [-0.015, 0.383, 0.002, 0.003, 0.001, 0.006, -0.005, -0.009], [-0.045, 0.523, 0.0, 0.002, 0.002, 0.002, -0.0, -0.0], [-0.058, 0.088, 0.002, 0.008, -0.001, 0.257, 0.229, 0.005], [0.076, -0.057, 0.002, 0.005, 0.008, 0.279, 0.229, -0.022], [0.089, -0.054, 0.005, 0.002, 0.002, 0.35, 0.346, -0.022], [0.049, -0.04, 0.01, 0.001, -0.009, 0.261, 0.233, 0.039], [-0.001, 0.047, 0.003, -0.004, -0.009, 0.285, 0.238, 0.014]], "b": [0.328, 0.259, 0.306, 0.323, 0.229, 0.202, 0.072, 0.212, 0.164] }, { "w": [[0.161, 0.414, 0.002, 0.002, 0.005, 0.006, -0.001, -0.005, -0.01], [0.509, 0.009, 0.001, 0.002, 0.001, 0.004, 0.001, -0.004, -0.005], [-0.015, 0.384, 0.002, 0.003, 0.001, 0.009, -0.003, -0.009, -0.01], [-0.045, 0.523, 0.0, 0.002, 0.002, 0.004, 0.001, -0.0, -0.007], [-0.058, 0.08, 0.001, 0.008, 0.001, 0.205, 0.186, 0.002, 0.183], [0.076, -0.066, 0.001, 0.006, 0.009, 0.224, 0.183, -0.024, 0.192], [0.089, -0.065, 0.005, 0.002, 0.005, 0.284, 0.291, -0.025, 0.233], [0.049, -0.049, 0.01, 0.002, -0.007, 0.206, 0.187, 0.037, 0.191]], "b": [0.33, 0.26, 0.308, 0.324, 0.199, 0.17, 0.034, 0.181] }, { "w": [[0.161, 0.414, 0.002, 0.002, 0.005, 0.003, -0.003, -0.005, -0.002], [0.509, 0.009, 0.001, 0.002, 0.001, 0.003, -0.0, -0.004, 0.001], [-0.015, 0.383, 0.002, 0.003, 0.001, 0.007, -0.005, -0.009, -0.002], [-0.045, 0.523, 0.0, 0.002, 0.002, 0.002, -0.0, -0.0, -0.001], [-0.066, 0.095, 0.0, 0.007, 0.001, 0.215, 0.192, -0.002, 0.162], [0.068, -0.051, 0.0, 0.005, 0.009, 0.237, 0.191, -0.028, 0.162], [0.077, -0.044, 0.003, 0.001, 0.005, 0.287, 0.289, -0.031, 0.244], [-0.01, 0.055, 0.001, -0.004, -0.007, 0.236, 0.194, 0.006, 0.19]], "b": [0.329, 0.259, 0.306, 0.323, 0.194, 0.167, 0.02, 0.123] }, { "w": [[0.161, 0.414, 0.002, 0.002, 0.005, 0.006, -0.001, -0.005, 0.0, -0.01], [0.509, 0.009, 0.001, 0.002, 0.001, 0.004, 0.001, -0.004, 0.002, -0.006], [-0.015, 0.384, 0.002, 0.003, 0.001, 0.009, -0.003, -0.009, -0.0, -0.01], [-0.045, 0.523, 0.0, 0.002, 0.002, 0.004, 0.001, -0.0, -0.0, -0.007], [-0.064, 0.086, 0.0, 0.008, 