const models = [{"w":[[-0.065,0.476,0.003,0.003,0.002],[-0.031,-0.015,-0.0,-0.004,0.001],[0.247,0.303,-0.0,0.003,0.003],[-0.007,0.352,-0.001,-0.006,0.005],[0.911,-0.11,-0.169,0.001,-0.168],[0.926,-0.076,-0.157,0.0,0.004],[0.853,-0.125,-0.184,-0.003,0.106],[0.567,-0.011,-0.193,-0.001,0.011],[0.87,-0.072,-0.239,0.003,0.008],[-1.35,0.107,-0.231,0.003,-0.003],[0.884,-0.062,-0.162,-0.001,0.002],[-1.317,0.089,-0.209,-0.002,-0.005]],"b":[0.378,0.716,0.28,0.463,0.227,0.183,0.216,0.349,0.194,1.198,0.203,1.215]},{"w":[[-0.102,0.478,-0.003,0.003,0.002,-0.028],[-0.218,-0.003,-0.03,-0.005,0.0,-0.142],[0.307,0.299,0.009,0.004,0.003,0.046],[0.015,0.351,0.002,-0.006,0.005,0.017],[0.5,-0.083,-0.234,0.0,-0.169,-0.312],[0.493,-0.047,-0.226,-0.0,0.003,-0.329],[0.474,-0.1,-0.244,-0.003,0.104,-0.288],[0.254,0.01,-0.243,-0.001,0.01,-0.237],[0.446,-0.044,-0.306,0.002,0.007,-0.322],[-0.577,0.055,-0.109,0.004,-0.0,0.587],[0.436,-0.032,-0.233,-0.001,0.001,-0.34]],"b":[0.412,0.888,0.224,0.442,0.606,0.583,0.565,0.637,0.586,0.485,0.616]},{"w":[[-0.098,0.478,0.009,0.003,0.002,0.038],[-0.172,-0.005,0.026,-0.004,0.0,0.16],[0.284,0.3,-0.007,0.003,0.003,-0.043],[0.003,0.352,-0.004,-0.006,0.005,-0.012],[0.541,-0.084,-0.101,0.001,-0.169,0.419],[0.536,-0.049,-0.086,0.001,0.003,0.441],[0.519,-0.102,-0.123,-0.002,0.105,0.377],[0.272,0.01,-0.139,-0.0,0.011,0.334],[0.474,-0.044,-0.166,0.003,0.007,0.449],[-0.77,0.066,-0.338,0.002,-0.001,-0.656],[-0.788,0.051,-0.306,-0.003,-0.003,-0.599]],"b":[0.37,0.684,0.289,0.465,0.141,0.094,0.139,0.281,0.103,1.331,1.336]},{"w":[[-0.113,0.479,0.003,0.003,0.002,0.027,-0.019],[-0.259,0.0,-0.008,-0.004,0.0,0.094,-0.11],[0.315,0.298,0.005,0.003,0.003,-0.019,0.039],[0.016,0.351,0.001,-0.006,0.005,-0.003,0.016],[0.373,-0.073,-0.167,0.001,-0.17,0.291,-0.213],[0.36,-0.037,-0.154,0.0,0.002,0.307,-0.224],[0.362,-0.092,-0.185,-0.003,0.104,0.257,-0.2],[0.149,0.018,-0.187,-0.001,0.01,0.241,-0.155],[0.306,-0.034,-0.231,0.003,0.006,0.321,-0.213],[-0.41,0.043,-0.198,0.004,0.0,-0.383,0.457]],"b":[0.396,0.83,0.236,0.444,0.426,0.394,0.407,0.488,0.388,0.72]},{"w":[[-0.12,0.48,-0.007,0.003,0.002,-0.041],[-0.286,0.005,-0.044,-0.004,0.0,-0.189],[0.335,0.296,0.015,0.003,0.003,0.065],[0.028,0.35,0.005,-0.006,0.005,0.026],[0.338,-0.065,-0.267,0.002,-0.169,-0.425],[0.314,-0.028,-0.262,0.002,0.003,-0.454],[0.333,-0.084,-0.273,-0.002,0.105,-0.385],[0.144,0.022,-0.266,0.0,0.011,-0.313],[0.274,-0.025,-0.341,0.004,0.007,-0.442],[0.236,-0.01,-0.273,0.001,0.001,-0.48],[-0.296,0.008,-0.034,-0.004,-0.002,0.757]],"b":[0.427,0.943,0.202,0.431,0.736,0.727,0.677,0.723,0.723,0.778,0.308]},{"w":[[-0.122,0.48,-0.007,0.003,0.002,-0.036,-0.007],[-0.303,0.006,-0.046,-0.004,0.0,-0.147,-0.055],[0.339,0.296,0.015,0.003,0.003,0.055,0.014],[0.029,0.35,0.005,-0.006,0.005,0.024,0.003],[0.304,-0.064,-0.271,0.002,-0.169,-0.34,-0.113],[0.28,-0.027,-0.266,0.001,0.003,-0.369,-0.112],[0.3,-0.083,-0.277,-0.002,0.104,-0.301,-0.111],[0.116,0.023,-0.269,-0.0,0.01,-0.24,-0.096],[0.241,-0.024,-0.345,0.004,0.006,-0.356,-0.114],[0.205,-0.01,-0.276,0.0,0.001,-0.401,-0.105]],"b":[0.429,0.96,0.198,0.43,0.771,0.761,0.711,0.753,0.758,0.81]},{"w":[[-0.124,0.48,-0.002,0.003,0.002,-0.033,0.016],[-0.299,0.006,-0.03,-0.004,0.0,-0.164,0.052],[0.335,0.296,0.015,0.003,0.003,0.066,0.0],[0.026,0.35,0.007,-0.006,0.005,0.03,0.007],[0.289,-0.063,-0.212,0.002,-0.169,-0.327,0.204],[0.264,-0.025,-0.205,0.002,0.003,-0.353,0.209],[0.29,-0.082,-0.224,-0.002,0.104,-0.298,0.181],[0.1,0.024,-0.215,0.0,0.01,-0.223,0.187],[0.219,-0.023,-0.277,0.004,0.007,-0.33,0.232],[-0.26,0.006,-0.075,-0.004,-0.002,0.685,-0.15]],"b":[0.415,0.902,0.202,0.426,0.577,0.564,0.536,0.578,0.543,0.425]},{"w":[[-0.125,0.48,-0.003,0.003,0.002,-0.03,0.015,-0.005],[-0.312,0.006,-0.034,-0.004,0.0,-0.13,0.045,-0.05],[0.338,0.296,0.016,0.003,0.003,0.056,0.002,0.014],[0.027,0.35,0.007,-0.006,0.005,0.027,0.008,0.004],[0.265,-0.062,-0.219,0.002,-0.17,-0.263,0.191,-0.093],[0.24,-0.025,-0.212,0.001,0.002,-0.291,0.195,-0.092],[0.266,-0.082,-0.231,-0.002,0.104,-0.234,0.167,-0.093],[0.08,0.025,-0.221,-0.0,0.01,-0.17,0.176,-0.078],[0.196,-0.022,-0.284,0.004,0.006,-0.268,0.218,-0.091]],"b":[0.417,0.923,0.196,0.424,0.616,0.603,0.576,0.611,0.581]},{"w":[[-0.101,0.479,0.013,0.003,0.002,0.042],[-0.187,-0.002,0.042,-0.005,-0.001,0.179],[0.297,0.299,-0.014,0.004,0.003,-0.058],[0.006,0.351,-0.005,-0.006,0.005,-0.016],[0.538,-0.079,-0.067,-0.0,-0.171,0.429],[0.541,-0.044,-0.052,-0.001,0.001,0.442],[0.509,-0.097,-0.09,-0.004,0.102,0.395],[0.269,0.014,-0.112,-0.002,0.009,0.342],[-0.813,0.062,-0.379,0.005,0.002,-0.617],[0.484,-0.029,-0.052,-0.002,-0.001,0.459],[-0.811,0.047,-0.348,-0.001,0.0,-0.581]],"b":[0.37,0.681,0.291,0.466,0.143,0.097,0.139,0.282,1.318,0.114,1.328]},{"w":[[-0.116,0.48,0.007,0.003,0.002,0.032,-0.018],[-0.271,0.003,0.006,-0.005,-0.001,0.119,-0.103],[0.324,0.297,-0.003,0.004,0.003,-0.038,0.034],[0.018,0.351,-0.0,-0.006,0.005,-0.007,0.015],[0.364,-0.069,-0.141,-0.0,-0.171,0.305,-0.214],[0.356,-0.034,-0.131,-0.001,0.001,0.309,-0.229],[0.348,-0.088,-0.159,-0.004,0.102,0.281,-0.197],[0.142,0.021,-0.166,-0.002,0.009,0.252,-0.156],[-0.425,0.04,-0.213,0.005,0.002,-0.34,0.477],[0.293,-0.018,-0.135,-0.002,-0.001,0.321,-0.236]],"b":[0.393,0.818,0.247,0.446,0.427,0.402,0.401,0.489,0.684,0.428]},{"w":[[-0.113,0.479,0.014,0.003,0.002,0.031,0.024],[-0.235,0.001,0.048,-0.005,-0.0,0.133,0.1],[0.307,0.298,-0.015,0.004,0.003,-0.048,-0.021],[0.01,0.351,-0.006,-0.006,0.005,-0.013,-0.007],[0.4,-0.071,-0.052,0.0,-0.171,0.298,0.285],[0.393,-0.035,-0.036,-0.0,0.001,0.302,0.306],[0.387,-0.09,-0.077,-0.003,0.103,0.28,0.251],[0.159,0.02,-0.1,-0.001,0.009,0.238,0.227],[-0.581,0.049,-0.404,0.004,0.001,-0.398,-0.478],[-0.605,0.034,-0.37,-0.001,-0.001,-0.386,-0.426]],"b":[0.367,0.67,0.294,0.467,0.111,0.063,0.11,0.256,1.372,1.376]},{"w":[[-0.121,0.48,0.009,0.003,0.002,0.026,0.018,-0.013],[-0.289,0.004,0.015,-0.005,-0.001,0.099,0.063,-0.088],[0.326,0.297,-0.004,0.004,0.003,-0.036,-0.008,0.032],[0.018,0.351,-0.0,-0.006,0.005,-0.007,-0.0,0.015],[0.301,-0.065,-0.112,0.0,-0.171,0.235,0.216,-0.163],[0.288,-0.029,-0.1,-0.001,0.001,0.234,0.231,-0.174],[0.294,-0.084,-0.134,-0.004,0.103,0.221,0.186,-0.153],[0.09,0.024,-0.142,-0.001,0.009,0.194,0.178,-0.114],[-0.336,0.035,-0.254,0.004,0.002,-0.242,-0.305,0.405]],"b":[0.385,0.792,0.25,0.446,0.335,0.303,0.321,0.413,0.814]},{"w":[[-0.127,0.481,0.001,0.003,0.002,0.023,-0.031],[-0.31,0.007,-0.015,-0.004,-0.0,0.086,-0.151],[0.341,0.295,0.007,0.003,0.003,-0.024,0.055],[0.028,0.35,0.005,-0.006,0.005,0.001,0.027],[0.275,-0.059,-0.189,0.001,-0.171,0.229,-0.324],[0.253,-0.022,-0.186,0.001,0.001,0.222,-0.356],[0.273,-0.079,-0.2,-0.003,0.103,0.217,-0.29],[0.088,0.028,-0.196,-0.001,0.009,0.205,-0.222],[0.175,-0.005,-0.197,-0.0,-0.001,0.223,-0.381],[-0.253,0.004,-0.087,-0.004,-0.001,-0.157,0.688]],"b":[0.41,0.881,0.219,0.431,0.57,0.566,0.521,0.575,0.616,0.422]},{"w":[[-0.128,0.481,0.001,0.003,0.002,0.023,-0.028,-0.004],[-0.321,0.008,-0.019,-0.004,-0.0,0.078,-0.12,-0.046],[0.344,0.295,0.008,0.003,0.003,-0.022,0.047,0.011],[0.029,0.35,0.005,-0.006,0.005,0.001,0.025,0.003],[0.252,-0.059,-0.197,0.001,-0.171,0.215,-0.263,-0.088],[0.23,-0.022,-0.194,0.0,0.001,0.209,-0.295,-0.088],[0.251,-0.078,-0.207,-0.003,0.103,0.203,-0.229,-0.088],[0.069,0.028,-0.202,-0.001,0.009,0.193,-0.171,-0.074],[0.154,-0.005,-0.204,-0.001,-0.001,0.211,-0.326,-0.081]],"b":[0.412,0.9,0.214,0.429,0.607,0.603,0.558,0.606,0.65]},{"w":[[-0.129,0.481,0.003,0.003,0.002,0.021,-0.027,0.011],[-0.316,0.008,-0.008,-0.004,-0.0,0.078,-0.138,0.034],[0.34,0.296,0.008,0.003,0.003,-0.025,0.057,0.006],[0.027,0.35,0.006,-0.006,0.005,-0.001,0.029,0.007],[0.247,-0.058,-0.158,0.001,-0.171,0.193,-0.263,0.16],[0.224,-0.021,-0.153,0.001,0.001,0.185,-0.292,0.166],[0.249,-0.078,-0.172,-0.002,0.103,0.186,-0.237,0.138],[0.062,0.028,-0.167,-0.0,0.009,0.172,-0.166,0.147],[-0.232,0.003,-0.111,-0.004,-0.001,-0.13,0.642,-0.12]],"b":[0.404,0.86,0.215,0.426,0.472,0.464,0.435,0.484,0.495]},{"w":[[-0.129,0.481,0.003,0.003,0.002,0.02,-0.024,0.011,-0.003],[-0.326,0.008,-0.013,-0.004,-0.0,0.072,-0.11,0.029,-0.044],[0.343,0.295,0.009,0.003,0.003,-0.024,0.05,0.008,0.012],[0.028,0.35,0.007,-0.006,0.005,-0.001,0.027,0.008,0.004],[0.229,-0.058,-0.166,0.001,-0.171,0.184,-0.214,0.15,-0.076],[0.206,-0.021,-0.162,0.001,0.001,0.176,-0.244,0.157,-0.076],[0.231,-0.078,-0.181,-0.003,0.103,0.176,-0.187,0.129,-0.077],[0.048,0.029,-0.174,-0.001,0.009,0.164,-0.126,0.14,-0.063]],"b":[0.405,0.881,0.209,0.424,0.509,0.501,0.474,0.516]},{"w":[[-0.076,0.476,0.007,0.003,0.002,0.021],[-0.098,-0.014,0.022,-0.004,-0.001,0.118],[0.271,0.303,-0.009,0.003,0.003,-0.044],[-0.001,0.352,-0.004,-0.006,0.005,-0.011],[0.731,-0.107,-0.108,0.001,-0.172,0.318],[0.733,-0.072,-0.091,0.001,0.0,0.341],[0.696,-0.122,-0.131,-0.003,0.102,0.276],[0.681,-0.069,-0.174,0.003,0.004,0.334],[-1.108,0.102,-0.314,0.003,0.002,-0.428],[0.695,-0.058,-0.097,-0.0,-0.002,0.333],[-1.081,0.084,-0.29,-0.003,0.0,-0.418]],"b":[0.371,0.675,0.295,0.467,0.116,0.065,0.12,0.078,1.347,0.087,1.36]},{"w":[[-0.104,0.478,-0.001,0.003,0.002,0.01,-0.026],[-0.234,-0.003,-0.014,-0.004,-0.001,0.066,-0.126],[0.314,0.299,0.003,0.003,0.003,-0.027,0.039],[0.016,0.351,0.001,-0.006,0.005,-0.005,0.016],[0.447,-0.085,-0.184,0.0,-0.172,0.209,-0.263],[0.436,-0.049,-0.171,-0.0,0.0,0.226,-0.275],[0.43,-0.102,-0.203,-0.003,0.102,0.173,-0.247],[0.389,-0.046,-0.252,0.002,0.004,0.222,-0.27],[-0.525,0.057,-0.158,0.004,0.002,-0.202,0.539],[0.382,-0.034,-0.181,-0.001,-0.001,0.212,-0.289]],"b":[0.406,0.847,0.242,0.445,0.473,0.439,0.455,0.445,0.614,0.481]},{"w":[[-0.101,0.478,0.01,0.003,0.002,0.009,0.035],[-0.192,-0.006,0.036,-0.004,-0.0,0.073,0.136],[0.293,0.301,-0.012,0.003,0.003,-0.033,-0.032],[0.006,0.352,-0.005,-0.006,0.005,-0.008,-0.01],[0.486,-0.086,-0.073,0.001,-0.171,0.201,0.352],[0.477,-0.051,-0.055,0.001,0.001,0.218,0.368],[0.473,-0.104,-0.1,-0.002,0.103,0.169,0.321],[0.417,-0.046,-0.137,0.003,0.005,0.208,0.379],[-0.706,0.069,-0.37,0.002,0.001,-0.235,-0.578],[-0.721,0.054,-0.34,-0.003,-0.001,-0.245,-0.518]],"b":[0.368,0.663,0.298,0.468,0.085,0.033,0.092,0.045,1.397,1.405]},{"w":[[-0.114,0.479,0.004,0.003,0.002,0.005,0.026,-0.018],[-0.266,-0.0,0.001,-0.004,-0.0,0.048,0.083,-0.102],[0.319,0.299,0.0,0.003,0.003,-0.024,-0.013,0.036],[0.017,0.351,0.001,-0.006,0.005,-0.004,-0.002,0.016],[0.35,-0.076,-0.138,0.001,-0.171,0.155,0.254,-0.189],[0.334,-0.04,-0.123,0.0,0.001,0.169,0.266,-0.198],[0.343,-0.094,-0.161,-0.003,0.103,0.124,0.227,-0.181],[0.281,-0.036,-0.201,0.003,0.005,0.162,0.282,-0.188],[-0.391,0.045,-0.222,0.004,0.001,-0.128,-0.352,0.437]],"b":[0.393,0.807,0.248,0.446,0.351,0.311,0.346,0.309,0.783]},{"w":[[-0.121,0.48,-0.006,0.003,0.002,0.004,-0.04],[-0.293,0.004,-0.033,-0.004,-0.0,0.043,-0.176],[0.338,0.296,0.01,0.003,0.003,-0.018,0.06],[0.028,0.35,0.005,-0.006,0.005,-0.0,0.026],[0.315,-0.068,-0.226,0.002,-0.171,0.158,-0.376],[0.289,-0.031,-0.217,0.002,0.001,0.169,-0.401],[0.314,-0.087,-0.239,-0.002,0.103,0.128,-0.345],[0.25,-0.029,-0.296,0.004,0.005,0.168,-0.389],[0.215,-0.014,-0.234,0.001,-0.001,0.148,-0.434],[-0.28,0.01,-0.063,-0.004,-0.001,-0.109,0.723]],"b":[0.425,0.912,0.215,0.431,0.622,0.604,0.584,0.602,0.671,0.387]},{"w":[[-0.123,0.48,-0.006,0.003,0.002,0.003,-0.035,-0.007],[-0.307,0.005,-0.036,-0.004,-0.0,0.038,-0.138,-0.051],[0.341,0.296,0.011,0.003,0.003,-0.017,0.051,0.012],[0.029,0.35,0.005,-0.006,0.005,0.0,0.024,0.003],[0.287,-0.067,-0.232,0.002,-0.171,0.147,-0.304,-0.099],[0.262,-0.03,-0.223,0.001,0.001,0.159,-0.331,-0.097],[0.286,-0.086,-0.246,-0.002,0.103,0.117,-0.273,-0.1],[0.222,-0.028,-0.302,0.004,0.005,0.157,-0.318,-0.099],[0.189,-0.013,-0.239,0.0,-0.001,0.138,-0.368,-0.091]],"b":[0.427,0.931,0.21,0.43,0.66,0.642,0.623,0.64,0.706]},{"w":[[-0.124,0.48,-0.002,0.003,0.002,0.001,-0.033,0.016],[-0.302,0.005,-0.022,-0.004,-0.0,0.036,-0.156,0.046],[0.337,0.297,0.011,0.003,0.003,-0.019,0.061,0.004],[0.027,0.35,0.006,-0.006,0.005,-0.001,0.03,0.007],[0.276,-0.066,-0.183,0.002,-0.171,0.131,-0.298,0.18],[0.25,-0.029,-0.174,0.002,0.001,0.142,-0.322,0.182],[0.279,-0.085,-0.202,-0.002,0.103,0.104,-0.275,0.162],[0.206,-0.026,-0.248,0.004,0.005,0.138,-0.3,0.206],[-0.251,0.008,-0.094,-0.004,-0.001,-0.089,0.665,-0.133]],"b":[0.414,0.881,0.212,0.426,0.501,0.482,0.476,0.463,0.476]},{"w":[[-0.125,0.48,-0.003,0.003,0.002,0.001,-0.03,0.015,-0.005],[-0.314,0.005,-0.027,-0.004,-0.0,0.032,-0.124,0.039,-0.048],[0.34,0.296,0.012,0.003,0.003,-0.018,0.053,0.006,0.012],[0.027,0.35,0.007,-0.006,0.005,-0.001,0.027,0.008,0.004],[0.255,-0.065,-0.191,0.002,-0.171,0.124,-0.242,0.169,-0.083],[0.23,-0.028,-0.182,0.001,0.001,0.135,-0.268,0.172,-0.081],[0.258,-0.084,-0.21,-0.002,0.103,0.097,-0.218,0.15,-0.086],[0.185,-0.025,-0.255,0.004,0.005,0.13,-0.246,0.195,-0.081]],"b":[0.417,0.904,0.206,0.425,0.541,0.521,0.517,0.502]},{"w":[[-0.103,0.479,0.014,0.003,0.002,0.007,0.04],[-0.205,-0.003,0.05,-0.005,-0.001,0.066,0.157],[0.304,0.299,-0.017,0.004,0.003,-0.028,-0.048],[0.008,0.351,-0.006,-0.006,0.005,-0.007,-0.013],[0.485,-0.082,-0.045,-0.0,-0.173,0.197,0.361],[0.483,-0.047,-0.027,-0.001,-0.001,0.218,0.367],[0.465,-0.099,-0.072,-0.004,0.101,0.162,0.34],[-0.746,0.066,-0.406,0.004,0.004,-0.25,-0.532],[0.43,-0.032,-0.03,-0.002,-0.003,0.203,0.389],[-0.744,0.05,-0.376,-0.001,0.002,-0.252,-0.495]],"b":[0.368,0.663,0.299,0.468,0.087,0.036,0.093,1.388,0.057,1.399]},{"w":[[-0.116,0.479,0.007,0.003,0.002,0.003,0.031,-0.017],[-0.276,0.002,0.013,-0.005,-0.001,0.041,0.109,-0.097],[0.327,0.298,-0.006,0.004,0.003,-0.02,-0.033,0.031],[0.019,0.351,-0.001,-0.006,0.005,-0.003,-0.006,0.014],[0.343,-0.072,-0.116,-0.0,-0.173,0.149,0.267,-0.191],[0.332,-0.037,-0.103,-0.001,-0.001,0.167,0.267,-0.203],[0.332,-0.09,-0.139,-0.004,0.101,0.117,0.251,-0.179],[-0.406,0.043,-0.235,0.005,0.003,-0.135,-0.306,0.456],[0.272,-0.021,-0.11,-0.002,-0.003,0.149,0.284,-0.213]],"b":[0.392,0.798,0.257,0.448,0.354,0.32,0.344,0.75,0.354]},{"w":[[-0.114,0.479,0.014,0.003,0.002,0.003,0.031,0.023],[-0.243,-0.0,0.052,-0.004,-0.001,0.048,0.122,0.089],[0.311,0.299,-0.018,0.004,0.003,-0.024,-0.042,-0.016],[0.01,0.351,-0.006,-0.006,0.005,-0.006,-0.011,-0.005],[0.376,-0.074,-0.037,0.0,-0.172,0.146,0.263,0.252],[0.367,-0.039,-0.019,-0.0,-0.0,0.163,0.263,0.269],[0.368,-0.092,-0.065,-0.003,0.102,0.116,0.252,0.225],[-0.556,0.052,-0.42,0.003,0.003,-0.16,-0.36,-0.441],[-0.577,0.038,-0.387,-0.002,0.001,-0.174,-0.344,-0.387]],"b":[0.366,0.658,0.3,0.468,0.073,0.021,0.081,1.413,1.421]},{"w":[[-0.121,0.48,0.009,0.003,0.002,0.0,0.026,0.018,-0.013],[-0.292,0.003,0.02,-0.005,-0.001,0.033,0.093,0.057,-0.085],[0.328,0.298,-0.006,0.004,0.003,-0.019,-0.032,-0.004,0.03],[0.019,0.351,-0.001,-0.006,0.005,-0.003,-0.006,0.0,0.014],[0.29,-0.068,-0.095,0.0,-0.172,0.12,0.212,0.194,-0.149],[0.276,-0.033,-0.081,-0.0,-0.0,0.136,0.208,0.207,-0.159],[0.286,-0.087,-0.121,-0.003,0.102,0.092,0.203,0.17,-0.143],[-0.328,0.037,-0.267,0.004,0.002,-0.091,-0.224,-0.289,0.395]],"b":[0.385,0.778,0.258,0.448,0.285,0.247,0.284,0.852]},{"w":[[-0.127,0.481,0.001,0.003,0.002,-0.0,0.023,-0.031],[-0.312,0.007,-0.009,-0.004,-0.001,0.03,0.08,-0.145],[0.343,0.296,0.004,0.003,0.003,-0.015,-0.021,0.052],[0.028,0.35,0.005,-0.006,0.005,-0.0,0.001,0.027],[0.264,-0.062,-0.165,0.001,-0.172,0.123,0.204,-0.296],[0.24,-0.026,-0.159,0.001,0.0,0.137,0.194,-0.325],[0.265,-0.081,-0.181,-0.002,0.102,0.095,0.197,-0.268],[0.165,-0.008,-0.174,-0.0,-0.002,0.114,0.2,-0.356],[-0.245,0.006,-0.104,-0.004,-0.001,-0.085,-0.139,0.669]],"b":[0.411,0.864,0.228,0.431,0.499,0.487,0.466,0.551,0.471]},{"w":[[-0.128,0.481,0.001,0.003,0.002,-0.001,0.023,-0.028,-0.004],[-0.323,0.007,-0.014,-0.004,-0.001,0.026,0.073,-0.115,-0.044],[0.345,0.296,0.005,0.003,0.003,-0.014,-0.019,0.045,0.01],[0.029,0.35,0.005,-0.006,0.005,0.0,0.001,0.025,0.003],[0.244,-0.062,-0.173,0.001,-0.172,0.117,0.193,-0.243,-0.08],[0.221,-0.025,-0.168,0.001,0.0,0.13,0.183,-0.272,-0.079],[0.245,-0.081,-0.19,-0.003,0.102,0.088,0.186,-0.214,-0.081],[0.147,-0.008,-0.182,-0.0,-0.002,0.108,0.19,-0.307,-0.073]],"b":[0.413,0.884,0.223,0.429,0.537,0.524,0.504,0.585]},{"w":[[-0.128,0.481,0.003,0.003,0.002,-0.002,0.021,-0.027,0.012],[-0.317,0.007,-0.004,-0.004,-0.001,0.026,0.074,-0.134,0.03],[0.341,0.296,0.005,0.003,0.003,-0.016,-0.023,0.055,0.009],[0.027,0.35,0.006,-0.006,0.005,-0.001,-0.001,0.029,0.008],[0.24,-0.061,-0.14,0.001,-0.172,0.107,0.175,-0.245,0.144],[0.216,-0.025,-0.133,0.001,0.0,0.12,0.165,-0.272,0.148],[0.244,-0.08,-0.159,-0.002,0.102,0.081,0.172,-0.223,0.126],[-0.227,0.005,-0.123,-0.004,-0.001,-0.073,-0.117,0.63,-0.109]],"b":[0.404,0.847,0.223,0.427,0.42,0.406,0.396,0.531]},{"w":[[-0.129,0.481,0.003,0.003,0.002,-0.002,0.021,-0.025,0.011,-0.004],[-0.327,0.007,-0.009,-0.004,-0.001,0.023,0.069,-0.107,0.026,-0.042],[0.344,0.296,0.007,0.003,0.003,-0.015,-0.021,0.048,0.01,0.011],[0.028,0.35,0.007,-0.006,0.005,-0.001,-0.0,0.027,0.008,0.004],[0.224,-0.061,-0.149,0.001,-0.172,0.102,0.167,-0.201,0.136,-0.07],[0.201,-0.024,-0.142,0.001,0.0,0.115,0.157,-0.229,0.141,-0.068],[0.228,-0.08,-0.168,-0.003,0.102,0.075,0.163,-0.178,0.118,-0.073]],"b":[0.406,0.869,0.217,0.425,0.457,0.442,0.435]},{"w":[[-0.095,0.48,0.009,0.003,-0.001,0.035],[-0.177,0.006,0.031,-0.004,-0.017,0.172],[0.294,0.296,-0.011,0.003,0.008,-0.056],[0.003,0.351,-0.004,-0.006,0.007,-0.013],[0.353,-0.028,-0.048,0.003,-0.237,0.655],[0.526,-0.017,-0.07,0.002,-0.045,0.469],[0.266,0.033,-0.128,0.0,-0.026,0.352],[0.45,-0.01,-0.148,0.004,-0.044,0.494],[-0.777,0.023,-0.355,0.001,0.068,-0.672],[0.474,-0.002,-0.073,0.001,-0.049,0.481],[-0.765,0.007,-0.328,-0.004,0.064,-0.648]],"b":[0.37,0.679,0.292,0.466,0.085,0.082,0.273,0.088,1.343,0.099,1.355]},{"w":[[-0.111,0.48,0.002,0.003,0.0,0.021,-0.022],[-0.264,0.007,-0.006,-0.004,-0.01,0.098,-0.113],[0.322,0.296,0.001,0.003,0.006,-0.032,0.037],[0.016,0.351,0.002,-0.006,0.006,-0.002,0.016],[0.237,-0.027,-0.098,0.002,-0.227,0.556,-0.152],[0.344,-0.016,-0.149,0.001,-0.03,0.315,-0.238],[0.139,0.034,-0.183,-0.0,-0.015,0.244,-0.167],[0.28,-0.009,-0.22,0.003,-0.03,0.35,-0.222],[-0.407,0.019,-0.196,0.003,0.037,-0.359,0.484],[0.284,0.0,-0.154,-0.0,-0.033,0.321,-0.248]],"b":[0.4,0.833,0.242,0.443,0.291,0.404,0.499,0.388,0.688,0.435]},{"w":[[-0.109,0.48,0.012,0.003,0.0,0.02,0.03],[-0.232,0.007,0.04,-0.004,-0.012,0.116,0.116],[0.306,0.296,-0.013,0.003,0.007,-0.043,-0.027],[0.008,0.351,-0.005,-0.006,0.006,-0.008,-0.009],[0.253,-0.028,-0.033,0.003,-0.227,0.554,0.21],[0.373,-0.017,-0.047,0.001,-0.03,0.314,0.323],[0.15,0.034,-0.111,0.0,-0.014,0.234,0.245],[0.298,-0.01,-0.124,0.004,-0.029,0.339,0.321],[-0.544,0.022,-0.391,0.001,0.044,-0.435,-0.492],[-0.56,0.007,-0.36,-0.004,0.043,-0.439,-0.434]],"b":[0.367,0.668,0.295,0.466,0.064,0.05,0.248,0.056,1.392,1.398]},{"w":[[-0.118,0.48,0.006,0.003,0.001,0.013,0.023,-0.016],[-0.285,0.007,0.006,-0.004,-0.008,0.074,0.075,-0.095],[0.325,0.296,-0.0,0.003,0.006,-0.028,-0.012,0.034],[0.017,0.351,0.001,-0.006,0.005,-0.001,-0.002,0.016],[0.191,-0.027,-0.073,0.002,-0.222,0.504,0.162,-0.112],[0.274,-0.016,-0.111,0.001,-0.022,0.237,0.246,-0.177],[0.084,0.034,-0.153,-0.0,-0.009,0.182,0.194,-0.119],[0.208,-0.009,-0.181,0.004,-0.022,0.269,0.252,-0.159],[-0.317,0.019,-0.245,0.003,0.027,-0.258,-0.316,0.405]],"b":[0.39,0.8,0.247,0.444,0.221,0.297,0.414,0.279,0.825]},{"w":[[-0.124,0.481,-0.004,0.003,0.001,0.01,-0.037],[-0.306,0.01,-0.028,-0.004,-0.006,0.06,-0.166],[0.34,0.295,0.01,0.003,0.004,-0.016,0.059],[0.026,0.35,0.006,-0.006,0.005,0.007,0.029],[0.172,-0.023,-0.131,0.003,-0.221,0.498,-0.233],[0.24,-0.009,-0.201,0.002,-0.02,0.222,-0.368],[0.08,0.039,-0.213,0.001,-0.009,0.191,-0.239],[0.186,-0.003,-0.268,0.005,-0.021,0.265,-0.339],[0.165,0.008,-0.214,0.001,-0.021,0.214,-0.398],[-0.233,-0.008,-0.085,-0.005,0.017,-0.187,0.685]],"b":[0.421,0.902,0.212,0.427,0.398,0.577,0.594,0.544,0.633,0.435]},{"w":[[-0.125,0.481,-0.004,0.003,0.001,0.009,-0.033,-0.006],[-0.318,0.01,-0.032,-0.004,-0.005,0.051,-0.132,-0.049],[0.343,0.295,0.011,0.003,0.004,-0.013,0.051,0.012],[0.027,0.35,0.007,-0.006,0.005,0.007,0.026,0.004],[0.158,-0.023,-0.136,0.003,-0.22,0.487,-0.193,-0.059],[0.219,-0.01,-0.209,0.002,-0.019,0.205,-0.307,-0.089],[0.063,0.038,-0.22,0.0,-0.008,0.177,-0.187,-0.076],[0.166,-0.003,-0.275,0.004,-0.019,0.249,-0.28,-0.086],[0.145,0.007,-0.221,0.001,-0.02,0.198,-0.341,-0.083]],"b":[0.423,0.924,0.207,0.425,0.424,0.616,0.627,0.581,0.669]},{"w":[[-0.126,0.481,-0.001,0.003,0.002,0.007,-0.031,0.015],[-0.313,0.01,-0.018,-0.004,-0.005,0.051,-0.149,0.043],[0.34,0.295,0.011,0.003,0.005,-0.016,0.061,0.003],[0.025,0.35,0.008,-0.006,0.005,0.005,0.031,0.006],[0.152,-0.024,-0.106,0.003,-0.219,0.473,-0.186,0.119],[0.211,-0.01,-0.164,0.002,-0.017,0.184,-0.299,0.176],[0.054,0.037,-0.179,0.001,-0.006,0.158,-0.176,0.159],[0.154,-0.004,-0.227,0.004,-0.017,0.224,-0.263,0.191],[-0.214,-0.007,-0.111,-0.005,0.015,-0.162,0.637,-0.121]],"b":[0.411,0.875,0.21,0.423,0.323,0.465,0.493,0.422,0.511]},{"w":[[-0.127,0.481,-0.001,0.003,0.002,0.006,-0.028,0.014,-0.005],[-0.323,0.01,-0.024,-0.004,-0.004,0.043,-0.119,0.038,-0.046],[0.342,0.295,0.013,0.003,0.004,-0.014,0.053,0.005,0.013],[0.026,0.35,0.008,-0.006,0.005,0.006,0.029,0.007,0.004],[0.142,-0.024,-0.111,0.003,-0.218,0.465,-0.154,0.113,-0.05],[0.195,-0.011,-0.172,0.002,-0.015,0.172,-0.25,0.167,-0.076],[0.041,0.037,-0.187,0.0,-0.005,0.147,-0.135,0.151,-0.064],[0.139,-0.005,-0.235,0.004,-0.016,0.213,-0.218,0.183,-0.071]],"b":[0.414,0.899,0.204,0.421,0.349,0.504,0.526,0.459]},{"w":[[-0.11,0.48,0.015,0.003,0.0,0.018,0.035],[-0.239,0.008,0.052,-0.004,-0.011,0.103,0.138],[0.314,0.296,-0.017,0.003,0.007,-0.034,-0.045],[0.009,0.351,-0.006,-0.006,0.006,-0.006,-0.013],[0.258,-0.026,-0.017,0.002,-0.228,0.55,0.211],[0.383,-0.014,-0.023,0.0,-0.031,0.312,0.319],[0.153,0.036,-0.091,-0.001,-0.015,0.228,0.252],[-0.58,0.018,-0.42,0.003,0.049,-0.457,-0.437],[0.324,0.002,-0.024,-0.001,-0.034,0.316,0.334],[-0.584,0.003,-0.388,-0.002,0.046,-0.448,-0.404]],"b":[0.367,0.667,0.296,0.467,0.067,0.054,0.25,1.381,0.07,1.39]},{"w":[[-0.12,0.48,0.008,0.003,0.001,0.011,0.029,-0.016],[-0.292,0.008,0.016,-0.005,-0.007,0.063,0.102,-0.091],[0.331,0.296,-0.006,0.004,0.005,-0.02,-0.033,0.03],[0.018,0.351,-0.0,-0.006,0.005,0.001,-0.007,0.015],[0.19,-0.026,-0.062,0.002,-0.222,0.499,0.165,-0.116],[0.275,-0.013,-0.095,-0.0,-0.023,0.23,0.244,-0.184],[0.082,0.036,-0.139,-0.001,-0.009,0.173,0.203,-0.122],[-0.333,0.017,-0.255,0.004,0.029,-0.266,-0.265,0.425],[0.212,0.003,-0.098,-0.001,-0.025,0.231,0.257,-0.191]],"b":[0.389,0.793,0.255,0.446,0.227,0.309,0.42,0.791,0.335]},{"w":[[-0.117,0.48,0.015,0.003,0.001,0.011,0.028,0.021],[-0.266,0.008,0.054,-0.004,-0.008,0.078,0.111,0.081],[0.318,0.296,-0.018,0.003,0.006,-0.029,-0.04,-0.014],[0.011,0.351,-0.006,-0.006,0.006,-0.004,-0.012,-0.006],[0.206,-0.026,-0.013,0.002,-0.222,0.5,0.158,0.16],[0.303,-0.014,-0.018,0.001,-0.023,0.234,0.236,0.247],[0.093,0.035,-0.087,-0.001,-0.008,0.17,0.191,0.184],[-0.453,0.019,-0.429,0.003,0.036,-0.332,-0.305,-0.394],[-0.473,0.004,-0.396,-0.003,0.034,-0.34,-0.29,-0.341]],"b":[0.366,0.661,0.297,0.467,0.055,0.037,0.237,1.409,1.414]},{"w":[[-0.123,0.48,0.01,0.003,0.001,0.007,0.025,0.017,-0.012],[-0.304,0.008,0.022,-0.004,-0.006,0.05,0.088,0.053,-0.081],[0.332,0.296,-0.006,0.004,0.005,-0.019,-0.032,-0.004,0.029],[0.018,0.351,-0.0,-0.006,0.005,0.001,-0.007,-0.001,0.015],[0.163,-0.026,-0.049,0.002,-0.219,0.469,0.132,0.129,-0.091],[0.234,-0.014,-0.075,0.0,-0.018,0.184,0.194,0.197,-0.146],[0.049,0.036,-0.124,-0.001,-0.005,0.138,0.164,0.153,-0.093],[-0.276,0.018,-0.281,0.004,0.023,-0.205,-0.197,-0.267,0.374]],"b":[0.383,0.776,0.256,0.446,0.184,0.243,0.369,0.88]},{"w":[[-0.128,0.481,0.002,0.003,0.002,0.004,0.022,-0.03],[-0.321,0.01,-0.007,-0.004,-0.004,0.039,0.077,-0.14],[0.344,0.295,0.005,0.003,0.004,-0.01,-0.022,0.052],[0.026,0.35,0.006,-0.006,0.005,0.007,-0.001,0.029],[0.148,-0.022,-0.097,0.002,-0.219,0.464,0.129,-0.19],[0.205,-0.008,-0.152,0.001,-0.016,0.173,0.185,-0.306],[0.048,0.039,-0.167,-0.0,-0.006,0.145,0.174,-0.18],[0.13,0.008,-0.164,0.0,-0.017,0.164,0.188,-0.334],[-0.21,-0.009,-0.118,-0.004,0.015,-0.155,-0.123,0.643]],"b":[0.408,0.86,0.224,0.427,0.329,0.476,0.499,0.531,0.502]},{"w":[[-0.129,0.481,0.002,0.003,0.002,0.003,0.022,-0.027,-0.004],[-0.33,0.01,-0.012,-0.004,-0.004,0.033,0.072,-0.112,-0.043],[0.346,0.295,0.006,0.003,0.004,-0.008,-0.02,0.045,0.01],[0.027,0.35,0.007,-0.006,0.005,0.008,-0.0,0.026,0.004],[0.138,-0.023,-0.102,0.002,-0.218,0.456,0.123,-0.159,-0.048],[0.19,-0.009,-0.16,0.001,-0.015,0.161,0.176,-0.258,-0.074],[0.035,0.039,-0.174,-0.0,-0.005,0.136,0.166,-0.14,-0.062],[0.116,0.007,-0.172,-0.0,-0.017,0.154,0.18,-0.291,-0.067]],"b":[0.41,0.882,0.219,0.425,0.353,0.513,0.531,0.565]},{"w":[[-0.129,0.481,0.004,0.003,0.002,0.002,0.02,-0.026,0.011],[-0.324,0.01,-0.002,-0.004,-0.004,0.035,0.072,-0.13,0.029],[0.343,0.295,0.006,0.003,0.004,-0.011,-0.023,0.055,0.008],[0.025,0.35,0.007,-0.006,0.005,0.006,-0.002,0.031,0.007],[0.135,-0.023,-0.081,0.002,-0.217,0.448,0.11,-0.157,0.098],[0.186,-0.01,-0.128,0.001,-0.014,0.149,0.158,-0.257,0.145],[0.031,0.038,-0.146,-0.0,-0.004,0.124,0.149,-0.137,0.13],[-0.197,-0.008,-0.135,-0.004,0.013,-0.138,-0.104,0.609,-0.101]],"b":[0.403,0.845,0.22,0.424,0.277,0.399,0.43,0.556]},{"w":[[-0.13,0.481,0.003,0.003,0.002,0.002,0.02,-0.024,0.011,-0.003],[-0.333,0.01,-0.008,-0.004,-0.003,0.029,0.067,-0.105,0.025,-0.042],[0.345,0.295,0.007,0.003,0.004,-0.01,-0.022,0.048,0.009,0.011],[0.026,0.35,0.008,-0.006,0.005,0.006,-0.002,0.028,0.007,0.004],[0.127,-0.024,-0.086,0.002,-0.216,0.442,0.106,-0.131,0.093,-0.042],[0.174,-0.01,-0.137,0.001,-0.013,0.14,0.151,-0.217,0.139,-0.065],[0.021,0.038,-0.153,-0.0,-0.003,0.117,0.143,-0.104,0.125,-0.054]],"b":[0.404,0.868,0.214,0.421,0.3,0.435,0.46]},{"w":[[-0.098,0.48,0.011,0.003,-0.001,0.031,0.012],[-0.198,0.004,0.041,-0.004,-0.015,0.144,0.079],[0.302,0.297,-0.015,0.003,0.008,-0.044,-0.031],[0.006,0.351,-0.005,-0.006,0.006,-0.01,-0.009],[0.312,-0.033,-0.029,0.003,-0.233,0.601,0.153],[0.464,-0.025,-0.04,0.002,-0.039,0.387,0.234],[0.391,-0.018,-0.119,0.004,-0.038,0.416,0.22],[-0.705,0.032,-0.39,0.001,0.061,-0.578,-0.268],[0.414,-0.009,-0.045,0.001,-0.043,0.403,0.222],[-0.695,0.016,-0.362,-0.004,0.057,-0.554,-0.265]],"b":[0.367,0.658,0.301,0.468,0.044,0.018,0.028,1.416,0.039,1.427]},{"w":[[-0.112,0.48,0.003,0.003,0.0,0.019,0.007,-0.021],[-0.271,0.006,0.003,-0.004,-0.009,0.086,0.051,-0.105],[0.325,0.297,-0.003,0.003,0.006,-0.026,-0.023,0.033],[0.017,0.351,0.001,-0.006,0.005,-0.001,-0.005,0.016],[0.22,-0.031,-0.077,0.002,-0.226,0.528,0.118,-0.133],[0.319,-0.022,-0.116,0.001,-0.028,0.272,0.179,-0.208],[0.257,-0.015,-0.189,0.003,-0.027,0.309,0.168,-0.194],[-0.386,0.024,-0.223,0.003,0.035,-0.323,-0.147,0.459],[0.261,-0.005,-0.124,-0.0,-0.03,0.281,0.164,-0.22]],"b":[0.397,0.807,0.254,0.445,0.233,0.315,0.304,0.761,0.353]},{"w":[[-0.11,0.48,0.012,0.003,0.0,0.019,0.006,0.029],[-0.241,0.005,0.046,-0.004,-0.011,0.102,0.056,0.103],[0.311,0.297,-0.016,0.003,0.007,-0.036,-0.027,-0.02],[0.009,0.351,-0.005,-0.006,0.006,-0.007,-0.007,-0.008],[0.237,-0.032,-0.021,0.003,-0.225,0.527,0.112,0.183],[0.347,-0.023,-0.028,0.001,-0.027,0.274,0.172,0.28],[0.274,-0.015,-0.107,0.004,-0.026,0.302,0.157,0.282],[-0.518,0.028,-0.41,0.001,0.042,-0.396,-0.168,-0.451],[-0.533,0.013,-0.38,-0.004,0.04,-0.397,-0.178,-0.39]],"b":[0.366,0.654,0.302,0.468,0.037,0.007,0.017,1.433,1.442]},{"w":[[-0.118,0.48,0.006,0.003,0.001,0.013,0.003,0.023,-0.016],[-0.289,0.006,0.012,-0.004,-0.007,0.067,0.04,0.068,-0.09],[0.327,0.297,-0.004,0.003,0.006,-0.024,-0.021,-0.008,0.031],[0.017,0.351,0.001,-0.006,0.005,-0.001,-0.004,-0.002,0.015],[0.183,-0.03,-0.059,0.002,-0.221,0.487,0.094,0.144,-0.101],[0.262,-0.021,-0.089,0.001,-0.021,0.21,0.143,0.218,-0.16],[0.197,-0.013,-0.161,0.004,-0.021,0.245,0.131,0.226,-0.144],[-0.309,0.023,-0.26,0.003,0.026,-0.24,-0.098,-0.297,0.394]],"b":[0.389,0.784,0.256,0.446,0.182,0.238,0.224,0.866]},{"w":[[-0.124,0.481,-0.003,0.003,0.001,0.01,0.002,-0.037],[-0.309,0.009,-0.02,-0.004,-0.006,0.053,0.036,-0.157],[0.341,0.295,0.007,0.003,0.004,-0.012,-0.017,0.055],[0.026,0.35,0.006,-0.006,0.005,0.007,-0.001,0.029],[0.164,-0.027,-0.111,0.003,-0.22,0.48,0.096,-0.21],[0.228,-0.014,-0.17,0.002,-0.019,0.194,0.145,-0.334],[0.175,-0.008,-0.239,0.005,-0.02,0.239,0.138,-0.307],[0.155,0.003,-0.188,0.001,-0.02,0.19,0.123,-0.368],[-0.226,-0.005,-0.104,-0.005,0.016,-0.171,-0.087,0.664]],"b":[0.419,0.881,0.222,0.427,0.341,0.491,0.462,0.56,0.487]},{"w":[[-0.125,0.481,-0.004,0.003,0.001,0.009,0.002,-0.033,-0.006],[-0.32,0.009,-0.025,-0.004,-0.005,0.045,0.032,-0.126,-0.047],[0.344,0.295,0.008,0.003,0.004,-0.011,-0.016,0.048,0.011],[0.027,0.35,0.007,-0.006,0.005,0.008,-0.001,0.026,0.004],[0.152,-0.027,-0.116,0.003,-0.219,0.471,0.092,-0.176,-0.052],[0.21,-0.015,-0.179,0.002,-0.018,0.181,0.138,-0.281,-0.079],[0.158,-0.008,-0.247,0.004,-0.018,0.226,0.131,-0.256,-0.076],[0.138,0.002,-0.196,0.001,-0.019,0.178,0.117,-0.319,-0.074]],"b":[0.422,0.903,0.217,0.425,0.367,0.529,0.499,0.596]},{"w":[[-0.126,0.481,-0.001,0.003,0.002,0.007,0.001,-0.031,0.015],[-0.315,0.009,-0.013,-0.004,-0.005,0.046,0.032,-0.143,0.038],[0.34,0.295,0.008,0.003,0.004,-0.014,-0.017,0.058,0.006],[0.025,0.35,0.007,-0.006,0.005,0.006,-0.002,0.031,0.006],[0.148,-0.027,-0.091,0.003,-0.218,0.459,0.083,-0.171,0.106],[0.204,-0.015,-0.141,0.002,-0.016,0.164,0.125,-0.276,0.156],[0.148,-0.008,-0.206,0.004,-0.016,0.206,0.116,-0.243,0.173],[-0.21,-0.005,-0.124,-0.005,0.014,-0.15,-0.073,0.624,-0.109]],"b":[0.411,0.859,0.219,0.424,0.282,0.404,0.365,0.548]},{"w":[[-0.127,0.481,-0.001,0.003,0.002,0.006,0.0,-0.028,0.014,-0.005],[-0.324,0.009,-0.018,-0.004,-0.004,0.039,0.028,-0.116,0.033,-0.044],[0.343,0.295,0.009,0.003,0.004,-0.012,-0.017,0.051,0.007,0.011],[0.026,0.35,0.008,-0.006,0.005,0.006,-0.001,0.028,0.007,0.004],[0.138,-0.027,-0.096,0.003,-0.218,0.453,0.08,-0.144,0.101,-0.045],[0.19,-0.015,-0.15,0.002,-0.015,0.154,0.12,-0.234,0.148,-0.068],[0.135,-0.009,-0.214,0.004,-0.015,0.197,0.112,-0.203,0.166,-0.064]],"b":[0.413,0.884,0.213,0.421,0.307,0.441,0.4]},{"w":[[-0.111,0.48,0.015,0.003,0.0,0.017,0.005,0.034],[-0.247,0.006,0.056,-0.004,-0.01,0.092,0.051,0.125],[0.317,0.296,-0.019,0.003,0.006,-0.028,-0.023,-0.039],[0.01,0.351,-0.006,-0.006,0.006,-0.005,-0.006,-0.012],[0.241,-0.03,-0.007,0.002,-0.226,0.525,0.112,0.183],[0.356,-0.02,-0.008,0.0,-0.029,0.273,0.174,0.275],[-0.552,0.025,-0.436,0.003,0.046,-0.415,-0.182,-0.391],[0.299,-0.004,-0.01,-0.001,-0.032,0.281,0.158,0.294],[-0.555,0.01,-0.405,-0.002,0.043,-0.406,-0.186,-0.357]],"b":[0.366,0.654,0.302,0.468,0.039,0.011,1.427,0.03,1.437]},{"w":[[-0.12,0.48,0.009,0.003,0.001,0.01,0.002,0.029,-0.015],[-0.295,0.007,0.021,-0.005,-0.007,0.057,0.035,0.094,-0.087],[0.333,0.296,-0.008,0.004,0.005,-0.017,-0.018,-0.029,0.027],[0.018,0.351,-0.001,-0.006,0.005,0.001,-0.003,-0.007,0.014],[0.183,-0.029,-0.049,0.002,-0.222,0.482,0.093,0.146,-0.104],[0.264,-0.019,-0.075,0.0,-0.022,0.205,0.143,0.215,-0.166],[-0.324,0.021,-0.27,0.004,0.028,-0.248,-0.106,-0.244,0.412],[0.202,-0.002,-0.081,-0.001,-0.024,0.209,0.125,0.231,-0.175]],"b":[0.388,0.779,0.262,0.447,0.188,0.25,0.835,0.282]},{"w":[[-0.117,0.48,0.015,0.003,0.001,0.011,0.001,0.028,0.021],[-0.269,0.006,0.057,-0.004,-0.008,0.071,0.039,0.104,0.073],[0.32,0.296,-0.019,0.003,0.006,-0.026,-0.021,-0.036,-0.01],[0.012,0.351,-0.006,-0.006,0.006,-0.003,-0.005,-0.011,-0.005],[0.198,-0.029,-0.006,0.002,-0.222,0.485,0.09,0.141,0.143],[0.29,-0.019,-0.005,0.001,-0.022,0.211,0.139,0.21,0.221],[-0.441,0.023,-0.44,0.002,0.035,-0.311,-0.124,-0.282,-0.371],[-0.461,0.009,-0.408,-0.003,0.033,-0.317,-0.137,-0.264,-0.316]],"b":[0.366,0.652,0.302,0.468,0.034,0.004,1.438,1.446]},{"w":[[-0.123,0.48,0.01,0.003,0.001,0.007,-0.0,0.025,0.017,-0.012],[-0.305,0.007,0.025,-0.004,-0.006,0.046,0.029,0.083,0.049,-0.078],[0.333,0.296,-0.008,0.004,0.005,-0.017,-0.018,-0.029,-0.001,0.027],[0.018,0.351,-0.001,-0.006,0.005,0.001,-0.003,-0.007,-0.0,0.014],[0.159,-0.029,-0.04,0.002,-0.219,0.458,0.078,0.119,0.117,-0.084],[0.228,-0.018,-0.061,0.0,-0.017,0.168,0.12,0.174,0.179,-0.135],[-0.272,0.02,-0.29,0.003,0.022,-0.195,-0.074,-0.185,-0.256,0.367]],"b":[0.383,0.765,0.263,0.447,0.156,0.199,0.907]},{"w":[[-0.128,0.481,0.002,0.003,0.002,0.004,-0.001,0.023,-0.03],[-0.322,0.009,-0.003,-0.004,-0.004,0.036,0.026,0.073,-0.135],[0.345,0.295,0.002,0.003,0.004,-0.008,-0.014,-0.019,0.05],[0.026,0.35,0.006,-0.006,0.005,0.007,-0.001,-0.001,0.029],[0.144,-0.026,-0.083,0.002,-0.218,0.452,0.08,0.115,-0.175],[0.199,-0.013,-0.131,0.001,-0.016,0.155,0.122,0.164,-0.284],[0.125,0.004,-0.147,0.0,-0.017,0.149,0.1,0.17,-0.316],[-0.207,-0.006,-0.13,-0.004,0.014,-0.144,-0.072,-0.111,0.63]],"b":[0.409,0.847,0.231,0.428,0.288,0.415,0.481,0.538]},{"w":[[-0.129,0.481,0.001,0.003,0.002,0.004,-0.001,0.022,-0.027,-0.004],[-0.331,0.009,-0.008,-0.004,-0.004,0.03,0.023,0.068,-0.109,-0.042],[0.347,0.295,0.004,0.003,0.004,-0.006,-0.013,-0.018,0.044,0.01],[0.027,0.35,0.007,-0.006,0.005,0.008,-0.001,-0.0,0.026,0.004],[0.135,-0.026,-0.089,0.002,-0.217,0.446,0.077,0.11,-0.148,-0.044],[0.186,-0.014,-0.14,0.001,-0.015,0.145,0.117,0.156,-0.241,-0.067],[0.112,0.004,-0.155,-0.0,-0.016,0.141,0.096,0.164,-0.277,-0.061]],"b":[0.411,0.87,0.226,0.426,0.312,0.451,0.514]},{"w":[[-0.129,0.481,0.004,0.003,0.002,0.002,-0.002,0.021,-0.026,0.011],[-0.325,0.009,0.001,-0.004,-0.004,0.032,0.024,0.068,-0.127,0.026],[0.344,0.295,0.004,0.003,0.004,-0.009,-0.015,-0.021,0.053,0.01],[0.025,0.35,0.007,-0.006,0.005,0.006,-0.002,-0.002,0.031,0.007],[0.133,-0.026,-0.07,0.002,-0.217,0.439,0.072,0.1,-0.147,0.088],[0.183,-0.014,-0.112,0.001,-0.014,0.135,0.109,0.142,-0.242,0.131],[-0.195,-0.005,-0.144,-0.004,0.013,-0.13,-0.062,-0.095,0.601,-0.092]],"b":[0.403,0.834,0.227,0.424,0.246,0.352,0.582]},{"w":[[-0.13,0.481,0.003,0.003,0.002,0.002,-0.002,0.02,-0.024,0.011,-0.003],[-0.333,0.009,-0.005,-0.004,-0.003,0.026,0.021,0.064,-0.103,0.023,-0.04],[0.346,0.295,0.005,0.003,0.004,-0.008,-0.014,-0.02,0.046,0.011,0.01],[0.026,0.35,0.008,-0.006,0.005,0.007,-0.001,-0.002,0.028,0.007,0.004],[0.126,-0.026,-0.076,0.002,-0.216,0.434,0.069,0.096,-0.124,0.085,-0.038],[0.171,-0.014,-0.12,0.001,-0.013,0.128,0.105,0.136,-0.207,0.126,-0.059]],"b":[0.405,0.858,0.221,0.422,0.268,0.386]},{"w":[[-0.109,0.479,0.01,0.003,0.002,0.048],[-0.204,-0.001,0.029,-0.004,0.0,0.187],[0.31,0.298,-0.011,0.003,0.003,-0.069],[0.008,0.351,-0.004,-0.006,0.005,-0.016],[0.523,-0.078,-0.103,0.001,-0.17,0.42],[0.495,-0.096,-0.124,-0.003,0.104,0.386],[0.235,0.016,-0.137,-0.001,0.01,0.358],[0.45,-0.038,-0.167,0.003,0.006,0.454],[-0.747,0.057,-0.334,0.003,-0.0,-0.651],[0.455,-0.027,-0.089,-0.001,0.0,0.463],[-0.754,0.042,-0.304,-0.002,-0.002,-0.608]],"b":[0.369,0.682,0.293,0.466,0.15,0.145,0.283,0.111,1.317,0.118,1.326]},{"w":[[-0.121,0.48,0.006,0.003,0.002,0.039,-0.015],[-0.279,0.003,-0.002,-0.004,-0.0,0.126,-0.1],[0.332,0.297,-0.002,0.004,0.003,-0.051,0.029],[0.019,0.351,0.0,-0.006,0.005,-0.007,0.015],[0.358,-0.069,-0.17,0.0,-0.17,0.287,-0.218],[0.343,-0.088,-0.185,-0.003,0.104,0.264,-0.201],[0.122,0.023,-0.183,-0.001,0.01,0.267,-0.149],[0.287,-0.029,-0.233,0.002,0.006,0.322,-0.217],[-0.395,0.038,-0.192,0.004,0.001,-0.368,0.466],[0.278,-0.017,-0.161,-0.001,-0.0,0.32,-0.235]],"b":[0.389,0.815,0.254,0.446,0.439,0.412,0.481,0.398,0.699,0.429]},{"w":[[-0.119,0.48,0.012,0.003,0.002,0.039,0.021],[-0.248,0.002,0.038,-0.004,0.0,0.142,0.098],[0.317,0.297,-0.013,0.003,0.003,-0.061,-0.016],[0.011,0.351,-0.005,-0.006,0.005,-0.013,-0.007],[0.389,-0.07,-0.077,0.001,-0.17,0.283,0.294],[0.377,-0.089,-0.101,-0.003,0.104,0.266,0.26],[0.135,0.022,-0.118,-0.0,0.01,0.256,0.221],[0.308,-0.029,-0.139,0.003,0.006,0.309,0.312],[-0.536,0.045,-0.375,0.003,0.0,-0.437,-0.464],[-0.565,0.031,-0.342,-0.002,-0.002,-0.416,-0.416]],"b":[0.367,0.67,0.295,0.467,0.115,0.114,0.257,0.074,1.372,1.375]},{"w":[[-0.125,0.48,0.008,0.003,0.002,0.034,0.016,-0.011],[-0.297,0.004,0.008,-0.004,-0.0,0.106,0.062,-0.086],[0.333,0.297,-0.003,0.004,0.003,-0.05,-0.004,0.028],[0.019,0.351,0.0,-0.006,0.005,-0.007,-0.001,0.015],[0.296,-0.065,-0.133,0.001,-0.17,0.215,0.225,-0.165],[0.289,-0.084,-0.154,-0.003,0.104,0.201,0.195,-0.155],[0.074,0.026,-0.154,-0.001,0.01,0.211,0.176,-0.108],[0.218,-0.024,-0.194,0.003,0.006,0.243,0.246,-0.159],[-0.312,0.033,-0.24,0.004,0.001,-0.272,-0.299,0.396]],"b":[0.382,0.788,0.256,0.447,0.342,0.328,0.405,0.293,0.828]},{"w":[[-0.13,0.481,0.001,0.003,0.002,0.031,-0.027],[-0.315,0.008,-0.021,-0.004,0.0,0.09,-0.148],[0.346,0.295,0.005,0.003,0.003,-0.037,0.049],[0.028,0.35,0.005,-0.006,0.005,0.001,0.027],[0.274,-0.059,-0.214,0.002,-0.17,0.203,-0.333],[0.272,-0.079,-0.223,-0.002,0.104,0.192,-0.298],[0.076,0.029,-0.208,-0.0,0.01,0.219,-0.214],[0.2,-0.018,-0.279,0.004,0.006,0.236,-0.335],[0.169,-0.005,-0.217,0.0,0.0,0.213,-0.383],[-0.244,0.003,-0.077,-0.004,-0.002,-0.164,0.683]],"b":[0.405,0.877,0.229,0.43,0.589,0.538,0.564,0.552,0.623,0.427]},{"w":[[-0.131,0.481,0.001,0.003,0.002,0.03,-0.025,-0.004],[-0.326,0.008,-0.024,-0.004,-0.0,0.083,-0.117,-0.046],[0.349,0.295,0.006,0.003,0.003,-0.035,0.042,0.01],[0.029,0.35,0.005,-0.006,0.005,0.002,0.025,0.003],[0.252,-0.059,-0.221,0.001,-0.17,0.187,-0.27,-0.092],[0.25,-0.079,-0.23,-0.002,0.104,0.177,-0.236,-0.091],[0.058,0.029,-0.214,-0.0,0.01,0.207,-0.164,-0.073],[0.178,-0.018,-0.286,0.003,0.006,0.221,-0.274,-0.089],[0.149,-0.004,-0.223,-0.0,0.0,0.2,-0.327,-0.082]],"b":[0.407,0.897,0.225,0.429,0.628,0.577,0.595,0.59,0.658]},{"w":[[-0.132,0.481,0.004,0.003,0.002,0.028,-0.023,0.01],[-0.32,0.008,-0.013,-0.004,0.0,0.083,-0.135,0.035],[0.345,0.295,0.007,0.003,0.003,-0.039,0.052,0.009],[0.027,0.35,0.007,-0.006,0.005,-0.0,0.03,0.007],[0.245,-0.058,-0.178,0.002,-0.17,0.166,-0.268,0.17],[0.247,-0.078,-0.191,-0.002,0.104,0.16,-0.242,0.148],[0.051,0.029,-0.176,-0.0,0.01,0.187,-0.157,0.148],[0.168,-0.018,-0.237,0.004,0.006,0.195,-0.261,0.191],[-0.224,0.002,-0.103,-0.004,-0.002,-0.138,0.636,-0.121]],"b":[0.399,0.855,0.223,0.426,0.483,0.446,0.472,0.433,0.503]},{"w":[[-0.132,0.481,0.003,0.003,0.002,0.028,-0.022,0.01,-0.003],[-0.33,0.008,-0.017,-0.004,-0.0,0.077,-0.107,0.03,-0.043],[0.347,0.295,0.008,0.003,0.003,-0.037,0.045,0.01,0.01],[0.027,0.35,0.007,-0.006,0.005,0.0,0.027,0.008,0.004],[0.228,-0.058,-0.186,0.001,-0.17,0.155,-0.218,0.16,-0.079],[0.23,-0.078,-0.199,-0.002,0.104,0.149,-0.191,0.138,-0.08],[0.037,0.029,-0.183,-0.0,0.01,0.179,-0.118,0.141,-0.061],[0.151,-0.017,-0.245,0.003,0.006,0.185,-0.214,0.182,-0.074]],"b":[0.4,0.877,0.218,0.424,0.522,0.486,0.503,0.47]},{"w":[[-0.121,0.48,0.015,0.003,0.002,0.036,0.026],[-0.258,0.004,0.049,-0.005,-0.001,0.132,0.121],[0.326,0.297,-0.017,0.004,0.003,-0.053,-0.034],[0.012,0.351,-0.006,-0.006,0.005,-0.011,-0.011],[0.386,-0.067,-0.052,-0.0,-0.172,0.281,0.305],[0.369,-0.085,-0.077,-0.004,0.102,0.259,0.281],[0.131,0.025,-0.099,-0.001,0.009,0.254,0.23],[-0.561,0.042,-0.402,0.004,0.002,-0.464,-0.412],[0.312,-0.015,-0.036,-0.002,-0.002,0.319,0.318],[-0.578,0.028,-0.37,-0.001,0.0,-0.431,-0.391]],"b":[0.366,0.669,0.297,0.467,0.116,0.114,0.257,1.363,0.083,1.37]},{"w":[[-0.127,0.481,0.011,0.003,0.002,0.032,0.022,-0.01],[-0.305,0.006,0.019,-0.005,-0.001,0.097,0.089,-0.081],[0.339,0.296,-0.008,0.004,0.003,-0.043,-0.025,0.024],[0.02,0.35,-0.001,-0.006,0.005,-0.006,-0.006,0.013],[0.29,-0.062,-0.114,-0.0,-0.172,0.21,0.24,-0.166],[0.28,-0.081,-0.133,-0.004,0.102,0.193,0.221,-0.153],[0.069,0.028,-0.139,-0.001,0.009,0.207,0.188,-0.109],[-0.323,0.031,-0.25,0.005,0.002,-0.287,-0.251,0.411],[0.207,-0.01,-0.103,-0.002,-0.002,0.241,0.247,-0.181]],"b":[0.38,0.78,0.264,0.449,0.343,0.324,0.406,0.799,0.331]},{"w":[[-0.126,0.481,0.015,0.003,0.002,0.032,0.022,0.014],[-0.279,0.005,0.052,-0.005,-0.001,0.111,0.1,0.066],[0.327,0.296,-0.017,0.004,0.003,-0.051,-0.033,-0.005],[0.014,0.351,-0.006,-0.006,0.005,-0.01,-0.01,-0.004],[0.317,-0.064,-0.044,0.0,-0.171,0.211,0.235,0.221],[0.309,-0.083,-0.07,-0.003,0.103,0.198,0.22,0.191],[0.08,0.027,-0.093,-0.001,0.009,0.201,0.178,0.165],[-0.445,0.036,-0.416,0.004,0.002,-0.346,-0.294,-0.372],[-0.476,0.023,-0.382,-0.002,-0.0,-0.327,-0.287,-0.326]],"b":[0.365,0.663,0.297,0.467,0.097,0.098,0.244,1.394,1.397]},{"w":[[-0.13,0.481,0.012,0.003,0.002,0.029,0.019,0.012,-0.008],[-0.314,0.006,0.024,-0.005,-0.001,0.087,0.079,0.043,-0.073],[0.339,0.296,-0.008,0.004,0.003,-0.043,-0.026,0.003,0.024],[0.02,0.35,-0.001,-0.006,0.005,-0.006,-0.006,0.001,0.014],[0.253,-0.061,-0.095,0.0,-0.171,0.167,0.196,0.177,-0.134],[0.249,-0.08,-0.118,-0.004,0.103,0.156,0.184,0.15,-0.126],[0.04,0.029,-0.125,-0.001,0.009,0.174,0.154,0.138,-0.084],[-0.271,0.028,-0.276,0.004,0.002,-0.226,-0.189,-0.253,0.366]],"b":[0.377,0.765,0.263,0.448,0.285,0.274,0.36,0.883]},{"w":[[-0.133,0.481,0.006,0.003,0.002,0.027,0.017,-0.021],[-0.328,0.009,-0.001,-0.004,-0.0,0.074,0.069,-0.125],[0.35,0.295,0.0,0.003,0.003,-0.033,-0.017,0.043],[0.028,0.35,0.005,-0.006,0.005,0.001,0.0,0.027],[0.235,-0.056,-0.16,0.001,-0.171,0.157,0.194,-0.268],[0.236,-0.076,-0.172,-0.003,0.103,0.149,0.183,-0.237],[0.043,0.032,-0.162,-0.001,0.009,0.18,0.165,-0.158],[0.132,-0.001,-0.165,-0.0,-0.001,0.17,0.186,-0.321],[-0.219,0.001,-0.112,-0.004,-0.001,-0.134,-0.127,0.64]],"b":[0.395,0.839,0.238,0.43,0.481,0.436,0.473,0.52,0.497]},{"w":[[-0.134,0.481,0.006,0.003,0.002,0.026,0.017,-0.02,-0.002],[-0.337,0.009,-0.006,-0.004,-0.0,0.068,0.064,-0.099,-0.04],[0.352,0.295,0.001,0.003,0.003,-0.032,-0.015,0.038,0.008],[0.028,0.35,0.005,-0.006,0.005,0.002,0.001,0.025,0.003],[0.219,-0.056,-0.169,0.001,-0.171,0.147,0.185,-0.22,-0.076],[0.219,-0.075,-0.181,-0.003,0.103,0.138,0.174,-0.188,-0.076],[0.03,0.032,-0.169,-0.001,0.009,0.172,0.157,-0.121,-0.059],[0.117,-0.001,-0.173,-0.001,-0.001,0.161,0.177,-0.278,-0.066]],"b":[0.396,0.859,0.234,0.429,0.519,0.474,0.503,0.553]},{"w":[[-0.134,0.481,0.007,0.003,0.002,0.025,0.016,-0.019,0.007],[-0.331,0.009,0.003,-0.004,-0.0,0.07,0.065,-0.118,0.023],[0.348,0.295,0.002,0.003,0.003,-0.035,-0.019,0.047,0.012],[0.027,0.35,0.006,-0.006,0.005,-0.0,-0.001,0.029,0.007],[0.217,-0.055,-0.138,0.001,-0.171,0.133,0.169,-0.224,0.137],[0.22,-0.075,-0.153,-0.003,0.103,0.129,0.162,-0.199,0.117],[0.027,0.032,-0.143,-0.001,0.009,0.16,0.143,-0.12,0.121],[-0.206,0.001,-0.129,-0.004,-0.001,-0.117,-0.108,0.608,-0.1]],"b":[0.392,0.827,0.232,0.426,0.41,0.376,0.41,0.55]},{"w":[[-0.135,0.481,0.007,0.003,0.002,0.025,0.016,-0.018,0.007,-0.002],[-0.339,0.009,-0.002,-0.004,-0.0,0.065,0.061,-0.094,0.019,-0.039],[0.35,0.295,0.004,0.003,0.003,-0.034,-0.018,0.041,0.013,0.009],[0.027,0.35,0.007,-0.006,0.005,0.0,-0.001,0.027,0.008,0.004],[0.203,-0.055,-0.146,0.001,-0.171,0.126,0.161,-0.183,0.131,-0.067],[0.206,-0.075,-0.162,-0.003,0.103,0.121,0.154,-0.158,0.11,-0.068],[0.016,0.032,-0.149,-0.001,0.009,0.154,0.137,-0.089,0.116,-0.051]],"b":[0.393,0.849,0.227,0.424,0.447,0.413,0.439]},{"w":[[-0.111,0.479,0.011,0.003,0.002,0.047,0.005],[-0.219,-0.002,0.037,-0.004,-0.001,0.164,0.062],[0.316,0.298,-0.014,0.003,0.003,-0.06,-0.023],[0.009,0.351,-0.005,-0.006,0.005,-0.014,-0.007],[0.476,-0.082,-0.076,0.001,-0.172,0.348,0.2],[0.456,-0.099,-0.101,-0.003,0.102,0.327,0.164],[0.402,-0.041,-0.139,0.003,0.004,0.38,0.205],[-0.692,0.061,-0.366,0.003,0.002,-0.568,-0.234],[0.408,-0.03,-0.062,-0.001,-0.002,0.391,0.2],[-0.698,0.046,-0.337,-0.002,0.0,-0.523,-0.24]],"b":[0.368,0.664,0.299,0.468,0.093,0.099,0.053,1.383,0.062,1.394]},{"w":[[-0.121,0.48,0.006,0.003,0.002,0.039,0.001,-0.015],[-0.284,0.003,0.006,-0.004,-0.001,0.115,0.04,-0.094],[0.334,0.297,-0.005,0.003,0.003,-0.046,-0.017,0.027],[0.019,0.351,-0.0,-0.006,0.005,-0.007,-0.003,0.014],[0.34,-0.073,-0.142,0.0,-0.172,0.246,0.153,-0.195],[0.329,-0.09,-0.163,-0.003,0.102,0.232,0.12,-0.183],[0.267,-0.032,-0.204,0.003,0.004,0.28,0.159,-0.193],[-0.38,0.041,-0.215,0.004,0.002,-0.334,-0.127,0.447],[0.26,-0.02,-0.133,-0.001,-0.002,0.28,0.149,-0.212]],"b":[0.389,0.796,0.262,0.448,0.365,0.354,0.322,0.76,0.358]},{"w":[[-0.119,0.48,0.012,0.003,0.002,0.039,0.001,0.021],[-0.254,0.001,0.043,-0.004,-0.0,0.13,0.045,0.088],[0.32,0.298,-0.015,0.003,0.003,-0.056,-0.021,-0.011],[0.011,0.351,-0.005,-0.006,0.005,-0.012,-0.006,-0.005],[0.369,-0.074,-0.06,0.001,-0.171,0.246,0.147,0.262],[0.361,-0.092,-0.087,-0.003,0.103,0.236,0.117,0.234],[0.288,-0.033,-0.122,0.003,0.005,0.271,0.149,0.28],[-0.516,0.048,-0.392,0.003,0.001,-0.399,-0.148,-0.431],[-0.543,0.035,-0.361,-0.002,-0.0,-0.374,-0.164,-0.38]],"b":[0.367,0.659,0.3,0.468,0.077,0.084,0.036,1.41,1.417]},{"w":[[-0.125,0.48,0.008,0.003,0.002,0.034,-0.001,0.017,-0.011],[-0.299,0.004,0.013,-0.004,-0.0,0.099,0.031,0.056,-0.082],[0.334,0.297,-0.005,0.003,0.003,-0.046,-0.017,-0.001,0.027],[0.019,0.351,-0.0,-0.006,0.005,-0.007,-0.003,0.0,0.014],[0.287,-0.068,-0.114,0.001,-0.171,0.189,0.123,0.204,-0.152],[0.282,-0.087,-0.139,-0.003,0.103,0.182,0.094,0.179,-0.145],[0.209,-0.028,-0.174,0.003,0.005,0.217,0.125,0.224,-0.145],[-0.306,0.035,-0.253,0.004,0.002,-0.254,-0.085,-0.284,0.387]],"b":[0.383,0.776,0.262,0.448,0.292,0.29,0.242,0.862]},{"w":[[-0.13,0.481,0.001,0.003,0.002,0.031,-0.002,-0.028],[-0.317,0.007,-0.014,-0.004,-0.0,0.084,0.029,-0.142],[0.347,0.295,0.002,0.003,0.003,-0.034,-0.012,0.046],[0.028,0.35,0.005,-0.006,0.005,0.001,-0.0,0.027],[0.264,-0.063,-0.188,0.002,-0.171,0.174,0.128,-0.306],[0.265,-0.082,-0.202,-0.002,0.103,0.17,0.099,-0.277],[0.19,-0.022,-0.251,0.004,0.005,0.207,0.133,-0.306],[0.16,-0.008,-0.193,0.0,-0.001,0.188,0.116,-0.358],[-0.238,0.005,-0.094,-0.004,-0.001,-0.145,-0.084,0.665]],"b":[0.406,0.861,0.236,0.43,0.516,0.482,0.477,0.557,0.475]},{"w":[[-0.131,0.481,0.001,0.003,0.002,0.03,-0.002,-0.025,-0.004],[-0.327,0.007,-0.019,-0.004,-0.0,0.077,0.025,-0.113,-0.044],[0.35,0.295,0.003,0.003,0.003,-0.033,-0.012,0.04,0.009],[0.029,0.35,0.005,-0.006,0.005,0.002,-0.0,0.025,0.003],[0.245,-0.062,-0.196,0.001,-0.171,0.162,0.121,-0.251,-0.083],[0.245,-0.081,-0.21,-0.002,0.103,0.158,0.092,-0.221,-0.084],[0.171,-0.022,-0.259,0.004,0.005,0.195,0.126,-0.253,-0.08],[0.143,-0.008,-0.2,0.0,-0.001,0.177,0.11,-0.309,-0.074]],"b":[0.408,0.882,0.232,0.429,0.556,0.522,0.515,0.593]},{"w":[[-0.131,0.481,0.003,0.003,0.002,0.029,-0.003,-0.024,0.011],[-0.322,0.007,-0.008,-0.004,-0.0,0.078,0.025,-0.131,0.031],[0.346,0.295,0.004,0.003,0.003,-0.036,-0.014,0.05,0.011],[0.027,0.35,0.006,-0.006,0.005,-0.0,-0.001,0.03,0.007],[0.24,-0.062,-0.158,0.002,-0.171,0.146,0.11,-0.251,0.153],[0.243,-0.081,-0.176,-0.002,0.103,0.145,0.084,-0.228,0.135],[0.162,-0.021,-0.218,0.004,0.005,0.174,0.113,-0.244,0.175],[-0.22,0.005,-0.116,-0.004,-0.001,-0.125,-0.071,0.625,-0.11]],"b":[0.4,0.843,0.23,0.426,0.431,0.406,0.379,0.536]},{"w":[[-0.132,0.481,0.003,0.003,0.002,0.029,-0.003,-0.022,0.01,-0.003],[-0.331,0.007,-0.013,-0.004,-0.0,0.073,0.022,-0.105,0.027,-0.042],[0.348,0.295,0.006,0.003,0.003,-0.035,-0.013,0.044,0.012,0.01],[0.027,0.35,0.007,-0.006,0.005,0.0,-0.001,0.027,0.008,0.004],[0.224,-0.061,-0.166,0.001,-0.171,0.137,0.105,-0.206,0.145,-0.072],[0.227,-0.08,-0.185,-0.002,0.103,0.135,0.078,-0.182,0.127,-0.075],[0.147,-0.021,-0.225,0.004,0.005,0.166,0.108,-0.202,0.167,-0.067]],"b":[0.402,0.866,0.225,0.424,0.469,0.446,0.416]},{"w":[[-0.121,0.48,0.015,0.003,0.002,0.037,-0.001,0.026],[-0.263,0.003,0.053,-0.005,-0.001,0.122,0.039,0.112],[0.328,0.297,-0.019,0.004,0.003,-0.049,-0.017,-0.03],[0.013,0.351,-0.006,-0.006,0.005,-0.01,-0.005,-0.01],[0.367,-0.07,-0.038,0.0,-0.173,0.245,0.144,0.272],[0.354,-0.088,-0.066,-0.003,0.101,0.23,0.112,0.255],[-0.541,0.046,-0.418,0.004,0.004,-0.425,-0.157,-0.376],[0.293,-0.018,-0.022,-0.002,-0.003,0.283,0.141,0.285],[-0.556,0.032,-0.386,-0.001,0.002,-0.389,-0.167,-0.352]],"b":[0.366,0.658,0.301,0.468,0.079,0.085,1.403,0.046,1.413]},{"w":[[-0.127,0.481,0.011,0.003,0.002,0.033,-0.002,0.023,-0.011],[-0.307,0.005,0.023,-0.005,-0.001,0.092,0.026,0.084,-0.078],[0.34,0.296,-0.01,0.004,0.003,-0.04,-0.013,-0.023,0.022],[0.02,0.351,-0.001,-0.006,0.005,-0.005,-0.002,-0.005,0.013],[0.282,-0.066,-0.097,-0.0,-0.173,0.185,0.118,0.218,-0.153],[0.274,-0.084,-0.121,-0.004,0.102,0.174,0.088,0.205,-0.144],[-0.317,0.033,-0.263,0.004,0.003,-0.268,-0.09,-0.235,0.402],[0.199,-0.013,-0.087,-0.002,-0.003,0.217,0.113,0.226,-0.169]],"b":[0.381,0.769,0.269,0.449,0.295,0.288,0.836,0.285]},{"w":[[-0.125,0.481,0.015,0.003,0.002,0.032,-0.003,0.022,0.015],[-0.281,0.004,0.054,-0.004,-0.001,0.105,0.031,0.094,0.061],[0.329,0.297,-0.019,0.004,0.003,-0.048,-0.017,-0.03,-0.003],[0.014,0.351,-0.006,-0.006,0.005,-0.009,-0.004,-0.009,-0.003],[0.308,-0.067,-0.034,0.0,-0.172,0.188,0.116,0.214,0.202],[0.302,-0.085,-0.062,-0.003,0.102,0.18,0.087,0.205,0.177],[-0.437,0.039,-0.426,0.003,0.003,-0.324,-0.107,-0.275,-0.354],[-0.466,0.026,-0.393,-0.002,0.001,-0.302,-0.124,-0.265,-0.306]],"b":[0.366,0.656,0.301,0.468,0.069,0.077,1.42,1.427]},{"w":[[-0.129,0.481,0.012,0.003,0.002,0.03,-0.004,0.02,0.012,-0.009],[-0.315,0.006,0.026,-0.005,-0.001,0.083,0.022,0.075,0.04,-0.071],[0.339,0.296,-0.01,0.004,0.003,-0.041,-0.014,-0.024,0.004,0.023],[0.02,0.351,-0.001,-0.006,0.005,-0.005,-0.003,-0.005,0.001,0.013],[0.249,-0.063,-0.083,0.0,-0.172,0.15,0.1,0.181,0.163,-0.126],[0.246,-0.082,-0.109,-0.003,0.102,0.144,0.072,0.173,0.14,-0.12],[-0.268,0.03,-0.284,0.004,0.002,-0.215,-0.062,-0.179,-0.244,0.361]],"b":[0.378,0.758,0.268,0.449,0.248,0.248,0.905]},{"w":[[-0.133,0.481,0.005,0.003,0.002,0.027,-0.004,0.018,-0.022],[-0.329,0.008,0.002,-0.004,-0.001,0.07,0.02,0.066,-0.122],[0.35,0.295,-0.001,0.003,0.003,-0.031,-0.01,-0.015,0.041],[0.028,0.35,0.005,-0.006,0.005,0.001,-0.0,0.0,0.027],[0.231,-0.059,-0.143,0.001,-0.172,0.138,0.105,0.177,-0.252],[0.232,-0.078,-0.16,-0.003,0.102,0.135,0.077,0.171,-0.225],[0.128,-0.004,-0.15,-0.0,-0.002,0.153,0.093,0.17,-0.306],[-0.216,0.003,-0.123,-0.004,-0.001,-0.121,-0.069,-0.116,0.629]],"b":[0.397,0.829,0.243,0.43,0.432,0.4,0.476,0.53]},{"w":[[-0.134,0.481,0.005,0.003,0.002,0.027,-0.004,0.018,-0.021,-0.002],[-0.338,0.008,-0.003,-0.004,-0.001,0.065,0.018,0.061,-0.097,-0.039],[0.352,0.295,-0.0,0.003,0.003,-0.03,-0.01,-0.014,0.037,0.008],[0.028,0.35,0.005,-0.006,0.005,0.002,-0.0,0.001,0.025,0.003],[0.216,-0.059,-0.152,0.001,-0.172,0.129,0.1,0.169,-0.208,-0.07],[0.217,-0.078,-0.168,-0.003,0.102,0.126,0.072,0.163,-0.18,-0.071],[0.115,-0.004,-0.158,-0.001,-0.002,0.145,0.089,0.163,-0.268,-0.061]],"b":[0.399,0.85,0.239,0.429,0.469,0.438,0.509]},{"w":[[-0.134,0.481,0.007,0.003,0.002,0.026,-0.005,0.017,-0.02,0.008],[-0.332,0.008,0.005,-0.004,-0.001,0.067,0.018,0.062,-0.116,0.02],[0.349,0.295,0.001,0.003,0.003,-0.033,-0.012,-0.017,0.046,0.014],[0.027,0.35,0.006,-0.006,0.005,0.0,-0.001,-0.001,0.029,0.008],[0.215,-0.058,-0.124,0.001,-0.172,0.119,0.093,0.155,-0.213,0.126],[0.219,-0.077,-0.143,-0.003,0.102,0.118,0.066,0.152,-0.191,0.109],[-0.204,0.002,-0.137,-0.004,-0.001,-0.107,-0.06,-0.1,0.601,-0.093]],"b":[0.394,0.82,0.236,0.427,0.372,0.348,0.574]},{"w":[[-0.134,0.481,0.006,0.003,0.002,0.026,-0.005,0.017,-0.019,0.008,-0.002],[-0.34,0.009,-0.0,-0.004,-0.001,0.063,0.016,0.059,-0.093,0.017,-0.038],[0.35,0.295,0.002,0.003,0.003,-0.032,-0.011,-0.016,0.04,0.014,0.009],[0.027,0.35,0.007,-0.006,0.005,0.0,-0.001,-0.001,0.027,0.008,0.004],[0.202,-0.058,-0.133,0.001,-0.172,0.112,0.089,0.149,-0.176,0.12,-0.062],[0.205,-0.077,-0.152,-0.003,0.102,0.111,0.063,0.146,-0.152,0.103,-0.065]],"b":[0.395,0.842,0.231,0.425,0.407,0.386]},{"w":[[-0.117,0.481,0.012,0.003,0.001,0.043,0.015],[-0.255,0.009,0.042,-0.004,-0.011,0.147,0.102],[0.324,0.295,-0.015,0.003,0.006,-0.058,-0.028],[0.011,0.351,-0.005,-0.006,0.006,-0.014,-0.006],[0.246,-0.025,-0.034,0.002,-0.228,0.204,0.559],[0.124,0.038,-0.109,-0.0,-0.013,0.271,0.225],[0.28,-0.005,-0.125,0.004,-0.029,0.322,0.343],[-0.525,0.014,-0.389,0.002,0.046,-0.479,-0.448],[0.296,0.004,-0.049,0.0,-0.033,0.339,0.322],[-0.535,-0.0,-0.359,-0.003,0.044,-0.438,-0.442]],"b":[0.367,0.667,0.297,0.467,0.069,0.25,0.062,1.382,0.071,1.39]},{"w":[[-0.124,0.481,0.008,0.003,0.001,0.037,0.009,-0.013],[-0.301,0.009,0.01,-0.004,-0.007,0.109,0.064,-0.087],[0.338,0.295,-0.005,0.003,0.005,-0.046,-0.017,0.026],[0.019,0.351,0.0,-0.006,0.005,-0.007,0.0,0.015],[0.184,-0.025,-0.076,0.002,-0.223,0.153,0.508,-0.116],[0.063,0.038,-0.15,-0.0,-0.008,0.221,0.174,-0.114],[0.194,-0.005,-0.183,0.003,-0.022,0.251,0.271,-0.162],[-0.304,0.015,-0.241,0.003,0.028,-0.298,-0.265,0.413],[0.196,0.004,-0.116,-0.001,-0.025,0.257,0.24,-0.186]],"b":[0.385,0.789,0.261,0.446,0.23,0.409,0.287,0.808,0.331]},{"w":[[-0.122,0.481,0.013,0.003,0.001,0.036,0.009,0.019],[-0.278,0.009,0.045,-0.004,-0.008,0.121,0.078,0.077],[0.327,0.295,-0.015,0.003,0.006,-0.055,-0.026,-0.009],[0.012,0.351,-0.005,-0.006,0.006,-0.012,-0.005,-0.005],[0.198,-0.025,-0.026,0.002,-0.222,0.149,0.507,0.162],[0.071,0.037,-0.101,-0.0,-0.008,0.211,0.168,0.177],[0.208,-0.006,-0.113,0.004,-0.021,0.239,0.264,0.244],[-0.413,0.016,-0.408,0.002,0.034,-0.35,-0.325,-0.379],[-0.438,0.001,-0.375,-0.003,0.033,-0.326,-0.336,-0.329]],"b":[0.366,0.662,0.298,0.467,0.057,0.238,0.044,1.409,1.414]},{"w":[[-0.127,0.481,0.009,0.003,0.002,0.033,0.006,0.015,-0.01],[-0.312,0.009,0.016,-0.004,-0.005,0.096,0.051,0.052,-0.078],[0.338,0.295,-0.006,0.003,0.005,-0.046,-0.017,-0.0,0.026],[0.019,0.351,0.0,-0.006,0.005,-0.007,0.0,-0.001,0.015],[0.158,-0.025,-0.06,0.002,-0.219,0.119,0.476,0.132,-0.091],[0.033,0.037,-0.133,-0.0,-0.005,0.183,0.139,0.149,-0.086],[0.154,-0.006,-0.16,0.003,-0.017,0.198,0.222,0.203,-0.124],[-0.253,0.016,-0.271,0.003,0.022,-0.231,-0.203,-0.26,0.364]],"b":[0.38,0.772,0.261,0.446,0.186,0.36,0.22,0.894]},{"w":[[-0.131,0.481,0.002,0.003,0.002,0.03,0.003,-0.026],[-0.326,0.011,-0.011,-0.004,-0.004,0.082,0.042,-0.136],[0.349,0.294,0.003,0.003,0.004,-0.036,-0.008,0.046],[0.026,0.35,0.006,-0.006,0.005,-0.0,0.007,0.029],[0.145,-0.022,-0.109,0.003,-0.219,0.112,0.473,-0.192],[0.035,0.04,-0.175,0.0,-0.006,0.19,0.149,-0.169],[0.14,-0.001,-0.229,0.004,-0.017,0.193,0.222,-0.268],[0.122,0.009,-0.178,0.001,-0.018,0.18,0.174,-0.331],[-0.201,-0.009,-0.112,-0.004,0.014,-0.134,-0.158,0.636]],"b":[0.403,0.855,0.233,0.427,0.334,0.484,0.432,0.529,0.512]},{"w":[[-0.131,0.481,0.002,0.003,0.002,0.03,0.003,-0.024,-0.003],[-0.335,0.011,-0.016,-0.004,-0.004,0.076,0.035,-0.109,-0.043],[0.35,0.295,0.004,0.003,0.004,-0.034,-0.006,0.041,0.009],[0.027,0.35,0.007,-0.006,0.005,0.0,0.007,0.027,0.004],[0.135,-0.022,-0.114,0.002,-0.218,0.105,0.465,-0.161,-0.05],[0.023,0.04,-0.182,0.0,-0.005,0.182,0.14,-0.131,-0.06],[0.126,-0.002,-0.237,0.004,-0.016,0.184,0.212,-0.224,-0.07],[0.108,0.008,-0.186,0.0,-0.017,0.171,0.163,-0.288,-0.067]],"b":[0.405,0.877,0.228,0.425,0.359,0.515,0.468,0.564]},{"w":[[-0.132,0.481,0.004,0.003,0.002,0.028,0.002,-0.023,0.01],[-0.33,0.011,-0.006,-0.004,-0.004,0.077,0.037,-0.126,0.03],[0.347,0.294,0.005,0.003,0.004,-0.037,-0.009,0.05,0.01],[0.025,0.35,0.008,-0.006,0.005,-0.001,0.006,0.031,0.006],[0.133,-0.023,-0.091,0.003,-0.217,0.093,0.455,-0.158,0.102],[0.019,0.039,-0.152,0.0,-0.003,0.167,0.127,-0.126,0.129],[0.12,-0.002,-0.2,0.004,-0.014,0.164,0.194,-0.214,0.163],[-0.189,-0.008,-0.13,-0.004,0.013,-0.115,-0.14,0.602,-0.1]],"b":[0.398,0.839,0.228,0.423,0.28,0.416,0.346,0.565]},{"w":[[-0.132,0.481,0.003,0.003,0.002,0.028,0.001,-0.021,0.01,-0.003],[-0.337,0.01,-0.011,-0.004,-0.003,0.072,0.031,-0.101,0.026,-0.041],[0.349,0.294,0.006,0.003,0.004,-0.036,-0.008,0.044,0.011,0.01],[0.026,0.35,0.008,-0.006,0.005,-0.001,0.006,0.029,0.007,0.004],[0.125,-0.023,-0.096,0.002,-0.217,0.088,0.449,-0.132,0.098,-0.043],[0.009,0.039,-0.159,-0.0,-0.003,0.161,0.12,-0.095,0.124,-0.052],[0.109,-0.003,-0.208,0.004,-0.013,0.157,0.186,-0.179,0.157,-0.059]],"b":[0.4,0.862,0.222,0.421,0.304,0.445,0.38]},{"w":[[-0.124,0.481,0.015,0.003,0.001,0.035,0.007,0.024],[-0.283,0.01,0.054,-0.004,-0.008,0.114,0.068,0.102],[0.332,0.295,-0.018,0.003,0.005,-0.048,-0.018,-0.029],[0.014,0.351,-0.006,-0.006,0.006,-0.011,-0.003,-0.01],[0.2,-0.024,-0.014,0.002,-0.223,0.151,0.503,0.163],[0.072,0.039,-0.086,-0.001,-0.008,0.212,0.162,0.185],[-0.436,0.013,-0.429,0.003,0.037,-0.377,-0.339,-0.317],[0.225,0.006,-0.018,-0.001,-0.026,0.258,0.236,0.252],[-0.452,-0.002,-0.396,-0.002,0.035,-0.343,-0.341,-0.295]],"b":[0.365,0.661,0.299,0.467,0.058,0.239,1.401,0.056,1.409]},{"w":[[-0.128,0.481,0.011,0.003,0.002,0.031,0.003,0.021,-0.01],[-0.317,0.009,0.025,-0.005,-0.005,0.089,0.042,0.08,-0.075],[0.342,0.295,-0.01,0.004,0.004,-0.041,-0.011,-0.023,0.022],[0.02,0.351,-0.001,-0.006,0.005,-0.006,0.002,-0.006,0.014],[0.158,-0.024,-0.051,0.002,-0.22,0.119,0.471,0.136,-0.094],[0.032,0.039,-0.121,-0.001,-0.005,0.182,0.131,0.159,-0.088],[-0.265,0.014,-0.278,0.004,0.024,-0.247,-0.21,-0.205,0.379],[0.156,0.005,-0.078,-0.001,-0.02,0.205,0.184,0.206,-0.153]],"b":[0.379,0.766,0.268,0.448,0.191,0.364,0.867,0.271]},{"w":[[-0.127,0.481,0.016,0.003,0.002,0.031,0.004,0.021,0.014],[-0.296,0.009,0.055,-0.004,-0.006,0.1,0.054,0.088,0.056],[0.333,0.295,-0.018,0.003,0.005,-0.048,-0.018,-0.029,-0.002],[0.014,0.351,-0.006,-0.006,0.006,-0.01,-0.002,-0.009,-0.003],[0.171,-0.025,-0.011,0.002,-0.22,0.117,0.472,0.13,0.131],[0.04,0.038,-0.084,-0.001,-0.004,0.176,0.128,0.149,0.141],[-0.364,0.015,-0.434,0.003,0.029,-0.294,-0.263,-0.236,-0.322],[-0.391,-0.0,-0.401,-0.002,0.028,-0.272,-0.277,-0.226,-0.274]],"b":[0.365,0.658,0.299,0.467,0.051,0.231,1.419,1.424]},{"w":[[-0.13,0.481,0.012,0.003,0.002,0.029,0.001,0.019,0.011,-0.008],[-0.323,0.009,0.028,-0.005,-0.004,0.081,0.035,0.072,0.037,-0.069],[0.342,0.295,-0.009,0.004,0.004,-0.042,-0.012,-0.023,0.004,0.023],[0.02,0.351,-0.001,-0.006,0.005,-0.006,0.002,-0.006,0.001,0.014],[0.141,-0.025,-0.042,0.002,-0.217,0.096,0.451,0.113,0.11,-0.077],[0.013,0.038,-0.112,-0.001,-0.002,0.157,0.109,0.134,0.122,-0.07],[-0.229,0.015,-0.296,0.004,0.019,-0.2,-0.168,-0.158,-0.227,0.345]],"b":[0.376,0.756,0.266,0.448,0.161,0.331,0.929]},{"w":[[-0.133,0.481,0.006,0.003,0.002,0.027,-0.001,0.018,-0.022],[-0.335,0.011,0.004,-0.004,-0.003,0.07,0.027,0.064,-0.119],[0.351,0.294,-0.0,0.003,0.003,-0.032,-0.004,-0.016,0.042],[0.026,0.35,0.006,-0.006,0.005,0.0,0.007,-0.001,0.029],[0.129,-0.022,-0.083,0.002,-0.217,0.09,0.448,0.112,-0.162],[0.015,0.04,-0.142,-0.0,-0.003,0.163,0.117,0.143,-0.131],[0.099,0.009,-0.141,-0.0,-0.015,0.149,0.138,0.16,-0.288],[-0.187,-0.009,-0.135,-0.004,0.013,-0.114,-0.135,-0.102,0.608]],"b":[0.396,0.827,0.24,0.427,0.286,0.422,0.46,0.556]},{"w":[[-0.134,0.481,0.006,0.003,0.002,0.026,-0.001,0.017,-0.02,-0.002],[-0.342,0.011,-0.002,-0.004,-0.003,0.065,0.022,0.06,-0.095,-0.038],[0.352,0.295,0.001,0.003,0.003,-0.032,-0.003,-0.015,0.037,0.008],[0.027,0.35,0.007,-0.006,0.005,0.001,0.007,-0.001,0.026,0.004],[0.122,-0.022,-0.089,0.002,-0.216,0.085,0.443,0.108,-0.137,-0.042],[0.005,0.04,-0.149,-0.001,-0.003,0.157,0.111,0.138,-0.1,-0.051],[0.089,0.009,-0.149,-0.0,-0.014,0.143,0.131,0.154,-0.254,-0.057]],"b":[0.397,0.848,0.235,0.425,0.309,0.45,0.492]},{"w":[[-0.134,0.481,0.007,0.003,0.002,0.026,-0.002,0.016,-0.019,0.007],[-0.337,0.011,0.006,-0.004,-0.003,0.067,0.025,0.061,-0.113,0.02],[0.35,0.294,0.001,0.003,0.004,-0.034,-0.006,-0.018,0.046,0.013],[0.025,0.35,0.007,-0.006,0.005,-0.001,0.006,-0.002,0.031,0.007],[0.121,-0.023,-0.071,0.002,-0.216,0.077,0.436,0.098,-0.137,0.087],[0.004,0.039,-0.127,-0.0,-0.002,0.146,0.102,0.126,-0.099,0.109],[-0.179,-0.009,-0.148,-0.004,0.011,-0.101,-0.123,-0.088,0.583,-0.086]],"b":[0.392,0.818,0.234,0.424,0.246,0.372,0.596]},{"w":[[-0.134,0.481,0.007,0.003,0.002,0.025,-0.002,0.016,-0.019,0.007,-0.002],[-0.344,0.011,0.001,-0.004,-0.002,0.063,0.02,0.058,-0.091,0.017,-0.037],[0.351,0.294,0.003,0.003,0.004,-0.033,-0.005,-0.017,0.041,0.014,0.009],[0.026,0.35,0.008,-0.006,0.005,-0.0,0.007,-0.002,0.028,0.007,0.004],[0.114,-0.023,-0.076,0.002,-0.215,0.073,0.432,0.095,-0.115,0.083,-0.037],[-0.004,0.039,-0.133,-0.001,-0.001,0.142,0.097,0.122,-0.073,0.105,-0.045]],"b":[0.393,0.84,0.229,0.422,0.268,0.399]},{"w":[[-0.117,0.481,0.013,0.003,0.001,0.042,0.015,0.002],[-0.26,0.007,0.047,-0.004,-0.01,0.134,0.092,0.047],[0.327,0.296,-0.017,0.003,0.006,-0.052,-0.024,-0.019],[0.011,0.351,-0.005,-0.006,0.006,-0.012,-0.005,-0.006],[0.232,-0.029,-0.022,0.002,-0.226,0.173,0.534,0.112],[0.261,-0.011,-0.108,0.004,-0.027,0.28,0.308,0.154],[-0.504,0.021,-0.407,0.002,0.044,-0.433,-0.41,-0.167],[0.277,-0.001,-0.033,0.0,-0.031,0.297,0.288,0.153],[-0.514,0.006,-0.378,-0.003,0.042,-0.391,-0.403,-0.173]],"b":[0.366,0.655,0.302,0.468,0.04,0.023,1.424,0.033,1.434]},{"w":[[-0.124,0.481,0.008,0.003,0.001,0.037,0.009,0.0,-0.013],[-0.303,0.008,0.015,-0.004,-0.007,0.102,0.058,0.033,-0.084],[0.339,0.296,-0.008,0.003,0.005,-0.043,-0.014,-0.015,0.024],[0.019,0.351,-0.0,-0.006,0.005,-0.007,0.001,-0.003,0.014],[0.178,-0.028,-0.062,0.002,-0.222,0.132,0.492,0.094,-0.105],[0.186,-0.01,-0.164,0.003,-0.021,0.222,0.248,0.129,-0.147],[-0.298,0.018,-0.255,0.003,0.027,-0.277,-0.248,-0.097,0.402],[0.188,-0.0,-0.098,-0.001,-0.024,0.23,0.218,0.123,-0.172]],"b":[0.385,0.775,0.267,0.448,0.191,0.234,0.848,0.28]},{"w":[[-0.122,0.481,0.013,0.003,0.001,0.036,0.009,-0.0,0.019],[-0.28,0.007,0.049,-0.004,-0.008,0.113,0.071,0.036,0.071],[0.328,0.296,-0.017,0.003,0.005,-0.051,-0.022,-0.018,-0.006],[0.013,0.351,-0.006,-0.006,0.006,-0.011,-0.004,-0.005,-0.004],[0.192,-0.029,-0.017,0.002,-0.222,0.13,0.492,0.09,0.147],[0.2,-0.01,-0.101,0.004,-0.02,0.214,0.244,0.12,0.223],[-0.405,0.02,-0.419,0.002,0.033,-0.327,-0.307,-0.112,-0.359],[-0.429,0.006,-0.388,-0.003,0.032,-0.3,-0.315,-0.127,-0.306]],"b":[0.366,0.653,0.302,0.468,0.036,0.015,1.436,1.444]},{"w":[[-0.127,0.481,0.009,0.003,0.002,0.033,0.006,-0.002,0.016,-0.011],[-0.312,0.008,0.02,-0.004,-0.005,0.091,0.048,0.027,0.048,-0.075],[0.339,0.296,-0.008,0.003,0.005,-0.043,-0.015,-0.015,0.002,0.024],[0.019,0.351,-0.0,-0.006,0.005,-0.007,0.001,-0.003,-0.0,0.014],[0.155,-0.028,-0.05,0.002,-0.219,0.104,0.465,0.079,0.121,-0.084],[0.15,-0.01,-0.145,0.003,-0.017,0.179,0.208,0.106,0.187,-0.115],[-0.251,0.018,-0.28,0.003,0.021,-0.219,-0.194,-0.066,-0.25,0.358]],"b":[0.381,0.762,0.267,0.448,0.157,0.182,0.918]},{"w":[[-0.131,0.481,0.002,0.003,0.002,0.03,0.004,-0.002,-0.027],[-0.327,0.01,-0.007,-0.004,-0.004,0.077,0.038,0.025,-0.132],[0.349,0.295,0.001,0.003,0.004,-0.033,-0.006,-0.012,0.044],[0.026,0.35,0.006,-0.006,0.005,0.0,0.007,-0.001,0.029],[0.142,-0.025,-0.094,0.003,-0.218,0.096,0.461,0.082,-0.178],[0.136,-0.005,-0.21,0.004,-0.016,0.172,0.206,0.113,-0.249],[0.118,0.005,-0.161,0.001,-0.017,0.161,0.159,0.1,-0.314],[-0.199,-0.007,-0.124,-0.004,0.014,-0.12,-0.147,-0.069,0.624]],"b":[0.404,0.843,0.239,0.427,0.294,0.378,0.481,0.546]},{"w":[[-0.131,0.481,0.001,0.003,0.002,0.03,0.003,-0.002,-0.024,-0.003],[-0.335,0.01,-0.012,-0.004,-0.004,0.072,0.032,0.022,-0.106,-0.041],[0.351,0.295,0.002,0.003,0.004,-0.032,-0.005,-0.011,0.039,0.008],[0.027,0.35,0.007,-0.006,0.005,0.001,0.007,-0.001,0.026,0.004],[0.133,-0.025,-0.1,0.002,-0.218,0.091,0.454,0.079,-0.15,-0.045],[0.123,-0.006,-0.217,0.004,-0.016,0.164,0.196,0.108,-0.21,-0.063],[0.106,0.005,-0.168,0.0,-0.016,0.154,0.15,0.096,-0.276,-0.062]],"b":[0.406,0.865,0.234,0.425,0.319,0.412,0.514]},{"w":[[-0.132,0.481,0.003,0.003,0.002,0.029,0.002,-0.003,-0.023,0.01],[-0.33,0.01,-0.002,-0.004,-0.004,0.073,0.034,0.023,-0.123,0.027],[0.348,0.295,0.003,0.003,0.004,-0.035,-0.008,-0.013,0.048,0.012],[0.025,0.35,0.007,-0.006,0.005,-0.001,0.006,-0.002,0.031,0.007],[0.131,-0.026,-0.079,0.003,-0.217,0.081,0.446,0.073,-0.149,0.093],[0.118,-0.006,-0.185,0.004,-0.014,0.148,0.182,0.098,-0.202,0.15],[-0.188,-0.006,-0.139,-0.004,0.012,-0.105,-0.133,-0.06,0.595,-0.092]],"b":[0.399,0.83,0.233,0.424,0.249,0.306,0.59]},{"w":[[-0.132,0.481,0.003,0.003,0.002,0.028,0.002,-0.003,-0.022,0.01,-0.003],[-0.337,0.01,-0.008,-0.004,-0.003,0.069,0.028,0.02,-0.099,0.023,-0.04],[0.349,0.295,0.004,0.003,0.004,-0.034,-0.007,-0.012,0.043,0.012,0.009],[0.026,0.35,0.008,-0.006,0.005,-0.0,0.006,-0.001,0.028,0.007,0.004],[0.124,-0.026,-0.085,0.002,-0.216,0.077,0.441,0.071,-0.126,0.089,-0.039],[0.108,-0.007,-0.193,0.004,-0.013,0.142,0.175,0.094,-0.17,0.145,-0.054]],"b":[0.401,0.853,0.228,0.422,0.273,0.338]},{"w":[[-0.124,0.481,0.015,0.003,0.001,0.035,0.007,-0.001,0.025],[-0.286,0.008,0.057,-0.004,-0.007,0.108,0.062,0.032,0.096],[0.333,0.296,-0.02,0.003,0.005,-0.045,-0.016,-0.015,-0.026],[0.014,0.351,-0.006,-0.006,0.006,-0.01,-0.002,-0.004,-0.009],[0.194,-0.027,-0.006,0.002,-0.222,0.132,0.489,0.089,0.147],[-0.427,0.018,-0.439,0.003,0.036,-0.351,-0.319,-0.121,-0.294],[0.217,0.001,-0.008,-0.001,-0.025,0.233,0.217,0.117,0.23],[-0.443,0.003,-0.407,-0.002,0.034,-0.315,-0.32,-0.132,-0.271]],"b":[0.366,0.653,0.302,0.468,0.037,1.43,0.028,1.44]},{"w":[[-0.128,0.481,0.011,0.003,0.002,0.032,0.004,-0.003,0.022,-0.01],[-0.318,0.008,0.028,-0.005,-0.005,0.085,0.039,0.023,0.076,-0.072],[0.343,0.295,-0.011,0.004,0.004,-0.039,-0.009,-0.012,-0.021,0.021],[0.02,0.351,-0.001,-0.006,0.005,-0.005,0.002,-0.003,-0.006,0.014],[0.155,-0.027,-0.041,0.002,-0.219,0.105,0.461,0.078,0.123,-0.087],[-0.262,0.016,-0.287,0.004,0.023,-0.234,-0.2,-0.072,-0.194,0.373],[0.153,0.002,-0.067,-0.001,-0.02,0.187,0.171,0.098,0.191,-0.144]],"b":[0.38,0.758,0.272,0.449,0.162,0.893,0.236]},{"w":[[-0.127,0.481,0.015,0.003,0.002,0.032,0.004,-0.003,0.021,0.014],[-0.297,0.008,0.058,-0.004,-0.006,0.095,0.051,0.026,0.084,0.052],[0.333,0.296,-0.02,0.003,0.005,-0.045,-0.016,-0.015,-0.026,0.0],[0.014,0.351,-0.006,-0.006,0.006,-0.009,-0.002,-0.004,-0.009,-0.003],[0.168,-0.027,-0.005,0.002,-0.219,0.104,0.463,0.075,0.119,0.12],[-0.36,0.018,-0.441,0.003,0.028,-0.279,-0.252,-0.085,-0.223,-0.31],[-0.387,0.004,-0.409,-0.003,0.028,-0.255,-0.264,-0.101,-0.211,-0.259]],"b":[0.365,0.652,0.302,0.468,0.034,1.439,1.447]},{"w":[[-0.13,0.481,0.012,0.003,0.002,0.03,0.002,-0.004,0.02,0.012,-0.008],[-0.323,0.008,0.03,-0.004,-0.004,0.078,0.033,0.019,0.07,0.035,-0.067],[0.342,0.295,-0.011,0.004,0.004,-0.04,-0.01,-0.013,-0.022,0.006,0.022],[0.02,0.351,-0.001,-0.006,0.005,-0.006,0.002,-0.003,-0.006,0.001,0.014],[0.14,-0.027,-0.035,0.002,-0.217,0.086,0.444,0.068,0.104,0.101,-0.072],[-0.228,0.017,-0.302,0.004,0.019,-0.192,-0.162,-0.05,-0.151,-0.221,0.341]],"b":[0.377,0.749,0.271,0.449,0.138,0.946]},{"w":[[-0.133,0.481,0.005,0.003,0.002,0.027,-0.0,-0.004,0.018,-0.022],[-0.335,0.01,0.006,-0.004,-0.003,0.067,0.025,0.018,0.062,-0.116],[0.351,0.295,-0.002,0.003,0.003,-0.031,-0.003,-0.01,-0.014,0.041],[0.026,0.35,0.006,-0.006,0.005,0.0,0.007,-0.001,-0.001,0.029],[0.128,-0.025,-0.073,0.002,-0.217,0.079,0.44,0.071,0.102,-0.153],[0.098,0.006,-0.13,-0.0,-0.015,0.135,0.128,0.083,0.148,-0.277],[-0.186,-0.007,-0.144,-0.004,0.012,-0.104,-0.128,-0.059,-0.094,0.6]],"b":[0.397,0.819,0.244,0.427,0.256,0.425,0.581]},{"w":[[-0.134,0.481,0.005,0.003,0.002,0.027,-0.0,-0.004,0.018,-0.021,-0.002],[-0.342,0.01,0.001,-0.004,-0.003,0.063,0.02,0.016,0.058,-0.094,-0.038],[0.352,0.295,-0.001,0.003,0.003,-0.03,-0.002,-0.01,-0.014,0.036,0.008],[0.027,0.35,0.007,-0.006,0.005,0.001,0.008,-0.001,-0.0,0.026,0.004],[0.121,-0.025,-0.079,0.002,-0.216,0.075,0.435,0.069,0.098,-0.13,-0.039],[0.088,0.006,-0.137,-0.0,-0.014,0.13,0.122,0.08,0.143,-0.246,-0.053]],"b":[0.399,0.841,0.24,0.425,0.278,0.455]},{"w":[[-0.134,0.481,0.006,0.003,0.002,0.026,-0.001,-0.005,0.017,-0.02,0.008],[-0.337,0.01,0.008,-0.004,-0.003,0.064,0.023,0.017,0.059,-0.111,0.018],[0.35,0.295,0.0,0.003,0.004,-0.033,-0.005,-0.011,-0.016,0.045,0.014],[0.025,0.35,0.007,-0.006,0.005,-0.001,0.006,-0.001,-0.002,0.03,0.007],[0.121,-0.025,-0.063,0.002,-0.216,0.068,0.43,0.064,0.09,-0.131,0.08],[-0.178,-0.007,-0.154,-0.004,0.011,-0.093,-0.118,-0.052,-0.082,0.578,-0.08]],"b":[0.394,0.812,0.238,0.425,0.222,0.615]},{"w":[[-0.134,0.481,0.006,0.003,0.002,0.026,-0.001,-0.005,0.017,-0.019,0.008,-0.002],[-0.343,0.01,0.003,-0.004,-0.002,0.061,0.019,0.015,0.056,-0.09,0.015,-0.037],[0.351,0.295,0.001,0.003,0.004,-0.032,-0.004,-0.011,-0.016,0.04,0.015,0.008],[0.026,0.35,0.008,-0.006,0.005,-0.0,0.007,-0.001,-0.001,0.028,0.007,0.004],[0.114,-0.025,-0.068,0.002,-0.215,0.065,0.426,0.062,0.087,-0.111,0.077,-0.035]],"b":[0.395,0.834,0.233,0.422,0.243]},{"w":[[-0.103,0.48,0.01,0.003,0.01,0.042],[-0.211,0.007,0.033,-0.004,0.034,0.197],[0.311,0.295,-0.012,0.003,-0.009,-0.071],[0.008,0.351,-0.004,-0.006,0.002,-0.017],[0.458,-0.02,-0.07,-0.0,0.09,0.514],[0.252,-0.053,-0.073,-0.003,0.216,0.659],[0.193,0.034,-0.124,-0.001,0.08,0.41],[0.379,-0.013,-0.147,0.002,0.099,0.539],[-0.669,0.025,-0.358,0.003,-0.128,-0.747],[0.393,-0.002,-0.071,-0.001,0.093,0.539],[-0.672,0.011,-0.329,-0.002,-0.124,-0.708]],"b":[0.369,0.672,0.296,0.467,0.067,0.066,0.256,0.072,1.367,0.081,1.375]},{"w":[[-0.116,0.48,0.004,0.003,0.007,0.029,-0.019],[-0.28,0.008,-0.001,-0.005,0.021,0.125,-0.103],[0.332,0.295,-0.002,0.004,-0.005,-0.049,0.031],[0.018,0.35,0.0,-0.006,0.004,-0.007,0.015],[0.313,-0.017,-0.141,-0.0,0.064,0.361,-0.216],[0.181,-0.052,-0.107,-0.003,0.203,0.585,-0.105],[0.099,0.036,-0.17,-0.001,0.063,0.311,-0.14],[0.246,-0.011,-0.212,0.002,0.074,0.4,-0.198],[-0.364,0.02,-0.209,0.004,-0.072,-0.426,0.454],[0.245,-0.0,-0.143,-0.002,0.066,0.383,-0.22]],"b":[0.395,0.813,0.254,0.446,0.364,0.211,0.448,0.344,0.743,0.384]},{"w":[[-0.113,0.48,0.012,0.003,0.007,0.028,0.026],[-0.25,0.007,0.04,-0.004,0.025,0.143,0.1],[0.318,0.295,-0.014,0.003,-0.008,-0.062,-0.017],[0.011,0.351,-0.005,-0.006,0.003,-0.014,-0.007],[0.343,-0.019,-0.049,0.0,0.063,0.357,0.292],[0.2,-0.052,-0.064,-0.003,0.204,0.589,0.13],[0.111,0.035,-0.109,-0.001,0.061,0.297,0.209],[0.266,-0.012,-0.127,0.003,0.072,0.385,0.288],[-0.495,0.024,-0.389,0.003,-0.087,-0.508,-0.443],[-0.519,0.01,-0.356,-0.002,-0.087,-0.497,-0.391]],"b":[0.366,0.663,0.298,0.467,0.043,0.056,0.239,0.049,1.403,1.407]},{"w":[[-0.121,0.48,0.007,0.003,0.006,0.021,0.021,-0.015],[-0.296,0.008,0.009,-0.004,0.017,0.1,0.065,-0.088],[0.333,0.295,-0.003,0.004,-0.005,-0.047,-0.005,0.029],[0.019,0.35,0.0,-0.006,0.004,-0.007,-0.001,0.015],[0.257,-0.017,-0.109,-0.0,0.049,0.274,0.227,-0.166],[0.157,-0.052,-0.093,-0.003,0.197,0.548,0.097,-0.084],[0.058,0.036,-0.146,-0.001,0.052,0.246,0.169,-0.103],[0.189,-0.011,-0.179,0.003,0.059,0.312,0.23,-0.147],[-0.293,0.02,-0.25,0.004,-0.053,-0.315,-0.291,0.39]],"b":[0.387,0.788,0.256,0.446,0.277,0.173,0.384,0.255,0.855]},{"w":[[-0.126,0.481,-0.002,0.003,0.005,0.016,-0.034],[-0.314,0.011,-0.022,-0.004,0.014,0.082,-0.154],[0.346,0.294,0.006,0.003,-0.003,-0.032,0.052],[0.027,0.35,0.005,-0.006,0.006,0.003,0.028],[0.227,-0.011,-0.193,0.001,0.046,0.256,-0.345],[0.149,-0.049,-0.128,-0.003,0.197,0.545,-0.154],[0.057,0.039,-0.197,-0.0,0.054,0.258,-0.203],[0.171,-0.005,-0.259,0.004,0.059,0.307,-0.311],[0.147,0.007,-0.202,0.0,0.046,0.264,-0.368],[-0.225,-0.006,-0.09,-0.004,-0.038,-0.209,0.668]],"b":[0.415,0.883,0.225,0.429,0.539,0.276,0.534,0.497,0.584,0.462]},{"w":[[-0.127,0.481,-0.003,0.003,0.005,0.015,-0.031,-0.005],[-0.325,0.01,-0.026,-0.004,0.012,0.072,-0.123,-0.047],[0.348,0.294,0.007,0.003,-0.002,-0.03,0.045,0.01],[0.028,0.35,0.006,-0.006,0.006,0.004,0.026,0.003],[0.208,-0.012,-0.201,0.001,0.043,0.238,-0.288,-0.085],[0.137,-0.049,-0.132,-0.003,0.195,0.534,-0.12,-0.051],[0.042,0.039,-0.203,-0.0,0.052,0.243,-0.158,-0.069],[0.152,-0.006,-0.266,0.003,0.056,0.29,-0.257,-0.081],[0.13,0.006,-0.209,-0.0,0.043,0.248,-0.317,-0.077]],"b":[0.418,0.904,0.221,0.427,0.578,0.3,0.566,0.535,0.619]},{"w":[[-0.128,0.481,0.0,0.003,0.005,0.013,-0.029,0.014],[-0.319,0.01,-0.015,-0.004,0.012,0.072,-0.14,0.038],[0.345,0.294,0.008,0.003,-0.003,-0.034,0.055,0.007],[0.026,0.35,0.007,-0.006,0.006,0.002,0.03,0.007],[0.203,-0.012,-0.16,0.001,0.039,0.212,-0.284,0.166],[0.138,-0.049,-0.113,-0.003,0.193,0.525,-0.126,0.074],[0.036,0.038,-0.168,-0.0,0.048,0.22,-0.151,0.142],[0.144,-0.006,-0.222,0.004,0.051,0.26,-0.245,0.179],[-0.209,-0.005,-0.113,-0.004,-0.033,-0.179,0.627,-0.113]],"b":[0.407,0.861,0.221,0.425,0.442,0.233,0.451,0.393,0.528]},{"w":[[-0.129,0.481,-0.0,0.003,0.004,0.012,-0.027,0.013,-0.004],[-0.329,0.01,-0.02,-0.004,0.011,0.064,-0.113,0.033,-0.044],[0.347,0.294,0.009,0.003,-0.003,-0.032,0.048,0.009,0.011],[0.027,0.35,0.007,-0.006,0.006,0.002,0.028,0.007,0.004],[0.188,-0.012,-0.168,0.001,0.036,0.199,-0.238,0.157,-0.073],[0.128,-0.05,-0.118,-0.003,0.192,0.517,-0.098,0.069,-0.045],[0.024,0.038,-0.175,-0.0,0.046,0.21,-0.115,0.136,-0.058],[0.13,-0.007,-0.23,0.003,0.048,0.248,-0.203,0.171,-0.068]],"b":[0.41,0.884,0.215,0.423,0.48,0.257,0.482,0.429]},{"w":[[-0.115,0.481,0.015,0.003,0.006,0.025,0.032],[-0.257,0.008,0.051,-0.005,0.022,0.131,0.123],[0.325,0.295,-0.018,0.004,-0.006,-0.051,-0.036],[0.013,0.35,-0.006,-0.006,0.003,-0.012,-0.011],[0.349,-0.016,-0.028,-0.001,0.062,0.358,0.288],[0.196,-0.051,-0.051,-0.004,0.202,0.581,0.146],[0.111,0.037,-0.092,-0.001,0.059,0.293,0.217],[-0.523,0.02,-0.415,0.004,-0.09,-0.539,-0.386],[0.281,0.001,-0.027,-0.002,0.064,0.379,0.296],[-0.535,0.006,-0.382,-0.001,-0.088,-0.513,-0.361]],"b":[0.366,0.663,0.299,0.468,0.046,0.056,0.24,1.395,0.06,1.401]},{"w":[[-0.122,0.481,0.009,0.003,0.005,0.018,0.027,-0.014],[-0.303,0.009,0.019,-0.005,0.014,0.088,0.092,-0.084],[0.338,0.295,-0.008,0.004,-0.004,-0.038,-0.027,0.025],[0.02,0.35,-0.001,-0.006,0.005,-0.004,-0.006,0.014],[0.257,-0.015,-0.093,-0.001,0.047,0.27,0.226,-0.171],[0.152,-0.05,-0.083,-0.004,0.195,0.539,0.117,-0.082],[0.055,0.038,-0.132,-0.002,0.05,0.239,0.179,-0.105],[-0.305,0.017,-0.259,0.005,-0.055,-0.33,-0.239,0.407],[0.187,0.002,-0.094,-0.002,0.048,0.289,0.233,-0.174]],"b":[0.386,0.781,0.263,0.448,0.286,0.171,0.387,0.825,0.304]},{"w":[[-0.12,0.481,0.015,0.003,0.005,0.018,0.026,0.019],[-0.277,0.008,0.053,-0.005,0.017,0.104,0.102,0.071],[0.327,0.295,-0.018,0.004,-0.005,-0.049,-0.034,-0.007],[0.014,0.35,-0.006,-0.006,0.004,-0.01,-0.01,-0.004],[0.285,-0.016,-0.021,-0.0,0.047,0.272,0.221,0.228],[0.169,-0.051,-0.049,-0.003,0.196,0.544,0.118,0.096],[0.066,0.037,-0.088,-0.001,0.049,0.232,0.169,0.161],[-0.421,0.02,-0.424,0.004,-0.067,-0.401,-0.279,-0.363],[-0.447,0.006,-0.39,-0.001,-0.068,-0.394,-0.268,-0.314]],"b":[0.365,0.658,0.299,0.468,0.033,0.05,0.231,1.416,1.42]},{"w":[[-0.125,0.481,0.011,0.003,0.004,0.013,0.023,0.015,-0.011],[-0.311,0.009,0.023,-0.005,0.012,0.074,0.082,0.047,-0.076],[0.338,0.295,-0.008,0.004,-0.004,-0.039,-0.027,0.001,0.026],[0.02,0.35,-0.001,-0.006,0.005,-0.005,-0.006,0.001,0.014],[0.223,-0.015,-0.076,-0.001,0.038,0.217,0.183,0.184,-0.139],[0.138,-0.051,-0.076,-0.004,0.191,0.517,0.099,0.074,-0.069],[0.03,0.037,-0.12,-0.001,0.043,0.2,0.147,0.135,-0.081],[-0.258,0.018,-0.283,0.004,-0.043,-0.258,-0.181,-0.249,0.363]],"b":[0.381,0.767,0.263,0.448,0.23,0.148,0.346,0.901]},{"w":[[-0.129,0.481,0.003,0.003,0.004,0.01,0.021,-0.028],[-0.326,0.011,-0.004,-0.004,0.01,0.06,0.072,-0.132],[0.349,0.294,0.002,0.003,-0.002,-0.027,-0.018,0.046],[0.027,0.35,0.005,-0.006,0.006,0.003,-0.0,0.028],[0.197,-0.01,-0.148,0.001,0.036,0.202,0.176,-0.29],[0.132,-0.048,-0.102,-0.003,0.191,0.514,0.099,-0.123],[0.03,0.04,-0.156,-0.001,0.045,0.21,0.157,-0.155],[0.117,0.007,-0.157,-0.001,0.035,0.21,0.175,-0.313],[-0.205,-0.007,-0.12,-0.004,-0.031,-0.173,-0.117,0.632]],"b":[0.405,0.847,0.234,0.429,0.451,0.227,0.456,0.497,0.52]},{"w":[[-0.13,0.481,0.003,0.003,0.004,0.009,0.021,-0.025,-0.004],[-0.335,0.011,-0.009,-0.004,0.009,0.053,0.067,-0.106,-0.041],[0.351,0.294,0.003,0.003,-0.001,-0.025,-0.017,0.041,0.009],[0.028,0.35,0.006,-0.006,0.006,0.004,0.0,0.026,0.003],[0.182,-0.011,-0.157,0.0,0.034,0.19,0.168,-0.245,-0.072],[0.123,-0.049,-0.107,-0.003,0.19,0.507,0.094,-0.096,-0.043],[0.019,0.04,-0.163,-0.001,0.043,0.2,0.15,-0.119,-0.056],[0.104,0.007,-0.165,-0.001,0.033,0.199,0.168,-0.273,-0.063]],"b":[0.407,0.868,0.23,0.427,0.488,0.25,0.485,0.529]},{"w":[[-0.131,0.481,0.005,0.003,0.004,0.008,0.019,-0.024,0.01],[-0.329,0.011,0.0,-0.004,0.009,0.054,0.068,-0.124,0.026],[0.347,0.294,0.003,0.003,-0.002,-0.029,-0.02,0.05,0.011],[0.026,0.35,0.007,-0.006,0.006,0.002,-0.001,0.03,0.007],[0.181,-0.011,-0.126,0.001,0.031,0.173,0.152,-0.247,0.138],[0.125,-0.049,-0.093,-0.003,0.189,0.502,0.089,-0.105,0.058],[0.017,0.039,-0.138,-0.001,0.041,0.185,0.136,-0.118,0.118],[-0.194,-0.006,-0.135,-0.004,-0.028,-0.153,-0.1,0.602,-0.095]],"b":[0.4,0.834,0.229,0.425,0.382,0.199,0.397,0.567]},{"w":[[-0.131,0.481,0.004,0.003,0.003,0.007,0.019,-0.023,0.01,-0.003],[-0.337,0.01,-0.005,-0.004,0.008,0.048,0.063,-0.1,0.022,-0.04],[0.349,0.294,0.005,0.003,-0.002,-0.027,-0.019,0.044,0.012,0.01],[0.027,0.35,0.007,-0.006,0.006,0.002,-0.001,0.028,0.007,0.004],[0.169,-0.012,-0.135,0.0,0.029,0.163,0.146,-0.209,0.132,-0.063],[0.117,-0.049,-0.099,-0.003,0.188,0.496,0.085,-0.081,0.054,-0.04],[0.007,0.039,-0.144,-0.001,0.039,0.177,0.131,-0.088,0.113,-0.049]],"b":[0.401,0.857,0.223,0.423,0.418,0.221,0.425]},{"w":[[-0.105,0.48,0.011,0.003,0.009,0.039,0.008],[-0.223,0.005,0.041,-0.004,0.029,0.171,0.064],[0.316,0.296,-0.015,0.003,-0.007,-0.061,-0.024],[0.01,0.351,-0.005,-0.006,0.003,-0.015,-0.007],[0.418,-0.026,-0.045,0.0,0.074,0.43,0.204],[0.237,-0.055,-0.063,-0.003,0.21,0.628,0.076],[0.342,-0.019,-0.124,0.003,0.084,0.463,0.187],[-0.627,0.032,-0.385,0.003,-0.111,-0.658,-0.218],[0.357,-0.009,-0.048,-0.001,0.078,0.462,0.186],[-0.629,0.018,-0.356,-0.002,-0.106,-0.617,-0.221]],"b":[0.366,0.655,0.302,0.468,0.015,0.047,0.024,1.423,0.033,1.432]},{"w":[[-0.116,0.48,0.004,0.003,0.007,0.027,0.004,-0.019],[-0.284,0.006,0.006,-0.005,0.019,0.111,0.042,-0.097],[0.333,0.296,-0.005,0.004,-0.004,-0.043,-0.018,0.028],[0.019,0.351,-0.0,-0.006,0.004,-0.006,-0.003,0.014],[0.297,-0.023,-0.114,-0.0,0.054,0.311,0.161,-0.193],[0.176,-0.054,-0.098,-0.003,0.2,0.568,0.054,-0.097],[0.231,-0.016,-0.187,0.002,0.065,0.354,0.148,-0.177],[-0.352,0.024,-0.229,0.004,-0.065,-0.388,-0.121,0.437],[0.231,-0.005,-0.119,-0.001,0.057,0.339,0.142,-0.2]],"b":[0.393,0.794,0.262,0.448,0.292,0.187,0.277,0.797,0.32]},{"w":[[-0.114,0.48,0.012,0.003,0.007,0.027,0.004,0.026],[-0.255,0.005,0.045,-0.004,0.022,0.129,0.047,0.09],[0.32,0.296,-0.016,0.003,-0.006,-0.055,-0.022,-0.012],[0.012,0.351,-0.006,-0.006,0.003,-0.012,-0.006,-0.005],[0.326,-0.024,-0.032,0.0,0.054,0.31,0.156,0.259],[0.195,-0.054,-0.058,-0.003,0.201,0.574,0.054,0.119],[0.25,-0.017,-0.112,0.003,0.064,0.343,0.139,0.259],[-0.479,0.028,-0.404,0.003,-0.079,-0.467,-0.141,-0.414],[-0.501,0.015,-0.373,-0.002,-0.078,-0.451,-0.154,-0.359]],"b":[0.365,0.652,0.303,0.469,0.006,0.043,0.016,1.437,1.444]},{"w":[[-0.121,0.48,0.007,0.003,0.006,0.02,0.001,0.021,-0.014],[-0.298,0.007,0.014,-0.004,0.015,0.091,0.034,0.06,-0.085],[0.334,0.296,-0.006,0.004,-0.004,-0.043,-0.018,-0.002,0.028],[0.019,0.351,-0.0,-0.006,0.004,-0.006,-0.003,-0.0,0.014],[0.25,-0.022,-0.089,0.0,0.042,0.242,0.132,0.204,-0.152],[0.155,-0.053,-0.087,-0.003,0.195,0.538,0.041,0.09,-0.079],[0.183,-0.015,-0.162,0.003,0.053,0.282,0.118,0.21,-0.135],[-0.288,0.023,-0.262,0.004,-0.049,-0.294,-0.082,-0.277,0.381]],"b":[0.386,0.775,0.263,0.448,0.226,0.158,0.21,0.886]},{"w":[[-0.126,0.481,-0.002,0.003,0.005,0.016,0.001,-0.034],[-0.316,0.009,-0.016,-0.004,0.012,0.074,0.032,-0.148],[0.346,0.295,0.003,0.003,-0.002,-0.028,-0.014,0.049],[0.027,0.35,0.005,-0.006,0.006,0.003,-0.001,0.028],[0.219,-0.016,-0.167,0.001,0.039,0.221,0.135,-0.318],[0.146,-0.051,-0.119,-0.003,0.194,0.533,0.044,-0.145],[0.163,-0.01,-0.234,0.004,0.052,0.275,0.125,-0.286],[0.14,0.002,-0.181,0.0,0.04,0.235,0.111,-0.345],[-0.221,-0.003,-0.105,-0.004,-0.033,-0.188,-0.079,0.652]],"b":[0.415,0.866,0.233,0.429,0.467,0.253,0.431,0.525,0.504]},{"w":[[-0.127,0.481,-0.003,0.003,0.005,0.015,0.001,-0.031,-0.005],[-0.326,0.009,-0.021,-0.004,0.011,0.065,0.028,-0.119,-0.045],[0.349,0.295,0.004,0.003,-0.002,-0.027,-0.013,0.043,0.009],[0.028,0.35,0.006,-0.006,0.006,0.004,-0.0,0.025,0.003],[0.203,-0.017,-0.175,0.001,0.036,0.207,0.128,-0.268,-0.076],[0.136,-0.051,-0.124,-0.003,0.193,0.524,0.04,-0.113,-0.048],[0.147,-0.01,-0.242,0.003,0.05,0.261,0.119,-0.238,-0.073],[0.125,0.002,-0.188,-0.0,0.037,0.222,0.105,-0.3,-0.069]],"b":[0.417,0.888,0.228,0.427,0.505,0.277,0.467,0.56]},{"w":[[-0.128,0.481,0.0,0.003,0.005,0.013,-0.0,-0.029,0.014],[-0.321,0.009,-0.01,-0.004,0.011,0.066,0.028,-0.136,0.034],[0.345,0.295,0.005,0.003,-0.002,-0.031,-0.015,0.052,0.009],[0.026,0.35,0.007,-0.006,0.006,0.002,-0.001,0.03,0.007],[0.199,-0.017,-0.14,0.001,0.033,0.186,0.118,-0.266,0.149],[0.137,-0.051,-0.107,-0.003,0.192,0.517,0.036,-0.121,0.069],[0.14,-0.01,-0.204,0.004,0.045,0.236,0.107,-0.229,0.164],[-0.206,-0.003,-0.124,-0.004,-0.029,-0.164,-0.068,0.616,-0.104]],"b":[0.408,0.848,0.228,0.425,0.389,0.217,0.345,0.558]},{"w":[[-0.129,0.481,-0.0,0.003,0.004,0.012,-0.001,-0.027,0.013,-0.004],[-0.329,0.009,-0.015,-0.004,0.01,0.059,0.025,-0.11,0.029,-0.043],[0.347,0.295,0.006,0.003,-0.002,-0.029,-0.014,0.046,0.01,0.01],[0.027,0.35,0.007,-0.006,0.006,0.002,-0.001,0.028,0.007,0.004],[0.185,-0.017,-0.148,0.001,0.031,0.175,0.114,-0.225,0.142,-0.067],[0.128,-0.051,-0.112,-0.003,0.19,0.51,0.034,-0.094,0.064,-0.043],[0.128,-0.011,-0.212,0.003,0.044,0.226,0.103,-0.191,0.157,-0.062]],"b":[0.41,0.872,0.222,0.423,0.426,0.241,0.379]},{"w":[[-0.115,0.481,0.015,0.003,0.006,0.024,0.003,0.031],[-0.262,0.007,0.055,-0.005,0.019,0.118,0.042,0.114],[0.327,0.296,-0.019,0.004,-0.005,-0.046,-0.018,-0.032],[0.013,0.351,-0.006,-0.006,0.004,-0.01,-0.005,-0.01],[0.331,-0.022,-0.013,-0.001,0.053,0.313,0.156,0.254],[0.191,-0.053,-0.047,-0.004,0.199,0.566,0.05,0.135],[-0.506,0.025,-0.429,0.004,-0.081,-0.494,-0.152,-0.353],[0.266,-0.004,-0.015,-0.002,0.056,0.339,0.136,0.267],[-0.518,0.012,-0.397,-0.001,-0.078,-0.466,-0.16,-0.326]],"b":[0.366,0.653,0.303,0.469,0.009,0.044,1.431,0.027,1.44]},{"w":[[-0.122,0.481,0.009,0.003,0.005,0.018,0.0,0.027,-0.014],[-0.304,0.008,0.023,-0.005,0.013,0.081,0.029,0.087,-0.081],[0.339,0.295,-0.01,0.004,-0.003,-0.035,-0.015,-0.024,0.024],[0.02,0.35,-0.001,-0.006,0.005,-0.004,-0.003,-0.005,0.014],[0.25,-0.02,-0.076,-0.001,0.04,0.239,0.131,0.203,-0.157],[0.15,-0.052,-0.078,-0.004,0.193,0.53,0.038,0.11,-0.078],[-0.3,0.021,-0.271,0.005,-0.05,-0.309,-0.088,-0.224,0.397],[0.181,-0.002,-0.079,-0.002,0.043,0.263,0.11,0.214,-0.163]],"b":[0.385,0.77,0.269,0.449,0.235,0.156,0.859,0.261]},{"w":[[-0.12,0.481,0.015,0.003,0.005,0.018,0.0,0.026,0.019],[-0.279,0.007,0.056,-0.005,0.016,0.096,0.034,0.096,0.065],[0.328,0.295,-0.019,0.004,-0.004,-0.045,-0.018,-0.031,-0.004],[0.014,0.351,-0.007,-0.006,0.004,-0.009,-0.004,-0.009,-0.003],[0.276,-0.021,-0.01,-0.0,0.041,0.242,0.128,0.199,0.208],[0.167,-0.052,-0.045,-0.003,0.194,0.535,0.038,0.111,0.09],[-0.414,0.024,-0.434,0.004,-0.062,-0.377,-0.105,-0.261,-0.346],[-0.439,0.011,-0.401,-0.001,-0.062,-0.366,-0.12,-0.248,-0.295]],"b":[0.365,0.651,0.303,0.469,0.003,0.041,1.441,1.448]},{"w":[[-0.125,0.481,0.011,0.003,0.005,0.014,-0.001,0.023,0.016,-0.011],[-0.312,0.008,0.026,-0.005,0.011,0.069,0.025,0.078,0.043,-0.074],[0.338,0.295,-0.01,0.004,-0.003,-0.036,-0.015,-0.024,0.003,0.024],[0.02,0.35,-0.001,-0.006,0.005,-0.004,-0.003,-0.006,0.001,0.014],[0.219,-0.019,-0.062,-0.0,0.033,0.195,0.112,0.167,0.169,-0.13],[0.137,-0.052,-0.072,-0.004,0.19,0.511,0.03,0.095,0.07,-0.067],[-0.256,0.02,-0.29,0.004,-0.04,-0.246,-0.062,-0.172,-0.241,0.358]],"b":[0.381,0.758,0.268,0.449,0.191,0.138,0.922]},{"w":[[-0.129,0.481,0.003,0.003,0.004,0.01,-0.002,0.021,-0.028],[-0.327,0.01,-0.0,-0.004,0.009,0.055,0.023,0.068,-0.128],[0.349,0.294,-0.0,0.003,-0.001,-0.024,-0.012,-0.016,0.044],[0.027,0.35,0.005,-0.006,0.006,0.004,-0.001,-0.0,0.028],[0.194,-0.015,-0.13,0.001,0.031,0.178,0.115,0.158,-0.272],[0.131,-0.05,-0.097,-0.003,0.189,0.508,0.032,0.094,-0.118],[0.114,0.004,-0.143,-0.0,0.031,0.191,0.091,0.161,-0.299],[-0.203,-0.004,-0.13,-0.004,-0.028,-0.159,-0.066,-0.107,0.622]],"b":[0.406,0.836,0.24,0.429,0.399,0.213,0.455,0.55]},{"w":[[-0.13,0.481,0.002,0.003,0.004,0.01,-0.002,0.021,-0.026,-0.004],[-0.335,0.01,-0.005,-0.004,0.008,0.049,0.02,0.064,-0.103,-0.04],[0.351,0.294,0.001,0.003,-0.001,-0.023,-0.011,-0.015,0.039,0.008],[0.028,0.35,0.006,-0.006,0.006,0.004,-0.0,0.0,0.026,0.003],[0.18,-0.015,-0.138,0.0,0.029,0.167,0.11,0.151,-0.232,-0.065],[0.123,-0.05,-0.103,-0.003,0.188,0.501,0.03,0.089,-0.092,-0.041],[0.102,0.004,-0.15,-0.001,0.03,0.182,0.087,0.155,-0.263,-0.058]],"b":[0.408,0.858,0.235,0.427,0.435,0.235,0.487]},{"w":[[-0.13,0.481,0.004,0.003,0.004,0.008,-0.003,0.02,-0.025,0.01],[-0.33,0.01,0.003,-0.004,0.008,0.051,0.021,0.065,-0.121,0.023],[0.348,0.294,0.001,0.003,-0.001,-0.026,-0.013,-0.018,0.048,0.012],[0.026,0.35,0.006,-0.006,0.006,0.002,-0.001,-0.001,0.03,0.007],[0.179,-0.015,-0.112,0.001,0.027,0.154,0.103,0.138,-0.235,0.126],[0.125,-0.05,-0.089,-0.003,0.188,0.497,0.027,0.085,-0.102,0.055],[-0.193,-0.004,-0.143,-0.004,-0.025,-0.142,-0.058,-0.093,0.595,-0.088]],"b":[0.401,0.826,0.234,0.426,0.341,0.188,0.59]},{"w":[[-0.131,0.481,0.004,0.003,0.004,0.008,-0.003,0.019,-0.023,0.01,-0.003],[-0.337,0.01,-0.002,-0.004,0.007,0.045,0.019,0.061,-0.098,0.02,-0.039],[0.349,0.294,0.003,0.003,-0.001,-0.025,-0.012,-0.017,0.043,0.013,0.009],[0.027,0.35,0.007,-0.006,0.006,0.003,-0.001,-0.001,0.028,0.008,0.004],[0.168,-0.015,-0.12,0.0,0.025,0.145,0.1,0.132,-0.2,0.121,-0.058],[0.117,-0.05,-0.095,-0.003,0.187,0.492,0.025,0.081,-0.079,0.051,-0.038]],"b":[0.403,0.849,0.229,0.424,0.375,0.21]},{"w":[[-0.106,0.481,0.011,0.003,0.007,0.033,0.013],[-0.23,0.011,0.038,-0.004,0.018,0.148,0.075],[0.315,0.294,-0.014,0.003,-0.006,-0.06,-0.016],[0.009,0.35,-0.005,-0.006,0.003,-0.016,-0.002],[0.399,-0.007,-0.053,0.001,0.04,0.359,0.234],[0.156,0.042,-0.113,-0.0,0.048,0.312,0.148],[0.317,0.0,-0.129,0.003,0.045,0.377,0.247],[-0.588,0.008,-0.381,0.002,-0.059,-0.535,-0.322],[0.336,0.009,-0.054,-0.0,0.044,0.39,0.226],[-0.591,-0.007,-0.352,-0.003,-0.053,-0.494,-0.324]],"b":[0.368,0.667,0.297,0.467,0.051,0.246,0.056,1.388,0.066,1.397]},{"w":[[-0.117,0.481,0.004,0.003,0.006,0.024,0.007,-0.018],[-0.288,0.01,0.004,-0.004,0.013,0.1,0.043,-0.098],[0.333,0.295,-0.003,0.004,-0.004,-0.045,-0.007,0.03],[0.018,0.351,0.001,-0.006,0.004,-0.008,0.003,0.015],[0.282,-0.008,-0.123,0.0,0.029,0.261,0.17,-0.198],[0.08,0.041,-0.159,-0.001,0.041,0.248,0.106,-0.129],[0.212,-0.001,-0.192,0.003,0.036,0.289,0.189,-0.178],[-0.331,0.011,-0.228,0.004,-0.035,-0.32,-0.181,0.435],[0.216,0.008,-0.126,-0.001,0.033,0.289,0.16,-0.204]],"b":[0.393,0.804,0.255,0.446,0.328,0.426,0.304,0.781,0.35]},{"w":[[-0.115,0.481,0.012,0.003,0.006,0.023,0.008,0.025],[-0.261,0.01,0.043,-0.004,0.014,0.112,0.054,0.093],[0.32,0.295,-0.014,0.003,-0.005,-0.054,-0.013,-0.015],[0.011,0.35,-0.005,-0.006,0.003,-0.013,-0.001,-0.006],[0.309,-0.01,-0.038,0.001,0.028,0.255,0.173,0.269],[0.09,0.04,-0.103,-0.0,0.04,0.236,0.104,0.196],[0.228,-0.002,-0.115,0.003,0.034,0.274,0.187,0.263],[-0.449,0.012,-0.404,0.002,-0.041,-0.374,-0.229,-0.414],[-0.47,-0.003,-0.372,-0.003,-0.038,-0.354,-0.243,-0.359]],"b":[0.366,0.66,0.298,0.467,0.034,0.233,0.038,1.416,1.42]},{"w":[[-0.121,0.481,0.007,0.003,0.005,0.018,0.004,0.02,-0.014],[-0.301,0.009,0.012,-0.004,0.011,0.082,0.033,0.062,-0.086],[0.334,0.295,-0.004,0.004,-0.004,-0.044,-0.006,-0.005,0.029],[0.018,0.351,0.001,-0.006,0.004,-0.008,0.003,-0.001,0.015],[0.236,-0.01,-0.096,0.0,0.022,0.2,0.136,0.213,-0.155],[0.045,0.04,-0.139,-0.001,0.036,0.202,0.08,0.161,-0.096],[0.165,-0.003,-0.165,0.003,0.029,0.227,0.155,0.215,-0.134],[-0.271,0.013,-0.263,0.003,-0.026,-0.24,-0.137,-0.278,0.378]],"b":[0.386,0.782,0.257,0.446,0.253,0.37,0.229,0.878]},{"w":[[-0.126,0.481,-0.002,0.003,0.005,0.015,0.002,-0.034],[-0.318,0.012,-0.019,-0.004,0.009,0.068,0.026,-0.15],[0.346,0.294,0.006,0.003,-0.003,-0.032,0.0,0.052],[0.026,0.35,0.006,-0.006,0.005,-0.0,0.007,0.029],[0.208,-0.005,-0.177,0.002,0.021,0.186,0.129,-0.325],[0.044,0.043,-0.186,0.0,0.037,0.211,0.087,-0.19],[0.148,0.002,-0.239,0.004,0.028,0.223,0.154,-0.287],[0.13,0.012,-0.188,0.0,0.023,0.202,0.113,-0.35],[-0.208,-0.012,-0.104,-0.004,-0.015,-0.146,-0.114,0.651]],"b":[0.415,0.875,0.225,0.427,0.503,0.51,0.455,0.553,0.493]},{"w":[[-0.127,0.481,-0.003,0.003,0.005,0.014,0.002,-0.03,-0.005],[-0.327,0.011,-0.024,-0.004,0.008,0.061,0.021,-0.12,-0.046],[0.348,0.294,0.007,0.003,-0.003,-0.031,0.002,0.045,0.01],[0.027,0.35,0.007,-0.006,0.005,0.0,0.007,0.026,0.004],[0.191,-0.006,-0.185,0.001,0.019,0.174,0.12,-0.274,-0.079],[0.031,0.043,-0.193,-0.0,0.036,0.201,0.079,-0.148,-0.065],[0.132,0.002,-0.247,0.004,0.027,0.212,0.146,-0.24,-0.074],[0.115,0.011,-0.195,0.0,0.022,0.192,0.105,-0.304,-0.071]],"b":[0.417,0.898,0.22,0.425,0.542,0.542,0.491,0.588]},{"w":[[-0.128,0.481,0.001,0.003,0.004,0.012,0.001,-0.029,0.013],[-0.323,0.011,-0.012,-0.004,0.008,0.06,0.022,-0.138,0.036],[0.345,0.294,0.008,0.003,-0.003,-0.034,-0.0,0.054,0.007],[0.025,0.35,0.008,-0.006,0.004,-0.002,0.006,0.031,0.006],[0.187,-0.007,-0.147,0.001,0.017,0.154,0.112,-0.27,0.157],[0.027,0.042,-0.16,-0.0,0.034,0.183,0.071,-0.142,0.137],[0.126,0.0,-0.207,0.004,0.024,0.189,0.135,-0.228,0.169],[-0.195,-0.01,-0.124,-0.004,-0.013,-0.125,-0.102,0.614,-0.106]],"b":[0.407,0.855,0.221,0.423,0.416,0.434,0.361,0.552]},{"w":[[-0.129,0.481,0.0,0.003,0.004,0.012,0.0,-0.027,0.013,-0.004],[-0.331,0.011,-0.018,-0.004,0.008,0.055,0.018,-0.111,0.031,-0.044],[0.347,0.294,0.009,0.003,-0.003,-0.032,0.001,0.048,0.009,0.011],[0.026,0.35,0.008,-0.006,0.004,-0.001,0.007,0.029,0.007,0.004],[0.174,-0.007,-0.156,0.001,0.016,0.145,0.105,-0.228,0.15,-0.068],[0.016,0.041,-0.167,-0.0,0.033,0.176,0.065,-0.108,0.131,-0.055],[0.114,-0.0,-0.215,0.004,0.024,0.181,0.129,-0.19,0.162,-0.062]],"b":[0.409,0.879,0.215,0.421,0.454,0.465,0.396]},{"w":[[-0.116,0.481,0.015,0.003,0.005,0.022,0.006,0.031],[-0.266,0.011,0.053,-0.005,0.013,0.104,0.046,0.116],[0.326,0.294,-0.018,0.004,-0.004,-0.047,-0.008,-0.035],[0.012,0.35,-0.006,-0.006,0.003,-0.012,0.0,-0.011],[0.316,-0.007,-0.019,-0.0,0.028,0.26,0.169,0.264],[0.092,0.042,-0.087,-0.001,0.039,0.236,0.098,0.202],[-0.477,0.008,-0.427,0.004,-0.043,-0.402,-0.235,-0.352],[0.25,0.009,-0.019,-0.001,0.032,0.287,0.159,0.273],[-0.488,-0.006,-0.394,-0.002,-0.039,-0.372,-0.244,-0.325]],"b":[0.366,0.66,0.299,0.468,0.037,0.235,1.408,0.051,1.415]},{"w":[[-0.123,0.481,0.009,0.003,0.005,0.017,0.002,0.026,-0.014],[-0.306,0.01,0.021,-0.005,0.009,0.074,0.026,0.089,-0.082],[0.338,0.295,-0.008,0.004,-0.003,-0.038,-0.002,-0.026,0.025],[0.019,0.351,-0.0,-0.006,0.004,-0.007,0.004,-0.006,0.014],[0.237,-0.008,-0.082,-0.0,0.022,0.2,0.13,0.211,-0.161],[0.044,0.041,-0.126,-0.001,0.035,0.199,0.074,0.17,-0.099],[-0.284,0.01,-0.271,0.004,-0.027,-0.255,-0.139,-0.223,0.395],[0.169,0.008,-0.084,-0.002,0.025,0.226,0.119,0.219,-0.165]],"b":[0.385,0.777,0.263,0.448,0.264,0.374,0.849,0.284]},{"w":[[-0.121,0.481,0.015,0.003,0.005,0.016,0.003,0.026,0.019],[-0.283,0.01,0.055,-0.004,0.01,0.085,0.035,0.098,0.067],[0.328,0.294,-0.018,0.004,-0.004,-0.045,-0.007,-0.033,-0.007],[0.013,0.35,-0.006,-0.006,0.003,-0.011,0.001,-0.01,-0.004],[0.262,-0.009,-0.015,0.0,0.021,0.198,0.135,0.205,0.215],[0.054,0.04,-0.084,-0.001,0.034,0.192,0.074,0.16,0.153],[-0.39,0.011,-0.433,0.003,-0.032,-0.303,-0.18,-0.257,-0.346],[-0.414,-0.004,-0.4,-0.002,-0.029,-0.287,-0.197,-0.245,-0.295]],"b":[0.365,0.657,0.3,0.468,0.026,0.227,1.426,1.43]},{"w":[[-0.125,0.481,0.011,0.003,0.004,0.013,0.001,0.023,0.015,-0.011],[-0.314,0.01,0.025,-0.005,0.008,0.064,0.021,0.08,0.045,-0.075],[0.338,0.295,-0.008,0.004,-0.003,-0.038,-0.002,-0.027,0.001,0.025],[0.019,0.351,-0.0,-0.006,0.004,-0.007,0.004,-0.006,0.0,0.014],[0.207,-0.01,-0.067,-0.0,0.017,0.161,0.109,0.173,0.176,-0.132],[0.022,0.04,-0.115,-0.001,0.032,0.17,0.058,0.142,0.131,-0.077],[-0.243,0.012,-0.291,0.004,-0.021,-0.201,-0.11,-0.17,-0.241,0.355]],"b":[0.381,0.764,0.263,0.447,0.214,0.337,0.917]},{"w":[[-0.129,0.481,0.003,0.003,0.004,0.01,-0.001,0.021,-0.028],[-0.328,0.012,-0.002,-0.004,0.007,0.052,0.015,0.07,-0.13],[0.348,0.294,0.002,0.003,-0.002,-0.028,0.003,-0.018,0.047],[0.026,0.35,0.006,-0.006,0.005,-0.0,0.007,-0.001,0.029],[0.183,-0.005,-0.137,0.001,0.016,0.149,0.104,0.166,-0.277],[0.022,0.043,-0.15,-0.001,0.033,0.177,0.063,0.151,-0.147],[0.105,0.012,-0.148,-0.0,0.019,0.165,0.087,0.167,-0.303],[-0.192,-0.011,-0.13,-0.004,-0.012,-0.122,-0.098,-0.107,0.62]],"b":[0.405,0.843,0.233,0.427,0.427,0.441,0.477,0.542]},{"w":[[-0.13,0.481,0.003,0.003,0.004,0.01,-0.001,0.021,-0.026,-0.004],[-0.336,0.011,-0.007,-0.004,0.006,0.047,0.011,0.066,-0.105,-0.041],[0.35,0.294,0.003,0.003,-0.002,-0.027,0.004,-0.017,0.041,0.009],[0.027,0.35,0.007,-0.006,0.005,0.0,0.007,-0.0,0.026,0.004],[0.17,-0.006,-0.146,0.001,0.015,0.14,0.097,0.159,-0.236,-0.067],[0.012,0.042,-0.157,-0.001,0.032,0.17,0.058,0.145,-0.113,-0.054],[0.094,0.011,-0.156,-0.0,0.018,0.158,0.082,0.16,-0.266,-0.06]],"b":[0.407,0.865,0.229,0.425,0.464,0.471,0.509]},{"w":[[-0.13,0.481,0.005,0.003,0.004,0.009,-0.002,0.019,-0.025,0.01],[-0.331,0.011,0.002,-0.004,0.007,0.048,0.013,0.066,-0.123,0.025],[0.347,0.294,0.003,0.003,-0.002,-0.03,0.002,-0.02,0.05,0.011],[0.025,0.35,0.007,-0.006,0.004,-0.001,0.006,-0.002,0.031,0.007],[0.169,-0.007,-0.118,0.001,0.013,0.127,0.092,0.144,-0.237,0.133],[0.01,0.042,-0.133,-0.001,0.031,0.158,0.053,0.132,-0.112,0.115],[-0.183,-0.01,-0.143,-0.004,-0.011,-0.107,-0.09,-0.092,0.592,-0.09]],"b":[0.4,0.831,0.228,0.424,0.364,0.387,0.585]},{"w":[[-0.131,0.481,0.004,0.003,0.004,0.008,-0.002,0.019,-0.023,0.01,-0.003],[-0.338,0.011,-0.004,-0.004,0.006,0.044,0.01,0.063,-0.099,0.021,-0.04],[0.349,0.294,0.005,0.003,-0.002,-0.029,0.003,-0.019,0.044,0.012,0.01],[0.026,0.35,0.008,-0.006,0.004,-0.001,0.007,-0.002,0.028,0.007,0.004],[0.158,-0.007,-0.126,0.001,0.013,0.12,0.087,0.138,-0.202,0.128,-0.06],[0.001,0.041,-0.14,-0.001,0.03,0.153,0.049,0.127,-0.084,0.11,-0.047]],"b":[0.402,0.855,0.223,0.422,0.399,0.414]},{"w":[[-0.107,0.481,0.012,0.003,0.006,0.031,0.012,0.007],[-0.239,0.008,0.045,-0.004,0.015,0.13,0.066,0.059],[0.319,0.295,-0.016,0.003,-0.005,-0.053,-0.013,-0.023],[0.01,0.351,-0.005,-0.006,0.003,-0.014,-0.001,-0.007],[0.37,-0.015,-0.032,0.001,0.031,0.301,0.206,0.188],[0.29,-0.007,-0.11,0.003,0.037,0.324,0.222,0.17],[-0.557,0.016,-0.403,0.002,-0.049,-0.474,-0.293,-0.196],[0.309,0.002,-0.035,-0.0,0.036,0.336,0.201,0.171],[-0.56,0.002,-0.375,-0.003,-0.044,-0.432,-0.295,-0.199]],"b":[0.366,0.652,0.303,0.469,0.005,0.014,1.436,0.024,1.446]},{"w":[[-0.117,0.481,0.005,0.003,0.006,0.023,0.007,0.004,-0.018],[-0.291,0.008,0.01,-0.004,0.011,0.09,0.039,0.04,-0.093],[0.334,0.295,-0.006,0.003,-0.003,-0.041,-0.005,-0.018,0.028],[0.018,0.351,0.0,-0.006,0.004,-0.007,0.003,-0.004,0.015],[0.27,-0.015,-0.099,0.0,0.023,0.224,0.154,0.153,-0.178],[0.2,-0.007,-0.17,0.003,0.03,0.254,0.175,0.139,-0.16],[-0.322,0.015,-0.246,0.004,-0.031,-0.292,-0.169,-0.112,0.42],[0.205,0.003,-0.105,-0.001,0.027,0.256,0.146,0.134,-0.186]],"b":[0.392,0.787,0.263,0.447,0.263,0.245,0.829,0.293]},{"w":[[-0.115,0.481,0.013,0.003,0.005,0.023,0.007,0.003,0.025],[-0.265,0.008,0.048,-0.004,0.012,0.101,0.049,0.044,0.084],[0.322,0.295,-0.017,0.003,-0.004,-0.049,-0.011,-0.022,-0.011],[0.012,0.351,-0.006,-0.006,0.003,-0.012,-0.0,-0.006,-0.005],[0.295,-0.016,-0.023,0.001,0.022,0.22,0.158,0.147,0.24],[0.216,-0.007,-0.102,0.003,0.029,0.244,0.174,0.13,0.238],[-0.437,0.017,-0.417,0.002,-0.035,-0.343,-0.215,-0.13,-0.388],[-0.457,0.003,-0.386,-0.003,-0.032,-0.321,-0.228,-0.142,-0.332]],"b":[0.365,0.65,0.303,0.469,-0.001,0.008,1.446,1.454]},{"w":[[-0.122,0.481,0.007,0.003,0.005,0.018,0.004,0.001,0.02,-0.014],[-0.302,0.008,0.016,-0.004,0.009,0.075,0.03,0.033,0.057,-0.082],[0.335,0.295,-0.006,0.003,-0.003,-0.04,-0.004,-0.018,-0.002,0.027],[0.018,0.351,0.0,-0.006,0.004,-0.007,0.003,-0.004,-0.0,0.015],[0.23,-0.015,-0.078,0.0,0.018,0.174,0.126,0.127,0.193,-0.142],[0.16,-0.007,-0.149,0.003,0.025,0.204,0.146,0.112,0.197,-0.123],[-0.268,0.016,-0.274,0.003,-0.024,-0.224,-0.131,-0.077,-0.265,0.371]],"b":[0.386,0.77,0.264,0.447,0.206,0.187,0.907]},{"w":[[-0.126,0.481,-0.002,0.003,0.005,0.015,0.002,0.001,-0.034],[-0.319,0.01,-0.013,-0.004,0.008,0.061,0.024,0.03,-0.144],[0.346,0.295,0.004,0.003,-0.002,-0.029,0.002,-0.014,0.049],[0.026,0.35,0.006,-0.006,0.005,-0.0,0.007,-0.001,0.029],[0.202,-0.01,-0.153,0.002,0.016,0.158,0.118,0.129,-0.301],[0.142,-0.003,-0.217,0.004,0.024,0.198,0.144,0.118,-0.265],[0.125,0.008,-0.168,0.0,0.019,0.18,0.104,0.106,-0.33],[-0.205,-0.008,-0.118,-0.004,-0.013,-0.131,-0.108,-0.074,0.636]],"b":[0.414,0.86,0.232,0.427,0.437,0.394,0.498,0.531]},{"w":[[-0.127,0.481,-0.002,0.003,0.005,0.014,0.002,0.001,-0.03,-0.005],[-0.328,0.01,-0.018,-0.004,0.007,0.056,0.019,0.027,-0.116,-0.044],[0.348,0.295,0.005,0.003,-0.002,-0.028,0.003,-0.013,0.043,0.009],[0.027,0.35,0.007,-0.006,0.005,0.0,0.007,-0.001,0.026,0.004],[0.188,-0.011,-0.161,0.001,0.015,0.149,0.11,0.124,-0.255,-0.071],[0.129,-0.003,-0.225,0.004,0.023,0.189,0.137,0.114,-0.223,-0.066],[0.112,0.007,-0.176,0.0,0.019,0.171,0.097,0.101,-0.289,-0.065]],"b":[0.417,0.883,0.227,0.425,0.475,0.43,0.533]},{"w":[[-0.128,0.481,0.0,0.003,0.004,0.013,0.001,-0.001,-0.029,0.014],[-0.323,0.01,-0.008,-0.004,0.007,0.055,0.02,0.027,-0.134,0.032],[0.345,0.295,0.005,0.003,-0.002,-0.031,0.001,-0.015,0.052,0.009],[0.025,0.35,0.007,-0.006,0.004,-0.001,0.006,-0.002,0.031,0.007],[0.184,-0.011,-0.129,0.001,0.013,0.133,0.103,0.114,-0.254,0.142],[0.123,-0.004,-0.191,0.004,0.021,0.17,0.128,0.102,-0.214,0.155],[-0.193,-0.008,-0.134,-0.004,-0.011,-0.113,-0.098,-0.064,0.604,-0.097]],"b":[0.407,0.844,0.228,0.424,0.366,0.317,0.58]},{"w":[[-0.129,0.481,-0.0,0.003,0.004,0.012,0.001,-0.001,-0.027,0.013,-0.004],[-0.331,0.01,-0.013,-0.004,0.007,0.051,0.016,0.024,-0.108,0.028,-0.042],[0.347,0.295,0.007,0.003,-0.002,-0.03,0.002,-0.014,0.046,0.01,0.01],[0.026,0.35,0.008,-0.006,0.004,-0.001,0.007,-0.001,0.028,0.007,0.004],[0.172,-0.012,-0.137,0.001,0.012,0.126,0.097,0.11,-0.216,0.136,-0.062],[0.112,-0.004,-0.198,0.004,0.02,0.164,0.122,0.098,-0.18,0.149,-0.057]],"b":[0.41,0.868,0.222,0.422,0.402,0.35]},{"w":[[-0.116,0.481,0.015,0.003,0.005,0.021,0.005,0.002,0.03],[-0.27,0.009,0.057,-0.004,0.011,0.095,0.042,0.04,0.108],[0.328,0.295,-0.02,0.004,-0.003,-0.043,-0.006,-0.018,-0.031],[0.013,0.351,-0.006,-0.006,0.003,-0.011,0.001,-0.005,-0.01],[0.302,-0.013,-0.006,0.0,0.022,0.225,0.154,0.148,0.234],[-0.464,0.014,-0.439,0.003,-0.037,-0.369,-0.221,-0.141,-0.323],[0.238,0.004,-0.008,-0.001,0.026,0.256,0.146,0.129,0.247],[-0.474,-0.0,-0.407,-0.002,-0.033,-0.337,-0.229,-0.149,-0.295]],"b":[0.365,0.651,0.304,0.469,0.002,1.441,0.021,1.45]},{"w":[[-0.123,0.481,0.01,0.003,0.005,0.016,0.002,0.0,0.026,-0.014],[-0.308,0.009,0.025,-0.005,0.008,0.068,0.024,0.029,0.085,-0.079],[0.339,0.295,-0.01,0.004,-0.003,-0.035,-0.0,-0.015,-0.024,0.024],[0.019,0.351,-0.001,-0.006,0.004,-0.006,0.004,-0.003,-0.006,0.014],[0.232,-0.013,-0.066,-0.0,0.017,0.175,0.121,0.126,0.19,-0.148],[-0.28,0.014,-0.281,0.004,-0.025,-0.239,-0.133,-0.083,-0.209,0.387],[0.165,0.004,-0.071,-0.001,0.021,0.205,0.111,0.106,0.201,-0.154]],"b":[0.385,0.766,0.269,0.449,0.217,0.88,0.244]},{"w":[[-0.121,0.481,0.015,0.003,0.005,0.016,0.003,-0.0,0.026,0.019],[-0.285,0.009,0.057,-0.004,0.009,0.079,0.033,0.032,0.093,0.062],[0.329,0.295,-0.02,0.004,-0.003,-0.042,-0.005,-0.018,-0.03,-0.004],[0.014,0.351,-0.006,-0.006,0.004,-0.01,0.001,-0.004,-0.009,-0.003],[0.255,-0.014,-0.004,0.0,0.017,0.175,0.126,0.123,0.185,0.196],[-0.385,0.015,-0.441,0.003,-0.028,-0.284,-0.173,-0.098,-0.242,-0.331],[-0.408,0.001,-0.409,-0.002,-0.026,-0.265,-0.189,-0.113,-0.227,-0.278]],"b":[0.365,0.649,0.304,0.469,-0.002,1.448,1.455]},{"w":[[-0.125,0.481,0.011,0.003,0.004,0.013,0.001,-0.001,0.023,0.016,-0.011],[-0.315,0.009,0.028,-0.005,0.007,0.059,0.019,0.024,0.076,0.042,-0.073],[0.339,0.295,-0.01,0.004,-0.003,-0.035,-0.001,-0.015,-0.024,0.003,0.024],[0.019,0.351,-0.001,-0.006,0.004,-0.006,0.004,-0.003,-0.006,0.001,0.014],[0.205,-0.014,-0.055,-0.0,0.014,0.142,0.103,0.109,0.157,0.162,-0.123],[-0.242,0.015,-0.298,0.004,-0.02,-0.191,-0.107,-0.059,-0.162,-0.233,0.351]],"b":[0.381,0.756,0.268,0.448,0.177,0.937]},{"w":[[-0.129,0.481,0.003,0.003,0.004,0.011,-0.001,-0.002,0.021,-0.028],[-0.329,0.011,0.001,-0.004,0.006,0.048,0.014,0.023,0.067,-0.127],[0.349,0.295,0.0,0.003,-0.002,-0.026,0.004,-0.012,-0.016,0.045],[0.026,0.35,0.006,-0.006,0.005,-0.0,0.007,-0.001,-0.001,0.028],[0.181,-0.01,-0.121,0.001,0.012,0.129,0.097,0.112,0.149,-0.261],[0.103,0.008,-0.135,-0.0,0.016,0.15,0.082,0.088,0.153,-0.29],[-0.191,-0.009,-0.139,-0.004,-0.01,-0.111,-0.094,-0.063,-0.098,0.61]],"b":[0.406,0.833,0.239,0.428,0.378,0.438,0.57]},{"w":[[-0.13,0.481,0.002,0.003,0.004,0.01,-0.001,-0.002,0.021,-0.026,-0.004],[-0.336,0.01,-0.004,-0.004,0.006,0.044,0.01,0.02,0.063,-0.102,-0.04],[0.35,0.295,0.001,0.003,-0.002,-0.025,0.005,-0.011,-0.016,0.04,0.008],[0.027,0.35,0.007,-0.006,0.005,0.0,0.007,-0.001,-0.0,0.026,0.004],[0.169,-0.01,-0.129,0.001,0.012,0.122,0.091,0.108,0.143,-0.223,-0.062],[0.093,0.007,-0.143,-0.0,0.015,0.143,0.077,0.085,0.148,-0.256,-0.055]],"b":[0.408,0.856,0.234,0.426,0.413,0.469]},{"w":[[-0.13,0.481,0.004,0.003,0.004,0.009,-0.002,-0.003,0.02,-0.025,0.01],[-0.331,0.01,0.004,-0.004,0.006,0.045,0.012,0.021,0.064,-0.12,0.022],[0.347,0.294,0.002,0.003,-0.002,-0.028,0.003,-0.013,-0.018,0.048,0.012],[0.025,0.35,0.007,-0.006,0.004,-0.001,0.007,