const models = [{"w":[[-0.055,0.526,0.003,0.002,0.001],[-0.015,-0.023,0.0,-0.006,-0.0],[0.249,0.335,0.001,0.004,-0.002],[-0.018,0.394,-0.001,-0.004,-0.004],[0.602,0.546,-0.0,-0.0,-0.014],[0.663,0.526,-0.0,0.001,-0.002],[0.612,0.577,-0.0,-0.001,0.006],[0.984,0.255,0.0,0.0,-0.002],[0.596,0.569,-0.0,0.001,-0.003],[0.525,0.645,-0.0,0.0,-0.002],[0.974,0.163,-0.0,0.0,-0.003],[0.796,0.425,0.0,0.001,-0.002]],"b":[0.326,0.712,0.249,0.435,-0.055,-0.071,-0.081,-0.106,-0.078,-0.085,-0.061,-0.109]},{"w":[[-0.005,0.552,0.003,0.002,0.001,-0.063],[0.35,0.172,0.001,-0.005,-0.001,-0.459],[0.049,0.228,0.001,0.004,-0.001,0.25],[-0.207,0.293,-0.001,-0.004,-0.004,0.237],[0.325,0.398,-0.0,-0.001,-0.013,0.348],[0.375,0.372,-0.0,0.0,-0.001,0.361],[0.353,0.439,-0.0,-0.001,0.006,0.325],[0.557,0.027,0.0,-0.0,-0.001,0.536],[0.108,0.308,-0.0,0.0,-0.002,0.613],[0.167,0.455,-0.0,-0.0,-0.002,0.449],[0.555,-0.06,-0.0,-0.0,-0.002,0.526]],"b":[0.319,0.661,0.276,0.461,-0.017,-0.031,-0.046,-0.048,-0.011,-0.036,-0.003]},{"w":[[-0.051,0.526,0.003,0.002,0.001,-0.004],[0.385,0.044,0.0,-0.006,-0.001,-0.411],[-0.089,0.278,0.001,0.004,-0.001,0.347],[-0.084,0.383,-0.001,-0.004,-0.004,0.067],[0.321,0.498,-0.0,-0.0,-0.013,0.289],[0.376,0.477,-0.0,0.001,-0.001,0.295],[0.354,0.534,-0.0,-0.001,0.006,0.264],[0.571,0.185,0.0,-0.0,-0.001,0.424],[0.118,0.489,0.0,0.001,-0.002,0.49],[0.168,0.586,-0.0,0.0,-0.001,0.366],[0.449,0.367,0.0,0.001,-0.001,0.356]],"b":[0.326,0.687,0.27,0.439,-0.038,-0.053,-0.065,-0.081,-0.049,-0.063,-0.088]},{"w":[[-0.017,0.554,0.003,0.002,0.001,0.023,-0.075],[0.519,0.153,0.0,-0.005,-0.002,-0.304,-0.299],[-0.127,0.248,0.001,0.004,-0.001,0.317,0.083],[-0.195,0.292,-0.001,-0.004,-0.004,-0.021,0.248],[0.212,0.41,-0.0,-0.001,-0.013,0.203,0.241],[0.262,0.385,-0.0,0.0,-0.001,0.205,0.253],[0.252,0.45,-0.0,-0.001,0.007,0.183,0.229],[0.398,0.044,0.0,-0.0,-0.001,0.287,0.385],[-0.078,0.329,-0.0,0.001,-0.002,0.334,0.437],[0.027,0.47,-0.0,-0.0,-0.001,0.253,0.316]],"b":[0.319,0.661,0.277,0.461,-0.017,-0.031,-0.045,-0.047,-0.01,-0.035]},{"w":[[0.018,0.615,0.003,0.002,0.0,-0.139],[0.237,0.287,0.0,-0.006,-0.002,-0.481],[0.094,0.145,0.001,0.004,-0.001,0.295],[-0.061,0.342,-0.001,-0.004,-0.004,0.081],[0.421,0.322,-0.0,-0.0,-0.013,0.346],[0.475,0.295,-0.0,0.001,-0.001,0.357],[0.446,0.374,-0.0,-0.001,0.007,0.315],[0.721,-0.069,0.0,0.0,-0.001,0.501],[0.282,0.183,-0.0,0.001,-0.002,0.598],[0.699,-0.175,-0.0,0.0,-0.001,0.525],[0.567,0.143,0.0,0.001,-0.001,0.436]],"b":[0.314,0.671,0.274,0.442,-0.026,-0.04,-0.055,-0.064,-0.027,-0.016,-0.072]},{"w":[[0.018,0.615,0.003,0.002,0.0,-0.138,-0.001],[0.409,0.33,0.0,-0.005,-0.002,-0.349,-0.303],[0.011,0.124,0.001,0.004,-0.001,0.231,0.147],[-0.202,0.306,-0.001,-0.004,-0.004,-0.028,0.249],[0.285,0.288,-0.0,-0.0,-0.013,0.242,0.24],[0.334,0.26,-0.0,0.0,-0.001,0.248,0.25],[0.317,0.341,-0.0,-0.001,0.007,0.216,0.228],[0.502,-0.124,0.0,-0.0,-0.001,0.332,0.387],[0.039,0.121,-0.0,0.001,-0.002,0.412,0.428],[0.494,-0.227,-0.0,-0.0,-0.001,0.367,0.361]],"b":[0.314,0.649,0.285,0.46,-0.009,-0.022,-0.038,-0.036,0.003,0.01]},{"w":[[-0.023,0.625,0.003,0.002,0.0,-0.169,0.058],[0.44,0.236,0.0,-0.006,-0.002,-0.328,-0.291],[-0.113,0.196,0.001,0.004,-0.001,0.14,0.296],[-0.094,0.35,-0.001,-0.004,-0.004,0.056,0.047],[0.28,0.357,-0.0,-0.0,-0.013,0.241,0.201],[0.333,0.331,-0.0,0.001,-0.001,0.25,0.203],[0.317,0.406,-0.0,-0.001,0.007,0.218,0.185],[0.513,-0.017,0.0,-0.0,-0.001,0.345,0.298],[0.047,0.241,0.0,0.001,-0.002,0.422,0.335],[0.397,0.186,0.0,0.001,-0.0,0.309,0.244]],"b":[0.315,0.666,0.279,0.442,-0.023,-0.037,-0.052,-0.059,-0.022,-0.068]},{"w":[[-0.013,0.63,0.003,0.002,0.0,-0.161,0.064,-0.024],[0.526,0.276,0.0,-0.005,-0.002,-0.261,-0.238,-0.217],[-0.13,0.188,0.001,0.004,-0.001,0.126,0.285,0.044],[-0.195,0.303,-0.001,-0.004,-0.004,-0.022,-0.015,0.255],[0.207,0.323,-0.0,-0.0,-0.013,0.184,0.157,0.183],[0.257,0.295,-0.0,0.0,-0.001,0.191,0.156,0.193],[0.247,0.373,-0.0,-0.001,0.007,0.164,0.141,0.177],[0.391,-0.073,0.0,-0.0,-0.001,0.25,0.223,0.306],[-0.086,0.179,-0.0,0.001,-0.001,0.319,0.253,0.337]],"b":[0.314,0.651,0.282,0.46,-0.01,-0.024,-0.04,-0.038,0.001]},{"w":[[-0.021,0.558,0.003,0.002,0.0,-0.057],[0.204,0.186,0.0,-0.005,-0.002,-0.367],[0.142,0.233,0.001,0.004,-0.001,0.179],[-0.071,0.343,-0.001,-0.004,-0.004,0.089],[0.448,0.398,-0.0,-0.001,-0.013,0.259],[0.504,0.374,-0.0,0.0,-0.001,0.266],[0.47,0.442,-0.0,-0.001,0.007,0.238],[0.747,0.028,0.0,-0.0,-0.001,0.398],[0.322,0.451,-0.0,-0.0,-0.001,0.341],[0.736,-0.065,-0.0,-0.0,-0.001,0.401],[0.594,0.232,0.0,0.001,-0.001,0.339]],"b":[0.322,0.683,0.263,0.442,-0.035,-0.05,-0.063,-0.075,-0.058,-0.029,-0.083]},{"w":[[0.0,0.566,0.003,0.002,0.0,-0.045,-0.036],[0.379,0.254,0.0,-0.005,-0.002,-0.267,-0.296],[0.037,0.192,0.001,0.004,-0.001,0.119,0.177],[-0.208,0.29,-0.001,-0.004,-0.004,0.011,0.23],[0.306,0.343,-0.0,-0.001,-0.013,0.178,0.239],[0.356,0.316,-0.0,0.0,-0.001,0.181,0.25],[0.336,0.389,-0.0,-0.001,0.007,0.162,0.226],[0.528,-0.057,0.0,-0.001,-0.001,0.273,0.368],[0.142,0.381,-0.0,-0.0,-0.001,0.238,0.303],[0.525,-0.147,-0.0,-0.0,-0.001,0.28,0.354]],"b":[0.319,0.658,0.278,0.461,-0.015,-0.029,-0.044,-0.045,-0.033,-0.0]},{"w":[[-0.043,0.56,0.003,0.002,0.001,-0.069,0.03],[0.415,0.167,0.0,-0.005,-0.002,-0.252,-0.287],[-0.095,0.253,0.001,0.004,-0.001,0.05,0.322],[-0.093,0.345,-0.001,-0.004,-0.004,0.077,0.03],[0.299,0.411,-0.0,-0.0,-0.013,0.178,0.202],[0.354,0.388,-0.0,0.0,-0.001,0.184,0.205],[0.335,0.453,-0.0,-0.001,0.007,0.165,0.184],[0.537,0.046,0.0,-0.0,-0.001,0.284,0.285],[0.14,0.467,-0.0,-0.0,-0.001,0.242,0.247],[0.42,0.247,0.0,0.001,-0.0,0.245,0.237]],"b":[0.323,0.674,0.273,0.443,-0.029,-0.044,-0.057,-0.067,-0.051,-0.076]},{"w":[[-0.022,0.572,0.003,0.002,0.0,-0.056,0.042,-0.051],[0.504,0.219,0.0,-0.005,-0.002,-0.2,-0.237,-0.212],[-0.124,0.237,0.001,0.004,-0.001,0.034,0.306,0.069],[-0.194,0.286,-0.001,-0.004,-0.004,0.018,-0.027,0.24],[0.223,0.366,-0.0,-0.001,-0.013,0.133,0.159,0.183],[0.272,0.34,-0.0,0.0,-0.001,0.137,0.159,0.194],[0.261,0.41,-0.0,-0.001,0.007,0.122,0.142,0.175],[0.415,-0.026,0.0,-0.0,-0.0,0.213,0.216,0.292],[0.041,0.409,-0.0,-0.0,-0.001,0.184,0.192,0.235]],"b":[0.319,0.658,0.278,0.461,-0.015,-0.029,-0.044,-0.045,-0.033]},{"w":[[0.021,0.617,0.003,0.002,0.0,-0.012,-0.131],[0.309,0.334,0.0,-0.005,-0.002,-0.255,-0.328],[0.066,0.126,0.001,0.004,-0.001,0.099,0.235],[-0.083,0.328,-0.001,-0.004,-0.004,0.077,0.035],[0.371,0.29,-0.0,-0.0,-0.013,0.177,0.24],[0.424,0.262,-0.0,0.0,-0.001,0.181,0.249],[0.4,0.344,-0.0,-0.001,0.007,0.165,0.217],[0.64,-0.121,0.0,-0.0,-0.001,0.286,0.33],[0.62,-0.226,-0.0,-0.0,-0.001,0.278,0.358],[0.5,0.099,0.0,0.001,-0.0,0.24,0.293]],"b":[0.314,0.664,0.277,0.444,-0.021,-0.035,-0.05,-0.056,-0.008,-0.066]},{"w":[[0.019,0.617,0.003,0.002,0.0,-0.013,-0.133,0.004],[0.417,0.355,0.0,-0.005,-0.002,-0.204,-0.265,-0.215],[0.008,0.115,0.001,0.004,-0.001,0.071,0.201,0.116],[-0.203,0.304,-0.001,-0.004,-0.004,0.019,-0.036,0.241],[0.279,0.272,-0.0,-0.001,-0.012,0.133,0.187,0.183],[0.329,0.243,-0.0,0.0,-0.001,0.135,0.192,0.192],[0.312,0.326,-0.0,-0.001,0.007,0.123,0.165,0.176],[0.493,-0.15,0.0,-0.0,-0.0,0.215,0.244,0.294],[0.486,-0.253,-0.0,-0.0,-0.001,0.214,0.279,0.27]],"b":[0.314,0.65,0.284,0.46,-0.009,-0.023,-0.039,-0.037,0.009]},{"w":[[-0.021,0.633,0.003,0.002,0.0,-0.031,-0.156,0.068],[0.449,0.282,0.0,-0.005,-0.002,-0.192,-0.247,-0.226],[-0.114,0.192,0.001,0.004,-0.001,0.019,0.132,0.29],[-0.097,0.333,-0.001,-0.004,-0.004,0.071,0.026,0.023],[0.274,0.325,-0.0,-0.0,-0.012,0.133,0.184,0.156],[0.327,0.298,-0.0,0.0,-0.001,0.138,0.192,0.157],[0.311,0.376,-0.0,-0.001,0.007,0.125,0.165,0.143],[0.502,-0.071,0.0,-0.0,-0.0,0.224,0.25,0.223],[0.388,0.14,0.0,0.001,-0.0,0.189,0.229,0.18]],"b":[0.315,0.662,0.279,0.444,-0.02,-0.034,-0.049,-0.054,-0.064]},{"w":[[-0.015,0.635,0.003,0.002,0.0,-0.028,-0.152,0.071,-0.015],[0.512,0.305,0.0,-0.005,-0.002,-0.162,-0.21,-0.197,-0.162],[-0.129,0.186,0.001,0.004,-0.001,0.011,0.123,0.282,0.04],[-0.193,0.298,-0.001,-0.004,-0.004,0.024,-0.03,-0.021,0.247],[0.216,0.305,-0.0,-0.001,-0.012,0.105,0.151,0.13,0.148],[0.266,0.276,-0.0,0.0,-0.001,0.108,0.156,0.129,0.157],[0.256,0.356,-0.0,-0.001,0.007,0.098,0.133,0.117,0.144],[0.407,-0.105,0.0,-0.0,-0.0,0.177,0.194,0.178,0.246]],"b":[0.314,0.651,0.282,0.46,-0.01,-0.024,-0.04,-0.038]},{"w":[[-0.043,0.529,0.003,0.002,0.001,-0.012],[0.438,0.094,0.001,-0.006,-0.001,-0.46],[0.054,0.284,0.001,0.004,-0.001,0.198],[-0.125,0.366,-0.001,-0.004,-0.004,0.109],[0.316,0.472,-0.0,-0.0,-0.013,0.291],[0.364,0.448,-0.0,0.001,-0.001,0.303],[0.347,0.509,-0.0,-0.001,0.006,0.269],[0.098,0.44,-0.0,0.001,-0.002,0.506],[0.168,0.553,-0.0,0.0,-0.002,0.363],[0.541,0.051,-0.0,0.0,-0.002,0.44],[0.425,0.329,0.0,0.001,-0.001,0.377]],"b":[0.325,0.663,0.27,0.446,-0.024,-0.038,-0.053,-0.025,-0.046,-0.014,-0.069]},{"w":[[-0.013,0.552,0.003,0.002,0.001,0.015,-0.071],[0.551,0.181,0.001,-0.005,-0.002,-0.36,-0.267],[-0.023,0.225,0.001,0.004,-0.001,0.13,0.181],[-0.22,0.293,-0.001,-0.004,-0.004,0.024,0.224],[0.213,0.392,-0.001,-0.0,-0.013,0.201,0.241],[0.259,0.367,-0.0,0.0,-0.001,0.21,0.249],[0.251,0.434,-0.0,-0.001,0.007,0.183,0.227],[-0.084,0.299,-0.0,0.001,-0.002,0.345,0.428],[0.032,0.448,-0.0,-0.0,-0.001,0.242,0.319],[0.386,-0.068,-0.0,-0.0,-0.001,0.303,0.364]],"b":[0.32,0.644,0.283,0.462,-0.008,-0.021,-0.037,0.005,-0.024,0.011]},{"w":[[-0.044,0.529,0.003,0.002,0.001,-0.013,0.001],[0.581,0.107,0.0,-0.006,-0.002,-0.343,-0.265],[-0.121,0.268,0.001,0.004,-0.001,0.055,0.323],[-0.139,0.365,-0.001,-0.004,-0.004,0.097,0.026],[0.205,0.461,-0.0,-0.0,-0.013,0.202,0.204],[0.254,0.438,-0.0,0.001,-0.001,0.213,0.204],[0.247,0.499,-0.0,-0.001,0.007,0.187,0.185],[-0.085,0.423,-0.0,0.001,-0.002,0.357,0.339],[0.027,0.54,-0.0,0.0,-0.001,0.248,0.261],[0.294,0.316,0.0,0.001,-0.001,0.271,0.242]],"b":[0.325,0.659,0.275,0.447,-0.022,-0.036,-0.05,-0.02,-0.043,-0.066]},{"w":[[-0.021,0.553,0.003,0.002,0.001,0.009,0.02,-0.079],[0.636,0.166,0.001,-0.005,-0.002,-0.293,-0.22,-0.186],[-0.141,0.246,0.001,0.004,-0.001,0.037,0.307,0.069],[-0.209,0.291,-0.001,-0.004,-0.004,0.033,-0.031,0.235],[0.152,0.403,-0.0,-0.0,-0.013,0.152,0.16,0.183],[0.197,0.377,-0.0,0.0,-0.001,0.162,0.158,0.191],[0.196,0.444,-0.0,-0.001,0.007,0.14,0.143,0.175],[-0.184,0.317,-0.0,0.001,-0.002,0.266,0.258,0.335],[-0.045,0.462,-0.0,-0.0,-0.001,0.181,0.201,0.246]],"b":[0.32,0.647,0.279,0.462,-0.009,-0.023,-0.039,0.002,-0.027]},{"w":[[-0.016,0.618,0.003,0.002,0.0,0.047,-0.162],[0.489,0.263,0.001,-0.006,-0.002,-0.349,-0.306],[0.014,0.152,0.001,0.004,-0.001,0.111,0.239],[-0.131,0.348,-0.001,-0.004,-0.004,0.097,0.032],[0.274,0.336,-0.0,-0.0,-0.013,0.203,0.245],[0.322,0.31,-0.0,0.001,-0.001,0.213,0.251],[0.31,0.387,-0.0,-0.001,0.007,0.189,0.221],[0.027,0.207,-0.0,0.001,-0.002,0.353,0.422],[0.479,-0.154,-0.0,0.0,-0.001,0.306,0.372],[0.374,0.162,0.0,0.001,-0.001,0.267,0.302]],"b":[0.317,0.649,0.281,0.448,-0.013,-0.027,-0.043,-0.005,0.003,-0.055]},{"w":[[-0.008,0.622,0.003,0.002,0.0,0.053,-0.155,-0.022],[0.559,0.293,0.001,-0.006,-0.002,-0.299,-0.249,-0.187],[-0.029,0.133,0.001,0.004,-0.001,0.08,0.204,0.116],[-0.219,0.31,-0.001,-0.004,-0.004,0.034,-0.039,0.236],[0.207,0.307,-0.0,-0.0,-0.013,0.154,0.19,0.18],[0.252,0.28,-0.0,0.0,-0.001,0.163,0.194,0.187],[0.246,0.359,-0.0,-0.001,0.007,0.142,0.168,0.173],[-0.095,0.154,-0.0,0.001,-0.001,0.266,0.323,0.325],[0.377,-0.198,-0.0,-0.0,-0.001,0.233,0.29,0.271]],"b":[0.316,0.638,0.288,0.461,-0.003,-0.016,-0.033,0.013,0.018]},{"w":[[-0.039,0.626,0.003,0.002,0.0,0.032,-0.18,0.048],[0.587,0.231,0.0,-0.006,-0.002,-0.286,-0.23,-0.205],[-0.124,0.197,0.001,0.004,-0.001,0.023,0.132,0.289],[-0.14,0.352,-0.001,-0.004,-0.004,0.091,0.025,0.02],[0.2,0.36,-0.0,-0.0,-0.013,0.155,0.187,0.155],[0.249,0.334,-0.0,0.001,-0.001,0.165,0.193,0.154],[0.243,0.409,-0.0,-0.001,0.007,0.145,0.168,0.141],[-0.094,0.246,-0.0,0.001,-0.001,0.276,0.327,0.253],[0.288,0.189,0.0,0.001,-0.0,0.212,0.235,0.18]],"b":[0.317,0.649,0.28,0.448,-0.013,-0.027,-0.043,-0.006,-0.056]},{"w":[[-0.029,0.633,0.003,0.002,0.0,0.04,-0.171,0.055,-0.037],[0.627,0.257,0.0,-0.006,-0.002,-0.257,-0.197,-0.181,-0.138],[-0.136,0.189,0.001,0.004,-0.001,0.014,0.122,0.282,0.039],[-0.21,0.306,-0.001,-0.004,-0.004,0.039,-0.032,-0.024,0.243],[0.159,0.333,-0.0,-0.0,-0.012,0.124,0.153,0.129,0.145],[0.205,0.305,-0.0,0.0,-0.001,0.133,0.157,0.127,0.152],[0.202,0.382,-0.0,-0.001,0.007,0.115,0.135,0.116,0.142],[-0.172,0.195,-0.0,0.001,-0.001,0.218,0.264,0.205,0.27]],"b":[0.315,0.642,0.282,0.461,-0.005,-0.019,-0.035,0.009]},{"w":[[-0.037,0.557,0.003,0.002,0.001,0.021,-0.065],[0.46,0.195,0.001,-0.005,-0.002,-0.344,-0.23],[0.042,0.229,0.001,0.004,-0.001,0.134,0.126],[-0.131,0.341,-0.001,-0.004,-0.004,0.08,0.057],[0.298,0.393,-0.0,-0.0,-0.013,0.201,0.179],[0.347,0.368,-0.0,0.0,-0.001,0.211,0.182],[0.331,0.436,-0.0,-0.001,0.007,0.185,0.165],[0.144,0.445,-0.0,-0.0,-0.001,0.238,0.246],[0.513,-0.073,-0.0,-0.0,-0.001,0.298,0.282],[0.402,0.225,0.0,0.001,-0.0,0.257,0.237]],"b":[0.323,0.657,0.273,0.448,-0.02,-0.034,-0.049,-0.04,-0.007,-0.063]},{"w":[[-0.017,0.568,0.003,0.002,0.0,0.033,-0.054,-0.048],[0.535,0.237,0.001,-0.005,-0.002,-0.296,-0.186,-0.187],[-0.015,0.197,0.001,0.004,-0.001,0.098,0.093,0.141],[-0.22,0.291,-0.001,-0.004,-0.004,0.023,0.005,0.222],[0.225,0.352,-0.0,-0.001,-0.013,0.154,0.136,0.183],[0.27,0.326,-0.0,0.0,-0.001,0.163,0.137,0.19],[0.261,0.397,-0.0,-0.001,0.007,0.141,0.124,0.174],[0.048,0.391,-0.0,-0.0,-0.001,0.177,0.19,0.238],[0.405,-0.134,-0.0,-0.0,-0.001,0.228,0.218,0.27]],"b":[0.32,0.645,0.282,0.462,-0.008,-0.022,-0.038,-0.025,0.01]},{"w":[[-0.05,0.559,0.003,0.002,0.001,0.013,-0.072,0.026],[0.566,0.18,0.0,-0.005,-0.002,-0.282,-0.172,-0.207],[-0.118,0.252,0.001,0.004,-0.001,0.042,0.039,0.31],[-0.135,0.342,-0.001,-0.004,-0.004,0.077,0.055,0.008],[0.217,0.404,-0.0,-0.0,-0.013,0.154,0.134,0.158],[0.265,0.38,-0.0,0.0,-0.001,0.164,0.137,0.158],[0.258,0.447,-0.0,-0.001,0.007,0.143,0.124,0.143],[0.043,0.459,-0.0,-0.0,-0.001,0.18,0.191,0.196],[0.31,0.238,0.0,0.001,-0.0,0.204,0.187,0.179]],"b":[0.324,0.656,0.275,0.448,-0.019,-0.033,-0.048,-0.039,-0.062]},{"w":[[-0.032,0.573,0.003,0.002,0.001,0.025,-0.062,0.036,-0.058],[0.609,0.213,0.0,-0.005,-0.002,-0.254,-0.146,-0.183,-0.137],[-0.136,0.237,0.001,0.004,-0.001,0.029,0.027,0.299,0.06],[-0.206,0.287,-0.001,-0.004,-0.004,0.03,0.012,-0.034,0.231],[0.171,0.369,-0.0,-0.001,-0.012,0.124,0.107,0.132,0.147],[0.217,0.343,-0.0,0.0,-0.001,0.133,0.108,0.13,0.155],[0.214,0.413,-0.0,-0.001,0.007,0.114,0.098,0.118,0.142],[-0.017,0.413,-0.0,-0.0,-0.001,0.14,0.155,0.161,0.194]],"b":[0.32,0.647,0.279,0.462,-0.01,-0.023,-0.039,-0.027]},{"w":[[-0.015,0.624,0.003,0.002,0.0,0.057,-0.028,-0.15],[0.494,0.299,0.0,-0.005,-0.002,-0.288,-0.173,-0.233],[0.012,0.137,0.001,0.004,-0.001,0.085,0.075,0.207],[-0.132,0.337,-0.001,-0.004,-0.004,0.077,0.055,0.009],[0.271,0.309,-0.0,-0.0,-0.012,0.156,0.132,0.189],[0.319,0.282,-0.0,0.0,-0.001,0.165,0.134,0.194],[0.307,0.361,-0.0,-0.001,0.007,0.145,0.123,0.169],[0.473,-0.198,-0.0,-0.0,-0.001,0.231,0.213,0.282],[0.369,0.124,0.0,0.001,-0.0,0.203,0.181,0.226]],"b":[0.317,0.648,0.282,0.448,-0.012,-0.026,-0.042,0.004,-0.054]},{"w":[[-0.01,0.626,0.003,0.002,0.0,0.059,-0.026,-0.147,-0.013],[0.545,0.316,0.001,-0.005,-0.002,-0.26,-0.148,-0.202,-0.139],[-0.024,0.125,0.001,0.004,-0.001,0.065,0.057,0.186,0.097],[-0.218,0.308,-0.001,-0.004,-0.004,0.03,0.013,-0.043,0.232],[0.217,0.291,-0.0,-0.001,-0.012,0.126,0.106,0.156,0.146],[0.262,0.263,-0.0,0.0,-0.001,0.134,0.107,0.16,0.152],[0.255,0.344,-0.0,-0.001,0.007,0.116,0.098,0.137,0.141],[0.393,-0.225,-0.0,-0.0,-0.001,0.187,0.174,0.234,0.215]],"b":[0.317,0.64,0.287,0.461,-0.004,-0.018,-0.034,0.016]},{"w":[[-0.043,0.636,0.003,0.002,0.0,0.043,-0.041,-0.167,0.059],[0.574,0.265,0.0,-0.005,-0.002,-0.249,-0.137,-0.185,-0.171],[-0.123,0.193,0.001,0.004,-0.001,0.019,0.014,0.127,0.285],[-0.135,0.338,-0.001,-0.004,-0.004,0.076,0.054,0.007,0.006],[0.21,0.334,-0.0,-0.0,-0.012,0.126,0.105,0.153,0.128],[0.259,0.307,-0.0,0.0,-0.001,0.136,0.107,0.158,0.127],[0.252,0.384,-0.0,-0.001,0.007,0.118,0.098,0.136,0.116],[0.302,0.152,0.0,0.001,-0.0,0.171,0.151,0.186,0.142]],"b":[0.317,0.648,0.28,0.448,-0.013,-0.027,-0.042,-0.055]},{"w":[[-0.035,0.64,0.003,0.002,0.0,0.048,-0.037,-0.162,0.062,-0.027],[0.606,0.281,0.0,-0.005,-0.002,-0.231,-0.121,-0.165,-0.156,-0.105],[-0.134,0.188,0.001,0.004,-0.001,0.013,0.009,0.12,0.28,0.037],[-0.207,0.302,-0.001,-0.004,-0.004,0.035,0.018,-0.037,-0.028,0.238],[0.173,0.316,-0.0,-0.0,-0.012,0.105,0.087,0.13,0.111,0.122],[0.22,0.288,-0.0,0.0,-0.001,0.114,0.088,0.134,0.109,0.129],[0.216,0.366,-0.0,-0.001,0.007,0.098,0.08,0.114,0.099,0.12]],"b":[0.316,0.643,0.282,0.461,-0.006,-0.02,-0.036]},{"w":[[-0.003,0.575,0.003,0.002,0.001,-0.086],[0.498,0.461,0.0,-0.006,0.004,-0.839],[-0.053,0.05,0.001,0.004,-0.005,0.493],[-0.222,0.202,-0.001,-0.004,-0.006,0.332],[0.171,0.139,-0.0,0.0,-0.018,0.706],[0.309,0.192,0.0,0.001,-0.005,0.578],[0.473,-0.227,0.001,0.001,-0.007,0.835],[0.02,0.025,0.0,0.002,-0.009,0.942],[0.091,0.236,0.0,0.0,-0.006,0.709],[0.452,-0.329,0.0,0.001,-0.007,0.854],[0.361,0.015,0.0,0.001,-0.006,0.711]],"b":[0.319,0.643,0.289,0.462,0.002,-0.024,-0.038,-0.002,-0.027,0.009,-0.051]},{"w":[[0.014,0.576,0.003,0.002,0.001,-0.053,-0.046],[0.586,0.464,0.0,-0.006,0.003,-0.666,-0.243],[-0.095,0.049,0.001,0.004,-0.004,0.409,0.117],[-0.282,0.2,-0.001,-0.004,-0.005,0.213,0.168],[0.115,0.136,-0.0,-0.0,-0.017,0.595,0.155],[0.228,0.189,-0.0,0.001,-0.004,0.418,0.225],[0.349,-0.232,0.0,0.0,-0.005,0.59,0.344],[-0.125,0.019,0.0,0.001,-0.006,0.659,0.399],[-0.012,0.232,0.0,0.0,-0.005,0.507,0.284],[0.335,-0.334,-0.0,0.0,-0.006,0.624,0.324]],"b":[0.317,0.631,0.295,0.47,0.01,-0.012,-0.021,0.019,-0.013,0.025]},{"w":[[-0.014,0.583,0.003,0.002,0.001,-0.106,0.024],[0.608,0.38,0.0,-0.006,0.003,-0.63,-0.244],[-0.179,0.143,0.001,0.004,-0.003,0.254,0.28],[-0.21,0.194,-0.001,-0.004,-0.006,0.354,-0.026],[0.111,0.182,-0.0,0.0,-0.017,0.592,0.133],[0.226,0.252,0.0,0.001,-0.004,0.422,0.183],[0.355,-0.141,0.001,0.0,-0.005,0.611,0.262],[-0.121,0.128,0.0,0.001,-0.007,0.677,0.311],[-0.013,0.312,0.0,0.0,-0.005,0.512,0.23],[0.263,0.086,0.0,0.001,-0.004,0.525,0.218]],"b":[0.319,0.646,0.287,0.462,0.001,-0.025,-0.041,-0.004,-0.029,-0.053]},{"w":[[0.002,0.588,0.003,0.002,0.001,-0.076,0.037,-0.058],[0.655,0.396,0.0,-0.006,0.002,-0.538,-0.206,-0.176],[-0.187,0.14,0.001,0.004,-0.002,0.239,0.273,0.029],[-0.259,0.177,-0.001,-0.004,-0.005,0.255,-0.068,0.19],[0.079,0.172,-0.0,-0.0,-0.016,0.529,0.106,0.12],[0.179,0.237,-0.0,0.001,-0.003,0.328,0.145,0.178],[0.281,-0.165,0.0,0.0,-0.004,0.465,0.202,0.279],[-0.205,0.1,0.0,0.001,-0.005,0.508,0.241,0.321],[-0.072,0.292,0.0,0.0,-0.004,0.394,0.181,0.226]],"b":[0.316,0.636,0.288,0.472,0.007,-0.016,-0.026,0.013,-0.017]},{"w":[[0.01,0.609,0.003,0.002,0.0,0.016,-0.144],[0.523,0.527,0.0,-0.006,0.003,-0.641,-0.279],[-0.069,0.008,0.001,0.004,-0.004,0.365,0.18],[-0.219,0.21,-0.001,-0.004,-0.006,0.354,-0.031],[0.156,0.101,-0.0,0.0,-0.017,0.592,0.16],[0.289,0.139,0.0,0.001,-0.004,0.419,0.225],[0.445,-0.3,0.001,0.0,-0.005,0.618,0.307],[-0.016,-0.067,0.0,0.001,-0.006,0.667,0.388],[0.422,-0.407,-0.0,0.001,-0.005,0.62,0.329],[0.337,-0.05,0.0,0.001,-0.004,0.517,0.274]],"b":[0.315,0.636,0.294,0.461,0.006,-0.017,-0.03,0.009,0.018,-0.044]},{"w":[[0.012,0.609,0.003,0.002,0.0,0.019,-0.142,-0.006],[0.583,0.518,0.0,-0.006,0.002,-0.549,-0.23,-0.177],[-0.093,0.012,0.001,0.004,-0.003,0.328,0.16,0.072],[-0.283,0.219,-0.001,-0.004,-0.005,0.255,-0.083,0.191],[0.116,0.107,-0.0,-0.0,-0.016,0.531,0.127,0.119],[0.23,0.148,-0.0,0.001,-0.003,0.328,0.177,0.175],[0.352,-0.286,0.0,0.0,-0.004,0.474,0.23,0.279],[-0.121,-0.051,0.0,0.001,-0.005,0.505,0.303,0.313],[0.338,-0.395,-0.0,0.0,-0.004,0.491,0.261,0.249]],"b":[0.315,0.628,0.297,0.469,0.012,-0.01,-0.018,0.023,0.029]},{"w":[[-0.016,0.634,0.003,0.002,0.001,-0.022,-0.164,0.062],[0.605,0.447,0.0,-0.006,0.002,-0.52,-0.215,-0.195],[-0.178,0.113,0.001,0.004,-0.002,0.205,0.095,0.258],[-0.21,0.201,-0.001,-0.004,-0.006,0.367,-0.024,-0.021],[0.112,0.143,-0.0,-0.0,-0.016,0.528,0.126,0.104],[0.229,0.197,0.0,0.001,-0.003,0.33,0.178,0.142],[0.358,-0.215,0.001,0.0,-0.004,0.489,0.238,0.208],[-0.117,0.031,0.0,0.001,-0.005,0.518,0.309,0.24],[0.266,0.018,0.0,0.001,-0.003,0.413,0.219,0.167]],"b":[0.314,0.639,0.29,0.461,0.005,-0.02,-0.034,0.005,-0.047]},{"w":[[-0.01,0.634,0.003,0.002,0.0,-0.013,-0.159,0.066,-0.022],[0.641,0.45,0.0,-0.006,0.001,-0.465,-0.185,-0.172,-0.134],[-0.18,0.113,0.001,0.004,-0.002,0.202,0.093,0.257,0.008],[-0.264,0.197,-0.001,-0.004,-0.006,0.282,-0.069,-0.055,0.205],[0.087,0.141,-0.0,-0.0,-0.016,0.488,0.104,0.088,0.097],[0.19,0.194,-0.0,0.001,-0.003,0.27,0.146,0.118,0.145],[0.295,-0.219,0.0,0.0,-0.003,0.391,0.186,0.168,0.237],[-0.187,0.026,0.0,0.001,-0.004,0.409,0.252,0.196,0.264]],"b":[0.313,0.633,0.29,0.471,0.009,-0.013,-0.023,0.017]},{"w":[[-0.002,0.576,0.003,0.002,0.001,-0.041,-0.047],[0.502,0.466,0.0,-0.006,0.003,-0.636,-0.216],[-0.054,0.048,0.001,0.004,-0.004,0.417,0.08],[-0.222,0.202,-0.001,-0.004,-0.006,0.32,0.013],[0.168,0.136,-0.0,-0.0,-0.017,0.595,0.117],[0.306,0.188,0.0,0.001,-0.004,0.423,0.165],[0.468,-0.234,0.001,0.0,-0.005,0.593,0.257],[0.087,0.231,0.0,0.0,-0.005,0.5,0.222],[0.447,-0.336,-0.0,0.0,-0.005,0.615,0.254],[0.357,0.009,0.0,0.001,-0.004,0.504,0.219]],"b":[0.319,0.643,0.289,0.462,0.002,-0.023,-0.038,-0.027,0.009,-0.051]},{"w":[[0.009,0.576,0.003,0.002,0.001,-0.026,-0.04,-0.03],[0.563,0.468,0.0,-0.006,0.002,-0.549,-0.178,-0.172],[-0.088,0.048,0.001,0.004,-0.004,0.37,0.059,0.094],[-0.285,0.2,-0.001,-0.004,-0.005,0.23,-0.027,0.178],[0.126,0.135,-0.0,-0.0,-0.016,0.535,0.091,0.119],[0.244,0.186,-0.0,0.0,-0.003,0.335,0.127,0.174],[0.374,-0.236,0.0,-0.0,-0.004,0.46,0.199,0.265],[0.01,0.229,0.0,-0.0,-0.004,0.392,0.175,0.215],[0.36,-0.338,-0.0,0.0,-0.004,0.492,0.201,0.243]],"b":[0.318,0.634,0.294,0.471,0.008,-0.014,-0.024,-0.016,0.022]},{"w":[[-0.021,0.59,0.003,0.002,0.001,-0.067,-0.058,0.042],[0.588,0.402,0.0,-0.006,0.002,-0.518,-0.167,-0.192],[-0.178,0.141,0.001,0.004,-0.003,0.247,0.01,0.277],[-0.207,0.191,-0.001,-0.004,-0.006,0.34,0.021,-0.033],[0.122,0.171,-0.0,-0.0,-0.016,0.531,0.09,0.105],[0.242,0.236,0.0,0.001,-0.003,0.334,0.129,0.143],[0.38,-0.167,0.001,0.0,-0.004,0.471,0.206,0.198],[0.008,0.289,0.0,0.0,-0.004,0.393,0.177,0.175],[0.285,0.064,0.0,0.001,-0.003,0.404,0.178,0.162]],"b":[0.319,0.645,0.287,0.462,0.001,-0.025,-0.04,-0.029,-0.053]},{"w":[[-0.009,0.593,0.003,0.002,0.001,-0.05,-0.05,0.049,-0.042],[0.625,0.41,0.0,-0.006,0.001,-0.465,-0.144,-0.171,-0.13],[-0.186,0.14,0.001,0.004,-0.002,0.236,0.005,0.272,0.027],[-0.262,0.179,-0.001,-0.004,-0.005,0.262,-0.014,-0.064,0.194],[0.094,0.165,-0.0,-0.0,-0.016,0.492,0.073,0.089,0.097],[0.2,0.227,-0.0,0.0,-0.003,0.276,0.103,0.12,0.145],[0.315,-0.181,0.0,-0.0,-0.003,0.38,0.166,0.162,0.225],[-0.042,0.278,0.0,-0.0,-0.003,0.32,0.145,0.146,0.179]],"b":[0.317,0.638,0.288,0.472,0.006,-0.017,-0.028,-0.019]},{"w":[[0.01,0.608,0.003,0.002,0.0,0.027,-0.017,-0.137],[0.521,0.515,0.0,-0.006,0.002,-0.529,-0.168,-0.214],[-0.068,0.011,0.001,0.004,-0.003,0.336,0.044,0.163],[-0.218,0.211,-0.001,-0.004,-0.006,0.34,0.021,-0.039],[0.158,0.107,-0.0,-0.0,-0.016,0.533,0.089,0.125],[0.291,0.147,0.0,0.001,-0.003,0.334,0.126,0.176],[0.449,-0.286,0.001,0.0,-0.004,0.48,0.207,0.226],[0.425,-0.394,-0.0,0.0,-0.004,0.488,0.198,0.253],[0.339,-0.038,0.0,0.001,-0.003,0.401,0.174,0.206]],"b":[0.315,0.637,0.294,0.461,0.006,-0.019,-0.032,0.016,-0.046]},{"w":[[0.01,0.608,0.003,0.002,0.0,0.028,-0.016,-0.137,-0.001],[0.565,0.51,0.0,-0.006,0.001,-0.476,-0.145,-0.186,-0.132],[-0.089,0.013,0.001,0.004,-0.003,0.311,0.033,0.15,0.061],[-0.285,0.219,-0.001,-0.004,-0.005,0.261,-0.013,-0.079,0.195],[0.125,0.11,-0.0,-0.0,-0.016,0.494,0.073,0.105,0.096],[0.242,0.153,-0.0,0.0,-0.003,0.277,0.101,0.147,0.143],[0.372,-0.277,0.0,-0.0,-0.003,0.389,0.167,0.18,0.226],[0.358,-0.386,-0.0,0.0,-0.003,0.409,0.164,0.212,0.198]],"b":[0.315,0.631,0.296,0.47,0.01,-0.012,-0.022,0.025]},{"w":[[-0.019,0.635,0.003,0.002,0.0,-0.006,-0.03,-0.155,0.069],[0.59,0.452,0.0,-0.006,0.001,-0.45,-0.136,-0.173,-0.162],[-0.179,0.113,0.001,0.004,-0.002,0.209,-0.008,0.097,0.26],[-0.207,0.2,-0.001,-0.004,-0.006,0.353,0.027,-0.032,-0.027],[0.121,0.141,-0.0,-0.0,-0.016,0.49,0.072,0.103,0.086],[0.241,0.194,0.0,0.001,-0.003,0.277,0.103,0.146,0.118],[0.378,-0.22,0.001,0.0,-0.003,0.399,0.174,0.184,0.166],[0.283,0.014,0.0,0.001,-0.003,0.337,0.147,0.173,0.132]],"b":[0.314,0.64,0.29,0.461,0.004,-0.02,-0.035,-0.048]},{"w":[[-0.015,0.635,0.003,0.002,0.0,-0.002,-0.028,-0.152,0.071,-0.015],[0.619,0.453,0.0,-0.006,0.001,-0.415,-0.121,-0.155,-0.149,-0.102],[-0.182,0.113,0.001,0.004,-0.002,0.206,-0.009,0.095,0.258,0.01],[-0.265,0.197,-0.001,-0.004,-0.006,0.284,-0.004,-0.068,-0.054,0.206],[0.098,0.14,-0.0,-0.0,-0.016,0.463,0.06,0.089,0.076,0.081],[0.206,0.192,-0.0,0.0,-0.002,0.236,0.085,0.125,0.102,0.123],[0.322,-0.223,0.0,-0.0,-0.003,0.332,0.145,0.15,0.14,0.198]],"b":[0.314,0.635,0.29,0.471,0.008,-0.015,-0.025]},{"w":[[-0.009,0.578,0.003,0.002,0.001,-0.097,0.014],[0.641,0.392,0.0,-0.006,0.002,-0.586,-0.303],[-0.093,0.07,0.001,0.004,-0.004,0.422,0.084],[-0.233,0.208,-0.001,-0.004,-0.006,0.311,0.025],[0.109,0.168,-0.0,0.0,-0.017,0.596,0.131],[0.219,0.235,-0.0,0.001,-0.004,0.419,0.191],[-0.135,0.099,0.0,0.001,-0.007,0.67,0.326],[-0.014,0.287,0.0,0.0,-0.005,0.524,0.222],[0.323,-0.268,-0.0,0.001,-0.006,0.627,0.272],[0.248,0.069,0.0,0.001,-0.004,0.51,0.24]],"b":[0.32,0.632,0.292,0.463,0.007,-0.016,0.011,-0.019,0.019,-0.042]},{"w":[[0.004,0.582,0.003,0.002,0.001,-0.069,0.027,-0.056],[0.679,0.402,0.0,-0.006,0.002,-0.509,-0.266,-0.151],[-0.117,0.063,0.001,0.004,-0.004,0.373,0.061,0.096],[-0.276,0.196,-0.001,-0.004,-0.005,0.223,-0.017,0.173],[0.079,0.16,-0.0,-0.0,-0.016,0.535,0.103,0.12],[0.176,0.223,-0.0,0.001,-0.003,0.33,0.149,0.174],[-0.212,0.078,-0.0,0.001,-0.005,0.51,0.251,0.313],[-0.07,0.271,-0.0,0.0,-0.004,0.408,0.168,0.226],[0.261,-0.285,-0.0,0.0,-0.004,0.499,0.212,0.251]],"b":[0.317,0.625,0.296,0.47,0.012,-0.009,0.024,-0.009,0.03]},{"w":[[-0.016,0.584,0.003,0.002,0.001,-0.111,0.008,0.022],[0.698,0.345,0.0,-0.006,0.001,-0.475,-0.254,-0.177],[-0.182,0.144,0.001,0.004,-0.003,0.248,0.009,0.277],[-0.222,0.199,-0.001,-0.004,-0.006,0.333,0.035,-0.035],[0.074,0.197,-0.0,-0.0,-0.016,0.53,0.103,0.106],[0.172,0.274,-0.0,0.001,-0.003,0.329,0.152,0.144],[-0.213,0.164,0.0,0.001,-0.005,0.518,0.26,0.243],[-0.074,0.336,0.0,0.0,-0.004,0.408,0.172,0.185],[0.194,0.114,0.0,0.001,-0.003,0.406,0.195,0.167]],"b":[0.319,0.635,0.287,0.463,0.005,-0.019,0.006,-0.022,-0.045]},{"w":[[-0.004,0.591,0.003,0.002,0.001,-0.085,0.021,0.033,-0.064],[0.72,0.357,0.0,-0.006,0.001,-0.43,-0.233,-0.159,-0.111],[-0.188,0.141,0.001,0.004,-0.002,0.237,0.004,0.273,0.028],[-0.259,0.177,-0.001,-0.004,-0.005,0.256,-0.002,-0.067,0.19],[0.056,0.186,-0.0,-0.0,-0.016,0.49,0.084,0.09,0.097],[0.145,0.257,-0.0,0.001,-0.003,0.271,0.124,0.12,0.144],[-0.264,0.134,-0.0,0.001,-0.004,0.411,0.209,0.199,0.263],[-0.11,0.315,-0.0,0.0,-0.003,0.331,0.135,0.154,0.188]],"b":[0.316,0.63,0.288,0.472,0.009,-0.012,0.018,-0.014]},{"w":[[-0.012,0.624,0.003,0.002,0.0,-0.014,0.049,-0.159],[0.638,0.449,0.0,-0.006,0.001,-0.482,-0.258,-0.2],[-0.09,0.022,0.001,0.004,-0.003,0.336,0.048,0.165],[-0.234,0.22,-0.001,-0.004,-0.006,0.333,0.034,-0.041],[0.11,0.132,-0.0,0.0,-0.016,0.529,0.103,0.128],[0.221,0.184,-0.0,0.001,-0.003,0.325,0.151,0.179],[-0.13,0.01,0.0,0.001,-0.005,0.508,0.257,0.31],[0.327,-0.343,-0.0,0.0,-0.004,0.488,0.213,0.264],[0.251,0.008,0.0,0.001,-0.003,0.398,0.192,0.215]],"b":[0.317,0.628,0.296,0.462,0.01,-0.013,0.017,0.024,-0.038]},{"w":[[-0.006,0.624,0.003,0.002,0.0,-0.006,0.053,-0.154,-0.021],[0.666,0.45,0.0,-0.006,0.001,-0.437,-0.237,-0.176,-0.111],[-0.106,0.022,0.001,0.004,-0.003,0.311,0.036,0.152,0.062],[-0.282,0.218,-0.001,-0.004,-0.005,0.256,-0.003,-0.082,0.192],[0.087,0.131,-0.0,-0.0,-0.016,0.491,0.085,0.108,0.095],[0.186,0.183,-0.0,0.001,-0.003,0.27,0.124,0.149,0.14],[-0.194,0.008,-0.0,0.001,-0.004,0.406,0.208,0.255,0.255],[0.277,-0.345,-0.0,0.0,-0.004,0.409,0.175,0.221,0.201]],"b":[0.316,0.624,0.298,0.469,0.013,-0.008,0.026,0.032]},{"w":[[-0.029,0.642,0.003,0.002,0.001,-0.041,0.038,-0.173,0.054],[0.687,0.399,0.0,-0.006,0.001,-0.409,-0.227,-0.161,-0.148],[-0.175,0.111,0.001,0.004,-0.002,0.209,-0.008,0.097,0.259],[-0.224,0.21,-0.001,-0.004,-0.006,0.347,0.04,-0.033,-0.029],[0.082,0.161,-0.0,-0.0,-0.016,0.487,0.085,0.105,0.086],[0.183,0.224,-0.0,0.001,-0.003,0.269,0.126,0.148,0.116],[-0.194,0.077,0.0,0.001,-0.004,0.413,0.216,0.258,0.195],[0.207,0.053,0.0,0.001,-0.003,0.333,0.164,0.179,0.133]],"b":[0.315,0.632,0.289,0.463,0.007,-0.016,0.012,-0.041]},{"w":[[-0.023,0.644,0.003,0.002,0.001,-0.03,0.043,-0.167,0.058,-0.032],[0.704,0.403,0.0,-0.006,0.0,-0.381,-0.213,-0.146,-0.136,-0.084],[-0.177,0.111,0.001,0.004,-0.002,0.206,-0.009,0.095,0.258,0.01],[-0.267,0.199,-0.001,-0.004,-0.006,0.279,0.007,-0.07,-0.056,0.203],[0.066,0.157,-0.0,-0.0,-0.016,0.46,0.071,0.091,0.076,0.08],[0.158,0.218,-0.0,0.001,-0.002,0.229,0.107,0.127,0.1,0.12],[-0.24,0.066,-0.0,0.001,-0.004,0.339,0.179,0.218,0.166,0.222]],"b":[0.314,0.628,0.29,0.471,0.011,-0.011,0.021]},{"w":[[-0.017,0.584,0.003,0.002,0.001,-0.06,0.032,-0.055],[0.621,0.407,0.0,-0.006,0.001,-0.485,-0.254,-0.15],[-0.084,0.063,0.001,0.004,-0.004,0.38,0.064,0.064],[-0.232,0.207,-0.001,-0.004,-0.006,0.307,0.023,0.007],[0.121,0.159,-0.0,-0.0,-0.016,0.535,0.102,0.091],[0.236,0.223,-0.0,0.001,-0.003,0.334,0.15,0.127],[0.01,0.269,-0.0,0.0,-0.004,0.403,0.164,0.18],[0.35,-0.288,-0.0,0.0,-0.004,0.492,0.207,0.201],[0.271,0.052,0.0,0.001,-0.003,0.395,0.184,0.172]],"b":[0.32,0.633,0.292,0.463,0.006,-0.018,-0.021,0.017,-0.044]},{"w":[[-0.006,0.586,0.003,0.002,0.001,-0.044,0.04,-0.048,-0.041],[0.651,0.413,0.0,-0.006,0.001,-0.442,-0.233,-0.132,-0.11],[-0.106,0.059,0.001,0.004,-0.003,0.348,0.049,0.05,0.081],[-0.282,0.198,-0.001,-0.004,-0.005,0.235,-0.011,-0.024,0.181],[0.095,0.154,-0.0,-0.0,-0.016,0.497,0.084,0.074,0.096],[0.198,0.215,-0.0,0.0,-0.003,0.278,0.123,0.102,0.142],[-0.039,0.259,-0.0,-0.0,-0.003,0.332,0.13,0.149,0.18],[0.297,-0.298,-0.0,0.0,-0.004,0.414,0.17,0.167,0.198]],"b":[0.319,0.629,0.295,0.471,0.01,-0.011,-0.013,0.026]},{"w":[[-0.03,0.594,0.003,0.002,0.001,-0.079,0.024,-0.063,0.037],[0.673,0.364,0.0,-0.006,0.001,-0.412,-0.223,-0.121,-0.148],[-0.181,0.142,0.001,0.004,-0.002,0.244,0.007,0.008,0.275],[-0.219,0.196,-0.001,-0.004,-0.006,0.326,0.031,0.015,-0.039],[0.09,0.185,-0.0,-0.0,-0.016,0.492,0.084,0.073,0.088],[0.194,0.257,-0.0,0.001,-0.003,0.276,0.125,0.103,0.119],[-0.042,0.312,0.0,0.0,-0.003,0.33,0.133,0.15,0.149],[0.225,0.09,0.0,0.001,-0.003,0.331,0.157,0.146,0.131]],"b":[0.32,0.636,0.287,0.463,0.005,-0.02,-0.023,-0.046]},{"w":[[-0.019,0.599,0.003,0.002,0.001,-0.063,0.032,-0.055,0.044,-0.049],[0.691,0.372,0.0,-0.006,0.0,-0.385,-0.21,-0.109,-0.137,-0.083],[-0.187,0.14,0.001,0.004,-0.002,0.235,0.003,0.004,0.272,0.027],[-0.262,0.179,-0.001,-0.004,-0.005,0.262,0.0,-0.014,-0.064,0.194],[0.072,0.177,-0.0,-0.0,-0.016,0.465,0.071,0.061,0.077,0.081],[0.167,0.246,-0.0,0.0,-0.002,0.235,0.106,0.085,0.103,0.121],[-0.077,0.298,-0.0,-0.0,-0.003,0.279,0.109,0.127,0.129,0.154]],"b":[0.317,0.632,0.288,0.472,0.008,-0.014,-0.016]},{"w":[[-0.015,0.624,0.003,0.002,0.0,0.0,0.057,-0.028,-0.15],[0.622,0.45,0.0,-0.006,0.001,-0.42,-0.227,-0.121,-0.162],[-0.086,0.022,0.001,0.004,-0.003,0.318,0.039,0.036,0.154],[-0.232,0.22,-0.001,-0.004,-0.006,0.325,0.03,0.015,-0.046],[0.12,0.131,-0.0,-0.0,-0.016,0.492,0.084,0.072,0.106],[0.234,0.183,-0.0,0.001,-0.003,0.274,0.125,0.1,0.148],[0.348,-0.345,-0.0,0.0,-0.003,0.406,0.172,0.163,0.214],[0.269,0.006,0.0,0.001,-0.002,0.326,0.156,0.141,0.171]],"b":[0.317,0.63,0.295,0.462,0.008,-0.015,0.021,-0.041]},{"w":[[-0.012,0.624,0.003,0.002,0.0,0.005,0.059,-0.026,-0.148,-0.014],[0.645,0.451,0.0,-0.006,0.001,-0.393,-0.214,-0.11,-0.148,-0.083],[-0.1,0.022,0.001,0.004,-0.003,0.3,0.03,0.028,0.145,0.055],[-0.285,0.218,-0.001,-0.004,-0.005,0.261,-0.0,-0.013,-0.079,0.195],[0.098,0.13,-0.0,-0.0,-0.016,0.466,0.072,0.061,0.092,0.08],[0.202,0.182,-0.0,0.0,-0.002,0.236,0.107,0.084,0.127,0.119],[0.304,-0.346,-0.0,0.0,-0.003,0.352,0.146,0.139,0.185,0.165]],"b":[0.317,0.627,0.297,0.47,0.012,-0.01,0.028]},{"w":[[-0.037,0.645,0.003,0.002,0.001,-0.025,0.046,-0.038,-0.163,0.061],[0.667,0.406,0.0,-0.006,0.0,-0.368,-0.205,-0.1,-0.135,-0.128],[-0.176,0.112,0.001,0.004,-0.002,0.212,-0.006,-0.006,0.098,0.261],[-0.22,0.208,-0.001,-0.004,-0.006,0.339,0.036,0.02,-0.039,-0.033],[0.094,0.157,-0.0,-0.0,-0.016,0.462,0.072,0.06,0.09,0.075],[0.2,0.217,-0.0,0.001,-0.002,0.234,0.108,0.084,0.126,0.1],[0.231,0.044,0.0,0.001,-0.002,0.282,0.137,0.124,0.148,0.109]],"b":[0.316,0.633,0.289,0.462,0.007,-0.017,-0.043]},{"w":[[-0.031,0.646,0.003,0.002,0.001,-0.018,0.05,-0.035,-0.16,0.064,-0.025],[0.682,0.409,0.0,-0.006,0.0,-0.35,-0.197,-0.093,-0.125,-0.121,-0.063],[-0.179,0.111,0.001,0.004,-0.002,0.208,-0.008,-0.008,0.096,0.259,0.012],[-0.268,0.199,-0.001,-0.004,-0.006,0.281,0.008,-0.005,-0.069,-0.056,0.204],[0.078,0.154,-0.0,-0.0,-0.015,0.443,0.062,0.051,0.08,0.067,0.069],[0.176,0.213,-0.0,0.0,-0.002,0.204,0.094,0.071,0.111,0.088,0.104]],"b":[0.315,0.63,0.29,0.471,0.01,-0.012]},{"w":[[-0.025,0.55,0.003,0.002,0.001,-0.046],[0.347,0.264,0.0,-0.005,-0.001,-0.546],[0.039,0.169,0.001,0.004,-0.001,0.316],[-0.091,0.336,-0.001,-0.004,-0.004,0.11],[0.331,0.331,-0.0,-0.0,-0.013,0.409],[0.358,0.376,-0.0,-0.001,0.007,0.382],[0.571,-0.073,0.0,-0.0,-0.001,0.623],[0.135,0.204,-0.0,0.001,-0.002,0.695],[0.173,0.366,-0.0,-0.0,-0.001,0.531],[0.557,-0.168,-0.0,-0.0,-0.001,0.63],[0.45,0.15,0.0,0.001,-0.001,0.522]],"b":[0.323,0.673,0.271,0.443,-0.026,-0.054,-0.062,-0.029,-0.048,-0.016,-0.072]},{"w":[[0.001,0.558,0.003,0.002,0.001,-0.016,-0.058],[0.492,0.312,0.0,-0.005,-0.002,-0.378,-0.323],[-0.036,0.143,0.001,0.004,-0.001,0.228,0.168],[-0.201,0.3,-0.001,-0.004,-0.004,-0.017,0.243],[0.22,0.294,-0.0,-0.001,-0.013,0.28,0.247],[0.255,0.342,-0.0,-0.001,0.007,0.262,0.23],[0.398,-0.131,0.0,-0.0,-0.001,0.424,0.383],[-0.065,0.136,-0.0,0.0,-0.002,0.462,0.446],[0.03,0.318,-0.0,-0.0,-0.001,0.366,0.317],[0.391,-0.223,-0.0,-0.0,-0.001,0.437,0.368]],"b":[0.319,0.65,0.284,0.46,-0.009,-0.038,-0.035,0.003,-0.025,0.01]},{"w":[[-0.031,0.552,0.003,0.002,0.001,-0.053,0.012],[0.518,0.212,0.0,-0.005,-0.002,-0.353,-0.307],[-0.134,0.221,0.001,0.004,-0.001,0.12,0.311],[-0.115,0.343,-0.001,-0.004,-0.004,0.083,0.043],[0.216,0.365,-0.0,-0.0,-0.013,0.279,0.207],[0.255,0.407,-0.0,-0.001,0.007,0.265,0.186],[0.406,-0.024,0.0,-0.0,-0.001,0.438,0.295],[-0.06,0.262,0.0,0.001,-0.002,0.474,0.35],[0.03,0.409,0.0,-0.0,-0.001,0.369,0.257],[0.312,0.192,0.0,0.001,-0.001,0.365,0.249]],"b":[0.323,0.668,0.276,0.443,-0.023,-0.051,-0.058,-0.024,-0.043,-0.068]},{"w":[[-0.01,0.565,0.003,0.002,0.001,-0.028,0.029,-0.068],[0.59,0.257,0.0,-0.005,-0.002,-0.269,-0.249,-0.231],[-0.153,0.21,0.001,0.004,-0.001,0.099,0.297,0.058],[-0.193,0.295,-0.001,-0.004,-0.004,-0.008,-0.019,0.25],[0.157,0.329,-0.0,-0.001,-0.013,0.21,0.16,0.188],[0.199,0.373,-0.0,-0.001,0.007,0.2,0.142,0.178],[0.312,-0.082,0.0,-0.0,-0.001,0.327,0.22,0.302],[-0.168,0.195,-0.0,0.0,-0.001,0.347,0.263,0.349],[-0.047,0.362,-0.0,-0.0,-0.001,0.28,0.196,0.245]],"b":[0.318,0.652,0.28,0.46,-0.01,-0.039,-0.037,0.0,-0.027]},{"w":[[0.001,0.605,0.003,0.002,0.0,0.034,-0.151],[0.408,0.393,0.0,-0.005,-0.002,-0.359,-0.353],[0.0,0.086,0.001,0.004,-0.001,0.197,0.225],[-0.1,0.317,-0.001,-0.004,-0.004,0.083,0.051],[0.289,0.24,-0.0,-0.0,-0.013,0.278,0.247],[0.32,0.296,-0.0,-0.001,0.007,0.265,0.22],[0.511,-0.199,0.0,-0.0,-0.001,0.441,0.344],[0.061,0.045,0.0,0.001,-0.001,0.465,0.432],[0.493,-0.303,-0.0,-0.0,-0.001,0.433,0.37],[0.397,0.037,0.0,0.001,-0.0,0.358,0.309]],"b":[0.316,0.656,0.282,0.445,-0.015,-0.044,-0.046,-0.009,0.001,-0.058]},{"w":[[0.006,0.605,0.003,0.002,0.0,0.038,-0.147,-0.011],[0.501,0.402,0.0,-0.005,-0.002,-0.275,-0.281,-0.234],[-0.042,0.082,0.001,0.004,-0.001,0.158,0.192,0.107],[-0.2,0.308,-0.001,-0.004,-0.004,-0.007,-0.026,0.251],[0.214,0.233,-0.0,-0.001,-0.013,0.211,0.189,0.187],[0.25,0.289,-0.0,-0.001,0.007,0.201,0.166,0.178],[0.391,-0.21,0.0,-0.0,-0.0,0.332,0.25,0.304],[-0.075,0.032,-0.0,0.001,-0.001,0.342,0.327,0.343],[0.383,-0.314,-0.0,-0.0,-0.001,0.333,0.284,0.278]],"b":[0.315,0.643,0.288,0.459,-0.004,-0.034,-0.028,0.011,0.017]},{"w":[[-0.026,0.622,0.003,0.002,0.0,0.01,-0.171,0.056],[0.526,0.321,0.0,-0.005,-0.002,-0.256,-0.264,-0.239],[-0.138,0.172,0.001,0.004,-0.001,0.075,0.121,0.28],[-0.116,0.327,-0.001,-0.004,-0.004,0.068,0.039,0.033],[0.21,0.288,-0.0,-0.0,-0.012,0.209,0.189,0.159],[0.25,0.339,-0.0,-0.001,0.007,0.203,0.167,0.143],[0.399,-0.13,0.0,-0.0,-0.0,0.342,0.259,0.228],[-0.07,0.125,0.0,0.001,-0.001,0.351,0.335,0.264],[0.304,0.094,0.0,0.001,-0.0,0.277,0.239,0.187]],"b":[0.316,0.657,0.282,0.445,-0.015,-0.044,-0.046,-0.009,-0.058]},{"w":[[-0.018,0.624,0.003,0.002,0.0,0.018,-0.165,0.061,-0.028],[0.579,0.337,0.0,-0.005,-0.002,-0.207,-0.222,-0.206,-0.177],[-0.147,0.169,0.001,0.004,-0.001,0.067,0.113,0.275,0.031],[-0.194,0.303,-0.001,-0.004,-0.004,-0.002,-0.022,-0.015,0.255],[0.164,0.274,-0.0,-0.001,-0.012,0.167,0.152,0.13,0.151],[0.205,0.325,-0.0,-0.001,0.007,0.163,0.133,0.116,0.145],[0.322,-0.154,0.0,-0.0,-0.0,0.272,0.199,0.181,0.253],[-0.156,0.099,-0.0,0.001,-0.001,0.272,0.267,0.211,0.284]],"b":[0.314,0.646,0.283,0.46,-0.006,-0.036,-0.032,0.007]},{"w":[[-0.017,0.561,0.003,0.002,0.0,-0.008,-0.055],[0.384,0.319,0.0,-0.005,-0.002,-0.357,-0.272],[0.023,0.145,0.001,0.004,-0.001,0.235,0.117],[-0.101,0.321,-0.001,-0.004,-0.004,0.059,0.073],[0.306,0.293,-0.0,-0.001,-0.013,0.281,0.184],[0.336,0.342,-0.0,-0.001,0.007,0.266,0.168],[0.532,-0.131,0.0,-0.0,-0.0,0.425,0.285],[0.14,0.316,-0.0,-0.0,-0.001,0.361,0.245],[0.518,-0.226,-0.0,-0.0,-0.001,0.431,0.286],[0.417,0.1,0.0,0.0,-0.0,0.351,0.246]],"b":[0.321,0.665,0.275,0.445,-0.021,-0.049,-0.054,-0.04,-0.008,-0.065]},{"w":[[-0.002,0.565,0.003,0.002,0.0,0.005,-0.046,-0.037],[0.478,0.342,0.0,-0.005,-0.002,-0.278,-0.216,-0.226],[-0.031,0.132,0.001,0.004,-0.001,0.189,0.085,0.13],[-0.2,0.298,-0.001,-0.004,-0.004,-0.024,0.015,0.236],[0.229,0.275,-0.0,-0.001,-0.012,0.216,0.139,0.185],[0.263,0.325,-0.0,-0.001,0.007,0.204,0.125,0.174],[0.412,-0.16,0.0,-0.001,-0.0,0.325,0.214,0.287],[0.042,0.293,-0.0,-0.0,-0.001,0.279,0.187,0.233],[0.406,-0.253,-0.0,-0.0,-0.001,0.336,0.219,0.27]],"b":[0.319,0.65,0.283,0.46,-0.009,-0.038,-0.035,-0.025,0.01]},{"w":[[-0.035,0.569,0.003,0.002,0.0,-0.023,-0.065,0.034],[0.505,0.266,0.0,-0.005,-0.002,-0.256,-0.205,-0.235],[-0.132,0.213,0.001,0.004,-0.001,0.105,0.031,0.301],[-0.111,0.326,-0.001,-0.004,-0.004,0.051,0.068,0.019],[0.224,0.329,-0.0,-0.001,-0.012,0.213,0.139,0.158],[0.262,0.374,-0.0,-0.001,0.007,0.205,0.127,0.142],[0.42,-0.082,0.0,-0.0,-0.0,0.332,0.223,0.217],[0.041,0.359,-0.0,-0.0,-0.001,0.279,0.191,0.19],[0.323,0.141,0.0,0.001,-0.0,0.273,0.194,0.181]],"b":[0.322,0.663,0.277,0.445,-0.02,-0.048,-0.052,-0.039,-0.064]},{"w":[[-0.019,0.575,0.003,0.002,0.0,-0.009,-0.055,0.043,-0.049],[0.561,0.29,0.0,-0.005,-0.002,-0.209,-0.172,-0.204,-0.171],[-0.149,0.206,0.001,0.004,-0.001,0.091,0.021,0.291,0.051],[-0.19,0.291,-0.001,-0.004,-0.004,-0.016,0.02,-0.025,0.243],[0.176,0.308,-0.0,-0.001,-0.012,0.172,0.11,0.131,0.15],[0.216,0.354,-0.0,-0.001,0.007,0.165,0.099,0.116,0.143],[0.342,-0.116,0.0,-0.001,-0.0,0.266,0.176,0.173,0.24],[-0.021,0.332,-0.0,-0.0,-0.001,0.227,0.153,0.156,0.191]],"b":[0.319,0.652,0.28,0.46,-0.01,-0.039,-0.037,-0.027]},{"w":[[0.003,0.606,0.003,0.002,0.0,0.043,-0.02,-0.142],[0.42,0.402,0.0,-0.005,-0.002,-0.262,-0.208,-0.263],[-0.004,0.083,0.001,0.004,-0.001,0.164,0.069,0.195],[-0.104,0.314,-0.001,-0.004,-0.004,0.051,0.068,0.022],[0.28,0.234,-0.0,-0.001,-0.012,0.213,0.138,0.187],[0.313,0.29,-0.0,-0.001,0.007,0.206,0.127,0.165],[0.498,-0.209,0.0,-0.0,-0.0,0.336,0.225,0.247],[0.48,-0.313,-0.0,-0.0,-0.001,0.331,0.218,0.276],[0.385,0.029,0.0,0.001,-0.0,0.269,0.191,0.226]],"b":[0.316,0.655,0.283,0.446,-0.014,-0.043,-0.044,0.003,-0.056]},{"w":[[0.004,0.606,0.003,0.002,0.0,0.045,-0.019,-0.141,-0.004],[0.488,0.407,0.0,-0.005,-0.002,-0.215,-0.175,-0.223,-0.174],[-0.038,0.081,0.001,0.004,-0.001,0.14,0.052,0.174,0.089],[-0.198,0.307,-0.001,-0.004,-0.004,-0.015,0.021,-0.033,0.244],[0.223,0.23,-0.0,-0.001,-0.012,0.173,0.11,0.154,0.15],[0.257,0.286,-0.0,-0.001,0.007,0.167,0.1,0.133,0.143],[0.404,-0.216,0.0,-0.0,-0.0,0.271,0.178,0.192,0.243],[0.396,-0.319,-0.0,-0.0,-0.0,0.273,0.177,0.227,0.218]],"b":[0.315,0.645,0.288,0.459,-0.005,-0.035,-0.03,0.015]},{"w":[[-0.028,0.626,0.003,0.002,0.0,0.022,-0.034,-0.16,0.065],[0.514,0.341,0.0,-0.005,-0.002,-0.198,-0.165,-0.209,-0.195],[-0.137,0.17,0.001,0.004,-0.001,0.072,0.009,0.118,0.278],[-0.112,0.319,-0.001,-0.004,-0.004,0.046,0.064,0.018,0.016],[0.218,0.275,-0.0,-0.001,-0.012,0.17,0.11,0.152,0.13],[0.257,0.326,-0.0,-0.001,0.007,0.167,0.102,0.133,0.116],[0.412,-0.153,0.0,-0.0,-0.0,0.277,0.185,0.197,0.179],[0.316,0.074,0.0,0.001,-0.0,0.221,0.159,0.186,0.145]],"b":[0.315,0.655,0.282,0.446,-0.014,-0.043,-0.045,-0.057]},{"w":[[-0.022,0.627,0.003,0.002,0.0,0.026,-0.031,-0.157,0.068,-0.019],[0.557,0.351,0.0,-0.005,-0.002,-0.168,-0.144,-0.184,-0.175,-0.136],[-0.147,0.168,0.001,0.004,-0.001,0.066,0.004,0.112,0.274,0.03],[-0.19,0.301,-0.001,-0.004,-0.004,-0.009,0.025,-0.029,-0.02,0.248],[0.178,0.265,-0.0,-0.001,-0.012,0.143,0.09,0.128,0.111,0.125],[0.218,0.317,-0.0,-0.001,0.007,0.14,0.083,0.111,0.099,0.122],[0.345,-0.169,0.0,-0.0,-0.0,0.231,0.152,0.158,0.149,0.21]],"b":[0.314,0.647,0.283,0.46,-0.007,-0.036,-0.033]},{"w":[[-0.026,0.55,0.003,0.002,0.001,-0.047,0.002],[0.554,0.237,0.001,-0.006,-0.002,-0.32,-0.363],[-0.033,0.178,0.001,0.004,-0.001,0.238,0.126],[-0.144,0.343,-0.001,-0.004,-0.004,0.052,0.093],[0.213,0.346,-0.0,-0.0,-0.013,0.28,0.206],[0.251,0.39,-0.0,-0.001,0.007,0.265,0.188],[-0.072,0.23,-0.0,0.001,-0.002,0.468,0.364],[0.031,0.384,-0.0,-0.0,-0.001,0.376,0.249],[0.382,-0.145,-0.0,-0.0,-0.001,0.438,0.308],[0.296,0.17,0.0,0.001,-0.001,0.354,0.27]],"b":[0.323,0.65,0.279,0.448,-0.014,-0.043,-0.007,-0.032,0.003,-0.056]},{"w":[[-0.007,0.561,0.003,0.002,0.001,-0.024,0.02,-0.065],[0.615,0.272,0.001,-0.005,-0.002,-0.247,-0.308,-0.205],[-0.072,0.155,0.001,0.004,-0.001,0.19,0.09,0.133],[-0.213,0.304,-0.001,-0.004,-0.004,-0.03,0.03,0.231],[0.158,0.314,-0.0,-0.001,-0.013,0.214,0.156,0.188],[0.199,0.36,-0.0,-0.001,0.007,0.202,0.141,0.176],[-0.174,0.172,-0.0,0.001,-0.002,0.347,0.272,0.342],[-0.042,0.342,-0.0,-0.0,-0.001,0.289,0.182,0.247],[0.299,-0.193,-0.0,-0.0,-0.001,0.339,0.232,0.279]],"b":[0.319,0.639,0.287,0.461,-0.003,-0.033,0.012,-0.018,0.018]},{"w":[[-0.031,0.552,0.003,0.002,0.001,-0.053,-0.001,0.012],[0.638,0.205,0.0,-0.006,-0.002,-0.224,-0.296,-0.22],[-0.148,0.222,0.001,0.004,-0.001,0.105,0.033,0.302],[-0.151,0.345,-0.001,-0.004,-0.004,0.045,0.087,0.017],[0.152,0.369,-0.0,-0.0,-0.013,0.21,0.157,0.161],[0.196,0.411,-0.0,-0.001,0.007,0.202,0.144,0.144],[-0.174,0.269,-0.0,0.001,-0.001,0.351,0.282,0.267],[-0.046,0.414,-0.0,-0.0,-0.001,0.288,0.187,0.202],[0.225,0.197,0.0,0.001,-0.0,0.272,0.213,0.186]],"b":[0.323,0.651,0.278,0.448,-0.014,-0.043,-0.007,-0.033,-0.056]},{"w":[[-0.014,0.566,0.003,0.002,0.001,-0.033,0.014,0.026,-0.072],[0.672,0.235,0.0,-0.005,-0.002,-0.183,-0.263,-0.191,-0.152],[-0.159,0.211,0.001,0.004,-0.001,0.091,0.022,0.292,0.052],[-0.205,0.298,-0.001,-0.004,-0.004,-0.02,0.037,-0.027,0.239],[0.118,0.34,-0.0,-0.001,-0.012,0.169,0.125,0.133,0.151],[0.164,0.383,-0.0,-0.001,0.007,0.163,0.113,0.117,0.144],[-0.238,0.213,-0.0,0.001,-0.001,0.274,0.222,0.214,0.282],[-0.091,0.374,-0.0,-0.0,-0.001,0.233,0.144,0.164,0.201]],"b":[0.319,0.643,0.281,0.462,-0.006,-0.035,0.008,-0.021]},{"w":[[-0.021,0.614,0.003,0.002,0.0,0.015,0.044,-0.166],[0.562,0.333,0.0,-0.006,-0.002,-0.226,-0.301,-0.249],[-0.039,0.102,0.001,0.004,-0.001,0.163,0.076,0.198],[-0.145,0.335,-0.001,-0.004,-0.004,0.044,0.087,0.021],[0.208,0.272,-0.0,-0.0,-0.012,0.208,0.158,0.193],[0.246,0.325,-0.0,-0.001,0.007,0.201,0.146,0.17],[-0.083,0.101,-0.0,0.001,-0.001,0.341,0.281,0.336],[0.373,-0.256,-0.0,0.0,-0.001,0.329,0.236,0.289],[0.289,0.079,0.0,0.001,-0.0,0.265,0.211,0.236]],"b":[0.318,0.642,0.286,0.449,-0.007,-0.037,0.004,0.012,-0.048]},{"w":[[-0.013,0.616,0.003,0.002,0.0,0.022,0.049,-0.16,-0.026],[0.606,0.345,0.001,-0.005,-0.002,-0.186,-0.269,-0.213,-0.152],[-0.065,0.095,0.001,0.004,-0.001,0.139,0.058,0.177,0.09],[-0.214,0.316,-0.001,-0.004,-0.004,-0.019,0.037,-0.035,0.24],[0.165,0.26,-0.0,-0.001,-0.012,0.168,0.127,0.158,0.149],[0.204,0.313,-0.0,-0.001,0.007,0.163,0.116,0.137,0.143],[-0.162,0.079,-0.0,0.001,-0.001,0.268,0.223,0.271,0.275],[0.309,-0.274,-0.0,-0.0,-0.001,0.27,0.189,0.237,0.221]],"b":[0.317,0.635,0.29,0.461,-0.0,-0.03,0.017,0.023]},{"w":[[-0.039,0.626,0.003,0.002,0.0,-0.001,0.032,-0.18,0.048],[0.629,0.287,0.0,-0.006,-0.002,-0.167,-0.259,-0.197,-0.18],[-0.142,0.173,0.001,0.004,-0.001,0.072,0.011,0.118,0.278],[-0.15,0.338,-0.001,-0.004,-0.004,0.04,0.084,0.017,0.014],[0.159,0.305,-0.0,-0.0,-0.012,0.165,0.128,0.155,0.129],[0.202,0.354,-0.0,-0.001,0.007,0.163,0.118,0.137,0.116],[-0.162,0.155,-0.0,0.001,-0.001,0.272,0.231,0.275,0.211],[0.234,0.117,0.0,0.001,-0.0,0.217,0.176,0.194,0.147]],"b":[0.317,0.645,0.282,0.449,-0.009,-0.039,0.002,-0.05]},{"w":[[-0.03,0.63,0.003,0.002,0.0,0.007,0.039,-0.173,0.054,-0.038],[0.656,0.301,0.0,-0.005,-0.002,-0.142,-0.238,-0.175,-0.163,-0.116],[-0.149,0.17,0.001,0.004,-0.001,0.065,0.006,0.112,0.274,0.029],[-0.207,0.31,-0.001,-0.004,-0.004,-0.013,0.041,-0.03,-0.022,0.245],[0.13,0.29,-0.0,-0.0,-0.012,0.138,0.106,0.131,0.111,0.124],[0.174,0.34,-0.0,-0.001,0.007,0.136,0.097,0.113,0.098,0.121],[-0.217,0.128,-0.0,0.001,-0.001,0.221,0.189,0.229,0.177,0.236]],"b":[0.315,0.639,0.284,0.461,-0.003,-0.033,0.013]},{"w":[[-0.03,0.564,0.003,0.002,0.0,-0.018,0.025,-0.062],[0.54,0.281,0.0,-0.005,-0.002,-0.232,-0.295,-0.188],[-0.026,0.157,0.001,0.004,-0.001,0.195,0.093,0.091],[-0.14,0.331,-0.001,-0.004,-0.004,0.028,0.074,0.052],[0.224,0.314,-0.0,-0.001,-0.012,0.215,0.155,0.14],[0.26,0.361,-0.0,-0.001,0.007,0.205,0.142,0.127],[0.045,0.34,-0.0,-0.0,-0.001,0.285,0.178,0.194],[0.398,-0.196,-0.0,-0.0,-0.001,0.334,0.227,0.221],[0.31,0.127,0.0,0.001,-0.0,0.266,0.201,0.189]],"b":[0.323,0.649,0.28,0.449,-0.013,-0.042,-0.031,0.004,-0.054]},{"w":[[-0.016,0.57,0.003,0.002,0.0,-0.006,0.034,-0.053,-0.047],[0.587,0.3,0.001,-0.005,-0.002,-0.192,-0.264,-0.16,-0.15],[-0.06,0.143,0.001,0.004,-0.001,0.166,0.071,0.07,0.109],[-0.211,0.302,-0.001,-0.004,-0.004,-0.033,0.028,0.009,0.228],[0.177,0.295,-0.0,-0.001,-0.012,0.175,0.125,0.112,0.149],[0.216,0.343,-0.0,-0.001,0.007,0.168,0.113,0.101,0.142],[-0.015,0.315,-0.0,-0.0,-0.001,0.234,0.139,0.158,0.193],[0.33,-0.224,-0.0,-0.0,-0.001,0.277,0.183,0.18,0.218]],"b":[0.32,0.641,0.286,0.461,-0.005,-0.034,-0.02,0.016]},{"w":[[-0.043,0.57,0.003,0.002,0.001,-0.029,0.018,-0.069,0.03],[0.612,0.245,0.0,-0.005,-0.002,-0.172,-0.254,-0.148,-0.18],[-0.143,0.215,0.001,0.004,-0.001,0.097,0.026,0.025,0.295],[-0.142,0.332,-0.001,-0.004,-0.004,0.027,0.073,0.051,0.003],[0.171,0.339,-0.0,-0.001,-0.012,0.171,0.126,0.111,0.131],[0.214,0.384,-0.0,-0.001,0.007,0.166,0.115,0.102,0.117],[-0.018,0.371,-0.0,-0.0,-0.001,0.232,0.142,0.159,0.159],[0.253,0.155,0.0,0.001,-0.0,0.217,0.168,0.157,0.144]],"b":[0.323,0.65,0.279,0.449,-0.013,-0.042,-0.031,-0.055]},{"w":[[-0.029,0.579,0.003,0.002,0.0,-0.017,0.027,-0.06,0.038,-0.056],[0.641,0.263,0.0,-0.005,-0.002,-0.147,-0.234,-0.13,-0.163,-0.115],[-0.155,0.208,0.001,0.004,-0.001,0.086,0.018,0.018,0.288,0.047],[-0.201,0.295,-0.001,-0.004,-0.004,-0.024,0.033,0.015,-0.03,0.235],[0.14,0.32,-0.0,-0.001,-0.012,0.144,0.105,0.091,0.113,0.125],[0.183,0.365,-0.0,-0.001,0.007,0.14,0.095,0.083,0.099,0.12],[-0.06,0.345,-0.0,-0.0,-0.001,0.196,0.114,0.133,0.136,0.164]],"b":[0.32,0.644,0.281,0.462,-0.006,-0.036,-0.022]},{"w":[[-0.023,0.617,0.003,0.002,0.0,0.026,0.052,-0.032,-0.155],[0.549,0.348,0.0,-0.005,-0.002,-0.175,-0.259,-0.15,-0.199],[-0.034,0.096,0.001,0.004,-0.001,0.144,0.061,0.056,0.18],[-0.141,0.33,-0.001,-0.004,-0.004,0.027,0.073,0.051,0.004],[0.217,0.261,-0.0,-0.0,-0.012,0.17,0.128,0.11,0.156],[0.254,0.314,-0.0,-0.001,0.007,0.166,0.118,0.101,0.136],[0.387,-0.274,-0.0,-0.0,-0.0,0.269,0.186,0.177,0.23],[0.302,0.064,0.0,0.001,-0.0,0.213,0.168,0.153,0.185]],"b":[0.318,0.643,0.285,0.449,-0.008,-0.038,0.011,-0.049]},{"w":[[-0.018,0.618,0.003,0.002,0.0,0.03,0.055,-0.029,-0.152,-0.018],[0.584,0.356,0.0,-0.005,-0.002,-0.15,-0.24,-0.132,-0.178,-0.116],[-0.057,0.091,0.001,0.004,-0.001,0.127,0.048,0.044,0.165,0.078],[-0.212,0.315,-0.001,-0.004,-0.004,-0.024,0.033,0.015,-0.04,0.236],[0.179,0.253,-0.0,-0.001,-0.012,0.144,0.107,0.091,0.133,0.124],[0.218,0.307,-0.0,-0.001,0.007,0.141,0.097,0.083,0.114,0.12],[0.333,-0.286,-0.0,-0.0,-0.0,0.23,0.156,0.149,0.197,0.18]],"b":[0.317,0.637,0.289,0.46,-0.002,-0.032,0.02]},{"w":[[-0.046,0.632,0.003,0.002,0.0,0.01,0.042,-0.042,-0.168,0.057],[0.609,0.306,0.0,-0.005,-0.002,-0.134,-0.231,-0.122,-0.164,-0.154],[-0.141,0.172,0.001,0.004,-0.001,0.07,0.009,0.007,0.116,0.276],[-0.142,0.33,-0.001,-0.004,-0.004,0.026,0.072,0.051,0.003,0.003],[0.174,0.291,-0.0,-0.0,-0.012,0.141,0.107,0.09,0.131,0.11],[0.216,0.341,-0.0,-0.001,0.007,0.14,0.099,0.084,0.114,0.099],[0.255,0.097,0.0,0.001,-0.0,0.181,0.146,0.132,0.157,0.119]],"b":[0.317,0.645,0.282,0.449,-0.009,-0.039,-0.05]},{"w":[[-0.038,0.635,0.003,0.002,0.0,0.016,0.046,-0.038,-0.164,0.061,-0.029],[0.632,0.315,0.0,-0.005,-0.002,-0.118,-0.217,-0.11,-0.149,-0.143,-0.09],[-0.148,0.169,0.001,0.004,-0.001,0.065,0.005,0.003,0.111,0.273,0.028],[-0.203,0.307,-0.001,-0.004,-0.004,-0.018,0.037,0.019,-0.035,-0.026,0.24],[0.147,0.281,-0.0,-0.001,-0.012,0.121,0.092,0.076,0.114,0.098,0.106],[0.189,0.331,-0.0,-0.001,0.007,0.121,0.084,0.07,0.097,0.086,0.104]],"b":[0.316,0.64,0.284,0.461,-0.004,-0.034]},{"w":[[0.003,0.578,0.003,0.002,0.001,-0.017,-0.076],[0.587,0.516,0.0,-0.006,0.003,-0.29,-0.671],[-0.103,0.019,0.001,0.004,-0.004,0.164,0.398],[-0.215,0.207,-0.001,-0.004,-0.006,-0.022,0.345],[0.116,0.104,-0.0,-0.0,-0.017,0.179,0.602],[0.352,-0.302,0.001,0.0,-0.005,0.391,0.609],[-0.113,-0.057,0.0,0.001,-0.007,0.43,0.694],[-0.012,0.172,0.0,0.0,-0.005,0.334,0.516],[0.332,-0.404,-0.0,0.0,-0.005,0.389,0.629],[0.262,-0.047,0.0,0.001,-0.004,0.321,0.525]],"b":[0.319,0.637,0.293,0.461,0.006,-0.029,0.008,-0.02,0.018,-0.044]},{"w":[[0.015,0.576,0.003,0.002,0.001,-0.002,-0.052,-0.046],[0.638,0.507,0.0,-0.006,0.002,-0.228,-0.571,-0.191],[-0.126,0.023,0.001,0.004,-0.003,0.136,0.352,0.087],[-0.264,0.215,-0.001,-0.004,-0.005,-0.082,0.247,0.186],[0.083,0.11,-0.0,-0.0,-0.016,0.139,0.537,0.124],[0.28,-0.289,0.0,-0.0,-0.004,0.302,0.464,0.276],[-0.199,-0.042,0.0,0.001,-0.005,0.325,0.523,0.326],[-0.071,0.183,0.0,-0.0,-0.004,0.261,0.398,0.225],[0.265,-0.392,-0.0,0.0,-0.004,0.308,0.495,0.254]],"b":[0.317,0.628,0.297,0.469,0.012,-0.017,0.023,-0.01,0.029]},{"w":[[-0.007,0.59,0.003,0.002,0.001,-0.028,-0.094,0.029],[0.656,0.433,0.0,-0.006,0.002,-0.21,-0.542,-0.206],[-0.193,0.128,0.001,0.004,-0.002,0.059,0.229,0.269],[-0.207,0.197,-0.001,-0.004,-0.006,-0.012,0.36,-0.024],[0.08,0.148,-0.0,-0.0,-0.016,0.137,0.535,0.108],[0.284,-0.219,0.001,0.0,-0.004,0.311,0.48,0.205],[-0.196,0.044,0.0,0.001,-0.005,0.332,0.536,0.25],[-0.073,0.246,0.0,0.0,-0.004,0.263,0.402,0.182],[0.205,0.022,0.0,0.001,-0.003,0.255,0.417,0.171]],"b":[0.318,0.64,0.288,0.462,0.004,-0.033,0.004,-0.023,-0.047]},{"w":[[0.004,0.591,0.003,0.002,0.001,-0.014,-0.071,0.039,-0.056],[0.686,0.436,0.0,-0.006,0.001,-0.173,-0.481,-0.181,-0.145],[-0.197,0.127,0.001,0.004,-0.002,0.054,0.221,0.266,0.019],[-0.248,0.192,-0.001,-0.004,-0.006,-0.064,0.276,-0.058,0.201],[0.059,0.145,-0.0,-0.0,-0.016,0.111,0.493,0.09,0.101],[0.236,-0.224,0.0,-0.0,-0.003,0.251,0.382,0.165,0.234],[-0.253,0.038,0.0,0.001,-0.004,0.262,0.422,0.203,0.274],[-0.111,0.241,0.0,-0.0,-0.003,0.215,0.323,0.15,0.187]],"b":[0.316,0.633,0.289,0.471,0.009,-0.022,0.017,-0.014]},{"w":[[0.001,0.604,0.003,0.002,0.0,0.034,0.002,-0.151],[0.585,0.556,0.0,-0.006,0.002,-0.213,-0.552,-0.231],[-0.102,-0.008,0.001,0.004,-0.003,0.112,0.318,0.154],[-0.215,0.211,-0.001,-0.004,-0.006,-0.012,0.359,-0.028],[0.117,0.082,-0.0,-0.0,-0.016,0.136,0.535,0.129],[0.355,-0.343,0.001,0.0,-0.004,0.312,0.487,0.236],[-0.109,-0.112,0.0,0.001,-0.005,0.324,0.531,0.315],[0.335,-0.449,-0.0,0.0,-0.004,0.302,0.494,0.261],[0.265,-0.085,0.0,0.001,-0.003,0.249,0.413,0.218]],"b":[0.316,0.632,0.296,0.461,0.009,-0.025,0.015,0.023,-0.04]},{"w":[[0.004,0.603,0.003,0.002,0.0,0.037,0.007,-0.149,-0.012],[0.623,0.544,0.0,-0.006,0.001,-0.176,-0.492,-0.199,-0.147],[-0.116,-0.003,0.001,0.004,-0.003,0.099,0.296,0.143,0.055],[-0.269,0.228,-0.001,-0.004,-0.006,-0.063,0.275,-0.072,0.202],[0.091,0.09,-0.0,-0.0,-0.016,0.111,0.494,0.108,0.099],[0.293,-0.323,0.0,-0.0,-0.003,0.253,0.39,0.185,0.234],[-0.18,-0.089,0.0,0.001,-0.004,0.258,0.42,0.257,0.268],[0.281,-0.432,-0.0,0.0,-0.004,0.251,0.409,0.217,0.205]],"b":[0.315,0.626,0.298,0.469,0.013,-0.015,0.025,0.031]},{"w":[[-0.019,0.631,0.003,0.002,0.001,0.016,-0.027,-0.167,0.06],[0.642,0.479,0.0,-0.006,0.001,-0.161,-0.467,-0.186,-0.172],[-0.186,0.106,0.001,0.004,-0.002,0.036,0.193,0.088,0.253],[-0.208,0.202,-0.001,-0.004,-0.006,-0.006,0.369,-0.023,-0.02],[0.088,0.122,-0.0,-0.0,-0.016,0.109,0.492,0.106,0.088],[0.298,-0.266,0.001,0.0,-0.003,0.26,0.403,0.192,0.171],[-0.177,-0.021,0.0,0.001,-0.004,0.263,0.431,0.262,0.202],[0.219,-0.023,0.0,0.001,-0.003,0.207,0.344,0.182,0.138]],"b":[0.315,0.636,0.29,0.461,0.007,-0.029,0.01,-0.043]},{"w":[[-0.014,0.63,0.003,0.002,0.001,0.021,-0.019,-0.162,0.063,-0.025],[0.667,0.476,0.0,-0.006,0.001,-0.137,-0.428,-0.165,-0.156,-0.115],[-0.187,0.106,0.001,0.004,-0.002,0.035,0.193,0.088,0.252,0.003],[-0.255,0.207,-0.001,-0.004,-0.006,-0.05,0.296,-0.061,-0.049,0.212],[0.069,0.124,-0.0,-0.0,-0.016,0.092,0.463,0.091,0.077,0.084],[0.253,-0.262,0.0,-0.0,-0.003,0.218,0.332,0.155,0.142,0.205],[-0.228,-0.016,0.0,0.001,-0.004,0.215,0.351,0.22,0.17,0.233]],"b":[0.313,0.631,0.29,0.47,0.01,-0.02,0.02]},{"w":[[-0.003,0.575,0.003,0.002,0.001,0.003,-0.043,-0.048],[0.567,0.506,0.0,-0.006,0.002,-0.212,-0.546,-0.181],[-0.097,0.022,0.001,0.004,-0.003,0.139,0.358,0.057],[-0.213,0.208,-0.001,-0.004,-0.006,-0.029,0.333,0.017],[0.126,0.11,-0.0,-0.0,-0.016,0.138,0.537,0.094],[0.376,-0.29,0.001,-0.0,-0.004,0.302,0.466,0.207],[0.008,0.182,0.0,-0.0,-0.004,0.257,0.392,0.179],[0.355,-0.392,-0.0,0.0,-0.004,0.302,0.487,0.204],[0.282,-0.037,0.0,0.001,-0.003,0.245,0.401,0.179]],"b":[0.319,0.638,0.293,0.461,0.005,-0.031,-0.021,0.016,-0.045]},{"w":[[0.006,0.574,0.003,0.002,0.001,0.011,-0.03,-0.042,-0.032],[0.607,0.501,0.0,-0.006,0.001,-0.178,-0.49,-0.155,-0.141],[-0.117,0.025,0.001,0.004,-0.003,0.122,0.329,0.044,0.072],[-0.267,0.215,-0.001,-0.004,-0.005,-0.076,0.256,-0.017,0.192],[0.098,0.113,-0.0,-0.0,-0.016,0.114,0.497,0.077,0.099],[0.313,-0.282,0.0,-0.0,-0.003,0.248,0.377,0.167,0.221],[-0.042,0.189,0.0,-0.0,-0.003,0.214,0.321,0.147,0.177],[0.299,-0.385,-0.0,-0.0,-0.003,0.253,0.407,0.168,0.199]],"b":[0.318,0.632,0.296,0.47,0.01,-0.021,-0.013,0.025]},{"w":[[-0.018,0.593,0.003,0.002,0.001,-0.01,-0.064,-0.056,0.043],[0.627,0.44,0.0,-0.006,0.001,-0.161,-0.464,-0.146,-0.169],[-0.192,0.128,0.001,0.004,-0.002,0.059,0.228,0.002,0.268],[-0.202,0.196,-0.001,-0.004,-0.006,-0.02,0.347,0.023,-0.03],[0.095,0.144,-0.0,-0.0,-0.016,0.112,0.494,0.076,0.089],[0.318,-0.227,0.001,-0.0,-0.003,0.253,0.387,0.174,0.162],[-0.043,0.239,0.0,-0.0,-0.003,0.213,0.321,0.15,0.145],[0.235,0.015,0.0,0.001,-0.003,0.205,0.336,0.152,0.133]],"b":[0.319,0.641,0.288,0.462,0.004,-0.034,-0.023,-0.048]},{"w":[[-0.008,0.593,0.003,0.002,0.001,-0.001,-0.05,-0.05,0.049,-0.042],[0.653,0.441,0.0,-0.006,0.001,-0.139,-0.427,-0.129,-0.155,-0.11],[-0.197,0.127,0.001,0.004,-0.002,0.055,0.221,-0.001,0.266,0.019],[-0.25,0.193,-0.001,-0.004,-0.006,-0.062,0.279,-0.007,-0.057,0.203],[0.075,0.143,-0.0,-0.0,-0.016,0.095,0.466,0.063,0.077,0.083],[0.273,-0.23,0.0,-0.0,-0.003,0.213,0.321,0.144,0.136,0.194],[-0.079,0.237,0.0,-0.0,-0.003,0.182,0.27,0.127,0.124,0.152]],"b":[0.317,0.636,0.289,0.471,0.008,-0.024,-0.016]},{"w":[[-0.002,0.602,0.003,0.002,0.0,0.041,0.014,-0.022,-0.144],[0.568,0.54,0.0,-0.006,0.001,-0.165,-0.474,-0.147,-0.185],[-0.098,-0.004,0.001,0.004,-0.003,0.102,0.302,0.031,0.145],[-0.213,0.214,-0.001,-0.004,-0.006,-0.02,0.346,0.024,-0.035],[0.125,0.09,-0.0,-0.0,-0.016,0.111,0.495,0.075,0.106],[0.374,-0.323,0.001,-0.0,-0.003,0.255,0.394,0.174,0.181],[0.353,-0.431,-0.0,0.0,-0.003,0.248,0.405,0.167,0.209],[0.281,-0.068,0.0,0.001,-0.002,0.201,0.334,0.148,0.171]],"b":[0.316,0.634,0.296,0.46,0.008,-0.027,0.021,-0.042]},{"w":[[0.0,0.601,0.003,0.002,0.0,0.042,0.016,-0.021,-0.143,-0.007],[0.6,0.532,0.0,-0.006,0.001,-0.142,-0.437,-0.131,-0.165,-0.112],[-0.112,-0.001,0.001,0.004,-0.003,0.093,0.286,0.024,0.136,0.048],[-0.27,0.228,-0.001,-0.004,-0.006,-0.061,0.278,-0.007,-0.07,0.204],[0.102,0.096,-0.0,-0.0,-0.016,0.095,0.468,0.063,0.091,0.082],[0.32,-0.31,0.0,-0.0,-0.003,0.216,0.329,0.145,0.148,0.195],[0.306,-0.419,-0.0,-0.0,-0.003,0.214,0.349,0.142,0.18,0.167]],"b":[0.316,0.63,0.298,0.469,0.011,-0.019,0.028]},{"w":[[-0.025,0.63,0.003,0.002,0.0,0.024,-0.013,-0.033,-0.158,0.066],[0.62,0.476,0.0,-0.006,0.001,-0.128,-0.414,-0.123,-0.154,-0.147],[-0.188,0.106,0.001,0.004,-0.002,0.039,0.198,-0.012,0.091,0.255],[-0.203,0.203,-0.001,-0.004,-0.006,-0.014,0.357,0.028,-0.03,-0.026],[0.099,0.123,-0.0,-0.0,-0.016,0.092,0.465,0.063,0.09,0.076],[0.325,-0.263,0.001,-0.0,-0.003,0.22,0.338,0.151,0.152,0.14],[0.241,-0.02,0.0,0.001,-0.002,0.173,0.289,0.13,0.148,0.112]],"b":[0.315,0.637,0.29,0.461,0.006,-0.03,-0.044]},{"w":[[-0.021,0.63,0.003,0.002,0.0,0.027,-0.008,-0.03,-0.156,0.068,-0.018],[0.642,0.475,0.0,-0.006,0.0,-0.113,-0.389,-0.111,-0.141,-0.137,-0.089],[-0.19,0.106,0.001,0.004,-0.002,0.038,0.197,-0.012,0.091,0.254,0.006],[-0.255,0.207,-0.001,-0.004,-0.006,-0.051,0.295,0.0,-0.061,-0.049,0.212],[0.081,0.124,-0.0,-0.0,-0.015,0.08,0.444,0.053,0.079,0.068,0.071],[0.283,-0.26,0.0,-0.0,-0.002,0.19,0.287,0.128,0.126,0.12,0.175]],"b":[0.314,0.633,0.291,0.47,0.009,-0.022]},{"w":[[-0.004,0.584,0.003,0.002,0.001,-0.024,-0.087,0.019],[0.682,0.436,0.0,-0.006,0.002,-0.185,-0.508,-0.267],[-0.124,0.036,0.001,0.004,-0.004,0.141,0.363,0.057],[-0.226,0.216,-0.001,-0.004,-0.006,-0.034,0.325,0.031],[0.078,0.136,-0.0,-0.0,-0.016,0.138,0.538,0.105],[-0.206,0.022,0.0,0.001,-0.005,0.326,0.533,0.264],[-0.072,0.224,0.0,0.0,-0.004,0.267,0.412,0.171],[0.256,-0.34,-0.0,0.0,-0.004,0.306,0.499,0.214],[0.194,0.011,0.0,0.001,-0.003,0.246,0.407,0.193]],"b":[0.319,0.629,0.295,0.462,0.009,0.016,-0.014,0.024,-0.038]},{"w":[[0.006,0.584,0.003,0.002,0.001,-0.011,-0.065,0.029,-0.054],[0.706,0.437,0.0,-0.006,0.001,-0.155,-0.458,-0.243,-0.124],[-0.138,0.035,0.001,0.004,-0.003,0.123,0.333,0.043,0.075],[-0.262,0.214,-0.001,-0.004,-0.005,-0.08,0.249,-0.005,0.187],[0.059,0.135,-0.0,-0.0,-0.016,0.113,0.497,0.086,0.1],[-0.258,0.019,-0.0,0.001,-0.004,0.261,0.424,0.212,0.267],[-0.109,0.222,-0.0,-0.0,-0.003,0.221,0.335,0.135,0.188],[0.216,-0.342,-0.0,0.0,-0.004,0.255,0.414,0.174,0.206]],"b":[0.317,0.624,0.298,0.469,0.013,0.026,-0.007,0.032]},{"w":[[-0.011,0.593,0.003,0.002,0.001,-0.032,-0.101,0.013,0.027],[0.722,0.382,0.0,-0.006,0.001,-0.137,-0.43,-0.234,-0.158],[-0.193,0.128,0.001,0.004,-0.002,0.059,0.229,-0.0,0.269],[-0.218,0.205,-0.001,-0.004,-0.006,-0.024,0.341,0.038,-0.032],[0.055,0.167,-0.0,-0.0,-0.016,0.11,0.493,0.086,0.09],[-0.259,0.092,0.0,0.001,-0.004,0.264,0.431,0.22,0.205],[-0.112,0.276,0.0,0.0,-0.003,0.22,0.335,0.138,0.154],[0.159,0.058,0.0,0.001,-0.003,0.204,0.339,0.164,0.137]],"b":[0.319,0.633,0.288,0.463,0.007,0.011,-0.018,-0.042]},{"w":[[-0.001,0.596,0.003,0.002,0.001,-0.02,-0.08,0.023,0.035,-0.061],[0.737,0.387,0.0,-0.006,0.001,-0.118,-0.398,-0.218,-0.145,-0.094],[-0.196,0.126,0.001,0.004,-0.002,0.055,0.222,-0.003,0.266,0.02],[-0.249,0.194,-0.001,-0.004,-0.006,-0.065,0.274,0.006,-0.059,0.2],[0.042,0.162,-0.0,-0.0,-0.016,0.093,0.465,0.072,0.078,0.084],[-0.296,0.078,-0.0,0.001,-0.004,0.217,0.352,0.182,0.173,0.232],[-0.137,0.267,-0.0,-0.0,-0.003,0.187,0.281,0.112,0.131,0.161]],"b":[0.316,0.629,0.289,0.471,0.011,0.021,-0.012]},{"w":[[-0.016,0.62,0.003,0.002,0.001,0.019,-0.02,0.047,-0.162],[0.669,0.475,0.0,-0.006,0.001,-0.139,-0.436,-0.237,-0.175],[-0.113,0.003,0.001,0.004,-0.003,0.102,0.303,0.032,0.147],[-0.229,0.224,-0.001,-0.004,-0.006,-0.024,0.341,0.038,-0.037],[0.086,0.112,-0.0,-0.0,-0.016,0.109,0.493,0.087,0.109],[-0.187,-0.037,0.0,0.001,-0.004,0.256,0.424,0.219,0.264],[0.272,-0.389,-0.0,0.0,-0.004,0.247,0.408,0.176,0.22],[0.207,-0.029,0.0,0.001,-0.003,0.198,0.333,0.162,0.179]],"b":[0.317,0.626,0.297,0.462,0.011,0.02,0.027,-0.036]},{"w":[[-0.011,0.619,0.003,0.002,0.0,0.024,-0.012,0.05,-0.158,-0.024],[0.689,0.472,0.0,-0.006,0.001,-0.12,-0.405,-0.222,-0.158,-0.095],[-0.123,0.005,0.001,0.004,-0.003,0.093,0.286,0.024,0.138,0.049],[-0.27,0.23,-0.001,-0.004,-0.006,-0.064,0.273,0.005,-0.073,0.201],[0.069,0.114,-0.0,-0.0,-0.016,0.092,0.466,0.073,0.094,0.082],[-0.234,-0.03,-0.0,0.001,-0.004,0.211,0.349,0.182,0.223,0.225],[0.237,-0.384,-0.0,0.0,-0.003,0.213,0.351,0.148,0.189,0.171]],"b":[0.316,0.623,0.299,0.469,0.014,0.028,0.033]},{"w":[[-0.03,0.641,0.003,0.002,0.001,0.006,-0.042,0.037,-0.174,0.053],[0.706,0.422,0.0,-0.006,0.0,-0.105,-0.381,-0.214,-0.145,-0.135],[-0.182,0.103,0.001,0.004,-0.002,0.039,0.199,-0.013,0.091,0.255],[-0.221,0.214,-0.001,-0.004,-0.006,-0.018,0.352,0.043,-0.031,-0.027],[0.066,0.141,-0.0,-0.0,-0.016,0.09,0.462,0.073,0.092,0.076],[-0.233,0.029,0.0,0.001,-0.004,0.214,0.355,0.189,0.226,0.17],[0.176,0.015,0.0,0.001,-0.002,0.17,0.287,0.142,0.154,0.114]],"b":[0.316,0.63,0.29,0.462,0.009,0.015,-0.039]},{"w":[[-0.024,0.641,0.003,0.002,0.001,0.012,-0.033,0.042,-0.169,0.057,-0.034],[0.719,0.423,0.0,-0.006,0.0,-0.093,-0.36,-0.203,-0.134,-0.127,-0.073],[-0.183,0.102,0.001,0.004,-0.002,0.038,0.197,-0.013,0.09,0.254,0.005],[-0.258,0.21,-0.001,-0.004,-0.006,-0.053,0.291,0.013,-0.063,-0.051,0.21],[0.053,0.14,-0.0,-0.0,-0.015,0.078,0.442,0.063,0.081,0.068,0.071],[-0.269,0.026,-0.0,0.001,-0.003,0.18,0.298,0.16,0.195,0.147,0.2]],"b":[0.314,0.627,0.29,0.471,0.012,0.023]},{"w":[[-0.015,0.585,0.003,0.002,0.001,-0.006,-0.058,0.033,-0.054],[0.654,0.439,0.0,-0.006,0.001,-0.142,-0.438,-0.232,-0.132],[-0.114,0.035,0.001,0.004,-0.003,0.126,0.338,0.045,0.048],[-0.224,0.216,-0.001,-0.004,-0.006,-0.038,0.319,0.028,0.011],[0.094,0.134,-0.0,-0.0,-0.016,0.113,0.497,0.085,0.077],[-0.041,0.22,0.0,-0.0,-0.003,0.217,0.331,0.131,0.152],[0.291,-0.343,-0.0,0.0,-0.003,0.251,0.408,0.169,0.169],[0.224,0.008,0.0,0.001,-0.003,0.198,0.329,0.154,0.147]],"b":[0.32,0.631,0.294,0.462,0.008,-0.017,0.021,-0.041]},{"w":[[-0.006,0.585,0.003,0.002,0.001,0.002,-0.045,0.039,-0.048,-0.041],[0.675,0.439,0.0,-0.006,0.001,-0.124,-0.407,-0.218,-0.119,-0.093],[-0.128,0.035,0.001,0.004,-0.003,0.113,0.316,0.035,0.038,0.065],[-0.267,0.214,-0.001,-0.004,-0.005,-0.076,0.256,-0.001,-0.017,0.192],[0.076,0.134,-0.0,-0.0,-0.016,0.096,0.47,0.072,0.064,0.083],[-0.076,0.219,-0.0,-0.0,-0.003,0.187,0.28,0.107,0.129,0.153],[0.254,-0.345,-0.0,-0.0,-0.003,0.217,0.353,0.143,0.145,0.168]],"b":[0.319,0.627,0.297,0.47,0.011,-0.011,0.028]},{"w":[[-0.027,0.599,0.003,0.002,0.001,-0.016,-0.074,0.026,-0.061,0.039],[0.694,0.392,0.0,-0.006,0.0,-0.108,-0.383,-0.21,-0.11,-0.135],[-0.192,0.127,0.001,0.004,-0.002,0.059,0.228,-0.001,0.002,0.268],[-0.213,0.204,-0.001,-0.004,-0.006,-0.029,0.334,0.034,0.017,-0.036],[0.072,0.161,-0.0,-0.0,-0.016,0.093,0.466,0.072,0.064,0.077],[-0.078,0.264,0.0,-0.0,-0.003,0.186,0.279,0.11,0.131,0.127],[0.192,0.046,0.0,0.001,-0.002,0.17,0.284,0.136,0.128,0.111]],"b":[0.319,0.634,0.288,0.463,0.006,-0.02,-0.043]},{"w":[[-0.017,0.601,0.003,0.002,0.001,-0.008,-0.061,0.033,-0.055,0.044,-0.048],[0.707,0.395,0.0,-0.006,0.0,-0.096,-0.362,-0.2,-0.1,-0.127,-0.071],[-0.196,0.126,0.001,0.004,-0.002,0.055,0.222,-0.003,-0.0,0.266,0.02],[-0.252,0.194,-0.001,-0.004,-0.006,-0.063,0.277,0.007,-0.008,-0.058,0.202],[0.058,0.157,-0.0,-0.0,-0.015,0.081,0.446,0.062,0.054,0.069,0.071],[-0.104,0.258,-0.0,-0.0,-0.002,0.163,0.241,0.091,0.113,0.112,0.135]],"b":[0.317,0.631,0.289,0.471,0.01,-0.014]},{"w":[[-0.022,0.619,0.003,0.002,0.0,0.027,-0.007,0.053,-0.031,-0.154],[0.648,0.471,0.0,-0.006,0.0,-0.11,-0.39,-0.213,-0.11,-0.146],[-0.108,0.004,0.001,0.004,-0.003,0.095,0.291,0.027,0.026,0.14],[-0.225,0.225,-0.001,-0.004,-0.006,-0.029,0.333,0.034,0.018,-0.041],[0.098,0.114,-0.0,-0.0,-0.016,0.093,0.467,0.073,0.063,0.092],[0.299,-0.384,-0.0,0.0,-0.003,0.211,0.348,0.145,0.141,0.183],[0.23,-0.024,0.0,0.001,-0.002,0.166,0.281,0.135,0.125,0.146]],"b":[0.318,0.628,0.296,0.461,0.01,0.025,-0.038]},{"w":[[-0.018,0.619,0.003,0.002,0.0,0.03,-0.002,0.056,-0.029,-0.152,-0.018],[0.665,0.469,0.0,-0.006,0.0,-0.098,-0.37,-0.204,-0.101,-0.135,-0.072],[-0.118,0.006,0.001,0.004,-0.003,0.088,0.279,0.021,0.021,0.133,0.044],[-0.272,0.23,-0.001,-0.004,-0.006,-0.062,0.276,0.006,-0.007,-0.071,0.203],[0.082,0.116,-0.0,-0.0,-0.015,0.081,0.447,0.063,0.054,0.082,0.07],[0.266,-0.38,-0.0,0.0,-0.003,0.187,0.308,0.126,0.124,0.162,0.143]],"b":[0.317,0.626,0.298,0.469,0.012,0.03]},{"w":[[-0.04,0.642,0.003,0.002,0.001,0.014,-0.028,0.045,-0.039,-0.165,0.06],[0.684,0.425,0.0,-0.006,0.0,-0.085,-0.348,-0.196,-0.093,-0.124,-0.12],[-0.185,0.103,0.001,0.004,-0.002,0.041,0.202,-0.011,-0.01,0.093,0.257],[-0.216,0.213,-0.001,-0.004,-0.006,-0.022,0.344,0.038,0.022,-0.036,-0.031],[0.078,0.14,-0.0,-0.0,-0.015,0.079,0.444,0.063,0.053,0.08,0.067],[0.202,0.012,0.0,0.001,-0.002,0.146,0.248,0.121,0.111,0.129,0.095]],"b":[0.316,0.631,0.29,0.462,0.008,-0.04]},{"w":[[-0.034,0.642,0.003,0.002,0.001,0.018,-0.022,0.048,-0.036,-0.162,0.063,-0.026],[0.695,0.425,0.0,-0.006,-0.0,-0.077,-0.334,-0.189,-0.087,-0.117,-0.114,-0.055],[-0.186,0.103,0.001,0.004,-0.002,0.04,0.2,-0.012,-0.011,0.092,0.256,0.008],[-0.258,0.211,-0.001,-0.004,-0.006,-0.053,0.292,0.013,-0.001,-0.063,-0.051,0.21],[0.066,0.139,-0.0,-0.0,-0.015,0.07,0.428,0.056,0.046,0.072,0.061,0.061]],"b":[0.315,0.629,0.29,0.471,0.011]},{"w":[[0.091,0.658,0.003,0.002,-0.003,-0.243],[0.382,0.336,0.0,-0.006,-0.009,-0.659],[0.004,0.113,0.001,0.004,0.004,0.407],[-0.161,0.265,-0.001,-0.004,-0.001,0.236],[0.357,0.248,0.0,0.001,0.005,0.508],[0.263,0.261,-0.0,-0.0,0.014,0.58],[0.536,-0.152,0.001,0.0,0.008,0.744],[0.09,0.11,0.0,0.001,0.008,0.841],[0.139,0.296,0.0,0.0,0.006,0.64],[0.512,-0.256,0.0,0.0,0.008,0.767],[0.419,0.083,0.0,0.001,0.007,0.626]],"b":[0.313,0.675,0.272,0.448,-0.042,-0.049,-0.065,-0.032,-0.05,-0.018,-0.075]},{"w":[[0.08,0.656,0.003,0.002,-0.003,-0.26,0.027],[0.505,0.361,0.0,-0.006,-0.007,-0.475,-0.294],[-0.054,0.101,0.001,0.004,0.003,0.32,0.139],[-0.243,0.249,-0.001,-0.004,-0.002,0.112,0.198],[0.258,0.229,-0.0,0.0,0.003,0.361,0.235],[0.197,0.248,-0.0,-0.001,0.013,0.481,0.157],[0.387,-0.181,0.0,-0.0,0.006,0.523,0.354],[-0.082,0.076,0.0,0.001,0.005,0.584,0.409],[0.018,0.272,0.0,-0.0,0.004,0.46,0.289],[0.373,-0.283,-0.0,0.0,0.006,0.56,0.331]],"b":[0.315,0.653,0.282,0.463,-0.025,-0.038,-0.039,-0.001,-0.028,0.006]},{"w":[[0.048,0.68,0.003,0.002,-0.003,-0.309,0.085],[0.527,0.264,0.0,-0.006,-0.007,-0.442,-0.283],[-0.147,0.188,0.001,0.004,0.001,0.18,0.295],[-0.16,0.265,-0.001,-0.004,-0.001,0.237,-0.001],[0.259,0.297,0.0,0.001,0.004,0.362,0.19],[0.199,0.293,-0.0,-0.0,0.013,0.484,0.124],[0.398,-0.083,0.001,0.0,0.006,0.539,0.268],[-0.073,0.191,0.0,0.001,0.006,0.597,0.317],[0.02,0.355,0.0,0.0,0.005,0.462,0.232],[0.304,0.141,0.0,0.001,0.005,0.453,0.225]],"b":[0.314,0.67,0.277,0.448,-0.039,-0.047,-0.06,-0.026,-0.045,-0.071]},{"w":[[0.048,0.68,0.003,0.002,-0.003,-0.308,0.086,-0.001],[0.592,0.294,0.0,-0.006,-0.006,-0.344,-0.234,-0.216],[-0.161,0.182,0.001,0.004,0.001,0.16,0.285,0.045],[-0.225,0.235,-0.001,-0.004,-0.002,0.14,-0.049,0.214],[0.203,0.271,-0.0,0.0,0.003,0.278,0.148,0.186],[0.161,0.275,-0.0,-0.001,0.012,0.427,0.096,0.125],[0.311,-0.123,0.0,-0.0,0.004,0.409,0.204,0.286],[-0.173,0.145,0.0,0.001,0.004,0.448,0.243,0.329],[-0.049,0.323,0.0,-0.0,0.003,0.359,0.18,0.229]],"b":[0.314,0.655,0.28,0.463,-0.026,-0.038,-0.04,-0.003,-0.029]},{"w":[[0.101,0.679,0.003,0.002,-0.002,-0.198,-0.07],[0.427,0.432,0.0,-0.006,-0.007,-0.451,-0.325],[-0.024,0.054,0.001,0.004,0.002,0.28,0.198],[-0.16,0.266,-0.001,-0.004,-0.001,0.237,-0.001],[0.324,0.179,0.0,0.001,0.004,0.359,0.233],[0.242,0.217,-0.0,-0.0,0.013,0.486,0.147],[0.492,-0.244,0.001,0.0,0.006,0.544,0.313],[0.035,-0.007,0.0,0.001,0.006,0.588,0.395],[0.466,-0.354,-0.0,0.0,0.006,0.554,0.333],[0.38,-0.0,0.0,0.001,0.005,0.445,0.282]],"b":[0.309,0.659,0.281,0.448,-0.031,-0.042,-0.05,-0.012,-0.002,-0.061]},{"w":[[0.081,0.679,0.003,0.002,-0.002,-0.221,-0.084,0.052],[0.509,0.432,0.0,-0.006,-0.006,-0.354,-0.263,-0.218],[-0.058,0.054,0.001,0.004,0.002,0.24,0.173,0.089],[-0.242,0.266,-0.001,-0.004,-0.002,0.141,-0.062,0.216],[0.255,0.18,-0.0,0.0,0.003,0.278,0.181,0.183],[0.195,0.217,-0.0,-0.001,0.012,0.43,0.112,0.125],[0.383,-0.244,0.0,-0.0,0.005,0.416,0.232,0.287],[-0.088,-0.007,0.0,0.001,0.004,0.445,0.304,0.322],[0.369,-0.354,-0.0,0.0,0.005,0.44,0.261,0.256]],"b":[0.312,0.646,0.287,0.461,-0.02,-0.034,-0.032,0.007,0.014]},{"w":[[0.05,0.718,0.003,0.002,-0.003,-0.259,-0.107,0.11],[0.532,0.353,0.0,-0.006,-0.006,-0.326,-0.25,-0.225],[-0.149,0.15,0.001,0.004,0.001,0.13,0.108,0.27],[-0.16,0.265,-0.001,-0.004,-0.001,0.237,-0.001,-0.001],[0.256,0.232,0.0,0.001,0.003,0.278,0.183,0.148],[0.197,0.252,-0.0,-0.0,0.012,0.431,0.114,0.098],[0.393,-0.169,0.001,0.0,0.005,0.427,0.242,0.212],[-0.079,0.08,0.0,0.001,0.004,0.452,0.314,0.244],[0.299,0.061,0.0,0.001,0.004,0.349,0.224,0.173]],"b":[0.309,0.659,0.282,0.448,-0.031,-0.042,-0.049,-0.012,-0.06]},{"w":[[0.042,0.716,0.003,0.002,-0.003,-0.268,-0.112,0.106,0.025],[0.582,0.363,0.0,-0.006,-0.005,-0.267,-0.212,-0.196,-0.168],[-0.156,0.149,0.001,0.004,0.001,0.123,0.103,0.266,0.021],[-0.228,0.251,-0.001,-0.004,-0.002,0.158,-0.052,-0.04,0.226],[0.21,0.222,-0.0,0.0,0.002,0.224,0.149,0.121,0.152],[0.165,0.246,-0.0,-0.001,0.012,0.395,0.091,0.08,0.105],[0.321,-0.184,0.0,-0.0,0.004,0.342,0.187,0.17,0.243],[-0.16,0.063,0.0,0.001,0.003,0.358,0.253,0.198,0.271]],"b":[0.311,0.649,0.283,0.461,-0.022,-0.036,-0.035,0.005]},{"w":[[0.091,0.657,0.003,0.002,-0.003,-0.25,0.008],[0.404,0.364,0.0,-0.006,-0.007,-0.448,-0.251],[-0.005,0.102,0.001,0.004,0.003,0.327,0.095],[-0.164,0.261,-0.001,-0.004,-0.001,0.206,0.035],[0.341,0.229,0.0,0.0,0.004,0.364,0.172],[0.252,0.248,-0.0,-0.001,0.013,0.485,0.113],[0.512,-0.181,0.001,-0.0,0.006,0.524,0.263],[0.119,0.271,0.0,-0.0,0.005,0.452,0.224],[0.489,-0.284,-0.0,0.0,0.006,0.551,0.258],[0.399,0.058,0.0,0.001,0.005,0.436,0.227]],"b":[0.313,0.667,0.275,0.449,-0.037,-0.046,-0.057,-0.042,-0.01,-0.067]},{"w":[[0.08,0.656,0.003,0.002,-0.003,-0.261,0.002,0.027],[0.488,0.376,0.0,-0.005,-0.006,-0.356,-0.204,-0.211],[-0.049,0.096,0.001,0.004,0.002,0.279,0.07,0.11],[-0.244,0.25,-0.001,-0.004,-0.002,0.118,-0.01,0.202],[0.269,0.219,-0.0,0.0,0.003,0.285,0.131,0.182],[0.204,0.241,-0.0,-0.001,0.012,0.431,0.085,0.122],[0.404,-0.196,0.0,-0.0,0.004,0.405,0.201,0.271],[0.032,0.259,-0.0,-0.0,0.004,0.358,0.174,0.217],[0.39,-0.298,-0.0,-0.0,0.005,0.442,0.202,0.248]],"b":[0.315,0.653,0.282,0.463,-0.025,-0.037,-0.039,-0.028,0.007]},{"w":[[0.047,0.683,0.003,0.002,-0.003,-0.299,-0.015,0.09],[0.512,0.301,0.0,-0.006,-0.006,-0.326,-0.194,-0.222],[-0.146,0.184,0.001,0.004,0.001,0.168,0.021,0.288],[-0.157,0.257,-0.001,-0.004,-0.001,0.214,0.039,-0.014],[0.269,0.271,0.0,0.0,0.003,0.283,0.134,0.148],[0.205,0.276,-0.0,-0.001,0.012,0.432,0.088,0.096],[0.414,-0.123,0.001,-0.0,0.005,0.413,0.211,0.201],[0.033,0.321,0.0,-0.0,0.004,0.356,0.179,0.175],[0.317,0.106,0.0,0.001,0.004,0.344,0.184,0.167]],"b":[0.314,0.665,0.277,0.449,-0.036,-0.045,-0.055,-0.041,-0.066]},{"w":[[0.045,0.682,0.003,0.002,-0.003,-0.301,-0.016,0.089,0.004],[0.564,0.318,0.0,-0.005,-0.005,-0.27,-0.164,-0.194,-0.162],[-0.158,0.18,0.001,0.004,0.001,0.154,0.013,0.281,0.04],[-0.225,0.235,-0.001,-0.004,-0.002,0.14,-0.0,-0.049,0.214],[0.221,0.255,-0.0,0.0,0.002,0.231,0.106,0.122,0.151],[0.173,0.265,-0.0,-0.001,0.012,0.396,0.069,0.079,0.103],[0.34,-0.148,0.0,-0.0,0.004,0.333,0.168,0.163,0.231],[-0.024,0.302,0.0,-0.0,0.003,0.294,0.145,0.145,0.181]],"b":[0.314,0.654,0.28,0.463,-0.026,-0.038,-0.04,-0.029]},{"w":[[0.1,0.679,0.003,0.002,-0.002,-0.214,0.026,-0.08],[0.434,0.431,0.0,-0.006,-0.006,-0.336,-0.196,-0.247],[-0.026,0.055,0.001,0.004,0.002,0.247,0.055,0.176],[-0.162,0.266,-0.001,-0.004,-0.001,0.214,0.039,-0.017],[0.32,0.18,0.0,0.0,0.003,0.282,0.131,0.181],[0.239,0.218,-0.0,-0.001,0.012,0.434,0.088,0.112],[0.485,-0.243,0.001,-0.0,0.005,0.42,0.211,0.229],[0.459,-0.353,-0.0,0.0,0.005,0.436,0.201,0.253],[0.374,0.001,0.0,0.001,0.004,0.34,0.179,0.211]],"b":[0.31,0.657,0.282,0.448,-0.029,-0.041,-0.047,0.001,-0.058]},{"w":[[0.083,0.679,0.003,0.001,-0.003,-0.229,0.018,-0.09,0.046],[0.495,0.431,0.0,-0.005,-0.006,-0.28,-0.166,-0.213,-0.164],[-0.054,0.055,0.001,0.004,0.002,0.221,0.042,0.16,0.076],[-0.242,0.266,-0.001,-0.004,-0.002,0.141,0.001,-0.062,0.215],[0.264,0.18,-0.0,0.0,0.002,0.231,0.105,0.149,0.149],[0.201,0.218,-0.0,-0.001,0.012,0.399,0.069,0.091,0.103],[0.398,-0.243,0.0,-0.0,0.004,0.341,0.17,0.18,0.232],[0.383,-0.353,-0.0,-0.0,0.004,0.367,0.165,0.211,0.203]],"b":[0.312,0.647,0.286,0.461,-0.021,-0.035,-0.034,0.013]},{"w":[[0.05,0.718,0.003,0.002,-0.003,-0.261,0.004,-0.108,0.109],[0.519,0.365,0.0,-0.006,-0.005,-0.254,-0.158,-0.2,-0.186],[-0.149,0.15,0.001,0.004,0.001,0.13,0.001,0.108,0.269],[-0.157,0.262,-0.001,-0.004,-0.001,0.219,0.041,-0.014,-0.011],[0.264,0.223,0.0,0.0,0.002,0.229,0.107,0.15,0.121],[0.202,0.246,-0.0,-0.001,0.012,0.399,0.072,0.092,0.08],[0.407,-0.183,0.001,-0.0,0.004,0.346,0.177,0.186,0.169],[0.311,0.049,0.0,0.001,0.003,0.281,0.152,0.177,0.136]],"b":[0.31,0.657,0.282,0.448,-0.029,-0.041,-0.047,-0.059]},{"w":[[0.043,0.716,0.003,0.002,-0.003,-0.268,0.0,-0.112,0.106,0.025],[0.56,0.372,0.0,-0.005,-0.005,-0.218,-0.139,-0.177,-0.169,-0.13],[-0.156,0.149,0.001,0.004,0.001,0.124,-0.002,0.104,0.266,0.022],[-0.226,0.251,-0.001,-0.004,-0.002,0.156,0.007,-0.054,-0.042,0.224],[0.224,0.217,-0.0,0.0,0.002,0.193,0.087,0.127,0.104,0.128],[0.175,0.242,-0.0,-0.001,0.012,0.374,0.058,0.076,0.068,0.089],[0.344,-0.193,0.0,-0.0,0.003,0.289,0.146,0.15,0.141,0.204]],"b":[0.311,0.649,0.283,0.461,-0.022,-0.036,-0.035]},{"w":[[0.051,0.67,0.003,0.002,-0.003,-0.299,0.075],[0.565,0.284,0.0,-0.006,-0.007,-0.404,-0.342],[-0.051,0.128,0.001,0.004,0.003,0.331,0.101],[-0.188,0.273,-0.001,-0.004,-0.001,0.198,0.051],[0.251,0.278,-0.0,0.001,0.003,0.361,0.198],[0.194,0.28,-0.0,-0.0,0.013,0.485,0.127],[-0.089,0.161,0.0,0.001,0.005,0.593,0.333],[0.019,0.33,-0.0,0.0,0.005,0.473,0.225],[0.364,-0.214,-0.0,0.0,0.006,0.561,0.277],[0.286,0.121,0.0,0.001,0.005,0.441,0.249]],"b":[0.318,0.653,0.278,0.451,-0.03,-0.041,-0.01,-0.035,-0.0,-0.058]},{"w":[[0.051,0.67,0.003,0.002,-0.003,-0.299,0.075,0.001],[0.619,0.307,0.0,-0.006,-0.006,-0.32,-0.295,-0.189],[-0.083,0.115,0.001,0.004,0.002,0.281,0.073,0.113],[-0.244,0.249,-0.001,-0.004,-0.002,0.111,0.002,0.197],[0.199,0.256,-0.0,0.0,0.003,0.281,0.153,0.181],[0.159,0.265,-0.0,-0.001,0.012,0.431,0.097,0.123],[-0.18,0.122,-0.0,0.001,0.004,0.452,0.254,0.32],[-0.047,0.302,-0.0,-0.0,0.004,0.372,0.168,0.229],[0.291,-0.244,-0.0,0.0,0.005,0.449,0.213,0.256]],"b":[0.318,0.642,0.285,0.463,-0.019,-0.034,0.009,-0.022,0.015]},{"w":[[0.026,0.685,0.003,0.001,-0.004,-0.339,0.056,0.07],[0.64,0.24,0.0,-0.006,-0.006,-0.288,-0.285,-0.207],[-0.156,0.19,0.001,0.004,0.001,0.169,0.021,0.289],[-0.182,0.269,-0.001,-0.004,-0.001,0.207,0.055,-0.016],[0.197,0.31,-0.0,0.001,0.003,0.278,0.157,0.148],[0.159,0.301,-0.0,-0.0,0.012,0.43,0.1,0.097],[-0.179,0.213,0.0,0.001,0.004,0.454,0.265,0.246],[-0.049,0.369,0.0,0.0,0.004,0.369,0.174,0.185],[0.224,0.157,0.0,0.001,0.004,0.345,0.201,0.171]],"b":[0.318,0.653,0.278,0.451,-0.03,-0.041,-0.01,-0.035,-0.058]},{"w":[[0.03,0.687,0.003,0.002,-0.004,-0.332,0.059,0.073,-0.018],[0.672,0.263,0.0,-0.006,-0.005,-0.239,-0.257,-0.182,-0.143],[-0.165,0.184,0.001,0.004,0.001,0.155,0.013,0.282,0.041],[-0.229,0.236,-0.001,-0.004,-0.002,0.135,0.013,-0.052,0.21],[0.163,0.286,-0.0,0.0,0.002,0.226,0.127,0.122,0.15],[0.136,0.285,-0.0,-0.001,0.012,0.395,0.08,0.08,0.103],[-0.239,0.171,-0.0,0.001,0.003,0.362,0.211,0.2,0.268],[-0.091,0.34,-0.0,-0.0,0.003,0.303,0.135,0.153,0.19]],"b":[0.317,0.645,0.281,0.463,-0.021,-0.035,0.006,-0.024]},{"w":[[0.053,0.703,0.003,0.002,-0.003,-0.252,0.098,-0.1],[0.569,0.362,0.0,-0.006,-0.006,-0.293,-0.29,-0.234],[-0.054,0.069,0.001,0.004,0.002,0.247,0.061,0.179],[-0.187,0.279,-0.001,-0.004,-0.001,0.207,0.055,-0.018],[0.247,0.218,-0.0,0.001,0.003,0.274,0.157,0.183],[0.192,0.242,-0.0,-0.0,0.012,0.43,0.101,0.115],[-0.095,0.057,0.0,0.001,0.004,0.445,0.263,0.313],[0.359,-0.301,-0.0,0.0,0.005,0.436,0.217,0.265],[0.282,0.048,0.0,0.001,0.004,0.337,0.199,0.22]],"b":[0.314,0.645,0.284,0.45,-0.023,-0.037,0.001,0.009,-0.051]},{"w":[[0.046,0.702,0.003,0.002,-0.003,-0.26,0.093,-0.106,0.025],[0.61,0.368,0.0,-0.006,-0.005,-0.245,-0.261,-0.203,-0.143],[-0.075,0.066,0.001,0.004,0.002,0.221,0.046,0.162,0.076],[-0.247,0.269,-0.001,-0.004,-0.002,0.135,0.013,-0.065,0.212],[0.206,0.211,-0.0,0.0,0.002,0.225,0.128,0.151,0.146],[0.164,0.237,-0.0,-0.001,0.012,0.396,0.081,0.093,0.102],[-0.168,0.045,-0.0,0.001,0.003,0.357,0.211,0.255,0.261],[0.301,-0.311,-0.0,0.0,0.004,0.367,0.176,0.22,0.205]],"b":[0.315,0.637,0.288,0.461,-0.016,-0.032,0.014,0.019]},{"w":[[0.019,0.731,0.003,0.002,-0.003,-0.292,0.077,-0.125,0.094],[0.631,0.31,0.0,-0.006,-0.005,-0.218,-0.253,-0.189,-0.172],[-0.15,0.15,0.001,0.004,0.001,0.129,0.003,0.107,0.269],[-0.183,0.275,-0.001,-0.004,-0.001,0.213,0.058,-0.015,-0.013],[0.204,0.254,-0.0,0.001,0.002,0.222,0.131,0.152,0.12],[0.164,0.266,-0.0,-0.0,0.012,0.396,0.084,0.094,0.08],[-0.166,0.117,0.0,0.001,0.003,0.358,0.22,0.26,0.198],[0.232,0.09,0.0,0.001,0.003,0.277,0.169,0.184,0.137]],"b":[0.313,0.646,0.282,0.451,-0.024,-0.038,-0.001,-0.052]},{"w":[[0.018,0.73,0.003,0.002,-0.003,-0.294,0.076,-0.126,0.093,0.006],[0.657,0.32,0.0,-0.006,-0.005,-0.188,-0.234,-0.168,-0.156,-0.111],[-0.155,0.148,0.001,0.004,0.001,0.123,-0.001,0.104,0.266,0.021],[-0.234,0.255,-0.001,-0.004,-0.002,0.151,0.02,-0.055,-0.044,0.221],[0.175,0.243,-0.0,0.0,0.002,0.187,0.11,0.129,0.103,0.125],[0.143,0.258,-0.0,-0.001,0.012,0.371,0.069,0.078,0.068,0.088],[-0.219,0.097,-0.0,0.001,0.002,0.295,0.182,0.219,0.167,0.227]],"b":[0.314,0.641,0.283,0.462,-0.018,-0.033,0.011]},{"w":[[0.05,0.672,0.003,0.002,-0.003,-0.291,0.079,-0.013],[0.549,0.313,0.0,-0.006,-0.006,-0.299,-0.284,-0.177],[-0.044,0.116,0.001,0.004,0.003,0.287,0.076,0.075],[-0.186,0.269,-0.001,-0.004,-0.001,0.184,0.043,0.024],[0.262,0.257,-0.0,0.0,0.003,0.283,0.155,0.131],[0.202,0.266,-0.0,-0.001,0.012,0.433,0.098,0.087],[0.035,0.301,-0.0,-0.0,0.004,0.366,0.165,0.18],[0.382,-0.246,-0.0,0.0,0.005,0.441,0.209,0.203],[0.302,0.092,0.0,0.001,0.004,0.336,0.19,0.177]],"b":[0.318,0.651,0.279,0.451,-0.028,-0.04,-0.033,0.002,-0.057]},{"w":[[0.048,0.671,0.003,0.002,-0.003,-0.293,0.078,-0.014,0.005],[0.592,0.326,0.0,-0.005,-0.005,-0.252,-0.257,-0.152,-0.141],[-0.072,0.108,0.001,0.004,0.002,0.255,0.059,0.058,0.094],[-0.246,0.25,-0.001,-0.004,-0.002,0.116,0.005,-0.011,0.201],[0.218,0.244,-0.0,0.0,0.002,0.233,0.127,0.105,0.147],[0.172,0.257,-0.0,-0.001,0.012,0.399,0.079,0.069,0.101],[-0.02,0.284,-0.0,-0.0,0.003,0.305,0.13,0.148,0.182],[0.321,-0.265,-0.0,-0.0,0.004,0.373,0.171,0.167,0.202]],"b":[0.318,0.643,0.284,0.463,-0.02,-0.034,-0.023,0.013]},{"w":[[0.02,0.691,0.003,0.002,-0.004,-0.326,0.063,-0.029,0.077],[0.615,0.27,0.0,-0.006,-0.005,-0.223,-0.248,-0.142,-0.172],[-0.153,0.186,0.001,0.004,0.001,0.161,0.017,0.017,0.285],[-0.177,0.263,-0.001,-0.004,-0.001,0.194,0.047,0.029,-0.023],[0.216,0.287,-0.0,0.0,0.002,0.229,0.129,0.107,0.122],[0.172,0.286,-0.0,-0.001,0.012,0.398,0.081,0.071,0.08],[-0.022,0.337,0.0,-0.0,0.003,0.301,0.134,0.15,0.148],[0.25,0.126,0.0,0.001,0.003,0.277,0.161,0.15,0.135]],"b":[0.317,0.651,0.278,0.451,-0.028,-0.04,-0.033,-0.057]},{"w":[[0.023,0.692,0.003,0.002,-0.004,-0.323,0.065,-0.027,0.079,-0.011],[0.642,0.284,0.0,-0.005,-0.005,-0.193,-0.23,-0.126,-0.157,-0.109],[-0.162,0.182,0.001,0.004,0.001,0.151,0.011,0.011,0.28,0.038],[-0.23,0.237,-0.001,-0.004,-0.002,0.136,0.013,-0.003,-0.052,0.211],[0.184,0.271,-0.0,0.0,0.002,0.194,0.109,0.088,0.105,0.126],[0.15,0.275,-0.0,-0.001,0.012,0.374,0.067,0.058,0.068,0.087],[-0.061,0.318,-0.0,-0.0,0.002,0.257,0.108,0.127,0.127,0.156]],"b":[0.317,0.645,0.281,0.463,-0.021,-0.035,-0.025]},{"w":[[0.054,0.702,0.003,0.002,-0.003,-0.254,0.096,0.005,-0.102],[0.556,0.37,0.0,-0.006,-0.005,-0.23,-0.252,-0.143,-0.19],[-0.05,0.067,0.001,0.004,0.002,0.226,0.049,0.045,0.165],[-0.185,0.277,-0.001,-0.004,-0.001,0.194,0.047,0.029,-0.028],[0.257,0.212,-0.0,0.001,0.002,0.228,0.13,0.104,0.151],[0.199,0.238,-0.0,-0.001,0.012,0.399,0.083,0.07,0.093],[0.375,-0.31,-0.0,0.0,0.004,0.363,0.174,0.164,0.214],[0.296,0.04,0.0,0.001,0.003,0.273,0.161,0.145,0.174]],"b":[0.314,0.645,0.284,0.45,-0.023,-0.037,0.009,-0.051]},{"w":[[0.046,0.701,0.003,0.002,-0.003,-0.261,0.092,0.002,-0.106,0.025],[0.588,0.374,0.0,-0.006,-0.005,-0.2,-0.235,-0.127,-0.17,-0.11],[-0.069,0.064,0.001,0.004,0.002,0.208,0.039,0.035,0.153,0.067],[-0.248,0.269,-0.001,-0.004,-0.002,0.136,0.013,-0.002,-0.065,0.212],[0.22,0.207,-0.0,0.0,0.002,0.194,0.11,0.086,0.129,0.124],[0.173,0.235,-0.0,-0.001,0.012,0.376,0.069,0.058,0.078,0.087],[0.325,-0.317,-0.0,0.0,0.003,0.317,0.147,0.14,0.184,0.169]],"b":[0.315,0.639,0.288,0.461,-0.017,-0.033,0.017]},{"w":[[0.018,0.732,0.003,0.002,-0.003,-0.289,0.08,-0.01,-0.123,0.096],[0.611,0.324,0.0,-0.006,-0.004,-0.176,-0.226,-0.118,-0.158,-0.148],[-0.15,0.15,0.001,0.004,0.001,0.129,0.003,0.001,0.107,0.269],[-0.177,0.271,-0.001,-0.004,-0.001,0.201,0.051,0.032,-0.023,-0.02],[0.219,0.244,-0.0,0.0,0.002,0.19,0.112,0.087,0.129,0.103],[0.173,0.259,-0.0,-0.001,0.012,0.374,0.071,0.059,0.079,0.068],[0.254,0.075,0.0,0.001,0.003,0.232,0.141,0.127,0.15,0.112]],"b":[0.313,0.646,0.282,0.451,-0.024,-0.038,-0.052]},{"w":[[0.016,0.731,0.003,0.002,-0.003,-0.291,0.078,-0.011,-0.124,0.095,0.009],[0.633,0.33,0.0,-0.006,-0.004,-0.156,-0.214,-0.107,-0.145,-0.139,-0.086],[-0.156,0.149,0.001,0.004,0.001,0.124,-0.001,-0.002,0.104,0.266,0.022],[-0.233,0.255,-0.001,-0.004,-0.002,0.15,0.02,0.005,-0.056,-0.044,0.22],[0.191,0.236,-0.0,0.0,0.002,0.165,0.096,0.073,0.113,0.09,0.109],[0.154,0.254,-0.0,-0.001,0.011,0.357,0.06,0.049,0.067,0.06,0.077]],"b":[0.314,0.642,0.283,0.462,-0.019,-0.034]},{"w":[[0.053,0.62,0.003,0.002,-0.005,-0.327,0.145],[0.548,0.501,0.0,-0.006,-0.001,-0.292,-0.633],[-0.088,0.022,0.001,0.004,-0.001,0.205,0.348],[-0.234,0.192,-0.001,-0.004,-0.005,0.074,0.28],[0.259,0.151,0.0,0.001,-0.0,0.293,0.372],[0.398,-0.288,0.001,0.0,0.001,0.441,0.524],[-0.066,-0.044,0.0,0.001,0.0,0.498,0.591],[0.025,0.182,0.0,0.0,0.0,0.388,0.435],[0.373,-0.393,0.0,0.001,0.001,0.461,0.528],[0.3,-0.036,0.001,0.001,0.0,0.362,0.455]],"b":[0.32,0.644,0.289,0.462,-0.024,-0.039,-0.003,-0.028,0.008,-0.052]},{"w":[[0.052,0.62,0.003,0.002,-0.005,-0.329,0.143,0.005],[0.61,0.494,0.0,-0.006,-0.001,-0.216,-0.538,-0.209],[-0.115,0.025,0.001,0.004,-0.001,0.172,0.307,0.091],[-0.284,0.198,-0.001,-0.004,-0.005,0.014,0.205,0.166],[0.202,0.158,0.0,0.001,-0.0,0.224,0.285,0.19],[0.31,-0.278,0.001,0.0,0.001,0.335,0.391,0.292],[-0.168,-0.032,0.0,0.001,-0.0,0.375,0.435,0.341],[-0.046,0.191,0.0,0.0,0.0,0.302,0.327,0.237],[0.293,-0.384,-0.0,0.0,0.001,0.364,0.407,0.267]],"b":[0.32,0.633,0.293,0.47,-0.014,-0.024,0.015,-0.016,0.022]},{"w":[[0.026,0.649,0.003,0.002,-0.005,-0.361,0.107,0.072],[0.629,0.415,0.0,-0.006,-0.001,-0.191,-0.517,-0.219],[-0.188,0.128,0.001,0.004,-0.001,0.081,0.206,0.269],[-0.22,0.177,-0.001,-0.004,-0.005,0.092,0.3,-0.039],[0.202,0.212,0.0,0.001,-0.0,0.222,0.29,0.154],[0.317,-0.203,0.001,0.0,0.001,0.34,0.409,0.217],[-0.163,0.059,0.0,0.001,-0.0,0.378,0.453,0.261],[-0.046,0.257,0.0,0.0,0.0,0.3,0.335,0.19],[0.232,0.035,0.0,0.001,0.0,0.279,0.36,0.181]],"b":[0.319,0.646,0.287,0.462,-0.025,-0.041,-0.005,-0.03,-0.054]},{"w":[[0.03,0.649,0.003,0.002,-0.005,-0.356,0.113,0.075,-0.015],[0.666,0.421,0.0,-0.006,-0.001,-0.147,-0.46,-0.19,-0.159],[-0.193,0.127,0.001,0.004,-0.001,0.075,0.199,0.265,0.02],[-0.263,0.17,-0.001,-0.004,-0.005,0.04,0.234,-0.072,0.185],[0.165,0.206,0.0,0.001,-0.0,0.178,0.234,0.126,0.157],[0.26,-0.212,0.001,0.0,0.0,0.272,0.321,0.173,0.246],[-0.229,0.049,0.0,0.001,-0.0,0.298,0.35,0.209,0.285],[-0.092,0.25,0.0,0.0,0.0,0.246,0.264,0.155,0.196]],"b":[0.319,0.637,0.288,0.472,-0.017,-0.028,0.011,-0.019]},{"w":[[0.056,0.638,0.003,0.002,-0.005,-0.29,0.188,-0.097],[0.554,0.546,0.0,-0.006,-0.001,-0.196,-0.525,-0.248],[-0.092,-0.007,0.001,0.004,-0.001,0.144,0.28,0.157],[-0.233,0.2,-0.001,-0.004,-0.005,0.091,0.3,-0.045],[0.254,0.117,0.0,0.001,-0.0,0.219,0.289,0.19],[0.392,-0.334,0.001,0.0,0.001,0.343,0.415,0.252],[-0.074,-0.104,0.0,0.001,-0.0,0.371,0.447,0.329],[0.367,-0.443,0.0,0.001,0.001,0.355,0.41,0.273],[0.294,-0.078,0.0,0.001,0.0,0.273,0.355,0.23]],"b":[0.317,0.637,0.293,0.46,-0.019,-0.032,0.007,0.015,-0.046]},{"w":[[0.047,0.64,0.003,0.002,-0.005,-0.298,0.177,-0.104,0.03],[0.601,0.534,0.0,-0.006,-0.001,-0.152,-0.469,-0.211,-0.159],[-0.108,-0.002,0.001,0.004,-0.001,0.128,0.26,0.144,0.057],[-0.288,0.215,-0.001,-0.004,-0.005,0.04,0.233,-0.088,0.186],[0.209,0.129,0.0,0.001,-0.0,0.177,0.234,0.155,0.154],[0.319,-0.315,0.001,0.0,0.001,0.276,0.327,0.195,0.246],[-0.155,-0.082,0.0,0.001,-0.0,0.295,0.349,0.265,0.278],[0.304,-0.426,-0.0,0.0,0.001,0.297,0.334,0.223,0.214]],"b":[0.319,0.63,0.296,0.469,-0.012,-0.021,0.019,0.025]},{"w":[[0.021,0.68,0.003,0.002,-0.005,-0.324,0.149,-0.124,0.095],[0.62,0.466,0.0,-0.006,-0.001,-0.132,-0.451,-0.198,-0.181],[-0.184,0.105,0.001,0.004,-0.001,0.054,0.177,0.088,0.252],[-0.221,0.186,-0.001,-0.004,-0.005,0.103,0.313,-0.037,-0.032],[0.209,0.172,0.0,0.001,-0.0,0.175,0.238,0.156,0.124],[0.326,-0.255,0.001,0.0,0.001,0.279,0.341,0.203,0.179],[-0.15,-0.011,0.0,0.001,-0.0,0.296,0.362,0.272,0.209],[0.241,-0.014,0.0,0.001,0.0,0.222,0.296,0.191,0.144]],"b":[0.316,0.64,0.289,0.461,-0.021,-0.035,0.003,-0.048]},{"w":[[0.018,0.68,0.003,0.002,-0.005,-0.326,0.146,-0.125,0.094,0.009],[0.65,0.464,0.0,-0.006,-0.0,-0.104,-0.414,-0.174,-0.163,-0.124],[-0.185,0.105,0.001,0.004,-0.001,0.054,0.176,0.087,0.252,0.003],[-0.269,0.189,-0.001,-0.004,-0.005,0.058,0.254,-0.075,-0.06,0.199],[0.177,0.174,0.0,0.001,-0.0,0.146,0.199,0.131,0.105,0.131],[0.275,-0.252,0.001,0.0,0.0,0.232,0.278,0.162,0.148,0.214],[-0.208,-0.008,0.0,0.001,-0.0,0.243,0.29,0.226,0.174,0.241]],"b":[0.316,0.634,0.289,0.47,-0.014,-0.025,0.015]},{"w":[[0.053,0.62,0.003,0.002,-0.005,-0.323,0.151,-0.009],[0.535,0.493,0.0,-0.006,-0.001,-0.196,-0.519,-0.193],[-0.084,0.025,0.001,0.004,-0.001,0.175,0.313,0.059],[-0.234,0.192,-0.001,-0.004,-0.005,0.072,0.277,0.004],[0.268,0.157,0.0,0.001,-0.0,0.224,0.289,0.139],[0.412,-0.279,0.001,0.0,0.001,0.332,0.395,0.218],[0.037,0.191,0.0,0.0,0.0,0.295,0.325,0.187],[0.387,-0.384,0.0,0.0,0.001,0.355,0.403,0.212],[0.312,-0.027,0.0,0.001,0.0,0.269,0.344,0.188]],"b":[0.32,0.644,0.289,0.462,-0.024,-0.039,-0.028,0.008,-0.052]},{"w":[[0.05,0.62,0.003,0.002,-0.005,-0.325,0.148,-0.011,0.008],[0.583,0.489,0.0,-0.006,-0.001,-0.155,-0.466,-0.164,-0.153],[-0.107,0.027,0.001,0.004,-0.001,0.155,0.287,0.045,0.075],[-0.289,0.197,-0.001,-0.004,-0.005,0.025,0.217,-0.029,0.175],[0.221,0.162,0.0,0.0,-0.0,0.182,0.237,0.11,0.153],[0.34,-0.272,0.001,-0.0,0.001,0.269,0.315,0.174,0.233],[-0.021,0.196,0.0,-0.0,0.0,0.245,0.261,0.152,0.185],[0.322,-0.378,-0.0,0.0,0.001,0.299,0.331,0.173,0.208]],"b":[0.32,0.636,0.293,0.471,-0.016,-0.027,-0.018,0.019]},{"w":[[0.022,0.65,0.003,0.002,-0.005,-0.351,0.119,-0.026,0.079],[0.604,0.424,0.0,-0.006,-0.001,-0.133,-0.447,-0.155,-0.178],[-0.188,0.128,0.001,0.004,-0.001,0.08,0.205,0.002,0.268],[-0.218,0.176,-0.001,-0.004,-0.005,0.087,0.294,0.013,-0.042],[0.22,0.205,0.0,0.001,-0.0,0.179,0.239,0.113,0.125],[0.346,-0.214,0.001,0.0,0.001,0.272,0.327,0.182,0.17],[-0.021,0.248,0.0,0.0,0.0,0.242,0.264,0.155,0.15],[0.258,0.026,0.0,0.001,0.0,0.219,0.288,0.158,0.139]],"b":[0.319,0.645,0.287,0.462,-0.025,-0.04,-0.029,-0.053]},{"w":[[0.024,0.65,0.003,0.002,-0.005,-0.349,0.121,-0.025,0.08,-0.008],[0.635,0.427,0.0,-0.006,-0.001,-0.106,-0.413,-0.136,-0.162,-0.12],[-0.193,0.127,0.001,0.004,-0.001,0.075,0.199,-0.001,0.266,0.02],[-0.267,0.171,-0.001,-0.004,-0.005,0.045,0.24,-0.017,-0.068,0.19],[0.186,0.202,0.0,0.0,-0.0,0.151,0.202,0.092,0.106,0.131],[0.294,-0.219,0.001,-0.0,0.001,0.227,0.268,0.15,0.141,0.203],[-0.062,0.244,0.0,-0.0,0.0,0.207,0.219,0.13,0.128,0.159]],"b":[0.319,0.639,0.288,0.472,-0.018,-0.029,-0.021]},{"w":[[0.056,0.639,0.003,0.002,-0.005,-0.293,0.183,0.01,-0.101],[0.542,0.53,0.0,-0.006,-0.001,-0.138,-0.455,-0.156,-0.196],[-0.089,-0.003,0.001,0.004,-0.001,0.132,0.266,0.032,0.146],[-0.232,0.202,-0.001,-0.004,-0.005,0.086,0.294,0.013,-0.05],[0.263,0.128,0.0,0.001,-0.0,0.178,0.24,0.11,0.154],[0.405,-0.315,0.001,0.0,0.001,0.275,0.333,0.182,0.192],[0.379,-0.425,-0.0,0.0,0.001,0.292,0.333,0.172,0.216],[0.305,-0.061,0.0,0.001,0.0,0.216,0.286,0.154,0.179]],"b":[0.317,0.638,0.293,0.46,-0.02,-0.033,0.014,-0.047]},{"w":[[0.048,0.641,0.003,0.002,-0.005,-0.299,0.175,0.005,-0.106,0.028],[0.579,0.523,0.0,-0.006,-0.001,-0.112,-0.421,-0.137,-0.175,-0.121],[-0.104,-0.0,0.001,0.004,-0.001,0.121,0.252,0.024,0.137,0.05],[-0.29,0.214,-0.001,-0.004,-0.005,0.045,0.239,-0.016,-0.084,0.191],[0.223,0.136,-0.0,0.0,-0.0,0.15,0.203,0.091,0.131,0.129],[0.343,-0.303,0.001,-0.0,0.001,0.231,0.275,0.151,0.155,0.204],[0.326,-0.415,-0.0,0.0,0.001,0.254,0.283,0.145,0.185,0.174]],"b":[0.318,0.632,0.295,0.469,-0.014,-0.024,0.022]},{"w":[[0.02,0.68,0.003,0.002,-0.005,-0.321,0.151,-0.007,-0.122,0.097],[0.601,0.465,0.0,-0.006,-0.001,-0.093,-0.404,-0.129,-0.163,-0.154],[-0.186,0.105,0.001,0.004,-0.001,0.058,0.181,-0.012,0.091,0.255],[-0.219,0.187,-0.001,-0.004,-0.005,0.097,0.305,0.02,-0.042,-0.036],[0.223,0.173,0.0,0.001,-0.0,0.148,0.205,0.092,0.131,0.105],[0.35,-0.253,0.001,0.0,0.001,0.233,0.285,0.157,0.16,0.146],[0.261,-0.012,0.0,0.001,0.0,0.182,0.247,0.134,0.154,0.116]],"b":[0.316,0.64,0.289,0.461,-0.021,-0.036,-0.048]},{"w":[[0.017,0.68,0.003,0.002,-0.005,-0.324,0.148,-0.009,-0.123,0.096,0.011],[0.626,0.464,0.0,-0.006,-0.001,-0.076,-0.38,-0.116,-0.148,-0.143,-0.096],[-0.187,0.105,0.001,0.004,-0.001,0.057,0.18,-0.012,0.09,0.254,0.006],[-0.271,0.189,-0.001,-0.004,-0.005,0.06,0.256,-0.007,-0.073,-0.059,0.201],[0.193,0.174,0.0,0.0,-0.0,0.127,0.177,0.077,0.114,0.092,0.113],[0.302,-0.251,0.001,-0.0,0.0,0.2,0.24,0.132,0.132,0.125,0.182]],"b":[0.316,0.636,0.29,0.471,-0.016,-0.027]},{"w":[[0.029,0.638,0.003,0.002,-0.005,-0.354,0.114,0.061],[0.659,0.42,0.0,-0.006,-0.001,-0.168,-0.486,-0.281],[-0.112,0.04,0.001,0.004,-0.001,0.178,0.316,0.061],[-0.241,0.197,-0.001,-0.004,-0.005,0.067,0.271,0.016],[0.195,0.198,0.0,0.001,-0.0,0.222,0.287,0.162],[-0.176,0.036,0.0,0.001,-0.0,0.376,0.446,0.277],[-0.047,0.235,0.0,0.0,0.0,0.308,0.34,0.182],[0.284,-0.329,-0.0,0.001,0.001,0.362,0.411,0.225],[0.218,0.023,0.0,0.001,0.0,0.272,0.348,0.204]],"b":[0.322,0.633,0.291,0.462,-0.018,0.008,-0.021,0.017,-0.044]},{"w":[[0.032,0.638,0.003,0.002,-0.005,-0.35,0.118,0.063,-0.014],[0.689,0.423,0.0,-0.006,-0.0,-0.131,-0.439,-0.253,-0.135],[-0.129,0.038,0.001,0.004,-0.001,0.157,0.289,0.045,0.077],[-0.278,0.193,-0.001,-0.004,-0.005,0.02,0.212,-0.019,0.171],[0.162,0.194,-0.0,0.001,-0.0,0.18,0.234,0.131,0.152],[-0.236,0.029,0.0,0.001,-0.0,0.301,0.349,0.22,0.277],[-0.09,0.23,-0.0,0.0,0.0,0.255,0.272,0.142,0.196],[0.237,-0.334,-0.0,0.0,0.0,0.304,0.336,0.181,0.214]],"b":[0.322,0.627,0.295,0.47,-0.011,0.02,-0.012,0.026]},{"w":[[0.012,0.658,0.003,0.002,-0.005,-0.377,0.088,0.047,0.062],[0.707,0.366,0.0,-0.006,-0.0,-0.108,-0.418,-0.243,-0.166],[-0.188,0.128,0.001,0.004,-0.001,0.08,0.206,0.001,0.269],[-0.228,0.182,-0.001,-0.004,-0.005,0.083,0.29,0.026,-0.044],[0.159,0.239,0.0,0.001,-0.0,0.176,0.236,0.134,0.125],[-0.236,0.105,0.0,0.001,-0.0,0.3,0.359,0.229,0.211],[-0.093,0.287,0.0,0.0,0.0,0.251,0.275,0.146,0.159],[0.178,0.07,0.0,0.001,0.0,0.221,0.289,0.172,0.143]],"b":[0.321,0.636,0.287,0.463,-0.02,0.005,-0.024,-0.047]},{"w":[[0.016,0.66,0.003,0.002,-0.005,-0.37,0.096,0.052,0.066,-0.028],[0.725,0.373,0.0,-0.006,-0.0,-0.086,-0.388,-0.226,-0.151,-0.103],[-0.192,0.127,0.001,0.004,-0.001,0.076,0.2,-0.003,0.266,0.02],[-0.261,0.169,-0.001,-0.004,-0.005,0.042,0.236,-0.006,-0.071,0.186],[0.136,0.23,-0.0,0.001,-0.0,0.148,0.198,0.111,0.106,0.129],[-0.278,0.088,0.0,0.001,-0.0,0.247,0.29,0.188,0.177,0.239],[-0.122,0.275,0.0,0.0,0.0,0.214,0.227,0.117,0.135,0.167]],"b":[0.32,0.631,0.288,0.472,-0.014,0.016,-0.016]},{"w":[[0.023,0.666,0.003,0.002,-0.005,-0.318,0.154,0.082,-0.118],[0.651,0.464,0.0,-0.006,-0.0,-0.111,-0.423,-0.247,-0.185],[-0.105,0.005,0.001,0.004,-0.001,0.132,0.266,0.034,0.148],[-0.243,0.209,-0.001,-0.004,-0.005,0.083,0.289,0.026,-0.052],[0.202,0.161,-0.0,0.001,-0.0,0.173,0.234,0.133,0.157],[-0.163,-0.028,0.0,0.001,-0.0,0.293,0.353,0.227,0.272],[0.295,-0.382,-0.0,0.0,0.0,0.292,0.334,0.183,0.227],[0.227,-0.021,0.0,0.001,0.0,0.215,0.284,0.17,0.187]],"b":[0.32,0.629,0.294,0.461,-0.015,0.014,0.021,-0.04]},{"w":[[0.021,0.666,0.003,0.002,-0.005,-0.32,0.151,0.08,-0.12,0.01],[0.674,0.462,0.0,-0.006,-0.0,-0.089,-0.393,-0.229,-0.166,-0.103],[-0.116,0.006,0.001,0.004,-0.001,0.121,0.252,0.026,0.139,0.05],[-0.286,0.213,-0.001,-0.004,-0.005,0.042,0.236,-0.006,-0.087,0.188],[0.174,0.164,-0.0,0.001,-0.0,0.146,0.198,0.112,0.133,0.126],[-0.215,-0.023,0.0,0.001,-0.0,0.243,0.287,0.188,0.229,0.232],[0.255,-0.378,-0.0,0.0,0.0,0.255,0.284,0.153,0.194,0.176]],"b":[0.32,0.625,0.296,0.469,-0.009,0.023,0.028]},{"w":[[-0.001,0.697,0.003,0.002,-0.005,-0.342,0.126,0.067,-0.137,0.084],[0.692,0.41,0.0,-0.006,-0.0,-0.07,-0.375,-0.221,-0.153,-0.142],[-0.18,0.102,0.001,0.004,-0.001,0.058,0.181,-0.012,0.09,0.255],[-0.232,0.195,-0.001,-0.004,-0.005,0.093,0.301,0.032,-0.043,-0.037],[0.172,0.201,-0.0,0.001,-0.0,0.143,0.199,0.114,0.133,0.104],[-0.214,0.038,0.0,0.001,-0.0,0.242,0.295,0.195,0.233,0.174],[0.192,0.024,0.0,0.001,0.0,0.18,0.245,0.149,0.16,0.118]],"b":[0.318,0.632,0.289,0.462,-0.017,0.01,-0.043]},{"w":[[-0.0,0.698,0.003,0.002,-0.005,-0.341,0.127,0.068,-0.136,0.084,-0.005],[0.708,0.412,0.0,-0.006,-0.0,-0.055,-0.356,-0.209,-0.141,-0.132,-0.08],[-0.181,0.102,0.001,0.004,-0.001,0.057,0.18,-0.013,0.09,0.254,0.005],[-0.27,0.19,-0.001,-0.004,-0.005,0.058,0.253,0.003,-0.075,-0.061,0.199],[0.15,0.198,-0.0,0.001,-0.0,0.123,0.172,0.098,0.115,0.091,0.11],[-0.254,0.033,0.0,0.001,-0.0,0.205,0.245,0.165,0.2,0.15,0.205]],"b":[0.318,0.629,0.289,0.47,-0.012,0.019]},{"w":[[0.025,0.639,0.003,0.002,-0.005,-0.345,0.124,0.067,-0.024],[0.635,0.425,0.0,-0.006,-0.001,-0.116,-0.423,-0.242,-0.14],[-0.103,0.038,0.001,0.004,-0.001,0.159,0.294,0.048,0.049],[-0.24,0.197,-0.001,-0.004,-0.005,0.066,0.271,0.016,0.001],[0.214,0.194,-0.0,0.001,-0.0,0.18,0.238,0.131,0.111],[-0.02,0.229,0.0,0.0,0.0,0.249,0.27,0.138,0.157],[0.315,-0.335,-0.0,0.0,0.001,0.297,0.333,0.176,0.174],[0.245,0.018,0.0,0.001,0.0,0.215,0.28,0.162,0.152]],"b":[0.322,0.634,0.291,0.462,-0.019,-0.022,0.015,-0.045]},{"w":[[0.027,0.639,0.003,0.002,-0.005,-0.344,0.126,0.068,-0.023,-0.007],[0.66,0.427,0.0,-0.006,-0.001,-0.094,-0.395,-0.226,-0.125,-0.101],[-0.12,0.037,0.001,0.004,-0.001,0.145,0.276,0.037,0.039,0.067],[-0.284,0.194,-0.001,-0.004,-0.005,0.028,0.221,-0.013,-0.027,0.178],[0.183,0.192,-0.0,0.0,-0.0,0.153,0.202,0.111,0.091,0.127],[-0.059,0.226,-0.0,-0.0,0.0,0.215,0.225,0.112,0.133,0.159],[0.272,-0.338,-0.0,0.0,0.001,0.259,0.285,0.148,0.148,0.173]],"b":[0.322,0.63,0.294,0.47,-0.013,-0.015,0.023]},{"w":[[0.003,0.662,0.003,0.002,-0.005,-0.366,0.101,0.055,-0.036,0.069],[0.679,0.378,0.0,-0.006,-0.0,-0.074,-0.376,-0.217,-0.115,-0.142],[-0.188,0.128,0.001,0.004,-0.001,0.08,0.205,0.0,0.002,0.268],[-0.226,0.181,-0.001,-0.004,-0.005,0.08,0.286,0.024,0.009,-0.046],[0.181,0.229,-0.0,0.001,-0.0,0.149,0.202,0.113,0.092,0.106],[-0.061,0.273,0.0,0.0,0.0,0.21,0.227,0.115,0.134,0.13],[0.209,0.056,0.0,0.001,0.0,0.181,0.242,0.142,0.132,0.115]],"b":[0.321,0.636,0.287,0.463,-0.02,-0.024,-0.047]},{"w":[[0.007,0.663,0.003,0.002,-0.005,-0.362,0.106,0.058,-0.033,0.072,-0.02],[0.696,0.382,0.0,-0.006,-0.0,-0.06,-0.357,-0.206,-0.105,-0.133,-0.078],[-0.192,0.127,0.001,0.004,-0.001,0.076,0.2,-0.003,-0.0,0.266,0.021],[-0.266,0.171,-0.001,-0.004,-0.005,0.046,0.241,-0.003,-0.017,-0.068,0.19],[0.158,0.223,-0.0,0.0,-0.0,0.129,0.176,0.097,0.077,0.093,0.111],[-0.09,0.265,0.0,-0.0,0.0,0.185,0.193,0.095,0.116,0.114,0.139]],"b":[0.32,0.633,0.288,0.472,-0.015,-0.018]},{"w":[[0.023,0.665,0.003,0.002,-0.005,-0.316,0.156,0.083,-0.006,-0.117],[0.632,0.461,0.0,-0.006,-0.001,-0.077,-0.382,-0.221,-0.116,-0.154],[-0.101,0.006,0.001,0.004,-0.001,0.124,0.256,0.028,0.027,0.141],[-0.242,0.209,-0.001,-0.004,-0.005,0.08,0.286,0.024,0.009,-0.054],[0.217,0.164,-0.0,0.001,-0.0,0.147,0.202,0.113,0.09,0.132],[0.318,-0.378,-0.0,0.0,0.001,0.25,0.283,0.151,0.145,0.187],[0.248,-0.017,0.0,0.001,0.0,0.177,0.239,0.141,0.129,0.152]],"b":[0.32,0.631,0.294,0.461,-0.016,0.019,-0.042]},{"w":[[0.02,0.666,0.003,0.002,-0.005,-0.318,0.153,0.082,-0.007,-0.118,0.011],[0.651,0.459,0.0,-0.006,-0.0,-0.063,-0.363,-0.21,-0.106,-0.142,-0.078],[-0.112,0.006,0.001,0.004,-0.001,0.116,0.246,0.022,0.021,0.134,0.045],[-0.289,0.212,-0.001,-0.004,-0.005,0.046,0.24,-0.004,-0.015,-0.083,0.192],[0.19,0.166,-0.0,0.001,-0.0,0.128,0.176,0.098,0.076,0.116,0.109],[0.282,-0.375,-0.0,0.0,0.0,0.224,0.248,0.13,0.126,0.165,0.147]],"b":[0.32,0.627,0.296,0.469,-0.011,0.026]},{"w":[[-0.005,0.698,0.003,0.002,-0.005,-0.338,0.131,0.07,-0.018,-0.133,0.087],[0.671,0.414,0.0,-0.006,-0.0,-0.046,-0.347,-0.202,-0.098,-0.131,-0.125],[-0.182,0.102,0.001,0.004,-0.001,0.06,0.184,-0.011,-0.01,0.093,0.256],[-0.229,0.194,-0.001,-0.004,-0.005,0.09,0.297,0.03,0.015,-0.047,-0.04],[0.188,0.198,-0.0,0.001,-0.0,0.124,0.176,0.099,0.077,0.115,0.09],[0.217,0.02,0.0,0.001,0.0,0.153,0.211,0.126,0.114,0.134,0.098]],"b":[0.318,0.633,0.289,0.462,-0.018,-0.044]},{"w":[[-0.005,0.698,0.003,0.002,-0.005,-0.338,0.131,0.071,-0.018,-0.133,0.087,-0.001],[0.685,0.415,0.0,-0.006,-0.0,-0.037,-0.334,-0.194,-0.091,-0.122,-0.119,-0.061],[-0.184,0.102,0.001,0.004,-0.001,0.059,0.182,-0.011,-0.011,0.092,0.255,0.008],[-0.272,0.19,-0.001,-0.004,-0.005,0.059,0.255,0.004,-0.008,-0.074,-0.06,0.2],[0.167,0.196,-0.0,0.0,-0.0,0.11,0.156,0.087,0.066,0.102,0.081,0.097]],"b":[0.318,0.63,0.289,0.471,-0.013]},{"w":[[0.067,0.641,0.003,0.001,-0.003,-0.278,0.068],[0.506,0.423,0.0,-0.006,-0.008,-0.481,-0.35],[-0.064,0.066,0.001,0.004,0.003,0.31,0.189],[-0.167,0.261,-0.001,-0.004,-0.001,0.227,0.017],[0.197,0.215,-0.0,-0.0,0.013,0.486,0.183],[0.392,-0.252,0.001,-0.0,0.006,0.54,0.403],[-0.069,-0.0,0.0,0.001,0.006,0.615,0.443],[0.018,0.211,0.0,0.0,0.005,0.468,0.34],[0.37,-0.355,-0.0,0.0,0.006,0.565,0.399],[0.299,-0.0,0.0,0.001,0.005,0.456,0.336]],"b":[0.316,0.66,0.28,0.449,-0.041,-0.048,-0.013,-0.035,-0.001,-0.06]},{"w":[[0.064,0.641,0.003,0.001,-0.003,-0.283,0.063,0.012],[0.575,0.423,0.0,-0.005,-0.007,-0.377,-0.272,-0.23],[-0.094,0.066,0.001,0.004,0.002,0.264,0.155,0.103],[-0.23,0.261,-0.001,-0.004,-0.002,0.132,-0.054,0.21],[0.16,0.215,-0.0,-0.001,0.012,0.43,0.142,0.124],[0.308,-0.252,0.0,-0.0,0.004,0.412,0.308,0.281],[-0.168,0.0,0.0,0.001,0.004,0.465,0.332,0.331],[-0.05,0.211,0.0,-0.0,0.004,0.364,0.264,0.227],[0.293,-0.354,-0.0,-0.0,0.005,0.448,0.312,0.258]],"b":[0.316,0.646,0.286,0.461,-0.034,-0.031,0.007,-0.021,0.014]},{"w":[[0.038,0.669,0.003,0.001,-0.003,-0.322,0.036,0.078],[0.593,0.34,0.0,-0.006,-0.006,-0.349,-0.256,-0.234],[-0.167,0.165,0.001,0.004,0.001,0.152,0.077,0.28],[-0.165,0.259,-0.001,-0.004,-0.001,0.23,0.019,-0.005],[0.161,0.25,-0.0,-0.001,0.012,0.432,0.145,0.097],[0.315,-0.178,0.001,-0.0,0.005,0.423,0.32,0.207],[-0.162,0.089,0.0,0.001,0.004,0.473,0.343,0.252],[-0.049,0.276,0.0,-0.0,0.004,0.365,0.268,0.181],[0.235,0.062,0.0,0.001,0.004,0.357,0.266,0.175]],"b":[0.316,0.66,0.28,0.449,-0.041,-0.048,-0.013,-0.035,-0.06]},{"w":[[0.04,0.67,0.003,0.001,-0.003,-0.319,0.038,0.08,-0.008],[0.635,0.351,0.0,-0.005,-0.006,-0.285,-0.209,-0.203,-0.177],[-0.175,0.163,0.001,0.004,0.001,0.141,0.069,0.274,0.032],[-0.217,0.246,-0.001,-0.004,-0.002,0.151,-0.04,-0.044,0.222],[0.137,0.243,-0.0,-0.001,0.012,0.395,0.117,0.079,0.104],[0.259,-0.193,0.0,-0.0,0.004,0.338,0.257,0.166,0.238],[-0.227,0.072,0.0,0.001,0.003,0.374,0.268,0.203,0.279],[-0.093,0.264,0.0,-0.0,0.003,0.298,0.217,0.148,0.189]],"b":[0.315,0.649,0.282,0.462,-0.035,-0.033,0.004,-0.024]},{"w":[[0.069,0.661,0.003,0.001,-0.003,-0.234,0.099,-0.093],[0.511,0.479,0.0,-0.006,-0.006,-0.358,-0.26,-0.264],[-0.067,0.031,0.001,0.004,0.002,0.232,0.132,0.167],[-0.167,0.262,-0.001,-0.004,-0.001,0.23,