// Last updated: 2024-10-28 17:46:51

const models = [{"w":[[0.436,0.659,0.07,-0.008],[1.026,0.194,0.139,-0.003],[0.984,0.063,0.027,0.003],[-0.084,0.854,0.09,-0.004],[0.003,1.204,0.049,-0.005],[0.099,0.606,0.046,0.017],[-0.014,0.849,0.045,0.002],[-0.239,0.989,0.047,-0.003],[-0.156,1.022,0.061,-0.002],[-0.043,0.829,0.041,0.004],[0.61,0.037,0.017,-0.001],[-0.05,0.93,0.093,0.005],[0.007,0.727,0.05,0.003]],"b":[0.002,-0.118,-0.083,0.063,0.152,0.226,0.157,0.209,0.188,0.244,0.049,0.17,0.184]},{"w":[[0.435,0.602,0.066,-0.008,0.078],[1.025,0.093,0.132,-0.003,0.138],[0.983,0.024,0.024,0.003,0.053],[-0.084,0.799,0.086,-0.004,0.075],[0.002,1.055,0.039,-0.005,0.204],[0.098,0.58,0.044,0.017,0.036],[-0.014,0.802,0.042,0.001,0.065],[-0.24,0.863,0.039,-0.004,0.173],[-0.157,0.944,0.056,-0.002,0.108],[-0.044,0.718,0.033,0.004,0.153],[0.609,-0.073,0.009,-0.001,0.152],[-0.052,0.682,0.076,0.004,0.341]],"b":[-0.012,-0.144,-0.093,0.049,0.115,0.22,0.145,0.178,0.168,0.216,0.021,0.107]},{"w":[[0.434,0.692,0.073,-0.007,-0.036],[1.032,0.091,0.129,-0.003,0.11],[0.98,0.13,0.034,0.003,-0.073],[-0.076,0.7,0.075,-0.005,0.165],[0.014,1.006,0.03,-0.006,0.212],[0.103,0.533,0.039,0.017,0.078],[-0.009,0.763,0.037,0.001,0.093],[-0.235,0.906,0.039,-0.004,0.09],[-0.148,0.865,0.046,-0.003,0.169],[-0.03,0.587,0.016,0.003,0.261],[0.613,-0.019,0.011,-0.001,0.061],[0.03,0.286,0.006,0.001,0.474]],"b":[0.009,-0.137,-0.071,0.035,0.116,0.213,0.141,0.194,0.159,0.199,0.038,0.103]},{"w":[[0.431,0.661,0.072,-0.007,-0.087,0.108],[1.028,0.057,0.128,-0.004,0.053,0.12],[0.977,0.104,0.033,0.003,-0.117,0.093],[-0.076,0.694,0.074,-0.005,0.155,0.023],[0.009,0.961,0.029,-0.006,0.138,0.157],[0.102,0.53,0.039,0.017,0.073,0.011],[-0.01,0.752,0.036,0.001,0.074,0.04],[-0.24,0.857,0.038,-0.004,0.009,0.17],[-0.15,0.848,0.045,-0.003,0.14,0.06],[-0.032,0.565,0.016,0.003,0.224,0.076],[0.608,-0.064,0.01,-0.001,-0.013,0.156]],"b":[-0.003,-0.149,-0.08,0.032,0.1,0.212,0.137,0.177,0.153,0.192,0.022]},{"w":[[0.487,0.662,0.071,-0.008,-0.084],[0.898,0.186,0.135,-0.003,0.21],[0.866,0.055,0.024,0.003,0.193],[-0.106,0.852,0.089,-0.004,0.036],[-0.043,1.201,0.048,-0.004,0.075],[0.141,0.609,0.047,0.017,-0.069],[-0.054,0.847,0.044,0.002,0.066],[-0.42,0.978,0.042,-0.003,0.297],[-0.298,1.014,0.058,-0.002,0.233],[0.044,0.835,0.043,0.004,-0.142],[-0.102,0.927,0.091,0.005,0.085],[-0.173,0.716,0.045,0.004,0.295]],"b":[0.007,-0.129,-0.093,0.061,0.148,0.23,0.153,0.195,0.177,0.251,0.166,0.169]},{"w":[[0.504,0.594,0.067,-0.008,-0.112,0.095],[0.917,0.106,0.13,-0.003,0.177,0.111],[0.87,0.037,0.023,0.003,0.186,0.025],[-0.093,0.8,0.086,-0.004,0.014,0.073],[-0.008,1.056,0.039,-0.005,0.016,0.202],[0.149,0.574,0.045,0.017,-0.083,0.048],[-0.044,0.806,0.041,0.001,0.049,0.058],[-0.397,0.882,0.036,-0.004,0.257,0.134],[-0.285,0.959,0.054,-0.002,0.21,0.076],[0.075,0.704,0.035,0.004,-0.196,0.183],[-0.042,0.681,0.076,0.004,-0.016,0.344]],"b":[-0.01,-0.147,-0.097,0.049,0.114,0.222,0.144,0.172,0.164,0.22,0.108]},{"w":[[0.484,0.691,0.074,-0.007,-0.082,-0.031],[0.908,0.095,0.126,-0.003,0.202,0.098],[0.857,0.134,0.031,0.003,0.2,-0.085],[-0.089,0.7,0.074,-0.005,0.022,0.164],[-0.021,1.007,0.029,-0.005,0.057,0.209],[0.149,0.532,0.04,0.017,-0.076,0.083],[-0.045,0.764,0.036,0.001,0.058,0.089],[-0.413,0.911,0.036,-0.004,0.291,0.072],[-0.282,0.869,0.043,-0.002,0.22,0.156],[0.071,0.584,0.018,0.003,-0.165,0.271],[-0.127,0.291,0.003,0.001,0.256,0.459]],"b":[0.012,-0.145,-0.078,0.034,0.114,0.216,0.139,0.183,0.151,0.206,0.093]},{"w":[[0.5,0.654,0.074,-0.008,-0.114,-0.089,0.126],[0.919,0.069,0.126,-0.003,0.178,0.055,0.092],[0.865,0.115,0.031,0.003,0.184,-0.115,0.065],[-0.087,0.695,0.074,-0.005,0.017,0.155,0.02],[-0.002,0.962,0.029,-0.006,0.018,0.138,0.154],[0.152,0.525,0.04,0.016,-0.082,0.072,0.024],[-0.041,0.755,0.036,0.001,0.05,0.075,0.032],[-0.396,0.874,0.035,-0.004,0.258,0.013,0.129],[-0.279,0.861,0.043,-0.002,0.213,0.143,0.027],[0.085,0.553,0.018,0.003,-0.192,0.222,0.106]],"b":[-0.0,-0.153,-0.084,0.032,0.099,0.214,0.136,0.171,0.148,0.196]},{"w":[[0.442,0.537,0.064,-0.008,0.147],[1.026,0.198,0.139,-0.003,-0.005],[0.982,0.094,0.029,0.003,-0.038],[-0.078,0.737,0.084,-0.005,0.14],[0.012,1.042,0.041,-0.005,0.195],[0.103,0.522,0.042,0.017,0.101],[-0.005,0.681,0.037,0.001,0.203],[-0.245,1.107,0.053,-0.003,-0.143],[-0.14,0.709,0.046,-0.003,0.377],[0.602,0.177,0.024,0.0,-0.168],[-0.031,0.573,0.075,0.003,0.431],[0.022,0.435,0.035,0.002,0.351]],"b":[-0.033,-0.117,-0.074,0.028,0.105,0.202,0.107,0.244,0.096,0.09,0.065,0.098]},{"w":[[0.441,0.511,0.062,-0.008,0.127,0.059],[1.023,0.134,0.134,-0.003,-0.056,0.147],[0.981,0.067,0.026,0.003,-0.06,0.062],[-0.079,0.713,0.082,-0.005,0.12,0.057],[0.008,0.962,0.035,-0.006,0.13,0.184],[0.103,0.513,0.041,0.016,0.093,0.022],[-0.006,0.665,0.036,0.001,0.191,0.036],[-0.25,1.018,0.046,-0.003,-0.215,0.206],[-0.141,0.686,0.044,-0.004,0.359,0.053],[0.598,0.095,0.017,-0.0,-0.234,0.187],[-0.037,0.446,0.065,0.002,0.329,0.291]],"b":[-0.039,-0.132,-0.08,0.023,0.087,0.2,0.104,0.224,0.091,0.071,0.036]},{"w":[[0.44,0.585,0.07,-0.008,0.183,-0.084],[1.03,0.126,0.13,-0.003,-0.059,0.125],[0.98,0.135,0.034,0.003,-0.007,-0.071],[-0.073,0.654,0.073,-0.005,0.078,0.145],[0.017,0.938,0.028,-0.006,0.116,0.182],[0.105,0.489,0.038,0.016,0.076,0.059],[-0.004,0.655,0.034,0.001,0.184,0.045],[-0.241,1.025,0.042,-0.003,-0.204,0.143],[-0.137,0.664,0.04,-0.004,0.343,0.079],[0.606,0.109,0.015,-0.0,-0.219,0.118],[0.035,0.189,0.003,0.001,0.165,0.431]],"b":[-0.028,-0.125,-0.069,0.019,0.093,0.198,0.104,0.235,0.091,0.082,0.07]},{"w":[[0.436,0.567,0.07,-0.008,0.168,-0.125,0.095],[1.025,0.102,0.129,-0.003,-0.08,0.071,0.126],[0.976,0.117,0.034,0.003,-0.023,-0.112,0.095],[-0.074,0.651,0.073,-0.005,0.075,0.138,0.017],[0.012,0.91,0.027,-0.006,0.091,0.118,0.15],[0.105,0.488,0.038,0.016,0.075,0.056,0.005],[-0.005,0.65,0.033,0.001,0.18,0.034,0.026],[-0.247,0.99,0.042,-0.003,-0.235,0.062,0.188],[-0.139,0.657,0.04,-0.004,0.337,0.065,0.035],[0.6,0.076,0.014,-0.0,-0.248,0.042,0.175]],"b":[-0.035,-0.134,-0.076,0.018,0.082,0.198,0.102,0.222,0.088,0.07]},{"w":[[0.481,0.548,0.065,-0.008,0.137,-0.065],[0.896,0.16,0.134,-0.003,0.031,0.215],[0.866,0.06,0.024,0.003,-0.005,0.192],[-0.112,0.727,0.083,-0.005,0.15,0.057],[-0.052,1.024,0.039,-0.005,0.212,0.105],[0.137,0.532,0.043,0.017,0.091,-0.056],[-0.064,0.664,0.035,0.001,0.22,0.097],[-0.416,1.057,0.046,-0.003,-0.095,0.283],[-0.317,0.657,0.039,-0.003,0.427,0.293],[-0.122,0.546,0.072,0.003,0.456,0.15],[-0.191,0.373,0.027,0.002,0.411,0.353]],"b":[-0.028,-0.136,-0.091,0.023,0.095,0.207,0.098,0.219,0.07,0.051,0.066]},{"w":[[0.496,0.52,0.063,-0.008,0.105,-0.092,0.076],[0.918,0.117,0.131,-0.003,-0.016,0.174,0.114],[0.871,0.049,0.023,0.003,-0.017,0.182,0.028],[-0.103,0.709,0.082,-0.005,0.13,0.04,0.049],[-0.018,0.958,0.034,-0.006,0.14,0.043,0.176],[0.143,0.52,0.043,0.016,0.077,-0.068,0.034],[-0.06,0.657,0.034,0.001,0.212,0.09,0.019],[-0.385,0.996,0.042,-0.003,-0.162,0.226,0.163],[-0.317,0.658,0.039,-0.003,0.427,0.294,-0.002],[-0.068,0.441,0.064,0.002,0.34,0.051,0.282]],"b":[-0.033,-0.144,-0.093,0.02,0.083,0.205,0.097,0.208,0.07,0.033]},{"w":[[0.472,0.59,0.071,-0.008,0.172,-0.053,-0.077],[0.909,0.104,0.127,-0.003,-0.015,0.199,0.102],[0.854,0.112,0.031,0.003,0.038,0.207,-0.095],[-0.095,0.65,0.073,-0.005,0.086,0.036,0.141],[-0.031,0.929,0.027,-0.006,0.133,0.079,0.173],[0.145,0.496,0.039,0.016,0.061,-0.066,0.066],[-0.059,0.645,0.032,0.001,0.204,0.092,0.034],[-0.402,0.996,0.038,-0.003,-0.146,0.267,0.111],[-0.311,0.632,0.036,-0.004,0.406,0.287,0.046],[-0.143,0.157,-0.001,0.001,0.23,0.294,0.397]],"b":[-0.024,-0.142,-0.086,0.016,0.086,0.204,0.097,0.213,0.067,0.046]},{"w":[[0.488,0.573,0.071,-0.008,0.147,-0.086,-0.121,0.11],[0.923,0.089,0.127,-0.003,-0.037,0.171,0.064,0.096],[0.863,0.102,0.031,0.003,0.024,0.188,-0.12,0.062],[-0.094,0.649,0.073,-0.005,0.083,0.033,0.136,0.011],[-0.01,0.907,0.027,-0.006,0.1,0.037,0.116,0.143],[0.147,0.493,0.039,0.016,0.057,-0.071,0.059,0.018],[-0.058,0.643,0.032,0.001,0.201,0.089,0.03,0.011],[-0.381,0.973,0.039,-0.003,-0.18,0.223,0.052,0.149],[-0.314,0.635,0.036,-0.004,0.41,0.291,0.052,-0.016]],"b":[-0.029,-0.146,-0.089,0.016,0.08,0.203,0.096,0.206,0.068]},{"w":[[0.465,0.468,0.058,-0.007,0.187],[1.056,-0.003,0.127,-0.003,0.192],[0.99,0.023,0.025,0.003,0.038],[-0.05,0.63,0.076,-0.004,0.219],[0.058,0.846,0.028,-0.004,0.35],[0.121,0.46,0.037,0.017,0.143],[0.02,0.625,0.032,0.002,0.22],[-0.137,0.322,0.007,-0.002,0.653],[0.003,0.527,0.022,0.005,0.296],[0.643,-0.183,0.004,-0.0,0.216],[-0.016,0.706,0.079,0.005,0.219],[0.037,0.528,0.038,0.004,0.195]],"b":[-0.033,-0.154,-0.09,0.021,0.086,0.2,0.115,0.087,0.188,0.008,0.129,0.147]},{"w":[[0.463,0.436,0.056,-0.007,0.176,0.059],[1.052,-0.066,0.123,-0.003,0.169,0.12],[0.988,-0.003,0.023,0.003,0.029,0.05],[-0.052,0.602,0.074,-0.004,0.209,0.053],[0.052,0.756,0.021,-0.005,0.317,0.17],[0.12,0.449,0.037,0.017,0.139,0.021],[0.019,0.603,0.03,0.002,0.211,0.042],[-0.141,0.267,0.003,-0.003,0.632,0.104],[-0.001,0.462,0.018,0.004,0.272,0.124],[0.639,-0.252,-0.001,-0.001,0.19,0.131],[-0.028,0.535,0.067,0.004,0.156,0.325]],"b":[-0.041,-0.172,-0.098,0.014,0.061,0.196,0.109,0.071,0.17,-0.011,0.081]},{"w":[[0.464,0.517,0.064,-0.007,0.202,-0.07],[1.057,-0.06,0.121,-0.003,0.175,0.08],[0.988,0.081,0.031,0.003,0.056,-0.082],[-0.048,0.536,0.066,-0.004,0.19,0.133],[0.06,0.733,0.015,-0.005,0.315,0.159],[0.122,0.42,0.033,0.017,0.131,0.056],[0.021,0.584,0.027,0.002,0.207,0.058],[-0.138,0.337,0.009,-0.002,0.657,-0.021],[0.006,0.372,0.005,0.004,0.248,0.219],[0.644,-0.201,0.002,-0.0,0.21,0.025],[0.044,0.204,0.001,0.001,0.094,0.458]],"b":[-0.024,-0.165,-0.08,0.004,0.066,0.192,0.108,0.089,0.16,0.005,0.088]},{"w":[[0.46,0.497,0.064,-0.007,0.193,-0.114,0.096],[1.052,-0.082,0.121,-0.003,0.164,0.03,0.11],[0.984,0.063,0.031,0.003,0.048,-0.124,0.09],[-0.048,0.533,0.066,-0.004,0.189,0.128,0.011],[0.054,0.705,0.015,-0.005,0.302,0.096,0.139],[0.122,0.419,0.033,0.017,0.131,0.055,0.003],[0.02,0.578,0.027,0.002,0.204,0.045,0.027],[-0.143,0.31,0.009,-0.002,0.645,-0.081,0.131],[0.004,0.36,0.005,0.004,0.242,0.19,0.062],[0.637,-0.23,0.001,-0.001,0.196,-0.041,0.144]],"b":[-0.032,-0.175,-0.088,0.003,0.054,0.192,0.105,0.078,0.155,-0.008]},{"w":[[0.552,0.443,0.059,-0.007,0.216,-0.135],[0.944,0.029,0.127,-0.003,0.155,0.174],[0.865,0.059,0.024,0.003,-0.003,0.194],[-0.039,0.627,0.077,-0.004,0.223,-0.016],[0.062,0.845,0.028,-0.004,0.351,-0.007],[0.19,0.44,0.038,0.017,0.166,-0.108],[0.01,0.628,0.032,0.002,0.216,0.015],[-0.235,0.35,0.007,-0.002,0.62,0.153],[0.146,0.486,0.023,0.005,0.344,-0.222],[-0.039,0.713,0.079,0.005,0.211,0.036],[-0.132,0.576,0.037,0.004,0.138,0.263]],"b":[-0.032,-0.156,-0.092,0.022,0.086,0.2,0.115,0.085,0.19,0.128,0.145]},{"w":[[0.562,0.397,0.056,-0.008,0.205,-0.155,0.08],[0.957,-0.029,0.123,-0.003,0.141,0.148,0.101],[0.868,0.044,0.023,0.003,-0.007,0.187,0.026],[-0.032,0.594,0.074,-0.004,0.215,-0.031,0.057],[0.085,0.743,0.021,-0.005,0.327,-0.053,0.177],[0.195,0.419,0.036,0.017,0.161,-0.117,0.036],[0.016,0.604,0.03,0.002,0.21,0.004,0.042],[-0.224,0.299,0.003,-0.003,0.608,0.13,0.087],[0.167,0.395,0.017,0.004,0.322,-0.264,0.158],[0.005,0.522,0.067,0.004,0.165,-0.051,0.331]],"b":[-0.043,-0.17,-0.096,0.013,0.061,0.195,0.109,0.073,0.167,0.08]},{"w":[[0.549,0.491,0.064,-0.007,0.23,-0.132,-0.067],[0.947,-0.025,0.12,-0.003,0.139,0.171,0.076],[0.861,0.121,0.031,0.003,0.015,0.197,-0.087],[-0.034,0.531,0.066,-0.004,0.194,-0.021,0.134],[0.068,0.731,0.015,-0.005,0.318,-0.012,0.16],[0.193,0.398,0.033,0.017,0.154,-0.11,0.059],[0.013,0.587,0.027,0.002,0.204,0.013,0.058],[-0.236,0.368,0.009,-0.002,0.625,0.153,-0.025],[0.155,0.326,0.005,0.004,0.297,-0.23,0.225],[-0.114,0.253,0.001,0.002,0.043,0.246,0.452]],"b":[-0.023,-0.166,-0.081,0.004,0.066,0.193,0.108,0.089,0.161,0.087]},{"w":[[0.563,0.46,0.064,-0.007,0.225,-0.162,-0.121,0.12],[0.957,-0.048,0.12,-0.003,0.135,0.15,0.036,0.089],[0.869,0.105,0.031,0.003,0.012,0.181,-0.116,0.064],[-0.033,0.528,0.066,-0.004,0.194,-0.024,0.127,0.015],[0.085,0.694,0.015,-0.005,0.311,-0.048,0.094,0.146],[0.195,0.393,0.033,0.017,0.153,-0.115,0.05,0.02],[0.016,0.58,0.027,0.002,0.203,0.007,0.046,0.026],[-0.223,0.339,0.008,-0.002,0.62,0.126,-0.076,0.113],[0.166,0.301,0.005,0.003,0.292,-0.255,0.18,0.098]],"b":[-0.033,-0.173,-0.086,0.003,0.053,0.191,0.106,0.079,0.153]},{"w":[[0.465,0.422,0.056,-0.008,0.161,0.086],[1.056,0.043,0.129,-0.002,0.218,-0.087],[0.99,0.054,0.026,0.003,0.056,-0.059],[-0.05,0.596,0.075,-0.004,0.2,0.065],[0.058,0.809,0.026,-0.004,0.329,0.07],[0.121,0.432,0.036,0.017,0.128,0.053],[0.02,0.554,0.029,0.001,0.179,0.136],[-0.136,0.552,0.017,-0.0,0.782,-0.438],[0.644,-0.035,0.01,0.001,0.299,-0.281],[-0.017,0.5,0.071,0.003,0.103,0.392],[0.036,0.363,0.031,0.002,0.102,0.313]],"b":[-0.049,-0.138,-0.079,0.009,0.073,0.19,0.09,0.169,0.061,0.055,0.088]},{"w":[[0.463,0.404,0.055,-0.008,0.156,0.071,0.051],[1.051,-0.006,0.125,-0.002,0.204,-0.13,0.136],[0.988,0.033,0.024,0.003,0.05,-0.078,0.06],[-0.051,0.579,0.074,-0.004,0.195,0.05,0.047],[0.052,0.748,0.021,-0.005,0.312,0.018,0.168],[0.12,0.427,0.036,0.017,0.126,0.048,0.015],[0.019,0.544,0.028,0.001,0.177,0.127,0.027],[-0.142,0.493,0.012,-0.001,0.765,-0.49,0.165],[0.638,-0.098,0.005,0.001,0.281,-0.335,0.172],[-0.027,0.395,0.062,0.003,0.074,0.302,0.287]],"b":[-0.053,-0.15,-0.085,0.005,0.058,0.188,0.088,0.155,0.046,0.03]},{"w":[[0.463,0.471,0.063,-0.007,0.172,0.125,-0.097],[1.058,-0.011,0.121,-0.002,0.207,-0.13,0.109],[0.988,0.092,0.031,0.004,0.064,-0.029,-0.076],[-0.048,0.531,0.066,-0.004,0.187,0.014,0.13],[0.06,0.73,0.015,-0.005,0.313,0.009,0.157],[0.122,0.408,0.033,0.017,0.123,0.033,0.049],[0.02,0.538,0.026,0.001,0.176,0.123,0.031],[-0.134,0.512,0.011,-0.0,0.774,-0.47,0.081],[0.646,-0.083,0.003,0.001,0.289,-0.318,0.095],[0.043,0.15,0.001,0.001,0.058,0.145,0.427]],"b":[-0.044,-0.144,-0.075,0.002,0.064,0.187,0.088,0.165,0.056,0.065]},{"w":[[0.459,0.457,0.063,-0.007,0.166,0.112,-0.135,0.089],[1.053,-0.029,0.121,-0.003,0.2,-0.147,0.058,0.119],[0.984,0.078,0.031,0.003,0.058,-0.043,-0.116,0.093],[-0.048,0.529,0.066,-0.004,0.186,0.012,0.126,0.01],[0.054,0.709,0.015,-0.005,0.305,-0.012,0.098,0.139],[0.122,0.407,0.033,0.017,0.123,0.033,0.048,0.001],[0.02,0.535,0.026,0.001,0.175,0.12,0.023,0.02],[-0.141,0.488,0.011,-0.001,0.765,-0.493,0.013,0.161],[0.639,-0.107,0.003,0.001,0.279,-0.342,0.024,0.165]],"b":[-0.049,-0.152,-0.081,0.001,0.055,0.187,0.087,0.154,0.045]},{"w":[[0.544,0.418,0.057,-0.007,0.198,0.052,-0.123],[0.95,0.049,0.127,-0.002,0.169,-0.041,0.165],[0.865,0.061,0.024,0.003,-0.002,-0.005,0.193],[-0.049,0.596,0.075,-0.004,0.2,0.064,-0.001],[0.051,0.809,0.026,-0.004,0.326,0.073,0.009],[0.187,0.428,0.037,0.017,0.158,0.024,-0.102],[-0.011,0.555,0.028,0.001,0.165,0.149,0.049],[-0.174,0.554,0.016,-0.0,0.765,-0.422,0.059],[-0.101,0.504,0.069,0.003,0.064,0.429,0.131],[-0.192,0.375,0.027,0.002,-0.003,0.412,0.354]],"b":[-0.041,-0.148,-0.091,0.009,0.072,0.196,0.087,0.166,0.047,0.067]},{"w":[[0.559,0.389,0.055,-0.008,0.198,0.02,-0.15,0.076],[0.972,0.006,0.124,-0.003,0.169,-0.088,0.125,0.114],[0.871,0.05,0.023,0.003,-0.002,-0.016,0.183,0.028],[-0.039,0.577,0.074,-0.004,0.201,0.044,-0.019,0.05],[0.085,0.743,0.021,-0.005,0.327,0.0,-0.053,0.177],[0.194,0.415,0.036,0.017,0.158,0.01,-0.115,0.035],[-0.008,0.548,0.028,0.001,0.165,0.141,0.042,0.019],[-0.142,0.493,0.012,-0.001,0.765,-0.489,0.001,0.165],[-0.047,0.398,0.062,0.003,0.065,0.313,0.032,0.282]],"b":[-0.047,-0.156,-0.093,0.006,0.061,0.194,0.086,0.155,0.028]},{"w":[[0.535,0.461,0.063,-0.007,0.204,0.089,-0.112,-0.087],[0.96,0.001,0.121,-0.003,0.163,-0.081,0.153,0.094],[0.856,0.109,0.031,0.003,0.004,0.036,0.205,-0.096],[-0.035,0.529,0.066,-0.004,0.192,0.008,-0.019,0.132],[0.068,0.729,0.015,-0.005,0.316,0.005,-0.011,0.158],[0.193,0.398,0.033,0.017,0.154,-0.002,-0.11,0.059],[-0.009,0.542,0.026,0.001,0.163,0.138,0.045,0.027],[-0.166,0.516,0.011,-0.0,0.76,-0.454,0.049,0.077],[-0.152,0.175,-0.0,0.001,-0.029,0.241,0.302,0.398]],"b":[-0.037,-0.153,-0.087,0.003,0.065,0.193,0.086,0.162,0.048]},{"w":[[0.553,0.442,0.063,-0.007,0.207,0.062,-0.146,-0.132,0.114],[0.975,-0.016,0.121,-0.003,0.166,-0.105,0.123,0.055,0.099],[0.865,0.098,0.031,0.003,0.006,0.021,0.187,-0.12,0.062],[-0.033,0.526,0.066,-0.004,0.192,0.004,-0.023,0.126,0.014],[0.09,0.703,0.015,-0.005,0.32,-0.031,-0.056,0.099,0.149],[0.196,0.395,0.033,0.017,0.155,-0.006,-0.116,0.051,0.02],[-0.007,0.539,0.026,0.001,0.164,0.134,0.041,0.022,0.013],[-0.141,0.488,0.011,-0.001,0.765,-0.493,0.0,0.013,0.161]],"b":[-0.043,-0.157,-0.09,0.003,0.058,0.192,0.085,0.154]},{"w":[[0.498,0.405,0.058,-0.007,0.257],[1.083,-0.04,0.128,-0.002,0.237],[1.005,-0.026,0.023,0.003,0.089],[-0.02,0.589,0.077,-0.003,0.267],[0.098,0.812,0.031,-0.003,0.396],[0.141,0.432,0.038,0.018,0.176],[0.061,0.539,0.03,0.003,0.314],[-0.022,0.466,0.035,0.0,0.563],[-0.066,0.925,0.045,0.004,-0.097],[0.666,-0.197,0.006,0.0,0.237],[-0.026,0.831,0.088,0.005,0.1],[0.071,0.462,0.037,0.004,0.268]],"b":[-0.051,-0.168,-0.102,0.007,0.069,0.19,0.091,0.07,0.264,-0.001,0.149,0.128]},{"w":[[0.495,0.388,0.056,-0.007,0.248,0.035],[1.075,-0.087,0.124,-0.003,0.209,0.102],[1.002,-0.044,0.021,0.003,0.079,0.04],[-0.022,0.575,0.076,-0.003,0.259,0.031],[0.088,0.746,0.025,-0.004,0.358,0.142],[0.14,0.429,0.038,0.018,0.175,0.006],[0.06,0.534,0.03,0.003,0.311,0.011],[-0.022,0.461,0.034,0.0,0.56,0.012],[-0.079,0.843,0.039,0.003,-0.144,0.178],[0.658,-0.251,0.001,-0.0,0.206,0.116],[-0.05,0.674,0.075,0.004,0.009,0.34]],"b":[-0.056,-0.181,-0.107,0.003,0.051,0.189,0.089,0.069,0.241,-0.016,0.106]},{"w":[[0.496,0.454,0.063,-0.006,0.263,-0.059],[1.085,-0.115,0.12,-0.003,0.228,0.09],[1.003,0.042,0.03,0.004,0.098,-0.082],[-0.016,0.471,0.065,-0.004,0.253,0.143],[0.103,0.663,0.015,-0.004,0.378,0.179],[0.142,0.379,0.032,0.017,0.17,0.063],[0.063,0.484,0.025,0.002,0.307,0.065],[-0.019,0.366,0.024,-0.0,0.551,0.12],[-0.059,0.699,0.021,0.003,-0.124,0.272],[0.667,-0.23,0.002,-0.0,0.233,0.04],[0.082,0.084,-0.003,0.002,0.223,0.454]],"b":[-0.043,-0.181,-0.09,-0.015,0.042,0.18,0.081,0.052,0.224,-0.007,0.06]},{"w":[[0.491,0.448,0.063,-0.006,0.249,-0.089,0.066],[1.078,-0.122,0.12,-0.003,0.209,0.051,0.085],[0.996,0.035,0.03,0.003,0.08,-0.118,0.08],[-0.014,0.472,0.065,-0.004,0.258,0.152,-0.021],[0.095,0.655,0.015,-0.004,0.357,0.135,0.096],[0.144,0.381,0.032,0.017,0.174,0.071,-0.019],[0.064,0.486,0.025,0.002,0.31,0.071,-0.013],[-0.016,0.369,0.024,-0.0,0.558,0.135,-0.034],[-0.068,0.691,0.021,0.002,-0.146,0.226,0.101],[0.657,-0.24,0.003,-0.0,0.206,-0.015,0.121]],"b":[-0.046,-0.186,-0.094,-0.013,0.037,0.181,0.082,0.054,0.217,-0.014]},{"w":[[0.613,0.371,0.058,-0.007,0.298,-0.173],[0.982,-0.01,0.127,-0.002,0.201,0.151],[0.886,0.009,0.022,0.003,0.047,0.179],[0.011,0.58,0.078,-0.003,0.279,-0.047],[0.128,0.803,0.031,-0.003,0.407,-0.046],[0.228,0.406,0.039,0.018,0.207,-0.131],[0.081,0.533,0.03,0.003,0.321,-0.03],[-0.069,0.48,0.035,0.0,0.546,0.071],[0.015,0.901,0.046,0.004,-0.068,-0.122],[-0.066,0.843,0.088,0.005,0.086,0.06],[-0.084,0.507,0.036,0.004,0.213,0.231]],"b":[-0.052,-0.168,-0.102,0.007,0.069,0.189,0.091,0.07,0.264,0.149,0.128]},{"w":[[0.617,0.342,0.056,-0.007,0.286,-0.186,0.057],[0.99,-0.055,0.124,-0.002,0.182,0.131,0.087],[0.887,-0.001,0.021,0.003,0.043,0.175,0.019],[0.014,0.561,0.076,-0.003,0.271,-0.055,0.037],[0.141,0.726,0.025,-0.004,0.375,-0.081,0.152],[0.23,0.395,0.038,0.017,0.203,-0.135,0.021],[0.082,0.525,0.03,0.003,0.318,-0.033,0.015],[-0.069,0.478,0.034,0.0,0.545,0.07,0.003],[0.032,0.801,0.039,0.003,-0.11,-0.168,0.197],[-0.037,0.669,0.076,0.004,0.013,-0.02,0.342]],"b":[-0.059,-0.179,-0.104,0.002,0.05,0.187,0.089,0.07,0.239,0.105]},{"w":[[0.609,0.415,0.063,-0.006,0.303,-0.17,-0.053],[0.988,-0.081,0.12,-0.003,0.194,0.146,0.084],[0.88,0.084,0.03,0.004,0.055,0.185,-0.089],[0.021,0.458,0.065,-0.004,0.266,-0.055,0.145],[0.14,0.65,0.015,-0.004,0.392,-0.057,0.181],[0.232,0.348,0.033,0.017,0.201,-0.135,0.068],[0.085,0.477,0.025,0.002,0.315,-0.034,0.067],[-0.061,0.381,0.024,-0.0,0.536,0.064,0.117],[0.033,0.667,0.021,0.003,-0.091,-0.139,0.277],[-0.054,0.131,-0.003,0.002,0.175,0.205,0.446]],"b":[-0.044,-0.18,-0.088,-0.015,0.042,0.179,0.081,0.053,0.223,0.061]},{"w":[[0.614,0.403,0.063,-0.007,0.287,-0.188,-0.092,0.089],[0.991,-0.09,0.12,-0.003,0.182,0.132,0.053,0.069],[0.883,0.077,0.03,0.004,0.044,0.172,-0.115,0.059],[0.02,0.46,0.065,-0.004,0.269,-0.052,0.151,-0.015],[0.146,0.636,0.015,-0.004,0.373,-0.078,0.134,0.106],[0.232,0.349,0.033,0.017,0.202,-0.134,0.069,-0.002],[0.085,0.478,0.025,0.002,0.317,-0.032,0.071,-0.009],[-0.063,0.387,0.024,-0.0,0.543,0.073,0.136,-0.043],[0.04,0.651,0.022,0.002,-0.113,-0.163,0.223,0.121]],"b":[-0.049,-0.184,-0.092,-0.014,0.036,0.179,0.081,0.055,0.215]},{"w":[[0.51,0.232,0.049,-0.007,0.275,0.187],[1.085,-0.067,0.126,-0.002,0.239,0.029],[1.003,-0.002,0.024,0.003,0.087,-0.025],[-0.008,0.422,0.069,-0.004,0.285,0.181],[0.115,0.576,0.019,-0.004,0.421,0.255],[0.149,0.314,0.032,0.017,0.189,0.128],[0.078,0.306,0.019,0.002,0.338,0.252],[0.009,0.037,0.014,-0.002,0.607,0.464],[0.657,-0.071,0.012,0.001,0.224,-0.136],[0.004,0.414,0.068,0.003,0.144,0.451],[0.097,0.096,0.019,0.003,0.306,0.395]],"b":[-0.101,-0.176,-0.095,-0.041,0.002,0.156,0.024,-0.052,0.035,0.03,0.023]},{"w":[[0.51,0.232,0.049,-0.007,0.274,0.186,0.002],[1.074,-0.077,0.124,-0.002,0.207,-0.012,0.104],[0.999,-0.007,0.023,0.003,0.072,-0.044,0.048],[-0.008,0.422,0.069,-0.004,0.285,0.182,-0.002],[0.105,0.566,0.017,-0.004,0.389,0.213,0.104],[0.151,0.315,0.032,0.017,0.194,0.135,-0.018],[0.081,0.31,0.02,0.002,0.349,0.266,-0.036],[0.016,0.044,0.015,-0.001,0.631,0.494,-0.076],[0.643,-0.086,0.009,0.0,0.178,-0.196,0.151],[-0.023,0.387,0.062,0.003,0.058,0.341,0.279]],"b":[-0.101,-0.178,-0.096,-0.041,-0.001,0.156,0.025,-0.051,0.031,0.023]},{"w":[[0.51,0.284,0.058,-0.007,0.293,0.243,-0.126],[1.084,-0.106,0.12,-0.002,0.226,-0.013,0.093],[1.004,0.033,0.03,0.004,0.099,0.013,-0.085],[-0.008,0.378,0.062,-0.004,0.27,0.133,0.107],[0.114,0.525,0.011,-0.005,0.403,0.198,0.125],[0.149,0.3,0.03,0.017,0.184,0.113,0.032],[0.078,0.308,0.019,0.002,0.339,0.253,-0.003],[0.009,0.04,0.014,-0.002,0.608,0.467,-0.007],[0.657,-0.107,0.006,0.0,0.211,-0.176,0.088],[0.095,-0.067,-0.008,0.001,0.249,0.216,0.396]],"b":[-0.097,-0.178,-0.093,-0.044,-0.002,0.155,0.025,-0.052,0.032,0.012]},{"w":[[0.506,0.287,0.058,-0.007,0.283,0.234,-0.142,0.042],[1.076,-0.1,0.121,-0.003,0.204,-0.032,0.058,0.088],[0.996,0.038,0.03,0.003,0.079,-0.004,-0.117,0.08],[-0.005,0.375,0.062,-0.004,0.278,0.14,0.12,-0.035],[0.107,0.53,0.011,-0.005,0.384,0.181,0.094,0.078],[0.152,0.298,0.03,0.017,0.192,0.12,0.044,-0.031],[0.082,0.305,0.019,0.002,0.349,0.262,0.012,-0.039],[0.017,0.034,0.014,-0.002,0.629,0.486,0.026,-0.083],[0.643,-0.098,0.007,0.0,0.176,-0.206,0.032,0.142]],"b":[-0.097,-0.179,-0.094,-0.044,-0.003,0.155,0.025,-0.051,0.031]},{"w":[[0.61,0.221,0.051,-0.007,0.309,0.166,-0.152],[0.981,-0.056,0.125,-0.002,0.204,0.051,0.157],[0.886,0.01,0.022,0.003,0.047,-0.001,0.179],[0.009,0.42,0.069,-0.004,0.291,0.178,-0.025],[0.125,0.575,0.019,-0.004,0.424,0.253,-0.015],[0.226,0.305,0.034,0.017,0.215,0.112,-0.117],[0.077,0.306,0.019,0.002,0.338,0.252,0.001],[-0.076,0.046,0.012,-0.002,0.578,0.482,0.13],[-0.073,0.422,0.066,0.003,0.118,0.467,0.117],[-0.09,0.117,0.016,0.003,0.243,0.434,0.284]],"b":[-0.095,-0.181,-0.101,-0.04,0.002,0.16,0.024,-0.057,0.026,0.013]},{"w":[[0.612,0.218,0.05,-0.007,0.303,0.154,-0.16,0.027],[0.989,-0.066,0.123,-0.003,0.184,0.014,0.133,0.084],[0.887,0.008,0.021,0.003,0.042,-0.01,0.173,0.021],[0.009,0.42,0.069,-0.004,0.29,0.177,-0.026,0.002],[0.135,0.562,0.018,-0.004,0.397,0.204,-0.047,0.111],[0.226,0.305,0.034,0.017,0.215,0.112,-0.117,-0.001],[0.074,0.311,0.02,0.002,0.347,0.268,0.012,-0.038],[-0.085,0.058,0.014,-0.002,0.603,0.525,0.158,-0.1],[-0.048,0.39,0.062,0.002,0.051,0.349,0.039,0.273]],"b":[-0.096,-0.182,-0.102,-0.04,0.001,0.16,0.025,-0.056,0.022]},{"w":[[0.602,0.269,0.058,-0.007,0.323,0.219,-0.139,-0.113],[0.987,-0.09,0.119,-0.003,0.195,0.013,0.147,0.08],[0.878,0.053,0.029,0.004,0.059,0.047,0.191,-0.102],[0.017,0.374,0.062,-0.004,0.278,0.126,-0.038,0.11],[0.134,0.521,0.011,-0.005,0.409,0.193,-0.03,0.127],[0.229,0.287,0.031,0.017,0.21,0.092,-0.122,0.043],[0.077,0.308,0.019,0.002,0.338,0.253,0.002,-0.003],[-0.078,0.054,0.014,-0.002,0.581,0.491,0.132,-0.019],[-0.063,-0.041,-0.009,0.001,0.199,0.259,0.241,0.374]],"b":[-0.092,-0.183,-0.099,-0.043,-0.001,0.159,0.025,-0.056,0.004]},{"w":[[0.606,0.271,0.059,-0.007,0.31,0.202,-0.155,-0.137,0.064],[0.992,-0.087,0.12,-0.003,0.181,-0.005,0.131,0.054,0.069],[0.882,0.056,0.029,0.003,0.048,0.032,0.178,-0.123,0.055],[0.015,0.372,0.062,-0.004,0.284,0.134,-0.03,0.121,-0.031],[0.139,0.525,0.012,-0.005,0.392,0.171,-0.05,0.095,0.085],[0.228,0.287,0.031,0.017,0.213,0.095,-0.119,0.048,-0.014],[0.074,0.306,0.019,0.002,0.347,0.264,0.011,0.012,-0.041],[-0.084,0.049,0.013,-0.002,0.602,0.518,0.157,0.021,-0.106]],"b":[-0.093,-0.183,-0.099,-0.043,-0.001,0.159,0.025,-0.056]},{"w":[[0.498,0.39,0.056,-0.007,0.24,0.03],[1.084,-0.068,0.126,-0.002,0.203,0.06],[1.004,-0.011,0.024,0.003,0.107,-0.032],[-0.018,0.556,0.075,-0.003,0.228,0.07],[0.101,0.744,0.026,-0.003,0.315,0.144],[0.142,0.411,0.036,0.018,0.151,0.044],[0.062,0.528,0.03,0.003,0.301,0.023],[-0.054,0.66,0.025,0.004,-0.416,0.567],[0.668,-0.242,0.002,0.0,0.183,0.096],[-0.021,0.718,0.08,0.005,-0.037,0.243],[0.071,0.447,0.036,0.004,0.25,0.031]],"b":[-0.054,-0.172,-0.1,0.002,0.059,0.186,0.089,0.224,-0.008,0.132,0.125]},{"w":[[0.496,0.375,0.055,-0.007,0.231,0.029,0.035],[1.077,-0.113,0.122,-0.003,0.177,0.057,0.101],[1.001,-0.029,0.022,0.003,0.097,-0.033,0.04],[-0.02,0.543,0.074,-0.003,0.22,0.069,0.03],[0.091,0.682,0.021,-0.004,0.28,0.14,0.141],[0.141,0.409,0.036,0.018,0.15,0.044,0.005],[0.061,0.523,0.029,0.003,0.298,0.023,0.011],[-0.066,0.584,0.019,0.003,-0.459,0.562,0.171],[0.66,-0.293,-0.002,-0.0,0.154,0.093,0.115],[-0.045,0.567,0.067,0.004,-0.121,0.232,0.337]],"b":[-0.058,-0.185,-0.105,-0.002,0.041,0.186,0.088,0.203,-0.022,0.09]},{"w":[[0.497,0.437,0.062,-0.006,0.238,0.046,-0.065],[1.086,-0.129,0.119,-0.003,0.206,0.039,0.085],[1.003,0.046,0.03,0.004,0.104,-0.012,-0.08],[-0.015,0.457,0.064,-0.004,0.233,0.037,0.138],[0.104,0.625,0.012,-0.004,0.321,0.104,0.166],[0.143,0.368,0.032,0.017,0.154,0.03,0.059],[0.063,0.482,0.024,0.002,0.303,0.007,0.065],[-0.05,0.51,0.009,0.003,-0.408,0.516,0.21],[0.669,-0.263,-0.0,0.0,0.184,0.089,0.029],[0.081,0.114,-0.001,0.002,0.267,-0.081,0.464]],"b":[-0.045,-0.183,-0.089,-0.017,0.037,0.179,0.081,0.196,-0.012,0.064]},{"w":[[0.491,0.429,0.062,-0.006,0.22,0.052,-0.096,0.068],[1.079,-0.139,0.119,-0.003,0.183,0.046,0.045,0.086],[0.996,0.037,0.03,0.003,0.083,-0.006,-0.117,0.08],[-0.014,0.459,0.064,-0.004,0.238,0.035,0.147,-0.02],[0.096,0.614,0.012,-0.004,0.295,0.112,0.12,0.1],[0.144,0.37,0.032,0.017,0.158,0.029,0.068,-0.018],[0.064,0.483,0.024,0.002,0.307,0.006,0.07,-0.013],[-0.059,0.496,0.009,0.003,-0.44,0.526,0.155,0.119],[0.659,-0.277,0.0,-0.0,0.151,0.099,-0.028,0.125]],"b":[-0.049,-0.189,-0.094,-0.015,0.031,0.18,0.082,0.189,-0.02]},{"w":[[0.616,0.348,0.057,-0.007,0.272,0.047,-0.176],[0.985,-0.032,0.125,-0.002,0.176,0.046,0.147],[0.882,0.033,0.023,0.003,0.074,-0.049,0.183],[0.016,0.544,0.075,-0.003,0.237,0.075,-0.052],[0.139,0.731,0.026,-0.003,0.326,0.15,-0.056],[0.232,0.378,0.037,0.018,0.176,0.057,-0.135],[0.083,0.52,0.03,0.003,0.307,0.026,-0.031],[0.055,0.621,0.026,0.004,-0.386,0.583,-0.163],[-0.049,0.728,0.079,0.005,-0.044,0.239,0.043],[-0.083,0.503,0.035,0.004,0.208,0.009,0.231]],"b":[-0.055,-0.171,-0.098,0.001,0.058,0.185,0.089,0.223,0.132,0.127]},{"w":[[0.621,0.319,0.055,-0.007,0.26,0.047,-0.189,0.057],[0.993,-0.076,0.122,-0.002,0.158,0.045,0.127,0.087],[0.884,0.023,0.023,0.003,0.07,-0.049,0.178,0.02],[0.019,0.525,0.074,-0.003,0.23,0.075,-0.06,0.037],[0.151,0.655,0.02,-0.004,0.294,0.148,-0.091,0.151],[0.234,0.368,0.036,0.017,0.172,0.057,-0.139,0.021],[0.084,0.513,0.029,0.003,0.304,0.026,-0.035,0.015],[0.072,0.523,0.019,0.003,-0.427,0.581,-0.209,0.195],[-0.021,0.557,0.067,0.004,-0.115,0.236,-0.036,0.341]],"b":[-0.062,-0.182,-0.101,-0.003,0.039,0.183,0.087,0.198,0.089]},{"w":[[0.613,0.391,0.062,-0.006,0.27,0.062,-0.174,-0.06],[0.989,-0.091,0.119,-0.003,0.18,0.026,0.144,0.081],[0.878,0.095,0.03,0.004,0.07,-0.029,0.186,-0.086],[0.023,0.442,0.064,-0.004,0.244,0.042,-0.058,0.14],[0.147,0.608,0.012,-0.004,0.333,0.11,-0.064,0.168],[0.235,0.332,0.032,0.017,0.179,0.042,-0.137,0.063],[0.086,0.473,0.024,0.002,0.31,0.01,-0.034,0.066],[0.066,0.464,0.009,0.003,-0.376,0.532,-0.173,0.215],[-0.06,0.169,-0.001,0.002,0.229,-0.1,0.211,0.458]],"b":[-0.047,-0.182,-0.087,-0.017,0.036,0.177,0.08,0.194,0.067]},{"w":[[0.618,0.376,0.062,-0.006,0.249,0.071,-0.193,-0.102,0.092],[0.994,-0.103,0.119,-0.003,0.163,0.033,0.129,0.049,0.07],[0.881,0.085,0.03,0.004,0.057,-0.023,0.174,-0.112,0.058],[0.023,0.444,0.064,-0.004,0.247,0.041,-0.055,0.146,-0.013],[0.154,0.59,0.012,-0.004,0.308,0.121,-0.087,0.117,0.111],[0.235,0.332,0.032,0.017,0.179,0.042,-0.137,0.064,-0.001],[0.085,0.474,0.024,0.002,0.312,0.01,-0.032,0.07,-0.009],[0.075,0.44,0.009,0.003,-0.409,0.546,-0.203,0.149,0.145]],"b":[-0.053,-0.186,-0.091,-0.016,0.029,0.177,0.081,0.185]},{"w":[[0.511,0.236,0.051,-0.008,0.338,-0.103,0.234],[1.084,-0.069,0.126,-0.002,0.204,0.059,0.002],[1.003,-0.002,0.024,0.003,0.101,-0.023,-0.015],[-0.007,0.423,0.07,-0.004,0.312,-0.044,0.201],[0.115,0.576,0.019,-0.004,0.421,-0.0,0.255],[0.15,0.315,0.033,0.017,0.212,-0.038,0.145],[0.079,0.312,0.021,0.001,0.437,-0.162,0.327],[0.655,-0.08,0.009,0.001,0.081,0.235,-0.245],[0.004,0.414,0.068,0.003,0.155,-0.018,0.46],[0.099,0.106,0.023,0.002,0.465,-0.262,0.516]],"b":[-0.106,-0.173,-0.096,-0.043,0.002,0.154,0.016,0.047,0.029,0.01]},{"w":[[0.511,0.236,0.051,-0.008,0.34,-0.104,0.237,-0.006],[1.073,-0.081,0.123,-0.002,0.152,0.088,-0.055,0.111],[0.999,-0.007,0.023,0.003,0.079,-0.011,-0.039,0.047],[-0.007,0.424,0.07,-0.004,0.314,-0.045,0.204,-0.005],[0.104,0.565,0.017,-0.004,0.372,0.027,0.2,0.106],[0.152,0.317,0.033,0.017,0.222,-0.044,0.157,-0.022],[0.084,0.317,0.022,0.002,0.46,-0.175,0.352,-0.049],[0.638,-0.098,0.005,0.001,0.001,0.281,-0.334,0.172],[-0.024,0.384,0.061,0.003,0.023,0.056,0.313,0.284]],"b":[-0.106,-0.174,-0.097,-0.043,0.001,0.154,0.016,0.046,0.026]},{"w":[[0.511,0.288,0.059,-0.007,0.357,-0.105,0.292,-0.126],[1.084,-0.108,0.119,-0.002,0.189,0.06,-0.041,0.094],[1.004,0.034,0.03,0.004,0.114,-0.025,0.025,-0.085],[-0.008,0.379,0.063,-0.004,0.295,-0.042,0.152,0.106],[0.114,0.525,0.011,-0.005,0.402,0.002,0.197,0.125],[0.149,0.302,0.03,0.017,0.207,-0.037,0.131,0.032],[0.079,0.314,0.022,0.001,0.438,-0.163,0.329,-0.004],[0.655,-0.117,0.002,0.001,0.067,0.237,-0.286,0.089],[0.098,-0.057,-0.004,0.001,0.404,-0.254,0.335,0.394]],"b":[-0.102,-0.175,-0.094,-0.046,-0.002,0.153,0.016,0.045,-0.002]},{"w":[[0.508,0.29,0.059,-0.007,0.343,-0.096,0.281,-0.14,0.034],[1.074,-0.103,0.12,-0.002,0.151,0.085,-0.073,0.056,0.095],[0.996,0.038,0.03,0.003,0.082,-0.004,-0.002,-0.117,0.08],[-0.004,0.377,0.062,-0.004,0.311,-0.052,0.166,0.122,-0.04],[0.106,0.529,0.011,-0.005,0.37,0.022,0.171,0.093,0.08],[0.153,0.3,0.03,0.017,0.221,-0.046,0.142,0.046,-0.035],[0.085,0.311,0.021,0.002,0.46,-0.176,0.347,0.017,-0.054],[0.639,-0.107,0.003,0.001,0.0,0.279,-0.342,0.024,0.165]],"b":[-0.102,-0.175,-0.094,-0.047,-0.002,0.153,0.016,0.045]},{"w":[[0.605,0.224,0.052,-0.007,0.349,-0.069,0.199,-0.144],[0.983,-0.057,0.124,-0.002,0.191,0.022,0.04,0.154],[0.88,0.013,0.023,0.003,0.086,-0.068,0.032,0.188],[0.006,0.422,0.07,-0.004,0.313,-0.039,0.196,-0.02],[0.125,0.575,0.019,-0.004,0.422,0.003,0.251,-0.015],[0.225,0.306,0.034,0.017,0.221,-0.011,0.117,-0.115],[0.064,0.314,0.021,0.001,0.435,-0.168,0.333,0.023],[-0.076,0.424,0.067,0.003,0.145,-0.047,0.49,0.123],[-0.116,0.132,0.02,0.002,0.439,-0.339,0.597,0.328]],"b":[-0.099,-0.18,-0.105,-0.042,0.003,0.159,0.015,0.023,-0.006]},{"w":[[0.607,0.221,0.051,-0.007,0.34,-0.062,0.187,-0.15,0.02],[0.994,-0.069,0.123,-0.002,0.152,0.053,-0.014,0.125,0.089],[0.882,0.011,0.022,0.003,0.079,-0.062,0.022,0.183,0.015],[0.005,0.422,0.07,-0.004,0.314,-0.04,0.197,-0.019,-0.002],[0.138,0.56,0.017,-0.004,0.372,0.042,0.182,-0.053,0.115],[0.225,0.306,0.034,0.017,0.222,-0.012,0.118,-0.115,-0.002],[0.058,0.321,0.022,0.002,0.46,-0.187,0.366,0.041,-0.056],[-0.044,0.387,0.061,0.003,0.023,0.047,0.324,0.032,0.278]],"b":[-0.099,-0.179,-0.105,-0.042,0.003,0.159,0.015,0.025]},{"w":[[0.596,0.273,0.059,-0.007,0.366,-0.074,0.255,-0.129,-0.115],[0.989,-0.091,0.119,-0.003,0.18,0.026,0.0,0.144,0.081],[0.873,0.057,0.03,0.003,0.101,-0.072,0.082,0.201,-0.103],[0.014,0.376,0.063,-0.004,0.297,-0.034,0.143,-0.033,0.109],[0.135,0.521,0.011,-0.005,0.404,0.009,0.189,-0.031,0.127],[0.229,0.288,0.031,0.017,0.215,-0.009,0.096,-0.121,0.043],[0.064,0.317,0.021,0.001,0.436,-0.168,0.336,0.024,-0.007],[-0.088,-0.024,-0.005,0.001,0.385,-0.322,0.417,0.283,0.368]],"b":[-0.097,-0.182,-0.103,-0.045,-0.0,0.158,0.015,-0.014]},{"w":[[0.601,0.274,0.06,-0.007,0.343,-0.055,0.231,-0.146,-0.136,0.058],[0.996,-0.09,0.119,-0.003,0.151,0.05,-0.031,0.123,0.053,0.075],[0.877,0.058,0.03,0.003,0.082,-0.057,0.062,0.187,-0.121,0.049],[0.011,0.375,0.062,-0.004,0.311,-0.045,0.158,-0.023,0.122,-0.036],[0.142,0.523,0.011,-0.005,0.37,0.038,0.151,-0.056,0.095,0.089],[0.227,0.287,0.031,0.017,0.221,-0.014,0.103,-0.116,0.048,-0.015],[0.058,0.315,0.021,0.002,0.46,-0.188,0.361,0.041,0.016,-0.061]],"b":[-0.096,-0.181,-0.102,-0.045,0.001,0.158,0.014]},{"w":[[0.443,0.214,0.046,-0.008,0.524],[1.029,-0.009,0.128,-0.003,0.238],[0.986,-0.078,0.02,0.003,0.165],[-0.076,0.369,0.064,-0.005,0.571],[0.014,0.516,0.013,-0.006,0.81],[0.103,0.36,0.033,0.016,0.29],[-0.232,0.543,0.024,-0.004,0.525],[-0.152,0.754,0.047,-0.002,0.316],[-0.04,0.634,0.03,0.004,0.23],[0.611,-0.037,0.013,-0.001,0.088],[-0.047,0.783,0.085,0.004,0.174],[0.009,0.583,0.042,0.003,0.169]],"b":[-0.08,-0.156,-0.109,-0.027,0.025,0.181,0.127,0.138,0.208,0.035,0.143,0.157]},{"w":[[0.443,0.188,0.044,-0.009,0.516,0.045],[1.028,-0.081,0.123,-0.004,0.218,0.124],[0.985,-0.103,0.018,0.003,0.158,0.043],[-0.076,0.346,0.063,-0.005,0.565,0.039],[0.013,0.427,0.006,-0.006,0.784,0.153],[0.103,0.35,0.032,0.016,0.287,0.017],[-0.233,0.462,0.018,-0.005,0.501,0.14],[-0.153,0.702,0.043,-0.003,0.301,0.089],[-0.041,0.553,0.024,0.003,0.206,0.14],[0.61,-0.123,0.007,-0.001,0.063,0.147],[-0.05,0.588,0.071,0.003,0.117,0.334]],"b":[-0.087,-0.175,-0.116,-0.033,0.001,0.178,0.105,0.125,0.186,0.012,0.09]},{"w":[[0.439,0.281,0.053,-0.008,0.539,-0.086],[1.034,-0.079,0.121,-0.004,0.223,0.089],[0.982,-0.008,0.027,0.003,0.181,-0.09],[-0.07,0.279,0.054,-0.006,0.551,0.114],[0.021,0.407,0.001,-0.006,0.785,0.139],[0.105,0.319,0.029,0.016,0.281,0.052],[-0.23,0.511,0.02,-0.005,0.517,0.041],[-0.145,0.643,0.035,-0.003,0.292,0.142],[-0.028,0.444,0.01,0.003,0.187,0.243],[0.613,-0.079,0.008,-0.001,0.078,0.054],[0.031,0.219,0.002,0.001,0.088,0.466]],"b":[-0.067,-0.168,-0.096,-0.043,0.005,0.174,0.121,0.118,0.173,0.027,0.091]},{"w":[[0.437,0.262,0.053,-0.008,0.531,-0.126,0.087],[1.03,-0.103,0.12,-0.004,0.213,0.037,0.112],[0.979,-0.026,0.027,0.003,0.173,-0.13,0.086],[-0.071,0.279,0.054,-0.006,0.551,0.114,0.001],[0.017,0.379,0.001,-0.007,0.774,0.081,0.126],[0.105,0.319,0.029,0.016,0.281,0.052,-0.0],[-0.235,0.478,0.02,-0.005,0.504,-0.028,0.15],[-0.147,0.632,0.035,-0.003,0.287,0.119,0.049],[-0.031,0.429,0.009,0.003,0.181,0.211,0.069],[0.609,-0.113,0.008,-0.001,0.065,-0.018,0.153]],"b":[-0.075,-0.179,-0.104,-0.043,-0.006,0.174,0.108,0.114,0.167,0.013]},{"w":[[0.516,0.209,0.048,-0.008,0.534,-0.119],[0.91,-0.001,0.126,-0.003,0.221,0.196],[0.874,-0.071,0.017,0.003,0.149,0.183],[-0.075,0.368,0.064,-0.005,0.571,-0.002],[0.001,0.517,0.013,-0.006,0.808,0.022],[0.157,0.357,0.034,0.016,0.298,-0.089],[-0.393,0.553,0.02,-0.004,0.501,0.264],[-0.282,0.762,0.044,-0.002,0.297,0.213],[0.057,0.629,0.032,0.004,0.243,-0.158],[-0.093,0.785,0.084,0.004,0.167,0.074],[-0.165,0.594,0.038,0.003,0.144,0.285]],"b":[-0.075,-0.163,-0.115,-0.027,0.024,0.184,0.118,0.131,0.213,0.14,0.147]},{"w":[[0.527,0.171,0.045,-0.009,0.525,-0.138,0.065],[0.926,-0.061,0.122,-0.003,0.207,0.167,0.099],[0.877,-0.081,0.017,0.003,0.147,0.179,0.017],[-0.068,0.344,0.063,-0.005,0.566,-0.013,0.041],[0.027,0.424,0.007,-0.006,0.785,-0.023,0.156],[0.162,0.338,0.033,0.016,0.293,-0.098,0.032],[-0.376,0.49,0.016,-0.004,0.486,0.234,0.106],[-0.272,0.726,0.042,-0.002,0.289,0.196,0.06],[0.085,0.528,0.026,0.003,0.219,-0.207,0.17],[-0.037,0.585,0.071,0.003,0.119,-0.022,0.337]],"b":[-0.085,-0.177,-0.118,-0.033,0.001,0.18,0.102,0.122,0.188,0.09]},{"w":[[0.509,0.272,0.054,-0.008,0.548,-0.113,-0.08],[0.917,-0.064,0.119,-0.003,0.208,0.19,0.079],[0.865,0.008,0.026,0.003,0.166,0.191,-0.1],[-0.064,0.279,0.055,-0.006,0.552,-0.01,0.115],[0.014,0.408,0.001,-0.006,0.785,0.012,0.139],[0.162,0.312,0.029,0.016,0.288,-0.093,0.057],[-0.39,0.532,0.018,-0.004,0.497,0.262,0.027],[-0.27,0.659,0.033,-0.003,0.276,0.204,0.131],[0.08,0.43,0.011,0.003,0.201,-0.177,0.253],[-0.123,0.239,0.0,0.001,0.068,0.252,0.453]],"b":[-0.064,-0.174,-0.101,-0.043,0.005,0.176,0.114,0.113,0.178,0.084]},{"w":[[0.522,0.246,0.054,-0.008,0.54,-0.141,-0.129,0.108],[0.928,-0.084,0.119,-0.004,0.202,0.168,0.04,0.086],[0.872,-0.007,0.026,0.003,0.162,0.176,-0.127,0.059],[-0.064,0.278,0.055,-0.006,0.552,-0.011,0.114,0.002],[0.03,0.377,0.001,-0.007,0.776,-0.021,0.08,0.129],[0.164,0.308,0.029,0.016,0.287,-0.096,0.051,0.015],[-0.376,0.504,0.018,-0.004,0.489,0.233,-0.024,0.114],[-0.268,0.654,0.033,-0.003,0.274,0.199,0.123,0.018],[0.092,0.406,0.011,0.003,0.194,-0.202,0.207,0.1]],"b":[-0.073,-0.181,-0.106,-0.043,-0.006,0.175,0.105,0.111,0.17]},{"w":[[0.445,0.187,0.045,-0.009,0.514,0.043],[1.027,0.027,0.13,-0.003,0.251,-0.056],[0.983,-0.03,0.022,0.003,0.182,-0.075],[-0.075,0.352,0.063,-0.005,0.565,0.025],[0.016,0.496,0.012,-0.006,0.802,0.031],[0.104,0.332,0.032,0.016,0.28,0.044],[-0.242,0.709,0.031,-0.003,0.585,-0.262],[-0.139,0.545,0.037,-0.004,0.241,0.329],[0.603,0.087,0.019,-0.0,0.132,-0.195],[-0.031,0.519,0.072,0.003,0.078,0.415],[0.022,0.373,0.032,0.002,0.092,0.332]],"b":[-0.089,-0.144,-0.093,-0.032,0.019,0.172,0.182,0.07,0.075,0.057,0.088]},{"w":[[0.444,0.171,0.043,-0.009,0.51,0.029,0.041],[1.024,-0.025,0.125,-0.003,0.238,-0.102,0.138],[0.982,-0.051,0.02,0.003,0.177,-0.093,0.056],[-0.076,0.339,0.062,-0.005,0.562,0.013,0.037],[0.012,0.438,0.007,-0.006,0.788,-0.02,0.156],[0.104,0.328,0.031,0.016,0.279,0.04,0.012],[-0.246,0.64,0.026,-0.004,0.567,-0.323,0.185],[-0.14,0.529,0.036,-0.004,0.237,0.314,0.045],[0.599,0.018,0.013,-0.0,0.115,-0.256,0.183],[-0.037,0.412,0.063,0.002,0.052,0.319,0.289]],"b":[-0.092,-0.156,-0.098,-0.035,0.005,0.171,0.165,0.066,0.059,0.031]},{"w":[[0.442,0.242,0.052,-0.008,0.523,0.087,-0.107],[1.031,-0.033,0.122,-0.003,0.242,-0.103,0.114],[0.98,0.011,0.028,0.003,0.188,-0.042,-0.079],[-0.071,0.29,0.055,-0.006,0.556,-0.024,0.12],[0.02,0.42,0.001,-0.006,0.791,-0.029,0.147],[0.106,0.308,0.028,0.016,0.276,0.025,0.046],[-0.239,0.649,0.023,-0.004,0.575,-0.31,0.117],[-0.137,0.51,0.032,-0.004,0.235,0.3,0.069],[0.607,0.028,0.011,-0.0,0.124,-0.241,0.112],[0.035,0.15,0.001,0.001,0.059,0.155,0.429]],"b":[-0.082,-0.151,-0.089,-0.039,0.01,0.169,0.175,0.066,0.069,0.064]},{"w":[[0.439,0.23,0.052,-0.008,0.518,0.075,-0.142,0.082],[1.026,-0.051,0.121,-0.003,0.235,-0.122,0.063,0.12],[0.977,-0.002,0.027,0.003,0.183,-0.056,-0.118,0.09],[-0.071,0.29,0.055,-0.006,0.556,-0.025,0.119,0.002],[0.016,0.4,0.001,-0.006,0.783,-0.049,0.091,0.13],[0.106,0.308,0.028,0.016,0.276,0.025,0.047,-0.002],[-0.245,0.623,0.023,-0.004,0.565,-0.337,0.043,0.173],[-0.138,0.505,0.032,-0.004,0.234,0.296,0.057,0.028],[0.601,0.002,0.01,-0.0,0.113,-0.268,0.039,0.172]],"b":[-0.088,-0.158,-0.095,-0.039,0.002,0.169,0.164,0.065,0.058]},{"w":[[0.515,0.197,0.047,-0.009,0.53,0.02,-0.116],[0.911,0.01,0.126,-0.003,0.226,-0.018,0.193],[0.876,-0.046,0.018,0.003,0.159,-0.04,0.177],[-0.076,0.352,0.063,-0.005,0.565,0.026,0.003],[-0.001,0.494,0.011,-0.006,0.799,0.037,0.028],[0.155,0.339,0.033,0.016,0.291,0.028,-0.084],[-0.381,0.689,0.027,-0.003,0.554,-0.217,0.23],[-0.304,0.522,0.032,-0.004,0.205,0.382,0.274],[-0.118,0.507,0.07,0.003,0.059,0.443,0.144],[-0.188,0.342,0.025,0.002,0.046,0.4,0.349]],"b":[-0.08,-0.159,-0.107,-0.032,0.017,0.178,0.164,0.05,0.046,0.062]},{"w":[[0.527,0.174,0.045,-0.009,0.526,-0.006,-0.139,0.066],[0.932,-0.028,0.123,-0.003,0.221,-0.062,0.154,0.11],[0.881,-0.054,0.018,0.003,0.158,-0.05,0.168,0.025],[-0.069,0.339,0.062,-0.005,0.563,0.01,-0.011,0.039],[0.029,0.438,0.007,-0.006,0.791,-0.028,-0.028,0.161],[0.161,0.329,0.033,0.016,0.29,0.016,-0.094,0.029],[-0.352,0.637,0.023,-0.004,0.547,-0.278,0.176,0.153],[-0.305,0.524,0.032,-0.004,0.205,0.384,0.276,-0.006],[-0.065,0.411,0.063,0.002,0.046,0.331,0.046,0.281]],"b":[-0.084,-0.165,-0.108,-0.035,0.007,0.177,0.155,0.05,0.028]},{"w":[[0.504,0.245,0.054,-0.008,0.535,0.063,-0.102,-0.096],[0.922,-0.038,0.12,-0.003,0.22,-0.06,0.179,0.094],[0.864,0.006,0.026,0.003,0.165,0.004,0.192,-0.101],[-0.062,0.291,0.055,-0.006,0.558,-0.028,-0.015,0.122],[0.016,0.42,0.001,-0.006,0.79,-0.028,0.007,0.146],[0.162,0.311,0.029,0.016,0.288,0.003,-0.092,0.056],[-0.37,0.642,0.021,-0.004,0.549,-0.258,0.216,0.093],[-0.299,0.502,0.029,-0.004,0.202,0.365,0.268,0.039],[-0.141,0.142,-0.002,0.001,0.023,0.225,0.292,0.396]],"b":[-0.075,-0.163,-0.102,-0.038,0.01,0.176,0.16,0.048,0.044]},{"w":[[0.519,0.23,0.054,-0.008,0.533,0.039,-0.133,-0.137,0.104],[0.935,-0.051,0.12,-0.003,0.218,-0.081,0.152,0.057,0.094],[0.873,-0.003,0.026,0.003,0.163,-0.009,0.174,-0.125,0.06],[-0.061,0.29,0.055,-0.006,0.558,-0.029,-0.017,0.12,0.005],[0.035,0.4,0.001,-0.007,0.787,-0.058,-0.033,0.092,0.135],[0.164,0.309,0.029,0.016,0.287,-0.001,-0.097,0.051,0.015],[-0.35,0.622,0.021,-0.004,0.545,-0.29,0.175,0.036,0.143],[-0.302,0.505,0.029,-0.004,0.203,0.369,0.273,0.046,-0.019]],"b":[-0.08,-0.167,-0.105,-0.038,0.004,0.175,0.154,0.049]},{"w":[[0.455,0.155,0.042,-0.008,0.5,0.077],[1.052,-0.122,0.121,-0.003,0.191,0.15],[0.986,-0.079,0.019,0.003,0.164,0.002],[-0.061,0.293,0.059,-0.005,0.539,0.101],[0.042,0.376,0.004,-0.005,0.751,0.185],[0.116,0.295,0.029,0.017,0.263,0.086],[-0.144,0.108,-0.004,-0.003,0.342,0.578],[0.0,0.435,0.018,0.005,0.146,0.264],[0.643,-0.196,0.003,-0.0,0.021,0.211],[-0.018,0.636,0.076,0.005,0.112,0.194],[0.035,0.456,0.034,0.004,0.115,0.17]],"b":[-0.09,-0.177,-0.109,-0.041,-0.0,0.169,0.047,0.171,0.006,0.116,0.134]},{"w":[[0.454,0.138,0.041,-0.008,0.495,0.071,0.038],[1.048,-0.173,0.117,-0.003,0.178,0.131,0.112],[0.985,-0.099,0.018,0.002,0.159,-0.005,0.044],[-0.062,0.279,0.058,-0.005,0.536,0.096,0.03],[0.038,0.313,-0.001,-0.006,0.735,0.162,0.139],[0.115,0.291,0.029,0.017,0.262,0.084,0.01],[-0.147,0.067,-0.007,-0.003,0.332,0.562,0.09],[-0.004,0.382,0.014,0.004,0.132,0.244,0.118],[0.638,-0.256,-0.002,-0.001,0.006,0.189,0.131],[-0.029,0.49,0.065,0.004,0.075,0.14,0.321]],"b":[-0.095,-0.192,-0.115,-0.045,-0.019,0.168,0.035,0.155,-0.012,0.073]},{"w":[[0.453,0.219,0.05,-0.008,0.511,0.097,-0.1],[1.053,-0.167,0.116,-0.003,0.183,0.137,0.07],[0.985,-0.021,0.026,0.003,0.175,0.02,-0.093],[-0.059,0.227,0.052,-0.005,0.528,0.081,0.103],[0.045,0.302,-0.005,-0.006,0.738,0.162,0.116],[0.116,0.269,0.026,0.016,0.258,0.078,0.041],[-0.145,0.134,-0.001,-0.003,0.347,0.586,-0.042],[0.004,0.301,0.002,0.003,0.122,0.223,0.212],[0.643,-0.212,0.001,-0.0,0.018,0.206,0.024],[0.043,0.166,-0.0,0.001,0.064,0.081,0.455]],"b":[-0.079,-0.185,-0.099,-0.053,-0.014,0.164,0.052,0.147,0.003,0.081]},{"w":[[0.45,0.205,0.05,-0.008,0.505,0.09,-0.137,0.082],[1.049,-0.184,0.116,-0.003,0.176,0.128,0.022,0.105],[0.981,-0.035,0.026,0.003,0.169,0.013,-0.132,0.086],[-0.059,0.228,0.052,-0.005,0.528,0.081,0.104,-0.003],[0.039,0.283,-0.005,-0.006,0.731,0.153,0.062,0.119],[0.117,0.27,0.026,0.016,0.258,0.078,0.043,-0.004],[-0.15,0.114,-0.001,-0.003,0.339,0.576,-0.097,0.121],[0.001,0.291,0.002,0.003,0.119,0.218,0.185,0.058],[0.637,-0.236,0.001,-0.001,0.009,0.195,-0.041,0.144]],"b":[-0.085,-0.193,-0.106,-0.052,-0.024,0.165,0.042,0.142,-0.009]},{"w":[[0.547,0.128,0.043,-0.008,0.503,0.107,-0.142],[0.942,-0.088,0.121,-0.003,0.187,0.114,0.171],[0.863,-0.042,0.019,0.003,0.16,-0.038,0.191],[-0.045,0.288,0.059,-0.005,0.54,0.106,-0.024],[0.054,0.373,0.004,-0.005,0.752,0.189,-0.018],[0.188,0.274,0.029,0.017,0.265,0.109,-0.112],[-0.239,0.137,-0.004,-0.003,0.339,0.547,0.147],[0.145,0.391,0.018,0.004,0.151,0.311,-0.225],[-0.04,0.643,0.076,0.005,0.111,0.187,0.034],[-0.133,0.507,0.033,0.004,0.11,0.115,0.261]],"b":[-0.089,-0.177,-0.11,-0.041,-0.0,0.17,0.046,0.173,0.116,0.132]},{"w":[[0.554,0.098,0.041,-0.008,0.496,0.101,-0.158,0.059],[0.954,-0.136,0.117,-0.003,0.177,0.104,0.147,0.093],[0.866,-0.052,0.018,0.003,0.158,-0.04,0.186,0.019],[-0.041,0.27,0.058,-0.005,0.536,0.102,-0.033,0.034],[0.074,0.299,-0.001,-0.006,0.736,0.172,-0.056,0.146],[0.191,0.261,0.029,0.017,0.262,0.106,-0.118,0.025],[-0.229,0.1,-0.007,-0.003,0.331,0.538,0.128,0.074],[0.165,0.314,0.013,0.004,0.134,0.294,-0.264,0.152],[0.004,0.476,0.065,0.004,0.075,0.15,-0.051,0.328]],"b":[-0.097,-0.19,-0.113,-0.045,-0.02,0.167,0.037,0.152,0.072]},{"w":[[0.543,0.189,0.05,-0.008,0.513,0.125,-0.139,-0.096],[0.945,-0.131,0.116,-0.003,0.18,0.102,0.169,0.066],[0.859,0.021,0.026,0.003,0.171,-0.02,0.195,-0.097],[-0.041,0.222,0.052,-0.005,0.528,0.086,-0.028,0.103],[0.059,0.298,-0.005,-0.006,0.739,0.167,-0.022,0.117],[0.189,0.245,0.026,0.016,0.26,0.101,-0.113,0.044],[-0.241,0.166,-0.001,-0.003,0.344,0.555,0.149,-0.045],[0.153,0.252,0.002,0.003,0.127,0.271,-0.232,0.217],[-0.115,0.218,-0.001,0.001,0.06,0.031,0.245,0.449]],"b":[-0.078,-0.185,-0.099,-0.053,-0.014,0.165,0.052,0.147,0.08]},{"w":[[0.555,0.166,0.05,-0.008,0.507,0.122,-0.165,-0.144,0.106],[0.954,-0.149,0.116,-0.003,0.175,0.099,0.148,0.028,0.084],[0.866,0.008,0.026,0.003,0.168,-0.022,0.18,-0.124,0.06],[-0.041,0.221,0.052,-0.005,0.528,0.086,-0.028,0.103,0.001],[0.073,0.27,-0.005,-0.006,0.731,0.163,-0.053,0.06,0.126],[0.191,0.243,0.026,0.016,0.259,0.101,-0.116,0.038,0.013],[-0.229,0.143,-0.001,-0.003,0.338,0.552,0.123,-0.092,0.104],[0.164,0.231,0.002,0.003,0.121,0.268,-0.255,0.174,0.095]],"b":[-0.087,-0.192,-0.104,-0.053,-0.024,0.164,0.043,0.14]},{"w":[[0.455,0.147,0.042,-0.008,0.497,0.072,0.019],[1.052,-0.072,0.123,-0.002,0.208,0.181,-0.115],[0.986,-0.043,0.021,0.003,0.176,0.024,-0.083],[-0.061,0.296,0.06,-0.005,0.541,0.103,-0.009],[0.042,0.39,0.005,-0.005,0.756,0.194,-0.032],[0.116,0.288,0.029,0.017,0.26,0.081,0.017],[-0.144,0.323,0.005,-0.001,0.414,0.708,-0.494],[0.643,-0.07,0.008,0.001,0.063,0.287,-0.289],[-0.018,0.469,0.069,0.003,0.056,0.093,0.384],[0.035,0.324,0.029,0.002,0.071,0.09,0.303]],"b":[-0.094,-0.157,-0.095,-0.039,0.005,0.166,0.132,0.055,0.05,0.082]},{"w":[[0.454,0.135,0.041,-0.008,0.494,0.069,0.008,0.037],[1.048,-0.114,0.119,-0.003,0.198,0.169,-0.155,0.131],[0.984,-0.061,0.019,0.003,0.173,0.019,-0.1,0.055],[-0.062,0.286,0.059,-0.005,0.538,0.1,-0.018,0.032],[0.037,0.343,0.0,-0.006,0.745,0.18,-0.077,0.148],[0.115,0.285,0.029,0.017,0.26,0.08,0.015,0.008],[-0.149,0.273,0.001,-0.001,0.403,0.694,-0.541,0.154],[0.637,-0.125,0.003,0.001,0.051,0.272,-0.341,0.171],[-0.028,0.376,0.061,0.003,0.036,0.067,0.298,0.286]],"b":[-0.097,-0.167,-0.1,-0.042,-0.007,0.166,0.119,0.041,0.027]},{"w":[[0.453,0.2,0.05,-0.008,0.503,0.083,0.063,-0.113],[1.054,-0.12,0.116,-0.003,0.202,0.171,-0.155,0.103],[0.985,-0.005,0.027,0.003,0.181,0.032,-0.051,-0.082],[-0.059,0.243,0.052,-0.005,0.534,0.092,-0.052,0.114],[0.045,0.328,-0.005,-0.006,0.748,0.181,-0.084,0.134],[0.116,0.269,0.026,0.016,0.258,0.077,0.002,0.041],[-0.143,0.291,0.0,-0.001,0.41,0.702,-0.521,0.069],[0.645,-0.114,0.002,0.001,0.058,0.279,-0.325,0.093],[0.042,0.124,-0.001,0.001,0.047,0.05,0.14,0.425]],"b":[-0.088,-0.162,-0.091,-0.045,-0.002,0.164,0.128,0.051,0.061]},{"w":[[0.45,0.19,0.05,-0.008,0.499,0.079,0.051,-0.147,0.079],[1.049,-0.134,0.116,-0.003,0.197,0.166,-0.171,0.054,0.115],[0.981,-0.016,0.027,0.003,0.177,0.027,-0.064,-0.12,0.09],[-0.059,0.243,0.052,-0.005,0.534,0.092,-0.052,0.114,-0.0],[0.04,0.312,-0.005,-0.006,0.743,0.175,-0.101,0.081,0.125],[0.117,0.269,0.026,0.016,0.258,0.077,0.002,0.043,-0.004],[-0.149,0.272,0.0,-0.001,0.403,0.694,-0.542,0.003,0.153],[0.638,-0.134,0.002,0.001,0.05,0.27,-0.348,0.023,0.164]],"b":[-0.093,-0.169,-0.096,-0.045,-0.009,0.164,0.119,0.041]},{"w":[[0.55,0.137,0.043,-0.008,0.506,0.115,-0.024,-0.148],[0.952,-0.061,0.122,-0.003,0.198,0.136,-0.07,0.156],[0.867,-0.03,0.019,0.003,0.165,-0.029,-0.029,0.185],[-0.043,0.294,0.06,-0.005,0.542,0.111,-0.017,-0.028],[0.06,0.388,0.005,-0.005,0.758,0.201,-0.04,-0.027],[0.19,0.28,0.03,0.017,0.268,0.114,-0.016,-0.115],[-0.169,0.326,0.005,-0.001,0.412,0.697,-0.483,0.039],[-0.101,0.478,0.068,0.003,0.048,0.056,0.422,0.129],[-0.192,0.348,0.026,0.002,0.049,-0.011,0.405,0.352]],"b":[-0.085,-0.165,-0.105,-0.038,0.007,0.173,0.13,0.043,0.062]},{"w":[[0.563,0.114,0.041,-0.008,0.503,0.116,-0.051,-0.171,0.067],[0.973,-0.1,0.119,-0.003,0.193,0.137,-0.115,0.117,0.111],[0.872,-0.039,0.019,0.003,0.164,-0.029,-0.039,0.176,0.025],[-0.035,0.281,0.059,-0.005,0.54,0.111,-0.033,-0.042,0.039],[0.091,0.332,0.001,-0.006,0.75,0.203,-0.106,-0.084,0.162],[0.196,0.27,0.029,0.017,0.266,0.114,-0.028,-0.126,0.03],[-0.139,0.271,0.001,-0.001,0.404,0.699,-0.546,-0.016,0.157],[-0.047,0.38,0.061,0.003,0.034,0.059,0.308,0.03,0.281]],"b":[-0.09,-0.172,-0.107,-0.04,-0.004,0.171,0.12,0.025]},{"w":[[0.54,0.185,0.05,-0.008,0.511,0.12,0.019,-0.135,-0.1],[0.961,-0.104,0.116,-0.003,0.194,0.131,-0.108,0.144,0.089],[0.857,0.017,0.026,0.003,0.17,-0.023,0.013,0.198,-0.1],[-0.031,0.238,0.052,-0.005,0.537,0.104,-0.066,-0.043,0.118],[0.074,0.322,-0.005,-0.006,0.751,0.194,-0.098,-0.045,0.138],[0.195,0.255,0.026,0.017,0.265,0.111,-0.038,-0.122,0.052],[-0.162,0.295,0.0,-0.001,0.409,0.693,-0.511,0.03,0.066],[-0.152,0.159,-0.001,0.001,0.03,-0.034,0.237,0.301,0.397]],"b":[-0.081,-0.169,-0.101,-0.043,0.001,0.17,0.127,0.045]},{"w":[[0.556,0.168,0.05,-0.008,0.508,0.124,-0.007,-0.167,-0.143,0.107],[0.976,-0.119,0.116,-0.003,0.191,0.134,-0.131,0.115,0.051,0.096],[0.866,0.008,0.026,0.003,0.168,-0.021,-0.001,0.18,-0.124,0.06],[-0.03,0.237,0.052,-0.005,0.537,0.105,-0.068,-0.045,0.115,0.007],[0.095,0.3,-0.004,-0.006,0.747,0.198,-0.131,-0.087,0.083,0.139],[0.198,0.252,0.026,0.017,0.265,0.112,-0.042,-0.127,0.046,0.017],[-0.139,0.27,0.0,-0.001,0.404,0.698,-0.548,-0.016,0.004,0.156]],"b":[-0.086,-0.174,-0.104,-0.043,-0.006,0.17,0.12]},{"w":[[0.469,0.154,0.043,-0.008,0.466,0.111],[1.074,-0.114,0.124,-0.002,0.137,0.194],[0.996,-0.102,0.018,0.003,0.141,0.045],[-0.051,0.311,0.062,-0.005,0.516,0.105],[0.054,0.423,0.009,-0.005,0.72,0.17],[0.126,0.304,0.031,0.017,0.236,0.102],[-0.023,0.452,0.034,0.0,0.025,0.555],[-0.087,0.744,0.035,0.003,0.335,-0.202],[0.669,-0.173,0.007,0.0,-0.044,0.251],[-0.035,0.753,0.084,0.005,0.145,0.055],[0.069,0.444,0.036,0.004,0.034,0.258]],"b":[-0.094,-0.18,-0.115,-0.04,0.004,0.168,0.068,0.234,0.003,0.136,0.125]},{"w":[[0.467,0.14,0.042,-0.008,0.465,0.103,0.03],[1.067,-0.159,0.12,-0.003,0.134,0.168,0.101],[0.994,-0.119,0.017,0.003,0.14,0.035,0.038],[-0.053,0.3,0.061,-0.005,0.515,0.099,0.025],[0.045,0.364,0.004,-0.006,0.716,0.136,0.134],[0.126,0.303,0.031,0.017,0.236,0.101,0.003],[-0.024,0.447,0.034,0.0,0.025,0.552,0.011],[-0.099,0.667,0.029,0.002,0.33,-0.247,0.174],[0.661,-0.225,0.003,-0.0,-0.048,0.221,0.117],[-0.058,0.603,0.071,0.003,0.134,-0.033,0.338]],"b":[-0.097,-0.193,-0.119,-0.043,-0.013,0.168,0.066,0.212,-0.011,0.094]},{"w":[[0.466,0.222,0.051,-0.007,0.479,0.116,-0.091],[1.077,-0.175,0.117,-0.003,0.125,0.189,0.081],[0.993,-0.033,0.026,0.003,0.155,0.05,-0.092],[-0.048,0.228,0.052,-0.005,0.5,0.099,0.11],[0.058,0.324,-0.002,-0.006,0.701,0.163,0.133],[0.128,0.268,0.027,0.017,0.229,0.1,0.048],[-0.019,0.363,0.024,-0.0,0.008,0.548,0.119],[-0.078,0.554,0.014,0.002,0.299,-0.216,0.252],[0.671,-0.206,0.003,0.0,-0.05,0.248,0.043],[0.084,0.1,-0.002,0.002,-0.033,0.233,0.456]],"b":[-0.081,-0.191,-0.102,-0.055,-0.014,0.162,0.052,0.199,-0.003,0.063]},{"w":[[0.46,0.215,0.051,-0.008,0.481,0.099,-0.124,0.072],[1.07,-0.184,0.117,-0.003,0.128,0.169,0.042,0.086],[0.986,-0.041,0.026,0.003,0.157,0.031,-0.129,0.082],[-0.046,0.23,0.052,-0.005,0.499,0.103,0.117,-0.015],[0.05,0.313,-0.002,-0.006,0.705,0.138,0.085,0.105],[0.129,0.27,0.027,0.017,0.229,0.103,0.055,-0.016],[-0.016,0.366,0.024,-0.0,0.007,0.556,0.135,-0.034],[-0.087,0.544,0.014,0.002,0.302,-0.24,0.204,0.105],[0.66,-0.218,0.004,-0.0,-0.046,0.22,-0.012,0.121]],"b":[-0.086,-0.197,-0.107,-0.054,-0.021,0.163,0.054,0.193,-0.01]},{"w":[[0.575,0.126,0.045,-0.008,0.459,0.151,-0.159],[0.971,-0.087,0.123,-0.002,0.144,0.155,0.155],[0.873,-0.07,0.017,0.003,0.15,-0.001,0.184],[-0.03,0.306,0.062,-0.005,0.515,0.113,-0.031],[0.07,0.419,0.009,-0.005,0.719,0.176,-0.025],[0.209,0.283,0.032,0.017,0.231,0.133,-0.124],[-0.071,0.465,0.034,0.0,0.028,0.537,0.072],[-0.012,0.725,0.036,0.003,0.33,-0.174,-0.112],[-0.078,0.764,0.083,0.005,0.148,0.039,0.064],[-0.087,0.484,0.034,0.004,0.044,0.199,0.233]],"b":[-0.093,-0.181,-0.115,-0.04,0.004,0.168,0.068,0.234,0.136,0.124]},{"w":[[0.58,0.102,0.043,-0.008,0.457,0.141,-0.171,0.05],[0.978,-0.128,0.12,-0.003,0.14,0.138,0.135,0.085],[0.875,-0.079,0.017,0.003,0.149,-0.004,0.18,0.017],[-0.028,0.292,0.061,-0.005,0.513,0.108,-0.038,0.029],[0.083,0.351,0.004,-0.006,0.713,0.148,-0.057,0.141],[0.211,0.274,0.031,0.017,0.23,0.13,-0.128,0.018],[-0.071,0.463,0.034,0.0,0.028,0.536,0.071,0.003],[0.005,0.631,0.029,0.002,0.322,-0.212,-0.157,0.192],[-0.048,0.599,0.072,0.003,0.133,-0.029,-0.015,0.34]],"b":[-0.099,-0.191,-0.117,-0.044,-0.014,0.166,0.067,0.21,0.093]},{"w":[[0.569,0.19,0.051,-0.007,0.471,0.154,-0.154,-0.084],[0.976,-0.144,0.116,-0.003,0.133,0.152,0.15,0.075],[0.866,0.006,0.026,0.003,0.164,0.003,0.19,-0.1],[-0.022,0.221,0.053,-0.005,0.498,0.109,-0.039,0.112],[0.081,0.317,-0.002,-0.006,0.7,0.171,-0.033,0.134],[0.213,0.242,0.027,0.017,0.223,0.131,-0.127,0.054],[-0.062,0.376,0.024,-0.0,0.011,0.532,0.064,0.116],[0.008,0.528,0.014,0.002,0.292,-0.184,-0.129,0.258],[-0.052,0.142,-0.003,0.002,-0.022,0.182,0.204,0.448]],"b":[-0.082,-0.191,-0.102,-0.055,-0.015,0.161,0.052,0.199,0.063]},{"w":[[0.574,0.177,0.052,-0.008,0.473,0.137,-0.173,-0.126,0.093],[0.98,-0.154,0.117,-0.003,0.134,0.139,0.136,0.044,0.07],[0.869,-0.003,0.026,0.003,0.166,-0.008,0.178,-0.127,0.06],[-0.022,0.222,0.053,-0.005,0.498,0.111,-0.036,0.116,-0.01],[0.087,0.301,-0.002,-0.006,0.702,0.151,-0.056,0.084,0.112],[0.213,0.242,0.027,0.017,0.223,0.131,-0.127,0.054,-0.0],[-0.064,0.382,0.024,-0.0,0.01,0.54,0.073,0.136,-0.043],[0.015,0.51,0.015,0.002,0.295,-0.206,-0.154,0.202,0.124]],"b":[-0.088,-0.195,-0.106,-0.055,-0.022,0.161,0.055,0.191]},{"w":[[0.476,0.097,0.041,-0.008,0.44,0.126,0.076],[1.074,-0.11,0.124,-0.002,0.139,0.192,-0.006],[0.99,-0.053,0.021,0.003,0.164,0.032,-0.067],[-0.047,0.27,0.06,-0.005,0.497,0.117,0.056],[0.061,0.364,0.006,-0.005,0.694,0.186,0.08],[0.133,0.249,0.028,0.017,0.211,0.117,0.075],[0.02,0.08,0.017,-0.001,-0.143,0.656,0.5],[0.657,-0.072,0.012,0.001,0.002,0.223,-0.137],[0.005,0.416,0.068,0.003,-0.007,0.146,0.453],[0.105,0.129,0.021,0.003,-0.108,0.343,0.422]],"b":[-0.111,-0.179,-0.099,-0.053,-0.015,0.151,-0.049,0.035,0.03,0.026]},{"w":[[0.474,0.095,0.04,-0.008,0.442,0.12,0.068,0.018],[1.062,-0.124,0.122,-0.003,0.151,0.155,-0.052,0.11],[0.985,-0.06,0.02,0.003,0.17,0.013,-0.089,0.054],[-0.048,0.268,0.059,-0.005,0.499,0.111,0.049,0.016],[0.047,0.347,0.003,-0.006,0.708,0.142,0.025,0.13],[0.134,0.25,0.028,0.017,0.21,0.121,0.079,-0.011],[0.029,0.091,0.018,-0.001,-0.151,0.684,0.535,-0.082],[0.641,-0.091,0.009,0.0,0.018,0.171,-0.2,0.151],[-0.025,0.379,0.062,0.002,0.023,0.05,0.335,0.28]],"b":[-0.112,-0.182,-0.101,-0.054,-0.019,0.151,-0.047,0.031,0.023]},{"w":[[0.476,0.149,0.049,-0.008,0.439,0.144,0.132,-0.124],[1.073,-0.149,0.117,-0.003,0.139,0.179,-0.048,0.094],[0.991,-0.017,0.027,0.003,0.163,0.044,-0.028,-0.085],[-0.047,0.225,0.052,-0.005,0.498,0.101,0.007,0.108],[0.06,0.311,-0.003,-0.006,0.694,0.168,0.023,0.127],[0.133,0.235,0.026,0.017,0.211,0.112,0.06,0.033],[0.02,0.084,0.017,-0.001,-0.143,0.657,0.504,-0.008],[0.657,-0.108,0.006,0.0,0.003,0.21,-0.176,0.088],[0.103,-0.035,-0.006,0.002,-0.105,0.285,0.243,0.395]],"b":[-0.108,-0.182,-0.097,-0.056,-0.019,0.15,-0.049,0.032,0.014]},{"w":[[0.47,0.151,0.049,-0.008,0.446,0.127,0.118,-0.148,0.06],[1.064,-0.145,0.118,-0.003,0.149,0.152,-0.071,0.056,0.094],[0.982,-0.014,0.027,0.003,0.172,0.019,-0.049,-0.119,0.087],[-0.045,0.224,0.052,-0.005,0.496,0.105,0.011,0.114,-0.016],[0.049,0.315,-0.002,-0.006,0.706,0.138,-0.003,0.085,0.106],[0.135,0.234,0.026,0.017,0.209,0.119,0.065,0.042,-0.023],[0.029,0.08,0.017,-0.001,-0.152,0.682,0.525,0.027,-0.089],[0.642,-0.103,0.007,0.0,0.018,0.17,-0.211,0.031,0.143]],"b":[-0.109,-0.183,-0.098,-0.056,-0.02,0.15,-0.047,0.03]},{"w":[[0.576,0.086,0.043,-0.008,0.441,0.16,0.055,-0.153],[0.971,-0.099,0.122,-0.003,0.138,0.157,0.016,0.157],[0.873,-0.04,0.019,0.003,0.163,-0.008,-0.042,0.179],[-0.03,0.268,0.06,-0.005,0.497,0.122,0.052,-0.026],[0.071,0.363,0.006,-0.005,0.694,0.19,0.078,-0.016],[0.21,0.24,0.03,0.017,0.211,0.143,0.059,-0.117],[-0.065,0.09,0.015,-0.002,-0.143,0.627,0.518,0.13],[-0.072,0.424,0.066,0.003,-0.007,0.12,0.469,0.117],[-0.082,0.15,0.018,0.003,-0.108,0.279,0.461,0.285]],"b":[-0.106,-0.184,-0.105,-0.052,-0.015,0.155,-0.053,0.026,0.016]},{"w":[[0.58,0.08,0.042,-0.008,0.445,0.148,0.035,-0.165,0.043],[0.978,-0.112,0.12,-0.003,0.148,0.132,-0.026,0.131,0.09],[0.875,-0.044,0.018,0.003,0.166,-0.016,-0.055,0.171,0.028],[-0.028,0.265,0.06,-0.005,0.499,0.117,0.043,-0.032,0.021],[0.082,0.342,0.004,-0.006,0.709,0.151,0.014,-0.055,0.138],[0.21,0.239,0.029,0.017,0.212,0.141,0.055,-0.119,0.007],[-0.074,0.105,0.017,-0.001,-0.154,0.656,0.567,0.16,-0.106],[-0.05,0.383,0.062,0.002,0.023,0.043,0.343,0.039,0.274]],"b":[-0.107,-0.186,-0.106,-0.053,-0.017,0.155,-0.052,0.022]},{"w":[[0.568,0.133,0.05,-0.008,0.44,0.174,0.107,-0.14,-0.112],[0.977,-0.133,0.117,-0.003,0.139,0.148,-0.022,0.147,0.081],[0.866,0.003,0.025,0.003,0.163,0.004,0.005,0.191,-0.101],[-0.022,0.221,0.053,-0.005,0.498,0.109,0.0,-0.039,0.112],[0.081,0.308,-0.002,-0.006,0.695,0.174,0.017,-0.031,0.13],[0.213,0.222,0.027,0.017,0.212,0.138,0.038,-0.122,0.044],[-0.067,0.098,0.016,-0.001,-0.143,0.629,0.527,0.132,-0.019],[-0.055,-0.009,-0.007,0.002,-0.106,0.234,0.285,0.241,0.374]],"b":[-0.103,-0.187,-0.103,-0.055,-0.018,0.154,-0.053,0.006]},{"w":[[0.573,0.134,0.051,-0.008,0.449,0.154,0.084,-0.16,-0.143,0.082],[0.981,-0.132,0.117,-0.003,0.147,0.13,-0.044,0.129,0.052,0.075],[0.869,0.004,0.026,0.003,0.169,-0.011,-0.012,0.176,-0.125,0.062],[-0.022,0.22,0.053,-0.005,0.497,0.112,0.003,-0.036,0.116,-0.011],[0.087,0.309,-0.002,-0.006,0.707,0.148,-0.015,-0.058,0.087,0.114],[0.213,0.222,0.027,0.017,0.211,0.139,0.04,-0.121,0.046,-0.005],[-0.073,0.097,0.016,-0.001,-0.155,0.655,0.559,0.159,0.023,-0.112]],"b":[-0.104,-0.187,-0.103,-0.055,-0.019,0.154,-0.052]},{"w":[[0.469,0.145,0.043,-0.008,0.465,0.1,0.02],[1.076,-0.14,0.122,-0.002,0.135,0.162,0.057],[0.995,-0.086,0.02,0.003,0.142,0.064,-0.035],[-0.05,0.285,0.06,-0.005,0.514,0.073,0.059],[0.057,0.366,0.004,-0.005,0.717,0.099,0.128],[0.127,0.287,0.029,0.017,0.235,0.081,0.039],[-0.074,0.491,0.016,0.003,0.321,-0.512,0.56],[0.671,-0.217,0.004,0.0,-0.046,0.197,0.097],[-0.029,0.644,0.075,0.005,0.139,-0.078,0.24],[0.069,0.43,0.035,0.004,0.033,0.241,0.031]],"b":[-0.095,-0.184,-0.112,-0.044,-0.005,0.165,0.195,-0.004,0.12,0.122]},{"w":[[0.467,0.132,0.042,-0.008,0.464,0.093,0.019,0.03],[1.069,-0.183,0.118,-0.003,0.132,0.138,0.054,0.1],[0.993,-0.103,0.018,0.003,0.141,0.055,-0.036,0.039],[-0.052,0.274,0.059,-0.005,0.514,0.067,0.058,0.024],[0.048,0.309,-0.0,-0.006,0.713,0.067,0.124,0.133],[0.127,0.286,0.029,0.017,0.235,0.08,0.039,0.003],[-0.085,0.419,0.01,0.002,0.316,-0.553,0.555,0.168],[0.663,-0.267,-0.0,-0.0,-0.05,0.169,0.094,0.115],[-0.052,0.5,0.064,0.003,0.128,-0.159,0.229,0.336]],"b":[-0.099,-0.196,-0.117,-0.047,-0.021,0.165,0.175,-0.018,0.078]},{"w":[[0.467,0.206,0.05,-0.007,0.479,0.093,0.043,-0.096],[1.078,-0.189,0.116,-0.003,0.125,0.168,0.038,0.077],[0.993,-0.028,0.026,0.003,0.155,0.057,-0.013,-0.09],[-0.047,0.216,0.052,-0.005,0.5,0.081,0.033,0.106],[0.06,0.288,-0.005,-0.006,0.7,0.109,0.099,0.121],[0.129,0.258,0.026,0.017,0.229,0.084,0.028,0.045],[-0.068,0.368,0.001,0.002,0.295,-0.497,0.514,0.191],[0.672,-0.238,0.001,0.0,-0.051,0.199,0.09,0.033],[0.083,0.129,-0.0,0.002,-0.032,0.277,-0.081,0.466]],"b":[-0.084,-0.193,-0.102,-0.057,-0.02,0.16,0.173,-0.007,0.067]},{"w":[[0.461,0.197,0.05,-0.008,0.481,0.072,0.049,-0.13,0.074],[1.07,-0.2,0.116,-0.003,0.128,0.144,0.045,0.036,0.088],[0.986,-0.039,0.026,0.003,0.157,0.035,-0.007,-0.128,0.082],[-0.046,0.218,0.052,-0.005,0.499,0.085,0.032,0.112,-0.014],[0.051,0.274,-0.005,-0.006,0.704,0.079,0.108,0.07,0.109],[0.13,0.26,0.026,0.017,0.229,0.088,0.027,0.052,-0.015],[-0.078,0.352,0.001,0.002,0.299,-0.532,0.524,0.134,0.123],[0.662,-0.254,0.001,-0.0,-0.047,0.165,0.1,-0.025,0.124]],"b":[-0.089,-0.199,-0.107,-0.056,-0.027,0.161,0.164,-0.016]},{"w":[[0.578,0.11,0.043,-0.008,0.458,0.132,0.035,-0.162],[0.974,-0.107,0.121,-0.002,0.143,0.132,0.042,0.152],[0.87,-0.046,0.019,0.003,0.151,0.028,-0.053,0.187],[-0.026,0.277,0.06,-0.005,0.513,0.08,0.062,-0.036],[0.08,0.358,0.005,-0.005,0.716,0.106,0.131,-0.034],[0.213,0.259,0.03,0.017,0.229,0.106,0.051,-0.127],[0.029,0.457,0.016,0.003,0.314,-0.482,0.575,-0.154],[-0.061,0.655,0.075,0.005,0.141,-0.088,0.235,0.047],[-0.087,0.48,0.034,0.004,0.044,0.195,0.008,0.232]],"b":[-0.096,-0.184,-0.112,-0.044,-0.005,0.165,0.195,0.12,0.123]},{"w":[[0.582,0.086,0.042,-0.008,0.456,0.122,0.035,-0.173,0.05],[0.981,-0.147,0.118,-0.003,0.139,0.116,0.041,0.132,0.085],[0.871,-0.054,0.018,0.003,0.15,0.024,-0.053,0.183,0.017],[-0.023,0.263,0.059,-0.005,0.511,0.074,0.062,-0.043,0.029],[0.092,0.291,-0.0,-0.006,0.71,0.079,0.13,-0.066,0.14],[0.214,0.251,0.029,0.017,0.229,0.102,0.051,-0.132,0.018],[0.046,0.366,0.01,0.002,0.306,-0.519,0.573,-0.198,0.191],[-0.031,0.492,0.064,0.003,0.126,-0.154,0.232,-0.032,0.339]],"b":[-0.102,-0.194,-0.114,-0.048,-0.023,0.163,0.171,0.078]},{"w":[[0.572,0.169,0.05,-0.007,0.471,0.124,0.057,-0.157,-0.091],[0.978,-0.154,0.116,-0.003,0.132,0.139,0.025,0.148,0.072],[0.864,0.017,0.026,0.003,0.165,0.019,-0.03,0.192,-0.096],[-0.019,0.207,0.052,-0.005,0.498,0.089,0.037,-0.041,0.107],[0.087,0.278,-0.005,-0.006,0.698,0.117,0.102,-0.04,0.122],[0.216,0.227,0.026,0.017,0.222,0.11,0.04,-0.13,0.049],[0.041,0.329,0.002,0.002,0.287,-0.465,0.529,-0.163,0.196],[-0.059,0.179,-0.0,0.002,-0.021,0.235,-0.1,0.21,0.459]],"b":[-0.085,-0.192,-0.1,-0.057,-0.02,0.159,0.171,0.068]},{"w":[[0.578,0.152,0.05,-0.008,0.473,0.101,0.066,-0.178,-0.135,0.096],[0.982,-0.167,0.116,-0.003,0.134,0.122,0.032,0.133,0.039,0.071],[0.867,0.007,0.026,0.003,0.166,0.005,-0.024,0.179,-0.124,0.059],[-0.02,0.208,0.052,-0.005,0.497,0.092,0.036,-0.039,0.111,-0.009],[0.094,0.257,-0.005,-0.006,0.701,0.089,0.114,-0.064,0.068,0.117],[0.216,0.227,0.026,0.017,0.222,0.11,0.04,-0.13,0.048,0.001],[0.05,0.303,0.002,0.002,0.29,-0.5,0.543,-0.194,0.129,0.147]],"b":[-0.091,-0.197,-0.104,-0.057,-0.028,0.159,0.161]},{"w":[[0.476,0.1,0.041,-0.008,0.436,0.147,-0.032,0.092],[1.072,-0.116,0.122,-0.002,0.151,0.138,0.083,-0.047],[0.99,-0.053,0.021,0.003,0.164,0.029,0.003,-0.068],[-0.047,0.267,0.059,-0.005,0.503,0.092,0.038,0.037],[0.058,0.355,0.004,-0.005,0.71,0.111,0.115,0.023],[0.133,0.249,0.028,0.017,0.211,0.12,-0.004,0.077],[0.652,-0.091,0.008,0.001,0.036,0.065,0.241,-0.257],[0.005,0.417,0.068,0.003,-0.01,0.159,-0.019,0.463],[0.111,0.152,0.026,0.003,-0.149,0.53,-0.286,0.565]],"b":[-0.113,-0.175,-0.099,-0.051,-0.01,0.15,0.047,0.029,0.012]},{"w":[[0.474,0.097,0.041,-0.008,0.438,0.139,-0.027,0.083,0.016],[1.059,-0.135,0.119,-0.003,0.168,0.075,0.117,-0.115,0.119],[0.984,-0.061,0.019,0.003,0.172,0.0,0.019,-0.099,0.055],[-0.05,0.264,0.059,-0.005,0.505,0.081,0.044,0.026,0.02],[0.043,0.333,0.0,-0.006,0.731,0.035,0.156,-0.058,0.142],[0.134,0.251,0.028,0.017,0.209,0.126,-0.007,0.083,-0.011],[0.633,-0.118,0.003,0.001,0.062,-0.028,0.291,-0.356,0.175],[-0.027,0.374,0.061,0.003,0.033,0.008,0.062,0.302,0.285]],"b":[-0.113,-0.176,-0.1,-0.052,-0.011,0.151,0.045,0.026]},{"w":[[0.477,0.151,0.05,-0.008,0.435,0.167,-0.034,0.149,-0.124],[1.072,-0.156,0.116,-0.003,0.152,0.123,0.085,-0.091,0.094],[0.991,-0.018,0.027,0.003,0.163,0.043,0.002,-0.029,-0.085],[-0.048,0.221,0.052,-0.005,0.504,0.075,0.04,-0.013,0.108],[0.058,0.301,-0.005,-0.006,0.711,0.091,0.117,-0.037,0.128],[0.133,0.235,0.026,0.017,0.211,0.115,-0.003,0.061,0.033],[0.652,-0.129,0.002,0.001,0.037,0.051,0.243,-0.299,0.09],[0.109,-0.012,-0.001,0.001,-0.145,0.468,-0.278,0.383,0.393]],"b":[-0.109,-0.178,-0.097,-0.055,-0.013,0.15,0.044,0.001]},{"w":[[0.471,0.152,0.05,-0.008,0.443,0.14,-0.018,0.127,-0.147,0.058],[1.06,-0.155,0.116,-0.003,0.167,0.074,0.114,-0.131,0.053,0.104],[0.981,-0.017,0.027,0.003,0.176,0.001,0.027,-0.063,-0.12,0.089],[-0.047,0.221,0.052,-0.005,0.502,0.081,0.036,-0.008,0.113,-0.013],[0.045,0.303,-0.005,-0.006,0.728,0.035,0.151,-0.082,0.081,0.119],[0.135,0.235,0.026,0.017,0.208,0.126,-0.01,0.07,0.042,-0.023],[0.634,-0.127,0.002,0.001,0.062,-0.028,0.29,-0.363,0.023,0.169]],"b":[-0.109,-0.178,-0.097,-0.055,-0.013,0.15,0.044]},{"w":[[0.576,0.086,0.042,-0.008,0.441,0.157,0.005,0.052,-0.154],[0.974,-0.103,0.121,-0.002,0.145,0.128,0.047,-0.008,0.151],[0.87,-0.036,0.019,0.003,0.158,0.017,-0.041,-0.021,0.184],[-0.027,0.264,0.059,-0.005,0.504,0.094,0.045,0.029,-0.031],[0.079,0.352,0.004,-0.005,0.711,0.113,0.123,0.015,-0.032],[0.211,0.238,0.029,0.017,0.215,0.128,0.025,0.046,-0.12],[-0.075,0.429,0.067,0.003,-0.014,0.151,-0.049,0.495,0.123],[-0.106,0.183,0.023,0.002,-0.161,0.509,-0.366,0.65,0.332]],"b":[-0.106,-0.182,-0.108,-0.05,-0.008,0.156,0.023,-0.003]},{"w":[[0.581,0.077,0.041,-0.008,0.449,0.134,0.022,0.023,-0.169,0.046],[0.984,-0.121,0.119,-0.003,0.161,0.078,0.083,-0.073,0.118,0.099],[0.873,-0.041,0.019,0.003,0.161,0.005,-0.032,-0.037,0.176,0.024],[-0.024,0.259,0.059,-0.005,0.508,0.08,0.055,0.011,-0.04,0.027],[0.096,0.323,0.001,-0.006,0.736,0.033,0.18,-0.088,-0.084,0.157],[0.213,0.236,0.029,0.017,0.217,0.122,0.029,0.039,-0.124,0.01],[-0.046,0.377,0.061,0.003,0.031,0.009,0.053,0.313,0.03,0.28]],"b":[-0.106,-0.182,-0.108,-0.05,-0.008,0.156,0.024]},{"w":[[0.568,0.133,0.05,-0.008,0.44,0.174,-0.0,0.108,-0.14,-0.112],[0.98,-0.138,0.116,-0.003,0.146,0.116,0.051,-0.049,0.141,0.082],[0.863,0.008,0.026,0.003,0.156,0.033,-0.046,0.03,0.197,-0.102],[-0.018,0.216,0.052,-0.005,0.505,0.077,0.051,-0.027,-0.045,0.113],[0.089,0.295,-0.005,-0.006,0.713,0.093,0.129,-0.051,-0.048,0.132],[0.215,0.219,0.026,0.017,0.216,0.121,0.027,0.024,-0.126,0.044],[-0.078,0.025,-0.001,0.001,-0.155,0.453,-0.348,0.469,0.287,0.367]],"b":[-0.103,-0.184,-0.105,-0.053,-0.011,0.155,-0.012]},{"w":[[0.575,0.131,0.05,-0.008,0.453,0.135,0.03,0.067,-0.164,-0.143,0.086],[0.987,-0.14,0.116,-0.003,0.159,0.078,0.08,-0.088,0.116,0.051,0.084],[0.867,0.006,0.026,0.003,0.165,0.006,-0.026,0.002,0.18,-0.124,0.059],[-0.019,0.216,0.052,-0.005,0.504,0.079,0.049,-0.024,-0.044,0.114,-0.005],[0.1,0.292,-0.004,-0.006,0.734,0.032,0.176,-0.114,-0.086,0.083,0.134],[0.215,0.219,0.026,0.017,0.215,0.122,0.027,0.025,-0.125,0.045,-0.002]],"b":[-0.102,-0.183,-0.105,-0.053,-0.01,0.155]},{"w":[[0.419,0.551,0.061,-0.011,0.178],[1.015,0.126,0.134,-0.005,0.111],[0.98,0.042,0.025,0.002,0.033],[-0.094,0.79,0.085,-0.006,0.105],[-0.007,1.138,0.044,-0.006,0.108],[-0.025,0.784,0.04,-0.0,0.109],[-0.25,0.922,0.042,-0.005,0.11],[-0.164,0.975,0.058,-0.003,0.077],[-0.047,0.804,0.039,0.004,0.043],[0.613,0.058,0.018,-0.0,-0.034],[-0.055,0.897,0.09,0.004,0.055],[0.003,0.706,0.048,0.003,0.035]],"b":[-0.038,-0.143,-0.091,0.039,0.128,0.132,0.184,0.171,0.234,0.056,0.158,0.176]},{"w":[[0.418,0.501,0.058,-0.011,0.175,0.072],[1.015,0.032,0.127,-0.005,0.106,0.134],[0.98,0.006,0.023,0.002,0.031,0.052],[-0.094,0.739,0.082,-0.006,0.103,0.072],[-0.008,0.997,0.035,-0.007,0.101,0.2],[-0.025,0.74,0.037,-0.0,0.106,0.061],[-0.251,0.803,0.034,-0.006,0.105,0.169],[-0.164,0.901,0.053,-0.003,0.074,0.106],[-0.048,0.697,0.031,0.003,0.037,0.152],[0.613,-0.05,0.011,-0.0,-0.04,0.153],[-0.056,0.657,0.074,0.003,0.043,0.34]],"b":[-0.05,-0.167,-0.1,0.026,0.092,0.121,0.155,0.152,0.207,0.03,0.098]},{"w":[[0.416,0.596,0.066,-0.01,0.18,-0.05],[1.021,0.035,0.125,-0.005,0.105,0.102],[0.976,0.11,0.032,0.003,0.037,-0.076],[-0.086,0.648,0.071,-0.007,0.097,0.158],[0.004,0.955,0.026,-0.007,0.097,0.205],[-0.02,0.707,0.032,-0.001,0.104,0.085],[-0.246,0.849,0.035,-0.006,0.106,0.081],[-0.155,0.829,0.043,-0.004,0.068,0.164],[-0.033,0.572,0.015,0.003,0.029,0.258],[0.617,0.001,0.013,-0.0,-0.038,0.064],[0.029,0.281,0.005,0.001,0.009,0.474]],"b":[-0.03,-0.16,-0.079,0.014,0.095,0.119,0.172,0.145,0.193,0.046,0.101]},{"w":[[0.413,0.566,0.065,-0.01,0.179,-0.1,0.106],[1.017,0.002,0.124,-0.005,0.104,0.045,0.119],[0.973,0.084,0.032,0.003,0.036,-0.12,0.093],[-0.086,0.642,0.071,-0.007,0.096,0.148,0.022],[-0.001,0.911,0.025,-0.007,0.095,0.131,0.156],[-0.021,0.697,0.032,-0.001,0.104,0.067,0.039],[-0.25,0.802,0.034,-0.006,0.104,0.002,0.168],[-0.157,0.812,0.043,-0.004,0.068,0.135,0.06],[-0.035,0.55,0.015,0.003,0.028,0.222,0.076],[0.612,-0.043,0.012,-0.0,-0.039,-0.01,0.156]],"b":[-0.041,-0.172,-0.088,0.012,0.08,0.115,0.155,0.139,0.186,0.031]},{"w":[[0.463,0.556,0.063,-0.011,0.175,-0.072],[0.881,0.114,0.13,-0.005,0.119,0.218],[0.86,0.031,0.022,0.002,0.04,0.196],[-0.121,0.787,0.084,-0.006,0.107,0.043],[-0.058,1.133,0.043,-0.006,0.111,0.083],[-0.07,0.779,0.039,-0.0,0.111,0.073],[-0.437,0.904,0.036,-0.005,0.121,0.305],[-0.31,0.961,0.054,-0.003,0.086,0.239],[0.038,0.812,0.041,0.004,0.038,-0.14],[-0.11,0.892,0.089,0.004,0.058,0.089],[-0.18,0.688,0.043,0.003,0.045,0.298]],"b":[-0.034,-0.156,-0.102,0.036,0.123,0.128,0.167,0.157,0.242,0.152,0.159]},{"w":[[0.478,0.496,0.059,-0.011,0.171,-0.098,0.087],[0.9,0.041,0.125,-0.005,0.114,0.187,0.106],[0.864,0.015,0.021,0.002,0.039,0.189,0.023],[-0.109,0.74,0.081,-0.006,0.104,0.023,0.068],[-0.023,0.998,0.034,-0.007,0.102,0.024,0.197],[-0.06,0.743,0.037,-0.0,0.109,0.058,0.052],[-0.414,0.816,0.031,-0.006,0.115,0.267,0.128],[-0.297,0.912,0.05,-0.003,0.082,0.217,0.072],[0.071,0.687,0.033,0.003,0.03,-0.194,0.181],[-0.048,0.656,0.074,0.003,0.042,-0.013,0.342]],"b":[-0.047,-0.173,-0.105,0.026,0.092,0.12,0.147,0.146,0.213,0.098]},{"w":[[0.458,0.596,0.067,-0.01,0.178,-0.068,-0.046],[0.891,0.035,0.122,-0.005,0.113,0.211,0.088],[0.85,0.11,0.03,0.003,0.045,0.204,-0.089],[-0.104,0.648,0.07,-0.007,0.098,0.029,0.156],[-0.036,0.954,0.025,-0.007,0.099,0.065,0.201],[-0.061,0.707,0.032,-0.0,0.106,0.066,0.081],[-0.43,0.849,0.031,-0.006,0.117,0.3,0.062],[-0.294,0.828,0.04,-0.004,0.077,0.225,0.149],[0.068,0.572,0.017,0.003,0.022,-0.164,0.269],[-0.129,0.281,0.002,0.001,0.019,0.257,0.457]],"b":[-0.027,-0.169,-0.088,0.013,0.092,0.116,0.158,0.134,0.201,0.089]},{"w":[[0.473,0.562,0.067,-0.01,0.175,-0.099,-0.101,0.122],[0.902,0.01,0.122,-0.005,0.112,0.188,0.047,0.09],[0.859,0.092,0.03,0.003,0.044,0.187,-0.118,0.064],[-0.101,0.643,0.07,-0.007,0.097,0.025,0.148,0.018],[-0.016,0.912,0.025,-0.007,0.096,0.026,0.131,0.152],[-0.057,0.699,0.032,-0.001,0.106,0.059,0.067,0.029],[-0.414,0.813,0.031,-0.006,0.115,0.267,0.004,0.127],[-0.291,0.821,0.04,-0.004,0.076,0.219,0.138,0.025],[0.081,0.542,0.017,0.002,0.02,-0.191,0.22,0.106]],"b":[-0.038,-0.177,-0.094,0.011,0.079,0.113,0.146,0.132,0.192]},{"w":[[0.425,0.447,0.056,-0.011,0.172,0.13],[1.014,0.139,0.134,-0.005,0.112,-0.016],[0.978,0.076,0.027,0.003,0.035,-0.041],[-0.088,0.685,0.08,-0.006,0.1,0.13],[0.001,0.99,0.037,-0.007,0.1,0.184],[-0.015,0.628,0.033,-0.001,0.1,0.193],[-0.257,1.046,0.048,-0.005,0.117,-0.155],[-0.146,0.677,0.044,-0.004,0.061,0.371],[0.605,0.191,0.025,0.001,-0.027,-0.165],[-0.035,0.554,0.074,0.002,0.037,0.427],[0.02,0.425,0.035,0.002,0.02,0.349]],"b":[-0.068,-0.14,-0.081,0.008,0.084,0.087,0.221,0.084,0.095,0.058,0.094]},{"w":[[0.424,0.423,0.055,-0.011,0.171,0.111,0.055],[1.011,0.078,0.129,-0.005,0.109,-0.067,0.145],[0.977,0.049,0.025,0.002,0.034,-0.063,0.062],[-0.089,0.662,0.078,-0.006,0.099,0.111,0.055],[-0.002,0.913,0.031,-0.007,0.096,0.121,0.182],[-0.016,0.614,0.032,-0.001,0.1,0.181,0.034],[-0.261,0.96,0.041,-0.005,0.113,-0.225,0.203],[-0.147,0.655,0.042,-0.004,0.06,0.353,0.052],[0.602,0.111,0.018,0.0,-0.031,-0.231,0.188],[-0.041,0.43,0.064,0.002,0.031,0.326,0.291]],"b":[-0.073,-0.153,-0.087,0.003,0.067,0.084,0.201,0.079,0.077,0.03]},{"w":[[0.421,0.499,0.063,-0.011,0.175,0.17,-0.094],[1.018,0.074,0.126,-0.005,0.107,-0.067,0.119],[0.976,0.116,0.032,0.003,0.038,-0.01,-0.073],[-0.083,0.608,0.07,-0.007,0.095,0.071,0.139],[0.007,0.892,0.024,-0.007,0.093,0.109,0.177],[-0.014,0.607,0.03,-0.001,0.099,0.176,0.039],[-0.253,0.971,0.038,-0.005,0.112,-0.213,0.136],[-0.144,0.635,0.038,-0.005,0.059,0.339,0.076],[0.609,0.125,0.016,0.0,-0.032,-0.216,0.12],[0.035,0.187,0.003,0.001,0.004,0.165,0.431]],"b":[-0.063,-0.147,-0.077,0.0,0.074,0.085,0.213,0.079,0.088,0.069]},{"w":[[0.418,0.481,0.063,-0.011,0.175,0.155,-0.135,0.094],[1.014,0.05,0.125,-0.005,0.107,-0.088,0.065,0.126],[0.972,0.098,0.032,0.003,0.037,-0.026,-0.114,0.095],[-0.084,0.605,0.07,-0.007,0.095,0.068,0.132,0.016],[0.002,0.864,0.024,-0.008,0.093,0.084,0.112,0.149],[-0.015,0.602,0.03,-0.001,0.099,0.172,0.028,0.026],[-0.259,0.936,0.037,-0.005,0.111,-0.244,0.056,0.187],[-0.145,0.629,0.038,-0.005,0.059,0.333,0.061,0.034],[0.603,0.092,0.015,0.0,-0.033,-0.245,0.044,0.175]],"b":[-0.069,-0.155,-0.083,-0.001,0.064,0.083,0.2,0.077,0.076]},{"w":[[0.458,0.457,0.058,-0.011,0.17,0.121,-0.055],[0.88,0.097,0.129,-0.005,0.118,0.02,0.221],[0.861,0.038,0.022,0.002,0.04,-0.009,0.195],[-0.126,0.673,0.078,-0.006,0.101,0.141,0.063],[-0.066,0.969,0.035,-0.007,0.103,0.203,0.111],[-0.078,0.609,0.03,-0.001,0.103,0.21,0.103],[-0.433,0.991,0.041,-0.005,0.125,-0.107,0.29],[-0.326,0.62,0.036,-0.005,0.07,0.42,0.297],[-0.127,0.525,0.07,0.002,0.041,0.452,0.152],[-0.195,0.357,0.026,0.001,0.03,0.408,0.355]],"b":[-0.063,-0.161,-0.099,0.002,0.074,0.077,0.193,0.055,0.043,0.06]},{"w":[[0.472,0.432,0.056,-0.011,0.168,0.092,-0.08,0.07],[0.902,0.058,0.126,-0.005,0.115,-0.025,0.182,0.11],[0.866,0.029,0.022,0.002,0.039,-0.02,0.185,0.027],[-0.117,0.657,0.077,-0.006,0.1,0.122,0.047,0.046],[-0.032,0.907,0.03,-0.007,0.098,0.132,0.05,0.173],[-0.075,0.603,0.03,-0.001,0.103,0.204,0.097,0.015],[-0.402,0.934,0.037,-0.005,0.12,-0.172,0.234,0.159],[-0.327,0.622,0.036,-0.005,0.07,0.422,0.299,-0.004],[-0.072,0.424,0.063,0.002,0.032,0.338,0.053,0.281]],"b":[-0.067,-0.167,-0.101,-0.0,0.063,0.076,0.183,0.056,0.026]},{"w":[[0.447,0.504,0.064,-0.011,0.174,0.161,-0.042,-0.089],[0.892,0.048,0.122,-0.005,0.114,-0.022,0.207,0.094],[0.848,0.09,0.029,0.003,0.044,0.035,0.21,-0.098],[-0.109,0.603,0.069,-0.007,0.096,0.08,0.043,0.134],[-0.045,0.882,0.023,-0.007,0.096,0.128,0.086,0.167],[-0.074,0.594,0.028,-0.001,0.102,0.198,0.099,0.027],[-0.42,0.936,0.034,-0.005,0.121,-0.153,0.275,0.103],[-0.321,0.599,0.033,-0.005,0.068,0.402,0.291,0.041],[-0.145,0.15,-0.002,0.001,0.014,0.229,0.295,0.396]],"b":[-0.059,-0.165,-0.095,-0.003,0.067,0.076,0.189,0.054,0.043]},{"w":[[0.462,0.488,0.064,-0.011,0.173,0.137,-0.073,-0.131,0.107],[0.906,0.034,0.123,-0.005,0.113,-0.044,0.179,0.057,0.094],[0.857,0.081,0.029,0.003,0.043,0.021,0.192,-0.123,0.061],[-0.108,0.601,0.069,-0.007,0.096,0.078,0.04,0.131,0.009],[-0.024,0.86,0.023,-0.008,0.094,0.095,0.044,0.11,0.142],[-0.073,0.593,0.028,-0.001,0.102,0.196,0.096,0.024,0.009],[-0.399,0.914,0.034,-0.005,0.119,-0.187,0.231,0.045,0.146],[-0.324,0.601,0.033,-0.005,0.068,0.406,0.296,0.048,-0.018]],"b":[-0.064,-0.169,-0.098,-0.004,0.061,0.075,0.182,0.054]},{"w":[[0.445,0.392,0.052,-0.01,0.165,0.163],[1.044,-0.048,0.124,-0.004,0.097,0.178],[0.986,0.009,0.023,0.002,0.03,0.034],[-0.06,0.589,0.073,-0.005,0.089,0.206],[0.048,0.808,0.025,-0.005,0.082,0.338],[0.009,0.582,0.028,0.0,0.093,0.206],[-0.145,0.294,0.005,-0.003,0.061,0.644],[0.001,0.518,0.022,0.004,0.02,0.293],[0.65,-0.159,0.006,0.001,-0.052,0.223],[-0.02,0.689,0.078,0.004,0.038,0.214],[0.035,0.518,0.037,0.003,0.02,0.192]],"b":[-0.066,-0.174,-0.096,0.004,0.07,0.097,0.075,0.184,0.018,0.121,0.143]},{"w":[[0.443,0.363,0.05,-0.01,0.164,0.153,0.056],[1.04,-0.109,0.119,-0.005,0.095,0.156,0.118],[0.984,-0.016,0.022,0.002,0.029,0.025,0.05],[-0.062,0.562,0.071,-0.005,0.088,0.197,0.051],[0.042,0.721,0.019,-0.006,0.078,0.306,0.168],[0.008,0.561,0.027,0.0,0.092,0.199,0.04],[-0.148,0.24,0.001,-0.004,0.059,0.624,0.103],[-0.004,0.454,0.017,0.004,0.018,0.27,0.123],[0.645,-0.228,0.001,0.0,-0.054,0.198,0.132],[-0.031,0.521,0.066,0.003,0.032,0.151,0.324]],"b":[-0.074,-0.191,-0.104,-0.004,0.046,0.091,0.06,0.167,-0.0,0.075]},{"w":[[0.444,0.447,0.058,-0.01,0.168,0.18,-0.079],[1.046,-0.099,0.118,-0.005,0.094,0.162,0.075],[0.984,0.067,0.03,0.003,0.034,0.052,-0.084],[-0.058,0.5,0.063,-0.006,0.084,0.179,0.128],[0.051,0.702,0.013,-0.006,0.076,0.305,0.155],[0.01,0.546,0.024,0.0,0.091,0.195,0.053],[-0.145,0.311,0.007,-0.003,0.062,0.649,-0.025],[0.005,0.367,0.005,0.004,0.012,0.247,0.218],[0.65,-0.179,0.003,0.001,-0.053,0.217,0.028],[0.044,0.203,0.001,0.001,0.002,0.094,0.458]],"b":[-0.056,-0.183,-0.086,-0.012,0.051,0.09,0.078,0.158,0.015,0.088]},{"w":[[0.439,0.427,0.058,-0.01,0.168,0.171,-0.123,0.096],[1.041,-0.122,0.118,-0.005,0.094,0.152,0.025,0.11],[0.98,0.049,0.03,0.003,0.033,0.044,-0.126,0.09],[-0.058,0.498,0.063,-0.006,0.084,0.178,0.123,0.011],[0.045,0.674,0.013,-0.006,0.075,0.292,0.092,0.138],[0.009,0.54,0.024,0.0,0.091,0.192,0.041,0.027],[-0.151,0.284,0.007,-0.003,0.061,0.637,-0.085,0.131],[0.002,0.355,0.005,0.003,0.012,0.241,0.19,0.062],[0.644,-0.208,0.003,0.0,-0.053,0.203,-0.038,0.144]],"b":[-0.064,-0.193,-0.094,-0.013,0.039,0.088,0.066,0.152,0.002]},{"w":[[0.522,0.373,0.053,-0.01,0.159,0.19,-0.117],[0.924,-0.018,0.122,-0.004,0.107,0.137,0.186],[0.857,0.041,0.022,0.002,0.041,-0.01,0.198],[-0.056,0.588,0.073,-0.005,0.089,0.208,-0.006],[0.047,0.809,0.025,-0.005,0.082,0.338,0.002],[-0.007,0.586,0.028,0.0,0.094,0.201,0.026],[-0.248,0.319,0.004,-0.003,0.069,0.608,0.16],[0.144,0.482,0.023,0.005,0.009,0.343,-0.221],[-0.046,0.695,0.078,0.004,0.04,0.205,0.04],[-0.138,0.561,0.035,0.003,0.034,0.133,0.266]],"b":[-0.063,-0.177,-0.1,0.004,0.07,0.096,0.072,0.188,0.12,0.138]},{"w":[[0.532,0.332,0.05,-0.01,0.156,0.18,-0.137,0.074],[0.937,-0.072,0.119,-0.005,0.104,0.124,0.16,0.097],[0.86,0.027,0.022,0.002,0.04,-0.013,0.192,0.024],[-0.049,0.558,0.071,-0.005,0.087,0.201,-0.02,0.054],[0.071,0.711,0.019,-0.006,0.076,0.315,-0.044,0.174],[-0.002,0.565,0.027,0.0,0.093,0.196,0.015,0.038],[-0.237,0.272,0.001,-0.004,0.066,0.597,0.137,0.085],[0.166,0.394,0.017,0.004,0.003,0.322,-0.263,0.158],[-0.001,0.51,0.066,0.003,0.029,0.161,-0.048,0.33]],"b":[-0.074,-0.191,-0.103,-0.004,0.046,0.091,0.06,0.166,0.075]},{"w":[[0.518,0.426,0.059,-0.01,0.162,0.205,-0.114,-0.076],[0.927,-0.067,0.117,-0.005,0.104,0.123,0.183,0.07],[0.853,0.103,0.029,0.003,0.044,0.008,0.202,-0.09],[-0.05,0.498,0.063,-0.006,0.084,0.181,-0.011,0.129],[0.054,0.701,0.013,-0.006,0.075,0.306,-0.004,0.155],[-0.005,0.55,0.024,0.0,0.092,0.19,0.023,0.052],[-0.25,0.34,0.006,-0.003,0.07,0.614,0.161,-0.029],[0.155,0.326,0.005,0.004,-0.001,0.297,-0.23,0.225],[-0.117,0.247,0.0,0.001,0.016,0.04,0.248,0.451]],"b":[-0.054,-0.186,-0.089,-0.012,0.051,0.09,0.075,0.161,0.084]},{"w":[[0.532,0.397,0.058,-0.01,0.16,0.201,-0.143,-0.129,0.116],[0.937,-0.088,0.117,-0.005,0.103,0.119,0.161,0.031,0.087],[0.86,0.088,0.029,0.003,0.043,0.006,0.186,-0.119,0.063],[-0.049,0.495,0.063,-0.006,0.084,0.181,-0.015,0.123,0.013],[0.071,0.665,0.013,-0.006,0.073,0.3,-0.04,0.09,0.144],[-0.002,0.544,0.024,0.0,0.091,0.189,0.017,0.041,0.025],[-0.237,0.312,0.006,-0.003,0.068,0.61,0.134,-0.08,0.111],[0.166,0.302,0.005,0.004,-0.002,0.293,-0.255,0.18,0.098]],"b":[-0.064,-0.193,-0.095,-0.013,0.039,0.088,0.066,0.153]},{"w":[[0.445,0.352,0.05,-0.01,0.163,0.141,0.078],[1.044,0.0,0.125,-0.004,0.099,0.205,-0.092],[0.986,0.041,0.025,0.003,0.032,0.052,-0.061],[-0.06,0.558,0.072,-0.006,0.088,0.189,0.06],[0.048,0.774,0.023,-0.006,0.08,0.319,0.066],[0.009,0.515,0.025,-0.0,0.09,0.168,0.131],[-0.144,0.522,0.014,-0.001,0.069,0.773,-0.442],[0.65,-0.015,0.012,0.002,-0.046,0.305,-0.278],[-0.02,0.486,0.069,0.003,0.03,0.099,0.39],[0.034,0.357,0.03,0.002,0.014,0.101,0.312]],"b":[-0.08,-0.157,-0.085,-0.007,0.058,0.073,0.156,0.07,0.049,0.086]},{"w":[[0.444,0.334,0.049,-0.01,0.163,0.136,0.063,0.048],[1.04,-0.048,0.121,-0.004,0.097,0.192,-0.134,0.135],[0.984,0.019,0.023,0.003,0.031,0.046,-0.079,0.059],[-0.062,0.541,0.07,-0.006,0.087,0.184,0.046,0.045],[0.042,0.715,0.018,-0.006,0.078,0.302,0.014,0.166],[0.008,0.506,0.025,-0.0,0.09,0.165,0.123,0.025],[-0.15,0.464,0.009,-0.002,0.067,0.757,-0.493,0.164],[0.644,-0.077,0.006,0.002,-0.049,0.287,-0.332,0.173],[-0.03,0.384,0.061,0.002,0.026,0.07,0.301,0.287]],"b":[-0.084,-0.168,-0.09,-0.011,0.044,0.071,0.142,0.055,0.025]},{"w":[[0.443,0.403,0.058,-0.01,0.167,0.151,0.119,-0.105],[1.046,-0.05,0.118,-0.004,0.096,0.195,-0.133,0.104],[0.984,0.078,0.03,0.003,0.034,0.06,-0.03,-0.078],[-0.058,0.496,0.063,-0.006,0.084,0.176,0.011,0.126],[0.051,0.699,0.013,-0.006,0.076,0.304,0.006,0.154],[0.01,0.502,0.023,-0.0,0.089,0.165,0.12,0.027],[-0.143,0.484,0.009,-0.002,0.067,0.766,-0.472,0.078],[0.652,-0.063,0.005,0.002,-0.049,0.295,-0.316,0.097],[0.043,0.149,0.001,0.001,0.001,0.058,0.145,0.426]],"b":[-0.075,-0.162,-0.081,-0.014,0.05,0.071,0.152,0.065,0.065]},{"w":[[0.439,0.389,0.058,-0.01,0.166,0.146,0.106,-0.143,0.089],[1.041,-0.068,0.118,-0.004,0.096,0.188,-0.15,0.053,0.119],[0.98,0.064,0.03,0.003,0.034,0.054,-0.044,-0.117,0.093],[-0.058,0.495,0.063,-0.006,0.084,0.176,0.009,0.122,0.01],[0.045,0.679,0.013,-0.006,0.075,0.296,-0.014,0.094,0.139],[0.009,0.499,0.023,-0.0,0.089,0.164,0.117,0.018,0.02],[-0.15,0.46,0.009,-0.002,0.067,0.756,-0.496,0.009,0.161],[0.645,-0.087,0.005,0.001,-0.049,0.285,-0.34,0.027,0.165]],"b":[-0.081,-0.17,-0.087,-0.014,0.041,0.07,0.142,0.054]},{"w":[[0.515,0.35,0.052,-0.01,0.158,0.173,0.048,-0.107],[0.93,0.003,0.123,-0.004,0.107,0.152,-0.043,0.176],[0.858,0.044,0.023,0.002,0.041,-0.008,-0.006,0.197],[-0.065,0.558,0.072,-0.006,0.088,0.186,0.062,0.008],[0.036,0.774,0.023,-0.006,0.081,0.313,0.071,0.018],[-0.029,0.516,0.025,-0.0,0.093,0.15,0.147,0.058],[-0.187,0.523,0.014,-0.001,0.073,0.753,-0.423,0.066],[-0.108,0.489,0.068,0.002,0.037,0.058,0.428,0.135],[-0.198,0.362,0.026,0.001,0.03,-0.008,0.411,0.357]],"b":[-0.072,-0.169,-0.099,-0.008,0.057,0.069,0.151,0.04,0.061]},{"w":[[0.529,0.324,0.05,-0.01,0.156,0.174,0.019,-0.132,0.071],[0.952,-0.037,0.121,-0.004,0.104,0.153,-0.089,0.137,0.111],[0.863,0.034,0.022,0.002,0.04,-0.008,-0.017,0.187,0.027],[-0.056,0.541,0.071,-0.006,0.087,0.187,0.043,-0.009,0.047],[0.071,0.711,0.019,-0.006,0.076,0.315,-0.001,-0.044,0.174],[-0.025,0.51,0.024,-0.0,0.092,0.15,0.14,0.052,0.016],[-0.155,0.465,0.009,-0.002,0.068,0.755,-0.49,0.008,0.162],[-0.053,0.387,0.061,0.002,0.028,0.06,0.312,0.035,0.281]],"b":[-0.077,-0.176,-0.101,-0.011,0.046,0.068,0.141,0.023]},{"w":[[0.504,0.397,0.058,-0.01,0.162,0.179,0.089,-0.094,-0.096],[0.939,-0.04,0.117,-0.004,0.104,0.147,-0.081,0.164,0.088],[0.847,0.092,0.029,0.003,0.044,-0.003,0.036,0.21,-0.098],[-0.052,0.496,0.063,-0.006,0.084,0.179,0.008,-0.01,0.127],[0.053,0.699,0.013,-0.006,0.075,0.305,0.005,-0.003,0.154],[-0.026,0.505,0.023,-0.0,0.092,0.149,0.138,0.055,0.021],[-0.179,0.488,0.009,-0.002,0.07,0.749,-0.454,0.056,0.073],[-0.155,0.168,-0.001,0.0,0.016,-0.031,0.241,0.304,0.397]],"b":[-0.069,-0.173,-0.095,-0.013,0.05,0.068,0.148,0.045]},{"w":[[0.521,0.378,0.058,-0.01,0.16,0.182,0.063,-0.127,-0.14,0.11],[0.954,-0.056,0.118,-0.004,0.102,0.15,-0.105,0.135,0.05,0.097],[0.857,0.081,0.029,0.003,0.043,-0.001,0.022,0.192,-0.123,0.061],[-0.05,0.493,0.063,-0.006,0.084,0.179,0.005,-0.013,0.122,0.013],[0.076,0.674,0.013,-0.006,0.073,0.309,-0.03,-0.048,0.096,0.147],[-0.025,0.503,0.023,-0.0,0.092,0.149,0.135,0.052,0.017,0.011],[-0.155,0.461,0.009,-0.002,0.067,0.754,-0.493,0.008,0.009,0.16]],"b":[-0.074,-0.177,-0.098,-0.014,0.044,0.067,0.141]},{"w":[[0.476,0.339,0.052,-0.009,0.152,0.23],[1.07,-0.078,0.125,-0.004,0.087,0.221],[1.002,-0.036,0.022,0.003,0.024,0.085],[-0.031,0.556,0.074,-0.005,0.077,0.254],[0.089,0.783,0.028,-0.004,0.065,0.385],[0.051,0.506,0.027,0.001,0.075,0.301],[-0.024,0.459,0.034,-0.0,0.015,0.56],[-0.074,0.901,0.043,0.003,0.054,-0.106],[0.675,-0.17,0.008,0.001,-0.062,0.248],[-0.032,0.812,0.086,0.004,0.045,0.092],[0.07,0.459,0.037,0.004,0.005,0.267]],"b":[-0.08,-0.184,-0.106,-0.008,0.057,0.077,0.067,0.254,0.011,0.141,0.127]},{"w":[[0.474,0.323,0.05,-0.009,0.152,0.221,0.035],[1.063,-0.124,0.121,-0.004,0.086,0.194,0.102],[0.999,-0.054,0.02,0.003,0.023,0.075,0.04],[-0.033,0.542,0.073,-0.005,0.077,0.246,0.03],[0.079,0.718,0.023,-0.005,0.064,0.347,0.142],[0.05,0.501,0.027,0.001,0.075,0.298,0.011],[-0.025,0.454,0.034,-0.0,0.015,0.557,0.011],[-0.086,0.82,0.036,0.002,0.053,-0.154,0.178],[0.667,-0.224,0.004,0.001,-0.062,0.217,0.116],[-0.056,0.656,0.074,0.003,0.043,0.002,0.34]],"b":[-0.085,-0.197,-0.111,-0.012,0.039,0.075,0.066,0.231,-0.004,0.098]},{"w":[[0.474,0.395,0.058,-0.009,0.155,0.237,-0.069],[1.073,-0.146,0.117,-0.004,0.083,0.214,0.084],[0.999,0.031,0.029,0.003,0.027,0.093,-0.083],[-0.026,0.444,0.062,-0.005,0.071,0.241,0.138],[0.094,0.641,0.013,-0.005,0.057,0.369,0.175],[0.053,0.457,0.022,0.001,0.073,0.295,0.061],[-0.02,0.363,0.024,-0.001,0.01,0.549,0.119],[-0.065,0.683,0.02,0.002,0.042,-0.131,0.269],[0.676,-0.206,0.004,0.001,-0.064,0.244,0.044],[0.085,0.09,-0.003,0.002,-0.015,0.225,0.455]],"b":[-0.07,-0.196,-0.095,-0.027,0.032,0.068,0.051,0.216,0.005,0.063]},{"w":[[0.468,0.389,0.058,-0.009,0.156,0.221,-0.1,0.069],[1.066,-0.154,0.117,-0.004,0.084,0.194,0.045,0.086],[0.992,0.024,0.029,0.003,0.029,0.075,-0.12,0.08],[-0.025,0.446,0.062,-0.005,0.071,0.246,0.147,-0.02],[0.086,0.633,0.013,-0.005,0.059,0.347,0.131,0.097],[0.054,0.458,0.022,0.001,0.073,0.298,0.066,-0.012],[-0.017,0.366,0.024,-0.001,0.01,0.557,0.135,-0.034],[-0.074,0.674,0.02,0.002,0.044,-0.154,0.223,0.102],[0.666,-0.217,0.005,0.001,-0.062,0.217,-0.011,0.12]],"b":[-0.075,-0.202,-0.1,-0.026,0.026,0.069,0.053,0.21,-0.003]},{"w":[[0.58,0.313,0.053,-0.009,0.143,0.269,-0.154],[0.96,-0.05,0.123,-0.004,0.097,0.181,0.163],[0.878,-0.005,0.02,0.003,0.035,0.04,0.184],[-0.006,0.55,0.075,-0.005,0.075,0.263,-0.037],[0.114,0.777,0.028,-0.004,0.063,0.394,-0.038],[0.064,0.503,0.028,0.001,0.074,0.306,-0.02],[-0.073,0.472,0.034,-0.0,0.02,0.542,0.073],[0.004,0.882,0.044,0.003,0.047,-0.077,-0.116],[-0.077,0.823,0.086,0.004,0.049,0.076,0.066],[-0.088,0.499,0.035,0.004,0.02,0.209,0.234]],"b":[-0.079,-0.186,-0.108,-0.008,0.057,0.077,0.066,0.255,0.14,0.124]},{"w":[[0.585,0.286,0.051,-0.009,0.141,0.257,-0.167,0.054],[0.968,-0.092,0.12,-0.004,0.095,0.163,0.143,0.085],[0.879,-0.014,0.02,0.003,0.035,0.036,0.179,0.019],[-0.003,0.532,0.073,-0.005,0.074,0.256,-0.045,0.035],[0.127,0.702,0.023,-0.005,0.06,0.363,-0.073,0.15],[0.065,0.496,0.027,0.001,0.074,0.303,-0.023,0.014],[-0.073,0.47,0.034,-0.0,0.02,0.541,0.073,0.003],[0.022,0.784,0.037,0.002,0.043,-0.118,-0.162,0.196],[-0.047,0.653,0.074,0.003,0.042,0.005,-0.014,0.341]],"b":[-0.085,-0.197,-0.111,-0.012,0.038,0.075,0.066,0.231,0.097]},{"w":[[0.575,0.364,0.058,-0.009,0.146,0.273,-0.15,-0.063],[0.966,-0.113,0.117,-0.004,0.093,0.175,0.158,0.077],[0.871,0.071,0.028,0.003,0.039,0.047,0.19,-0.092],[0.005,0.434,0.063,-0.005,0.068,0.252,-0.046,0.14],[0.128,0.631,0.013,-0.005,0.054,0.381,-0.049,0.177],[0.069,0.452,0.022,0.001,0.071,0.301,-0.024,0.062],[-0.064,0.376,0.024,-0.001,0.014,0.533,0.066,0.116],[0.026,0.655,0.02,0.002,0.034,-0.098,-0.134,0.275],[-0.054,0.132,-0.003,0.002,-0.002,0.175,0.205,0.446]],"b":[-0.07,-0.197,-0.096,-0.027,0.032,0.068,0.05,0.217,0.062]},{"w":[[0.58,0.352,0.059,-0.009,0.146,0.258,-0.168,-0.102,0.089],[0.97,-0.123,0.117,-0.004,0.093,0.163,0.144,0.047,0.069],[0.874,0.063,0.028,0.003,0.04,0.036,0.178,-0.118,0.059],[0.004,0.436,0.063,-0.005,0.068,0.255,-0.043,0.147,-0.015],[0.133,0.617,0.014,-0.005,0.055,0.362,-0.071,0.13,0.106],[0.068,0.453,0.022,0.001,0.071,0.303,-0.022,0.066,-0.009],[-0.067,0.382,0.024,-0.001,0.014,0.54,0.075,0.135,-0.043],[0.032,0.639,0.021,0.002,0.034,-0.119,-0.159,0.221,0.121]],"b":[-0.075,-0.201,-0.099,-0.026,0.026,0.069,0.053,0.209]},{"w":[[0.489,0.187,0.044,-0.01,0.143,0.248,0.168],[1.072,-0.094,0.124,-0.004,0.086,0.223,0.018],[0.999,-0.01,0.023,0.003,0.025,0.082,-0.029],[-0.018,0.401,0.067,-0.005,0.068,0.272,0.172],[0.107,0.56,0.017,-0.005,0.052,0.411,0.248],[0.069,0.287,0.017,0.001,0.062,0.327,0.244],[0.011,0.04,0.014,-0.002,-0.01,0.609,0.465],[0.666,-0.054,0.014,0.002,-0.055,0.234,-0.129],[0.001,0.407,0.067,0.003,0.02,0.14,0.449],[0.099,0.101,0.02,0.003,-0.016,0.309,0.397]],"b":[-0.123,-0.189,-0.099,-0.052,-0.006,0.015,-0.051,0.043,0.027,0.026]},{"w":[[0.488,0.187,0.044,-0.01,0.143,0.247,0.166,0.005],[1.061,-0.105,0.122,-0.004,0.087,0.191,-0.024,0.106],[0.995,-0.015,0.022,0.003,0.026,0.067,-0.048,0.048],[-0.018,0.401,0.067,-0.005,0.068,0.272,0.172,-0.0],[0.097,0.549,0.015,-0.005,0.053,0.379,0.206,0.105],[0.072,0.29,0.018,0.001,0.062,0.337,0.257,-0.035],[0.018,0.047,0.016,-0.001,-0.011,0.633,0.496,-0.077],[0.651,-0.069,0.011,0.001,-0.052,0.188,-0.189,0.15],[-0.027,0.379,0.062,0.002,0.025,0.053,0.338,0.28]],"b":[-0.123,-0.192,-0.1,-0.052,-0.009,0.016,-0.049,0.04,0.019]},{"w":[[0.489,0.24,0.053,-0.009,0.146,0.266,0.227,-0.13],[1.072,-0.131,0.118,-0.004,0.084,0.211,-0.022,0.09],[1.0,0.025,0.029,0.003,0.027,0.094,0.01,-0.086],[-0.018,0.358,0.06,-0.005,0.066,0.258,0.125,0.104],[0.107,0.51,0.009,-0.005,0.049,0.394,0.193,0.123],[0.069,0.289,0.017,0.001,0.062,0.327,0.246,-0.005],[0.011,0.043,0.015,-0.001,-0.01,0.61,0.469,-0.007],[0.665,-0.09,0.008,0.001,-0.057,0.222,-0.169,0.09],[0.099,-0.06,-0.007,0.002,-0.024,0.254,0.219,0.396]],"b":[-0.119,-0.191,-0.097,-0.054,-0.01,0.015,-0.051,0.041,0.015]},{"w":[[0.484,0.243,0.054,-0.01,0.147,0.255,0.217,-0.149,0.047],[1.063,-0.125,0.118,-0.004,0.086,0.188,-0.042,0.054,0.091],[0.992,0.03,0.029,0.003,0.029,0.074,-0.008,-0.118,0.081],[-0.015,0.356,0.06,-0.005,0.065,0.266,0.133,0.118,-0.033],[0.099,0.515,0.01,-0.006,0.051,0.374,0.175,0.092,0.08],[0.072,0.287,0.017,0.001,0.061,0.337,0.254,0.01,-0.037],[0.019,0.038,0.014,-0.001,-0.012,0.632,0.487,0.026,-0.084],[0.652,-0.082,0.009,0.001,-0.053,0.186,-0.2,0.034,0.14]],"b":[-0.12,-0.193,-0.098,-0.054,-0.011,0.015,-0.049,0.039]},{"w":[[0.579,0.18,0.046,-0.01,0.135,0.28,0.151,-0.137],[0.96,-0.085,0.121,-0.004,0.095,0.184,0.04,0.168],[0.878,-0.0,0.021,0.003,0.035,0.039,-0.005,0.183],[-0.007,0.4,0.067,-0.005,0.067,0.276,0.17,-0.017],[0.113,0.559,0.018,-0.005,0.051,0.413,0.247,-0.009],[0.063,0.287,0.017,0.001,0.063,0.325,0.245,0.009],[-0.076,0.047,0.013,-0.002,-0.003,0.579,0.482,0.129],[-0.079,0.414,0.065,0.003,0.027,0.112,0.464,0.12],[-0.09,0.117,0.016,0.003,-0.001,0.243,0.434,0.284]],"b":[-0.117,-0.196,-0.107,-0.051,-0.006,0.014,-0.056,0.021,0.013]},{"w":[[0.582,0.177,0.046,-0.01,0.135,0.274,0.139,-0.144,0.027],[0.968,-0.095,0.12,-0.004,0.095,0.163,0.004,0.144,0.084],[0.879,-0.003,0.02,0.003,0.035,0.034,-0.014,0.177,0.022],[-0.006,0.399,0.067,-0.005,0.067,0.276,0.169,-0.018,0.002],[0.123,0.546,0.016,-0.005,0.051,0.386,0.199,-0.041,0.111],[0.06,0.292,0.017,0.001,0.063,0.334,0.261,0.019,-0.038],[-0.085,0.058,0.014,-0.001,-0.003,0.603,0.526,0.158,-0.1],[-0.054,0.382,0.061,0.002,0.027,0.045,0.346,0.042,0.273]],"b":[-0.117,-0.197,-0.107,-0.051,-0.007,0.015,-0.055,0.018]},{"w":[[0.57,0.229,0.054,-0.009,0.139,0.294,0.206,-0.122,-0.119],[0.966,-0.117,0.116,-0.004,0.093,0.175,0.005,0.159,0.076],[0.869,0.042,0.027,0.003,0.038,0.051,0.043,0.196,-0.104],[0.002,0.355,0.06,-0.005,0.064,0.264,0.12,-0.03,0.107],[0.123,0.508,0.009,-0.005,0.048,0.399,0.189,-0.024,0.125],[0.062,0.29,0.017,0.001,0.063,0.325,0.248,0.009,-0.006],[-0.077,0.054,0.014,-0.002,-0.002,0.581,0.491,0.132,-0.019],[-0.06,-0.038,-0.009,0.002,-0.011,0.201,0.26,0.239,0.375]],"b":[-0.114,-0.198,-0.105,-0.053,-0.009,0.015,-0.056,0.005]},{"w":[[0.574,0.232,0.055,-0.009,0.139,0.28,0.189,-0.138,-0.144,0.066],[0.97,-0.114,0.117,-0.004,0.094,0.161,-0.014,0.142,0.05,0.071],[0.873,0.044,0.028,0.003,0.039,0.04,0.029,0.182,-0.124,0.056],[0.0,0.354,0.06,-0.005,0.064,0.27,0.128,-0.023,0.118,-0.03],[0.128,0.511,0.01,-0.006,0.049,0.382,0.166,-0.045,0.093,0.086],[0.06,0.288,0.017,0.001,0.062,0.333,0.258,0.019,0.009,-0.04],[-0.083,0.05,0.013,-0.002,-0.003,0.602,0.518,0.157,0.021,-0.106]],"b":[-0.115,-0.198,-0.105,-0.053,-0.009,0.015,-0.055]},{"w":[[0.477,0.328,0.051,-0.009,0.152,0.217,0.024],[1.072,-0.103,0.123,-0.004,0.086,0.19,0.056],[1.001,-0.021,0.023,0.003,0.024,0.104,-0.033],[-0.029,0.525,0.072,-0.005,0.076,0.216,0.067],[0.092,0.719,0.023,-0.004,0.063,0.306,0.141],[0.051,0.497,0.027,0.001,0.075,0.29,0.02],[-0.06,0.642,0.024,0.003,0.046,-0.423,0.565],[0.677,-0.216,0.005,0.001,-0.063,0.192,0.099],[-0.026,0.701,0.078,0.004,0.041,-0.043,0.241],[0.071,0.445,0.036,0.004,0.005,0.25,0.031]],"b":[-0.082,-0.188,-0.104,-0.012,0.047,0.075,0.216,0.004,0.124,0.124]},{"w":[[0.474,0.313,0.05,-0.009,0.152,0.209,0.023,0.034],[1.065,-0.148,0.119,-0.004,0.085,0.165,0.053,0.101],[0.998,-0.039,0.022,0.003,0.024,0.094,-0.034,0.04],[-0.031,0.512,0.071,-0.005,0.076,0.209,0.066,0.029],[0.082,0.656,0.018,-0.005,0.062,0.271,0.137,0.14],[0.05,0.492,0.026,0.001,0.075,0.287,0.019,0.011],[-0.072,0.566,0.018,0.002,0.045,-0.465,0.56,0.171],[0.669,-0.267,0.0,0.001,-0.064,0.164,0.096,0.115],[-0.05,0.551,0.066,0.003,0.039,-0.127,0.231,0.337]],"b":[-0.086,-0.201,-0.109,-0.016,0.03,0.074,0.194,-0.01,0.082]},{"w":[[0.475,0.38,0.057,-0.009,0.155,0.214,0.041,-0.074],[1.074,-0.159,0.116,-0.004,0.082,0.193,0.037,0.08],[0.999,0.036,0.029,0.003,0.027,0.1,-0.013,-0.082],[-0.026,0.431,0.062,-0.005,0.071,0.222,0.035,0.134],[0.096,0.604,0.011,-0.005,0.056,0.313,0.102,0.163],[0.053,0.455,0.022,0.001,0.073,0.292,0.005,0.06],[-0.055,0.496,0.007,0.002,0.037,-0.414,0.515,0.208],[0.678,-0.239,0.002,0.001,-0.065,0.194,0.091,0.033],[0.083,0.119,-0.001,0.002,-0.014,0.27,-0.081,0.465]],"b":[-0.073,-0.198,-0.094,-0.029,0.027,0.068,0.19,-0.0,0.067]},{"w":[[0.469,0.372,0.057,-0.009,0.156,0.195,0.047,-0.107,0.07],[1.067,-0.17,0.116,-0.004,0.084,0.17,0.044,0.039,0.088],[0.992,0.027,0.029,0.003,0.029,0.078,-0.006,-0.119,0.08],[-0.024,0.433,0.062,-0.005,0.07,0.227,0.033,0.143,-0.019],[0.088,0.592,0.011,-0.005,0.058,0.285,0.11,0.116,0.101],[0.054,0.456,0.022,0.001,0.072,0.295,0.004,0.066,-0.011],[-0.065,0.482,0.007,0.002,0.039,-0.446,0.525,0.152,0.12],[0.668,-0.254,0.002,0.001,-0.063,0.161,0.101,-0.024,0.123]],"b":[-0.077,-0.204,-0.099,-0.028,0.02,0.069,0.182,-0.008]},{"w":[[0.583,0.294,0.052,-0.009,0.142,0.247,0.039,-0.157],[0.963,-0.069,0.122,-0.004,0.096,0.159,0.04,0.16],[0.874,0.019,0.022,0.003,0.036,0.067,-0.051,0.188],[-0.001,0.516,0.072,-0.005,0.073,0.224,0.071,-0.042],[0.125,0.708,0.024,-0.004,0.06,0.315,0.146,-0.048],[0.066,0.493,0.027,0.001,0.074,0.294,0.022,-0.021],[0.047,0.608,0.024,0.003,0.036,-0.392,0.581,-0.159],[-0.059,0.712,0.078,0.004,0.044,-0.052,0.236,0.049],[-0.087,0.495,0.035,0.004,0.02,0.205,0.008,0.233]],"b":[-0.081,-0.189,-0.105,-0.012,0.047,0.075,0.216,0.124,0.124]},{"w":[[0.588,0.267,0.05,-0.009,0.141,0.236,0.039,-0.17,0.054],[0.971,-0.111,0.119,-0.004,0.094,0.142,0.04,0.141,0.085],[0.875,0.01,0.021,0.002,0.036,0.064,-0.051,0.183,0.019],[0.002,0.499,0.071,-0.005,0.073,0.217,0.071,-0.05,0.035],[0.138,0.634,0.018,-0.005,0.057,0.284,0.145,-0.083,0.15],[0.067,0.486,0.026,0.001,0.073,0.291,0.022,-0.025,0.014],[0.064,0.511,0.018,0.003,0.032,-0.432,0.579,-0.204,0.195],[-0.03,0.543,0.066,0.003,0.037,-0.122,0.233,-0.031,0.341]],"b":[-0.088,-0.199,-0.107,-0.017,0.029,0.074,0.192,0.082]},{"w":[[0.579,0.343,0.057,-0.009,0.145,0.244,0.055,-0.154,-0.069],[0.968,-0.122,0.116,-0.004,0.093,0.163,0.023,0.157,0.075],[0.869,0.082,0.029,0.003,0.04,0.063,-0.03,0.192,-0.088],[0.007,0.42,0.062,-0.005,0.068,0.231,0.039,-0.049,0.136],[0.135,0.591,0.011,-0.005,0.053,0.324,0.107,-0.056,0.165],[0.069,0.449,0.022,0.001,0.071,0.297,0.007,-0.024,0.061],[0.06,0.456,0.008,0.002,0.026,-0.381,0.531,-0.169,0.213],[-0.06,0.17,-0.001,0.002,-0.0,0.229,-0.1,0.211,0.458]],"b":[-0.073,-0.198,-0.094,-0.029,0.027,0.068,0.19,0.067]},{"w":[[0.584,0.328,0.057,-0.009,0.145,0.223,0.065,-0.173,-0.111,0.092],[0.972,-0.134,0.116,-0.004,0.093,0.147,0.03,0.142,0.043,0.07],[0.872,0.072,0.029,0.003,0.04,0.05,-0.025,0.18,-0.115,0.058],[0.007,0.422,0.062,-0.005,0.068,0.234,0.038,-0.046,0.142,-0.013],[0.141,0.572,0.011,-0.005,0.053,0.298,0.118,-0.08,0.114,0.111],[0.069,0.451,0.022,0.001,0.071,0.299,0.007,-0.023,0.065,-0.009],[0.068,0.431,0.008,0.002,0.026,-0.414,0.545,-0.2,0.147,0.145]],"b":[-0.079,-0.203,-0.098,-0.028,0.019,0.068,0.18]},{"w":[[0.49,0.191,0.046,-0.01,0.142,0.307,-0.097,0.214],[1.071,-0.097,0.123,-0.004,0.086,0.185,0.062,-0.01],[1.0,-0.009,0.023,0.003,0.025,0.096,-0.022,-0.018],[-0.018,0.402,0.068,-0.005,0.067,0.297,-0.041,0.191],[0.107,0.56,0.017,-0.005,0.052,0.41,0.002,0.247],[0.07,0.293,0.019,0.0,0.061,0.424,-0.16,0.318],[0.663,-0.063,0.01,0.002,-0.053,0.092,0.233,-0.238],[0.001,0.408,0.067,0.003,0.02,0.15,-0.017,0.457],[0.102,0.112,0.023,0.003,-0.019,0.469,-0.262,0.519]],"b":[-0.128,-0.186,-0.1,-0.054,-0.006,0.007,0.055,0.026,0.013]},{"w":[[0.49,0.191,0.046,-0.01,0.142,0.309,-0.098,0.215,-0.002],[1.06,-0.109,0.12,-0.004,0.088,0.133,0.092,-0.069,0.113],[0.995,-0.015,0.022,0.003,0.026,0.074,-0.01,-0.043,0.047],[-0.017,0.403,0.068,-0.005,0.067,0.299,-0.042,0.193,-0.004],[0.096,0.548,0.015,-0.005,0.054,0.36,0.03,0.191,0.107],[0.075,0.298,0.02,0.001,0.06,0.447,-0.173,0.343,-0.048],[0.646,-0.082,0.006,0.002,-0.049,0.012,0.278,-0.327,0.171],[-0.028,0.376,0.061,0.002,0.025,0.017,0.057,0.309,0.284]],"b":[-0.128,-0.187,-0.101,-0.054,-0.008,0.007,0.053,0.022]},{"w":[[0.49,0.244,0.055,-0.01,0.145,0.327,-0.099,0.273,-0.131],[1.071,-0.134,0.117,-0.004,0.084,0.172,0.064,-0.052,0.091],[1.0,0.026,0.029,0.003,0.027,0.109,-0.024,0.021,-0.086],[-0.018,0.36,0.061,-0.005,0.065,0.282,-0.039,0.144,0.104],[0.107,0.51,0.009,-0.005,0.049,0.392,0.004,0.191,0.123],[0.07,0.296,0.02,0.0,0.061,0.425,-0.16,0.321,-0.006],[0.663,-0.1,0.004,0.002,-0.054,0.078,0.235,-0.279,0.091],[0.102,-0.049,-0.003,0.002,-0.027,0.41,-0.255,0.339,0.395]],"b":[-0.124,-0.188,-0.098,-0.056,-0.009,0.007,0.053,0.002]},{"w":[[0.486,0.246,0.055,-0.01,0.146,0.311,-0.089,0.26,-0.146,0.039],[1.061,-0.129,0.117,-0.004,0.087,0.132,0.089,-0.085,0.052,0.098],[0.992,0.03,0.029,0.003,0.029,0.076,-0.003,-0.006,-0.118,0.081],[-0.014,0.358,0.06,-0.005,0.064,0.297,-0.049,0.157,0.119,-0.037],[0.099,0.514,0.009,-0.006,0.051,0.358,0.025,0.163,0.091,0.082],[0.076,0.293,0.02,0.001,0.059,0.446,-0.174,0.339,0.014,-0.052],[0.646,-0.092,0.005,0.001,-0.05,0.011,0.277,-0.335,0.027,0.164]],"b":[-0.125,-0.188,-0.098,-0.056,-0.01,0.007,0.053]},{"w":[[0.574,0.183,0.047,-0.01,0.135,0.319,-0.067,0.183,-0.128],[0.962,-0.086,0.121,-0.004,0.095,0.17,0.024,0.029,0.165],[0.872,0.003,0.021,0.002,0.035,0.078,-0.067,0.027,0.192],[-0.009,0.401,0.068,-0.005,0.067,0.298,-0.038,0.189,-0.012],[0.113,0.559,0.018,-0.005,0.051,0.411,0.004,0.245,-0.009],[0.05,0.295,0.019,0.0,0.062,0.421,-0.167,0.325,0.03],[-0.082,0.416,0.066,0.003,0.027,0.139,-0.047,0.487,0.126],[-0.116,0.133,0.02,0.002,-0.002,0.439,-0.339,0.597,0.328]],"b":[-0.121,-0.195,-0.111,-0.053,-0.006,0.005,0.019,-0.006]},{"w":[[0.577,0.18,0.047,-0.01,0.135,0.31,-0.06,0.171,-0.135,0.021],[0.972,-0.098,0.119,-0.004,0.095,0.131,0.054,-0.025,0.135,0.09],[0.874,0.001,0.021,0.002,0.035,0.072,-0.062,0.018,0.187,0.015],[-0.01,0.402,0.068,-0.005,0.067,0.299,-0.039,0.19,-0.012,-0.002],[0.127,0.544,0.015,-0.005,0.051,0.36,0.043,0.176,-0.047,0.116],[0.044,0.302,0.02,0.0,0.062,0.446,-0.186,0.359,0.049,-0.056],[-0.05,0.379,0.06,0.002,0.027,0.017,0.048,0.321,0.035,0.278]],"b":[-0.121,-0.194,-0.111,-0.053,-0.005,0.005,0.02]},{"w":[[0.564,0.233,0.055,-0.009,0.138,0.336,-0.073,0.242,-0.113,-0.121],[0.968,-0.118,0.116,-0.004,0.093,0.16,0.027,-0.009,0.155,0.077],[0.864,0.046,0.028,0.003,0.038,0.093,-0.072,0.078,0.205,-0.105],[-0.001,0.357,0.061,-0.005,0.064,0.284,-0.033,0.137,-0.026,0.106],[0.124,0.507,0.009,-0.005,0.048,0.394,0.01,0.184,-0.025,0.125],[0.05,0.299,0.02,0.0,0.062,0.423,-0.168,0.33,0.031,-0.009],[-0.085,-0.021,-0.004,0.001,-0.011,0.388,-0.322,0.418,0.282,0.369]],"b":[-0.119,-0.196,-0.109,-0.055,-0.008,0.005,-0.013]},{"w":[[0.57,0.234,0.055,-0.009,0.139,0.313,-0.054,0.217,-0.13,-0.143,0.06],[0.975,-0.116,0.116,-0.004,0.094,0.13,0.052,-0.04,0.134,0.049,0.076],[0.868,0.047,0.029,0.003,0.038,0.074,-0.056,0.058,0.191,-0.123,0.05],[-0.004,0.356,0.061,-0.005,0.064,0.297,-0.045,0.151,-0.016,0.119,-0.035],[0.131,0.509,0.01,-0.005,0.049,0.359,0.039,0.146,-0.051,0.092,0.09],[0.044,0.298,0.019,0.0,0.062,0.446,-0.187,0.355,0.048,0.013,-0.06]],"b":[-0.118,-0.195,-0.108,-0.056,-0.007,0.004]},{"w":[[0.431,