// Last updated: 2024-10-30 11:08:26

const models = [{"w":[[0.44,0.657,0.07,-0.008],[1.027,0.193,0.139,-0.003],[0.983,0.064,0.026,0.003],[-0.082,0.854,0.089,-0.005],[0.005,1.203,0.049,-0.005],[0.098,0.609,0.047,0.016],[-0.013,0.847,0.045,0.001],[-0.272,1.016,0.047,-0.01],[-0.195,1.054,0.062,-0.009],[-0.041,0.827,0.04,0.004],[0.61,0.037,0.017,-0.001],[-0.05,0.929,0.093,0.005],[0.009,0.727,0.05,0.004]],"b":[0.008,-1.186,-0.83,0.624,1.515,2.259,1.574,2.198,2.01,2.436,0.489,1.704,1.822]},{"w":[[0.439,0.601,0.066,-0.008,0.077],[1.026,0.093,0.132,-0.004,0.137],[0.983,0.028,0.024,0.002,0.05],[-0.083,0.799,0.085,-0.005,0.075],[0.003,1.054,0.039,-0.006,0.205],[0.098,0.585,0.045,0.016,0.033],[-0.014,0.798,0.041,0.001,0.066],[-0.273,0.879,0.038,-0.01,0.189],[-0.196,0.963,0.055,-0.01,0.125],[-0.043,0.716,0.033,0.004,0.153],[0.608,-0.074,0.01,-0.001,0.152],[-0.053,0.681,0.076,0.004,0.341]],"b":[-0.132,-1.436,-0.921,0.487,1.141,2.199,1.453,1.855,1.783,2.158,0.212,1.082]},{"w":[[0.438,0.687,0.073,-0.008,-0.032],[1.033,0.09,0.129,-0.004,0.11],[0.98,0.132,0.033,0.003,-0.073],[-0.074,0.696,0.073,-0.006,0.17],[0.016,1.001,0.029,-0.006,0.217],[0.102,0.539,0.039,0.016,0.076],[-0.009,0.759,0.036,0.001,0.095],[-0.267,0.927,0.038,-0.01,0.096],[-0.187,0.891,0.045,-0.01,0.176],[-0.028,0.583,0.016,0.003,0.262],[0.613,-0.022,0.011,-0.001,0.064],[0.032,0.286,0.006,0.001,0.474]],"b":[0.063,-1.374,-0.705,0.335,1.144,2.13,1.412,2.035,1.71,1.989,0.38,1.014]},{"w":[[0.435,0.656,0.072,-0.008,-0.082,0.105],[1.029,0.056,0.128,-0.004,0.054,0.119],[0.977,0.107,0.033,0.003,-0.116,0.089],[-0.075,0.69,0.073,-0.006,0.16,0.021],[0.011,0.956,0.028,-0.006,0.143,0.156],[0.101,0.536,0.039,0.016,0.072,0.009],[-0.01,0.747,0.036,0.001,0.075,0.04],[-0.273,0.874,0.037,-0.01,0.007,0.186],[-0.189,0.869,0.045,-0.01,0.139,0.077],[-0.031,0.561,0.016,0.003,0.227,0.075],[0.608,-0.067,0.01,-0.001,-0.01,0.155]],"b":[-0.044,-1.495,-0.796,0.314,0.986,2.121,1.372,1.847,1.632,1.912,0.223]},{"w":[[0.492,0.66,0.071,-0.008,-0.086],[0.899,0.185,0.135,-0.003,0.211],[0.867,0.057,0.023,0.003,0.191],[-0.101,0.853,0.089,-0.005,0.031],[-0.039,1.2,0.048,-0.005,0.072],[0.143,0.612,0.048,0.016,-0.074],[-0.053,0.844,0.044,0.001,0.066],[-0.456,1.005,0.042,-0.009,0.302],[-0.341,1.045,0.057,-0.009,0.239],[0.046,0.832,0.043,0.004,-0.143],[-0.104,0.925,0.091,0.005,0.09],[-0.173,0.716,0.045,0.004,0.297]],"b":[0.05,-1.29,-0.924,0.609,1.48,2.295,1.542,2.051,1.893,2.506,1.66,1.677]},{"w":[[0.509,0.592,0.067,-0.008,-0.114,0.094],[0.918,0.106,0.13,-0.003,0.178,0.11],[0.871,0.041,0.022,0.003,0.185,0.022],[-0.088,0.8,0.085,-0.005,0.009,0.074],[-0.004,1.055,0.039,-0.006,0.012,0.203],[0.151,0.579,0.046,0.016,-0.088,0.046],[-0.043,0.802,0.041,0.001,0.048,0.059],[-0.43,0.898,0.035,-0.01,0.258,0.149],[-0.325,0.979,0.053,-0.009,0.212,0.093],[0.077,0.701,0.035,0.003,-0.197,0.183],[-0.045,0.68,0.076,0.004,-0.012,0.343]],"b":[-0.108,-1.474,-0.96,0.485,1.139,2.218,1.443,1.8,1.738,2.199,1.085]},{"w":[[0.49,0.685,0.074,-0.008,-0.084,-0.027],[0.909,0.095,0.126,-0.004,0.202,0.097],[0.858,0.137,0.031,0.003,0.199,-0.086],[-0.084,0.696,0.073,-0.006,0.016,0.169],[-0.017,1.002,0.029,-0.006,0.053,0.214],[0.151,0.537,0.04,0.016,-0.081,0.081],[-0.044,0.76,0.035,0.001,0.058,0.091],[-0.448,0.934,0.035,-0.01,0.295,0.077],[-0.324,0.896,0.043,-0.01,0.225,0.162],[0.074,0.579,0.018,0.003,-0.167,0.273],[-0.125,0.292,0.003,0.002,0.256,0.458]],"b":[0.094,-1.451,-0.781,0.328,1.124,2.161,1.391,1.923,1.625,2.052,0.916]},{"w":[[0.505,0.649,0.073,-0.008,-0.115,-0.083,0.123],[0.92,0.068,0.126,-0.004,0.179,0.056,0.091],[0.865,0.119,0.031,0.003,0.183,-0.114,0.061],[-0.081,0.691,0.073,-0.006,0.011,0.16,0.019],[0.002,0.957,0.028,-0.006,0.014,0.143,0.154],[0.154,0.531,0.04,0.016,-0.087,0.071,0.022],[-0.04,0.75,0.035,0.001,0.049,0.076,0.033],[-0.43,0.891,0.035,-0.01,0.258,0.01,0.146],[-0.319,0.883,0.042,-0.01,0.214,0.142,0.044],[0.087,0.548,0.018,0.003,-0.194,0.225,0.106]],"b":[-0.018,-1.535,-0.837,0.311,0.983,2.141,1.361,1.789,1.584,1.956]},{"w":[[0.446,0.537,0.064,-0.008,0.145],[1.027,0.197,0.139,-0.003,-0.005],[0.982,0.093,0.028,0.003,-0.036],[-0.076,0.736,0.083,-0.005,0.143],[0.013,1.038,0.041,-0.006,0.2],[0.102,0.523,0.042,0.016,0.104],[-0.005,0.679,0.037,0.001,0.203],[-0.277,1.111,0.052,-0.009,-0.115],[-0.178,0.716,0.045,-0.011,0.41],[0.603,0.175,0.024,0.0,-0.167],[-0.032,0.572,0.075,0.003,0.432],[0.023,0.438,0.036,0.002,0.349]],"b":[-0.345,-1.175,-0.743,0.277,1.028,2.005,1.079,2.479,1.013,0.895,0.652,0.971]},{"w":[[0.445,0.511,0.062,-0.009,0.125,0.058],[1.024,0.133,0.134,-0.003,-0.056,0.146],[0.98,0.068,0.026,0.003,-0.056,0.059],[-0.078,0.711,0.081,-0.006,0.123,0.057],[0.009,0.957,0.035,-0.006,0.135,0.184],[0.102,0.515,0.042,0.016,0.098,0.018],[-0.006,0.662,0.035,0.0,0.19,0.037],[-0.282,1.016,0.044,-0.01,-0.191,0.218],[-0.18,0.687,0.043,-0.011,0.386,0.066],[0.598,0.093,0.017,-0.0,-0.232,0.188],[-0.038,0.444,0.065,0.002,0.33,0.291]],"b":[-0.402,-1.316,-0.8,0.222,0.849,1.987,1.043,2.267,0.949,0.713,0.37]},{"w":[[0.443,0.582,0.07,-0.008,0.179,-0.079],[1.031,0.125,0.13,-0.004,-0.059,0.126],[0.979,0.135,0.033,0.003,-0.004,-0.072],[-0.072,0.65,0.072,-0.006,0.078,0.15],[0.019,0.931,0.027,-0.006,0.119,0.186],[0.104,0.492,0.038,0.016,0.081,0.055],[-0.003,0.652,0.033,0.0,0.183,0.047],[-0.272,1.03,0.041,-0.009,-0.176,0.142],[-0.176,0.671,0.039,-0.011,0.376,0.077],[0.606,0.105,0.015,-0.0,-0.219,0.121],[0.037,0.191,0.004,0.001,0.163,0.432]],"b":[-0.294,-1.257,-0.696,0.179,0.907,1.969,1.049,2.386,0.962,0.816,0.689]},{"w":[[0.44,0.564,0.069,-0.008,0.164,-0.119,0.093],[1.027,0.101,0.129,-0.004,-0.079,0.072,0.125],[0.976,0.117,0.033,0.003,-0.019,-0.112,0.091],[-0.072,0.648,0.072,-0.006,0.076,0.143,0.015],[0.014,0.903,0.027,-0.007,0.095,0.122,0.149],[0.104,0.491,0.038,0.016,0.08,0.054,0.003],[-0.004,0.647,0.033,0.0,0.179,0.035,0.027],[-0.279,0.991,0.04,-0.01,-0.209,0.055,0.202],[-0.178,0.662,0.039,-0.011,0.368,0.056,0.05],[0.6,0.072,0.014,-0.0,-0.248,0.046,0.174]],"b":[-0.358,-1.343,-0.759,0.169,0.804,1.968,1.03,2.247,0.928,0.696]},{"w":[[0.486,0.549,0.065,-0.008,0.134,-0.067],[0.897,0.159,0.134,-0.003,0.031,0.216],[0.867,0.06,0.023,0.003,-0.004,0.191],[-0.108,0.727,0.082,-0.005,0.151,0.053],[-0.049,1.019,0.039,-0.006,0.217,0.103],[0.139,0.534,0.044,0.016,0.094,-0.06],[-0.063,0.662,0.034,0.0,0.219,0.097],[-0.453,1.06,0.045,-0.009,-0.066,0.292],[-0.362,0.662,0.038,-0.011,0.46,0.305],[-0.125,0.545,0.072,0.003,0.458,0.155],[-0.191,0.376,0.028,0.002,0.409,0.356]],"b":[-0.286,-1.368,-0.914,0.23,0.936,2.059,0.992,2.217,0.74,0.514,0.652]},{"w":[[0.501,0.52,0.063,-0.009,0.103,-0.094,0.076],[0.919,0.117,0.131,-0.003,-0.015,0.175,0.113],[0.872,0.051,0.023,0.003,-0.014,0.182,0.024],[-0.099,0.708,0.081,-0.006,0.131,0.035,0.05],[-0.015,0.953,0.034,-0.006,0.145,0.04,0.177],[0.145,0.522,0.043,0.016,0.081,-0.072,0.032],[-0.059,0.654,0.034,0.0,0.211,0.09,0.02],[-0.419,0.994,0.04,-0.009,-0.138,0.23,0.175],[-0.36,0.659,0.037,-0.011,0.457,0.302,0.009],[-0.071,0.439,0.064,0.002,0.343,0.055,0.281]],"b":[-0.335,-1.441,-0.93,0.197,0.82,2.039,0.979,2.103,0.733,0.331]},{"w":[[0.477,0.588,0.071,-0.008,0.167,-0.056,-0.072],[0.91,0.104,0.127,-0.003,-0.015,0.2,0.102],[0.855,0.113,0.03,0.003,0.041,0.206,-0.097],[-0.09,0.647,0.072,-0.006,0.085,0.03,0.146],[-0.027,0.923,0.026,-0.006,0.136,0.076,0.177],[0.147,0.499,0.039,0.016,0.065,-0.07,0.063],[-0.059,0.642,0.032,0.0,0.203,0.092,0.036],[-0.439,1.001,0.037,-0.009,-0.116,0.276,0.109],[-0.357,0.64,0.035,-0.011,0.442,0.299,0.041],[-0.142,0.16,-0.001,0.001,0.228,0.294,0.396]],"b":[-0.249,-1.42,-0.864,0.155,0.845,2.027,0.974,2.161,0.718,0.449]},{"w":[[0.492,0.571,0.071,-0.008,0.143,-0.087,-0.115,0.108],[0.923,0.089,0.127,-0.004,-0.037,0.172,0.064,0.095],[0.863,0.104,0.03,0.003,0.027,0.188,-0.12,0.058],[-0.088,0.646,0.072,-0.006,0.082,0.027,0.142,0.01],[-0.007,0.9,0.026,-0.007,0.104,0.034,0.12,0.143],[0.149,0.497,0.039,0.016,0.062,-0.075,0.057,0.016],[-0.057,0.641,0.032,0.0,0.2,0.088,0.031,0.012],[-0.416,0.975,0.037,-0.01,-0.153,0.228,0.044,0.162],[-0.357,0.64,0.035,-0.011,0.442,0.299,0.042,-0.003]],"b":[-0.297,-1.463,-0.89,0.15,0.781,2.02,0.969,2.088,0.72]},{"w":[[0.469,0.502,0.061,-0.006,0.147],[1.06,0.016,0.129,-0.002,0.168],[0.989,0.032,0.024,0.003,0.03],[-0.05,0.681,0.079,-0.003,0.164],[0.058,0.916,0.033,-0.003,0.272],[0.124,0.467,0.038,0.018,0.135],[0.018,0.68,0.035,0.003,0.158],[-0.135,0.28,0.004,-0.003,0.698],[0.012,0.541,0.024,0.007,0.271],[0.646,-0.159,0.006,0.001,0.185],[-0.012,0.727,0.081,0.007,0.192],[0.045,0.527,0.039,0.005,0.189]],"b":[-0.286,-1.524,-0.891,0.295,0.967,1.989,1.256,0.795,1.892,0.117,1.319,1.442]},{"w":[[0.466,0.471,0.058,-0.007,0.135,0.06],[1.055,-0.047,0.124,-0.002,0.146,0.119],[0.987,0.007,0.023,0.003,0.021,0.047],[-0.053,0.651,0.077,-0.004,0.153,0.056],[0.05,0.823,0.026,-0.003,0.239,0.175],[0.123,0.459,0.038,0.018,0.132,0.017],[0.015,0.655,0.033,0.003,0.149,0.048],[-0.14,0.225,0.0,-0.004,0.679,0.104],[0.006,0.477,0.019,0.006,0.248,0.122],[0.64,-0.228,0.001,0.0,0.16,0.132],[-0.027,0.555,0.069,0.005,0.13,0.325]],"b":[-0.373,-1.696,-0.959,0.214,0.715,1.964,1.188,0.645,1.716,-0.074,0.85]},{"w":[[0.468,0.546,0.065,-0.006,0.158,-0.06],[1.061,-0.045,0.122,-0.002,0.152,0.083],[0.988,0.091,0.031,0.003,0.046,-0.082],[-0.049,0.575,0.067,-0.004,0.136,0.146],[0.06,0.788,0.018,-0.004,0.239,0.175],[0.125,0.428,0.034,0.017,0.124,0.054],[0.018,0.63,0.029,0.002,0.145,0.069],[-0.136,0.3,0.007,-0.003,0.704,-0.028],[0.014,0.38,0.006,0.005,0.228,0.222],[0.646,-0.182,0.003,0.001,0.179,0.032],[0.051,0.196,0.002,0.002,0.102,0.456]],"b":[-0.208,-1.634,-0.783,0.102,0.736,1.917,1.165,0.832,1.599,0.074,0.84]},{"w":[[0.463,0.528,0.065,-0.006,0.148,-0.102,0.094],[1.056,-0.066,0.122,-0.002,0.141,0.034,0.108],[0.984,0.075,0.031,0.003,0.037,-0.121,0.087],[-0.049,0.573,0.067,-0.004,0.135,0.141,0.01],[0.053,0.761,0.018,-0.004,0.225,0.112,0.139],[0.125,0.428,0.034,0.017,0.124,0.054,-0.001],[0.017,0.624,0.029,0.002,0.142,0.056,0.029],[-0.142,0.274,0.006,-0.003,0.69,-0.089,0.133],[0.011,0.368,0.006,0.005,0.222,0.196,0.058],[0.639,-0.21,0.003,0.001,0.164,-0.033,0.143]],"b":[-0.286,-1.725,-0.856,0.093,0.62,1.918,1.14,0.72,1.55,-0.046]},{"w":[[0.55,0.482,0.061,-0.006,0.17,-0.127],[0.945,0.044,0.127,-0.002,0.135,0.179],[0.865,0.063,0.023,0.003,-0.006,0.192],[-0.045,0.679,0.079,-0.003,0.166,-0.009],[0.053,0.917,0.033,-0.003,0.271,0.007],[0.196,0.45,0.039,0.018,0.155,-0.111],[-0.001,0.685,0.035,0.003,0.153,0.029],[-0.226,0.302,0.003,-0.003,0.672,0.141],[0.152,0.507,0.025,0.007,0.311,-0.217],[-0.042,0.734,0.081,0.006,0.183,0.046],[-0.125,0.569,0.037,0.005,0.14,0.264]],"b":[-0.272,-1.545,-0.913,0.296,0.967,2.002,1.253,0.778,1.917,1.314,1.411]},{"w":[[0.56,0.437,0.058,-0.007,0.159,-0.148,0.08],[0.957,-0.012,0.124,-0.002,0.121,0.153,0.099],[0.868,0.05,0.023,0.003,-0.009,0.186,0.023],[-0.037,0.646,0.077,-0.004,0.157,-0.024,0.059],[0.076,0.814,0.026,-0.003,0.246,-0.04,0.181],[0.2,0.431,0.038,0.018,0.151,-0.12,0.033],[0.004,0.659,0.033,0.003,0.146,0.017,0.045],[-0.215,0.252,0.0,-0.004,0.66,0.118,0.088],[0.171,0.418,0.019,0.006,0.289,-0.258,0.156],[-0.001,0.546,0.069,0.005,0.137,-0.041,0.331]],"b":[-0.384,-1.685,-0.945,0.212,0.712,1.956,1.189,0.654,1.697,0.847]},{"w":[[0.548,0.523,0.066,-0.006,0.18,-0.124,-0.056],[0.948,-0.013,0.121,-0.002,0.121,0.175,0.078],[0.861,0.127,0.03,0.003,0.011,0.196,-0.088],[-0.039,0.572,0.067,-0.004,0.139,-0.015,0.147],[0.061,0.788,0.018,-0.004,0.239,-0.001,0.175],[0.198,0.408,0.034,0.017,0.145,-0.114,0.058],[0.002,0.635,0.029,0.002,0.14,0.026,0.068],[-0.228,0.326,0.006,-0.003,0.678,0.143,-0.033],[0.161,0.338,0.006,0.006,0.269,-0.228,0.23],[-0.106,0.24,0.001,0.002,0.058,0.243,0.449]],"b":[-0.198,-1.647,-0.798,0.103,0.736,1.926,1.163,0.821,1.615,0.822]},{"w":[[0.56,0.496,0.066,-0.006,0.173,-0.152,-0.107,0.115],[0.957,-0.034,0.121,-0.003,0.116,0.154,0.039,0.086],[0.868,0.113,0.03,0.003,0.007,0.182,-0.115,0.061],[-0.037,0.569,0.067,-0.004,0.138,-0.018,0.141,0.013],[0.076,0.754,0.018,-0.004,0.23,-0.036,0.111,0.144],[0.2,0.404,0.034,0.017,0.144,-0.117,0.051,0.016],[0.004,0.628,0.029,0.002,0.138,0.02,0.056,0.027],[-0.215,0.298,0.006,-0.003,0.671,0.114,-0.085,0.116],[0.171,0.316,0.006,0.005,0.264,-0.251,0.187,0.094]],"b":[-0.293,-1.718,-0.848,0.093,0.618,1.913,1.141,0.726,1.538]},{"w":[[0.467,0.451,0.058,-0.007,0.121,0.096],[1.061,0.06,0.13,-0.001,0.191,-0.083],[0.99,0.061,0.026,0.003,0.045,-0.054],[-0.051,0.635,0.077,-0.004,0.141,0.085],[0.057,0.862,0.03,-0.003,0.245,0.099],[0.124,0.437,0.037,0.017,0.12,0.055],[0.016,0.596,0.031,0.002,0.116,0.156],[-0.13,0.524,0.015,-0.0,0.82,-0.451],[0.649,-0.011,0.012,0.003,0.259,-0.273],[-0.017,0.512,0.072,0.004,0.084,0.397],[0.042,0.362,0.032,0.003,0.106,0.306]],"b":[-0.468,-1.368,-0.789,0.134,0.78,1.884,0.962,1.648,0.633,0.567,0.863]},{"w":[[0.465,0.432,0.057,-0.007,0.115,0.08,0.05],[1.056,0.012,0.126,-0.002,0.176,-0.124,0.134],[0.987,0.041,0.024,0.003,0.039,-0.071,0.056],[-0.053,0.618,0.076,-0.004,0.136,0.07,0.048],[0.05,0.801,0.025,-0.004,0.227,0.047,0.169],[0.123,0.434,0.037,0.017,0.119,0.052,0.01],[0.015,0.585,0.03,0.002,0.113,0.147,0.03],[-0.137,0.464,0.01,-0.001,0.803,-0.502,0.165],[0.642,-0.073,0.007,0.002,0.241,-0.326,0.172],[-0.029,0.408,0.063,0.003,0.053,0.309,0.287]],"b":[-0.511,-1.484,-0.837,0.093,0.633,1.875,0.936,1.506,0.485,0.319]},{"w":[[0.466,0.496,0.065,-0.007,0.128,0.131,-0.089],[1.063,0.003,0.122,-0.001,0.181,-0.127,0.112],[0.988,0.1,0.031,0.004,0.051,-0.024,-0.076],[-0.049,0.564,0.067,-0.004,0.129,0.029,0.14],[0.06,0.776,0.018,-0.004,0.231,0.032,0.168],[0.124,0.414,0.034,0.017,0.116,0.037,0.046],[0.016,0.576,0.029,0.002,0.113,0.141,0.038],[-0.129,0.484,0.009,-0.0,0.814,-0.483,0.079],[0.651,-0.063,0.005,0.003,0.25,-0.313,0.102],[0.049,0.144,0.001,0.002,0.07,0.137,0.426]],"b":[-0.417,-1.431,-0.745,0.055,0.684,1.858,0.94,1.603,0.575,0.622]},{"w":[[0.462,0.484,0.065,-0.007,0.122,0.119,-0.126,0.087],[1.057,-0.014,0.122,-0.002,0.173,-0.143,0.062,0.116],[0.984,0.088,0.031,0.003,0.045,-0.036,-0.114,0.089],[-0.049,0.562,0.067,-0.004,0.129,0.028,0.136,0.009],[0.053,0.756,0.018,-0.004,0.222,0.014,0.109,0.138],[0.125,0.415,0.034,0.017,0.116,0.038,0.047,-0.003],[0.015,0.573,0.029,0.002,0.111,0.138,0.029,0.021],[-0.137,0.46,0.009,-0.001,0.802,-0.505,0.01,0.162],[0.643,-0.086,0.005,0.002,0.239,-0.336,0.033,0.162]],"b":[-0.471,-1.503,-0.8,0.05,0.598,1.86,0.927,1.503,0.474]},{"w":[[0.54,0.449,0.06,-0.007,0.15,0.065,-0.112],[0.95,0.062,0.128,-0.002,0.146,-0.036,0.171],[0.865,0.064,0.023,0.003,-0.005,-0.002,0.192],[-0.058,0.635,0.077,-0.004,0.138,0.088,0.01],[0.037,0.862,0.03,-0.003,0.237,0.108,0.031],[0.192,0.436,0.038,0.018,0.147,0.027,-0.105],[-0.028,0.597,0.031,0.002,0.098,0.174,0.067],[-0.16,0.525,0.014,-0.0,0.808,-0.439,0.046],[-0.108,0.513,0.07,0.003,0.048,0.436,0.14],[-0.186,0.366,0.027,0.002,0.015,0.402,0.351]],"b":[-0.396,-1.476,-0.91,0.128,0.76,1.951,0.919,1.619,0.478,0.641]},{"w":[[0.554,0.422,0.058,-0.007,0.149,0.035,-0.139,0.074],[0.971,0.021,0.125,-0.002,0.145,-0.081,0.132,0.112],[0.87,0.055,0.023,0.003,-0.005,-0.011,0.183,0.024],[-0.049,0.617,0.076,-0.004,0.138,0.068,-0.007,0.049],[0.069,0.798,0.025,-0.004,0.235,0.038,-0.03,0.175],[0.197,0.425,0.037,0.018,0.146,0.014,-0.116,0.03],[-0.024,0.589,0.03,0.002,0.098,0.166,0.06,0.019],[-0.129,0.463,0.01,-0.001,0.806,-0.506,-0.013,0.167],[-0.056,0.411,0.062,0.003,0.043,0.323,0.042,0.28]],"b":[-0.444,-1.547,-0.926,0.096,0.648,1.931,0.907,1.512,0.299]},{"w":[[0.532,0.49,0.065,-0.006,0.153,0.099,-0.101,-0.078],[0.961,0.013,0.122,-0.002,0.142,-0.078,0.158,0.096],[0.855,0.113,0.03,0.003,-0.0,0.041,0.206,-0.097],[-0.043,0.563,0.067,-0.004,0.132,0.026,-0.009,0.14],[0.055,0.776,0.018,-0.004,0.229,0.035,0.007,0.167],[0.198,0.407,0.034,0.017,0.144,0.002,-0.113,0.057],[-0.024,0.58,0.028,0.001,0.097,0.16,0.063,0.032],[-0.152,0.486,0.009,-0.0,0.805,-0.471,0.035,0.076],[-0.143,0.162,-0.0,0.001,-0.004,0.229,0.295,0.396]],"b":[-0.359,-1.522,-0.864,0.06,0.68,1.923,0.904,1.583,0.452]},{"w":[[0.547,0.472,0.065,-0.007,0.154,0.074,-0.133,-0.121,0.108],[0.974,-0.002,0.122,-0.002,0.142,-0.1,0.129,0.058,0.095],[0.863,0.104,0.03,0.003,-0.0,0.027,0.189,-0.12,0.058],[-0.041,0.561,0.067,-0.004,0.132,0.024,-0.012,0.136,0.011],[0.076,0.753,0.018,-0.004,0.23,0.002,-0.035,0.11,0.144],[0.2,0.404,0.034,0.017,0.144,-0.002,-0.118,0.051,0.016],[-0.023,0.578,0.028,0.001,0.097,0.157,0.059,0.027,0.012],[-0.128,0.459,0.009,-0.001,0.805,-0.509,-0.013,0.01,0.164]],"b":[-0.408,-1.565,-0.89,0.056,0.615,1.916,0.899,1.509]},{"w":[[0.499,0.436,0.059,-0.006,0.217],[1.084,-0.02,0.129,-0.001,0.209],[1.003,-0.011,0.023,0.003,0.074],[-0.023,0.632,0.079,-0.003,0.218],[0.095,0.865,0.034,-0.002,0.332],[0.142,0.444,0.039,0.018,0.163],[0.056,0.588,0.033,0.004,0.254],[-0.024,0.415,0.032,-0.003,0.629],[-0.06,0.896,0.044,0.004,-0.069],[0.667,-0.177,0.007,0.001,0.21],[-0.024,0.833,0.089,0.006,0.094],[0.078,0.465,0.038,0.006,0.257]],"b":[-0.47,-1.646,-0.993,0.145,0.784,1.902,1.014,0.627,2.587,0.026,1.498,1.257]},{"w":[[0.496,0.418,0.058,-0.006,0.208,0.038],[1.076,-0.067,0.125,-0.002,0.183,0.103],[1.0,-0.029,0.021,0.003,0.064,0.038],[-0.026,0.616,0.078,-0.003,0.209,0.036],[0.084,0.795,0.028,-0.003,0.294,0.15],[0.142,0.443,0.039,0.018,0.162,0.003],[0.054,0.579,0.032,0.004,0.25,0.019],[-0.025,0.412,0.032,-0.003,0.627,0.007],[-0.074,0.815,0.037,0.003,-0.113,0.174],[0.657,-0.232,0.003,0.001,0.18,0.118],[-0.051,0.675,0.076,0.004,0.006,0.34]],"b":[-0.517,-1.775,-1.04,0.1,0.596,1.898,0.99,0.619,2.368,-0.122,1.07]},{"w":[[0.498,0.48,0.064,-0.005,0.222,-0.053],[1.086,-0.095,0.121,-0.002,0.201,0.091],[1.001,0.057,0.03,0.004,0.082,-0.081],[-0.02,0.507,0.066,-0.004,0.204,0.15],[0.1,0.709,0.017,-0.003,0.315,0.187],[0.144,0.393,0.033,0.018,0.157,0.061],[0.058,0.529,0.026,0.003,0.248,0.071],[-0.022,0.318,0.021,-0.004,0.618,0.117],[-0.054,0.67,0.02,0.002,-0.094,0.271],[0.668,-0.214,0.003,0.001,0.206,0.044],[0.089,0.087,-0.002,0.004,0.214,0.454]],"b":[-0.39,-1.782,-0.871,-0.08,0.504,1.811,0.908,0.452,2.18,-0.04,0.577]},{"w":[[0.492,0.475,0.064,-0.006,0.208,-0.083,0.066],[1.079,-0.103,0.121,-0.002,0.182,0.053,0.085],[0.994,0.05,0.03,0.004,0.065,-0.116,0.077],[-0.018,0.509,0.066,-0.004,0.208,0.159,-0.018],[0.091,0.7,0.017,-0.003,0.293,0.141,0.102],[0.146,0.395,0.033,0.018,0.162,0.071,-0.021],[0.058,0.529,0.026,0.003,0.249,0.074,-0.006],[-0.018,0.321,0.021,-0.004,0.627,0.135,-0.039],[-0.062,0.662,0.02,0.002,-0.115,0.227,0.097],[0.657,-0.224,0.004,0.001,0.18,-0.011,0.122]],"b":[-0.428,-1.831,-0.916,-0.07,0.445,1.823,0.912,0.475,2.125,-0.11]},{"w":[[0.607,0.407,0.06,-0.005,0.251,-0.162],[0.979,0.008,0.128,-0.001,0.176,0.158],[0.883,0.021,0.022,0.003,0.036,0.18],[0.002,0.626,0.079,-0.003,0.226,-0.037],[0.115,0.86,0.034,-0.002,0.339,-0.03],[0.23,0.421,0.04,0.018,0.19,-0.131],[0.064,0.586,0.033,0.004,0.257,-0.012],[-0.06,0.424,0.031,-0.003,0.618,0.053],[0.027,0.873,0.045,0.004,-0.041,-0.13],[-0.068,0.845,0.088,0.006,0.08,0.065],[-0.078,0.507,0.037,0.006,0.208,0.234]],"b":[-0.465,-1.65,-0.998,0.146,0.785,1.905,1.015,0.626,2.59,1.496,1.251]},{"w":[[0.611,0.378,0.058,-0.006,0.239,-0.176,0.059],[0.986,-0.036,0.125,-0.002,0.158,0.138,0.087],[0.885,0.012,0.021,0.003,0.033,0.176,0.017],[0.005,0.605,0.078,-0.003,0.217,-0.047,0.041],[0.128,0.78,0.028,-0.003,0.306,-0.067,0.158],[0.231,0.411,0.039,0.018,0.186,-0.136,0.019],[0.065,0.575,0.032,0.004,0.253,-0.017,0.021],[-0.06,0.424,0.031,-0.003,0.618,0.053,0.0],[0.042,0.774,0.038,0.003,-0.082,-0.176,0.195],[-0.041,0.671,0.076,0.004,0.009,-0.015,0.342]],"b":[-0.539,-1.758,-1.019,0.095,0.588,1.882,0.988,0.625,2.346,1.068]},{"w":[[0.604,0.446,0.065,-0.005,0.255,-0.159,-0.046],[0.985,-0.063,0.12,-0.002,0.169,0.152,0.084],[0.877,0.096,0.029,0.004,0.043,0.186,-0.089],[0.012,0.497,0.066,-0.004,0.213,-0.047,0.153],[0.128,0.7,0.017,-0.003,0.324,-0.042,0.189],[0.234,0.364,0.034,0.018,0.185,-0.136,0.067],[0.069,0.525,0.027,0.003,0.251,-0.017,0.072],[-0.052,0.327,0.021,-0.004,0.609,0.045,0.115],[0.046,0.639,0.02,0.002,-0.063,-0.148,0.278],[-0.048,0.131,-0.003,0.003,0.172,0.205,0.445]],"b":[-0.396,-1.776,-0.864,-0.082,0.502,1.805,0.907,0.454,2.175,0.585]},{"w":[[0.608,0.435,0.065,-0.006,0.24,-0.177,-0.085,0.088],[0.988,-0.072,0.121,-0.002,0.157,0.139,0.054,0.068],[0.88,0.089,0.03,0.003,0.034,0.174,-0.114,0.056],[0.011,0.499,0.066,-0.003,0.216,-0.044,0.158,-0.013],[0.133,0.685,0.017,-0.003,0.305,-0.065,0.14,0.11],[0.234,0.365,0.034,0.018,0.186,-0.135,0.069,-0.005],[0.068,0.526,0.027,0.003,0.252,-0.016,0.073,-0.004],[-0.054,0.333,0.021,-0.004,0.617,0.055,0.135,-0.046],[0.051,0.623,0.02,0.002,-0.084,-0.173,0.225,0.118]],"b":[-0.448,-1.816,-0.897,-0.074,0.438,1.808,0.91,0.481,2.106]},{"w":[[0.509,0.282,0.052,-0.006,0.229,0.172],[1.085,-0.037,0.128,-0.001,0.21,0.019],[1.002,0.013,0.024,0.003,0.072,-0.027],[-0.013,0.481,0.071,-0.003,0.229,0.169],[0.11,0.65,0.023,-0.003,0.349,0.24],[0.15,0.333,0.033,0.018,0.171,0.124],[0.07,0.378,0.023,0.003,0.271,0.234],[0.005,-0.02,0.011,-0.005,0.662,0.486],[0.658,-0.048,0.014,0.002,0.201,-0.144],[0.003,0.433,0.069,0.004,0.125,0.446],[0.101,0.123,0.022,0.005,0.283,0.382]],"b":[-0.913,-1.696,-0.922,-0.292,0.163,1.581,0.408,-0.63,0.398,0.344,0.269]},{"w":[[0.508,0.281,0.052,-0.006,0.227,0.168,0.009],[1.075,-0.05,0.126,-0.002,0.18,-0.021,0.106],[0.997,0.008,0.023,0.003,0.059,-0.045,0.046],[-0.014,0.48,0.071,-0.003,0.227,0.166,0.007],[0.098,0.636,0.021,-0.003,0.316,0.196,0.116],[0.152,0.335,0.034,0.018,0.177,0.132,-0.02],[0.072,0.381,0.023,0.003,0.277,0.243,-0.023],[0.013,-0.01,0.012,-0.005,0.686,0.518,-0.084],[0.643,-0.067,0.01,0.001,0.157,-0.202,0.153],[-0.026,0.399,0.063,0.003,0.045,0.339,0.281]],"b":[-0.916,-1.725,-0.934,-0.293,0.132,1.586,0.415,-0.607,0.357,0.268]},{"w":[[0.51,0.331,0.06,-0.006,0.243,0.222,-0.113],[1.085,-0.079,0.121,-0.002,0.198,-0.024,0.098],[1.002,0.05,0.03,0.004,0.083,0.01,-0.084],[-0.013,0.429,0.063,-0.004,0.215,0.116,0.119],[0.109,0.59,0.014,-0.003,0.332,0.178,0.139],[0.149,0.32,0.031,0.017,0.167,0.11,0.031],[0.07,0.374,0.022,0.003,0.27,0.23,0.008],[0.005,-0.013,0.012,-0.005,0.665,0.493,-0.017],[0.658,-0.089,0.007,0.002,0.189,-0.186,0.094],[0.1,-0.05,-0.006,0.003,0.234,0.204,0.398]],"b":[-0.875,-1.73,-0.893,-0.333,0.115,1.57,0.405,-0.624,0.366,0.132]},{"w":[[0.505,0.334,0.06,-0.006,0.233,0.213,-0.132,0.046],[1.076,-0.075,0.122,-0.002,0.177,-0.042,0.062,0.089],[0.994,0.054,0.03,0.004,0.064,-0.006,-0.115,0.078],[-0.01,0.428,0.063,-0.004,0.222,0.122,0.131,-0.03],[0.101,0.594,0.014,-0.004,0.312,0.16,0.105,0.086],[0.153,0.318,0.031,0.018,0.175,0.117,0.044,-0.033],[0.073,0.373,0.022,0.003,0.276,0.236,0.02,-0.029],[0.014,-0.017,0.011,-0.005,0.685,0.512,0.018,-0.089],[0.643,-0.082,0.008,0.001,0.155,-0.215,0.037,0.143]],"b":[-0.881,-1.742,-0.903,-0.329,0.104,1.574,0.409,-0.612,0.347]},{"w":[[0.603,0.275,0.054,-0.006,0.258,0.151,-0.142],[0.978,-0.029,0.126,-0.002,0.178,0.043,0.164],[0.883,0.022,0.022,0.003,0.036,-0.001,0.18],[-0.003,0.48,0.072,-0.003,0.232,0.167,-0.015],[0.109,0.65,0.023,-0.003,0.349,0.24,0.001],[0.227,0.327,0.035,0.018,0.195,0.107,-0.117],[0.057,0.379,0.022,0.003,0.267,0.237,0.019],[-0.073,-0.015,0.009,-0.005,0.639,0.503,0.118],[-0.08,0.439,0.067,0.004,0.099,0.464,0.126],[-0.089,0.137,0.018,0.004,0.225,0.424,0.29]],"b":[-0.857,-1.762,-0.994,-0.285,0.163,1.628,0.401,-0.677,0.294,0.153]},{"w":[[0.606,0.271,0.053,-0.006,0.25,0.138,-0.151,0.032],[0.985,-0.041,0.124,-0.002,0.158,0.007,0.139,0.085],[0.885,0.019,0.021,0.003,0.032,-0.009,0.175,0.019],[-0.002,0.479,0.072,-0.003,0.23,0.163,-0.018,0.01],[0.12,0.633,0.021,-0.003,0.322,0.189,-0.034,0.121],[0.227,0.328,0.035,0.018,0.195,0.108,-0.117,-0.002],[0.055,0.383,0.023,0.003,0.273,0.249,0.027,-0.027],[-0.083,-0.0,0.011,-0.005,0.663,0.548,0.149,-0.106],[-0.056,0.402,0.062,0.003,0.038,0.348,0.046,0.274]],"b":[-0.862,-1.775,-0.997,-0.287,0.144,1.628,0.405,-0.66,0.252]},{"w":[[0.595,0.32,0.061,-0.006,0.268,0.198,-0.129,-0.101],[0.984,-0.066,0.12,-0.002,0.169,0.004,0.153,0.083],[0.875,0.067,0.028,0.004,0.046,0.046,0.193,-0.102],[0.007,0.427,0.063,-0.004,0.22,0.11,-0.031,0.122],[0.12,0.588,0.014,-0.003,0.335,0.175,-0.016,0.14],[0.23,0.309,0.032,0.018,0.19,0.087,-0.123,0.043],[0.058,0.376,0.022,0.003,0.266,0.234,0.018,0.007],[-0.075,-0.002,0.011,-0.005,0.642,0.516,0.122,-0.029],[-0.059,-0.028,-0.008,0.003,0.188,0.249,0.242,0.375]],"b":[-0.827,-1.786,-0.964,-0.321,0.121,1.615,0.399,-0.668,0.043]},{"w":[[0.599,0.322,0.061,-0.006,0.255,0.182,-0.146,-0.126,0.066],[0.988,-0.064,0.121,-0.002,0.156,-0.013,0.136,0.057,0.07],[0.878,0.068,0.029,0.003,0.036,0.033,0.18,-0.122,0.052],[0.005,0.426,0.063,-0.004,0.225,0.117,-0.024,0.132,-0.026],[0.126,0.591,0.014,-0.004,0.318,0.152,-0.039,0.106,0.092],[0.229,0.308,0.032,0.018,0.193,0.091,-0.119,0.048,-0.016],[0.056,0.375,0.022,0.003,0.272,0.242,0.026,0.019,-0.033],[-0.082,-0.005,0.01,-0.005,0.662,0.543,0.148,0.013,-0.11]],"b":[-0.83,-1.789,-0.966,-0.32,0.117,1.616,0.4,-0.663]},{"w":[[0.499,0.44,0.06,-0.006,0.223,-0.009],[1.085,-0.036,0.128,-0.001,0.184,0.039],[1.002,0.005,0.024,0.003,0.098,-0.039],[-0.023,0.624,0.078,-0.003,0.204,0.021],[0.097,0.835,0.031,-0.002,0.287,0.072],[0.143,0.429,0.038,0.018,0.139,0.038],[0.055,0.603,0.034,0.004,0.277,-0.035],[-0.046,0.661,0.026,0.005,-0.426,0.568],[0.668,-0.205,0.005,0.002,0.168,0.068],[-0.019,0.74,0.081,0.006,-0.048,0.225],[0.079,0.458,0.038,0.006,0.246,0.017]],"b":[-0.464,-1.671,-0.969,0.132,0.739,1.878,1.036,2.23,-0.017,1.357,1.246]},{"w":[[0.496,0.423,0.058,-0.006,0.214,-0.01,0.038],[1.077,-0.083,0.124,-0.002,0.159,0.038,0.103],[0.999,-0.013,0.023,0.003,0.089,-0.039,0.038],[-0.025,0.607,0.077,-0.003,0.196,0.021,0.036],[0.085,0.767,0.026,-0.003,0.251,0.069,0.149],[0.143,0.427,0.038,0.018,0.138,0.038,0.002],[0.054,0.594,0.033,0.004,0.272,-0.036,0.019],[-0.06,0.582,0.019,0.004,-0.468,0.565,0.17],[0.659,-0.259,0.001,0.001,0.139,0.066,0.118],[-0.045,0.585,0.069,0.004,-0.131,0.219,0.339]],"b":[-0.511,-1.799,-1.016,0.088,0.553,1.875,1.012,2.018,-0.163,0.935]},{"w":[[0.498,0.48,0.064,-0.005,0.221,0.003,-0.053],[1.087,-0.102,0.12,-0.002,0.188,0.02,0.089],[1.001,0.063,0.03,0.004,0.094,-0.021,-0.079],[-0.02,0.511,0.066,-0.004,0.212,-0.013,0.152],[0.101,0.699,0.016,-0.003,0.296,0.03,0.184],[0.144,0.386,0.033,0.018,0.142,0.025,0.058],[0.056,0.546,0.028,0.003,0.28,-0.052,0.077],[-0.042,0.505,0.008,0.004,-0.416,0.521,0.211],[0.669,-0.233,0.002,0.001,0.169,0.06,0.037],[0.087,0.115,-0.0,0.003,0.268,-0.087,0.464]],"b":[-0.391,-1.791,-0.862,-0.074,0.49,1.799,0.932,1.945,-0.067,0.617]},{"w":[[0.492,0.472,0.064,-0.006,0.203,0.009,-0.084,0.067],[1.079,-0.112,0.121,-0.002,0.165,0.027,0.049,0.086],[0.994,0.054,0.03,0.003,0.074,-0.014,-0.115,0.077],[-0.018,0.513,0.066,-0.004,0.217,-0.015,0.161,-0.019],[0.091,0.687,0.016,-0.003,0.268,0.039,0.136,0.103],[0.146,0.388,0.033,0.018,0.147,0.023,0.068,-0.021],[0.057,0.547,0.028,0.003,0.282,-0.053,0.081,-0.008],[-0.053,0.491,0.008,0.004,-0.448,0.531,0.156,0.118],[0.658,-0.247,0.002,0.001,0.136,0.071,-0.021,0.125]],"b":[-0.432,-1.844,-0.909,-0.063,0.426,1.812,0.937,1.872,-0.144]},{"w":[[0.607,0.407,0.06,-0.005,0.25,0.002,-0.162],[0.981,-0.004,0.127,-0.001,0.158,0.029,0.156],[0.88,0.042,0.023,0.003,0.068,-0.051,0.183],[0.003,0.616,0.078,-0.003,0.211,0.024,-0.038],[0.12,0.828,0.031,-0.002,0.293,0.074,-0.034],[0.232,0.401,0.038,0.018,0.161,0.047,-0.134],[0.062,0.601,0.034,0.004,0.278,-0.035,-0.01],[0.061,0.627,0.026,0.006,-0.399,0.579,-0.161],[-0.055,0.751,0.081,0.006,-0.057,0.221,0.054],[-0.078,0.507,0.037,0.006,0.207,0.001,0.234]],"b":[-0.466,-1.668,-0.966,0.132,0.738,1.876,1.036,2.228,1.358,1.25]},{"w":[[0.612,0.377,0.058,-0.006,0.238,0.002,-0.176,0.059],[0.987,-0.048,0.124,-0.002,0.14,0.029,0.136,0.087],[0.881,0.034,0.022,0.003,0.064,-0.051,0.179,0.017],[0.006,0.595,0.077,-0.003,0.202,0.024,-0.048,0.041],[0.132,0.748,0.026,-0.003,0.26,0.074,-0.071,0.158],[0.234,0.392,0.038,0.018,0.158,0.047,-0.138,0.019],[0.063,0.59,0.033,0.004,0.274,-0.035,-0.015,0.021],[0.077,0.529,0.019,0.005,-0.44,0.579,-0.207,0.195],[-0.028,0.578,0.069,0.004,-0.127,0.221,-0.026,0.342]],"b":[-0.54,-1.776,-0.987,0.08,0.542,1.853,1.01,1.984,0.93]},{"w":[[0.604,0.442,0.064,-0.005,0.248,0.012,-0.159,-0.048],[0.985,-0.066,0.12,-0.002,0.163,0.01,0.152,0.083],[0.875,0.107,0.03,0.003,0.063,-0.032,0.187,-0.086],[0.011,0.5,0.066,-0.004,0.22,-0.01,-0.047,0.154],[0.13,0.689,0.016,-0.003,0.304,0.033,-0.044,0.185],[0.236,0.354,0.033,0.018,0.165,0.033,-0.137,0.063],[0.066,0.542,0.028,0.003,0.283,-0.052,-0.014,0.078],[0.073,0.465,0.009,0.004,-0.387,0.531,-0.173,0.217],[-0.053,0.164,-0.0,0.003,0.233,-0.1,0.21,0.456]],"b":[-0.402,-1.781,-0.849,-0.077,0.487,1.79,0.931,1.933,0.631]},{"w":[[0.609,0.428,0.064,-0.005,0.227,0.021,-0.178,-0.088,0.089],[0.989,-0.078,0.12,-0.002,0.147,0.017,0.138,0.052,0.069],[0.878,0.098,0.03,0.003,0.05,-0.027,0.176,-0.111,0.055],[0.011,0.502,0.066,-0.004,0.223,-0.011,-0.044,0.16,-0.013],[0.136,0.671,0.017,-0.003,0.278,0.044,-0.067,0.134,0.112],[0.236,0.354,0.033,0.018,0.166,0.032,-0.136,0.065,-0.004],[0.066,0.543,0.028,0.003,0.284,-0.052,-0.013,0.08,-0.006],[0.081,0.441,0.009,0.004,-0.42,0.546,-0.203,0.152,0.143]],"b":[-0.458,-1.824,-0.884,-0.069,0.417,1.792,0.935,1.843]},{"w":[[0.51,0.279,0.053,-0.007,0.327,-0.148,0.243],[1.085,-0.036,0.128,-0.001,0.184,0.039,0.0],[1.002,0.013,0.024,0.003,0.093,-0.032,-0.012],[-0.013,0.479,0.073,-0.004,0.298,-0.103,0.219],[0.11,0.648,0.024,-0.003,0.408,-0.089,0.283],[0.15,0.332,0.034,0.017,0.201,-0.045,0.146],[0.071,0.373,0.025,0.002,0.425,-0.233,0.347],[0.657,-0.044,0.011,0.003,0.063,0.207,-0.244],[0.003,0.433,0.069,0.004,0.151,-0.04,0.465],[0.103,0.117,0.025,0.003,0.467,-0.277,0.516]],"b":[-1.006,-1.672,-0.942,-0.357,0.107,1.552,0.262,0.529,0.319,0.094]},{"w":[[0.51,0.28,0.053,-0.007,0.329,-0.149,0.245,-0.004],[1.074,-0.049,0.125,-0.001,0.132,0.07,-0.058,0.112],[0.997,0.008,0.023,0.003,0.073,-0.02,-0.035,0.044],[-0.012,0.479,0.073,-0.004,0.299,-0.104,0.22,-0.002],[0.099,0.635,0.021,-0.004,0.357,-0.059,0.226,0.111],[0.152,0.335,0.035,0.017,0.213,-0.052,0.159,-0.025],[0.076,0.378,0.026,0.002,0.445,-0.245,0.37,-0.044],[0.639,-0.064,0.007,0.002,-0.018,0.255,-0.335,0.175],[-0.026,0.399,0.062,0.003,0.018,0.039,0.319,0.284]],"b":[-1.006,-1.682,-0.946,-0.356,0.096,1.555,0.266,0.512,0.292]},{"w":[[0.51,0.329,0.061,-0.007,0.344,-0.152,0.297,-0.116],[1.085,-0.079,0.121,-0.001,0.17,0.043,-0.045,0.098],[1.002,0.049,0.03,0.004,0.106,-0.035,0.027,-0.085],[-0.013,0.428,0.064,-0.004,0.28,-0.099,0.165,0.117],[0.11,0.589,0.015,-0.004,0.387,-0.084,0.219,0.137],[0.15,0.319,0.032,0.017,0.197,-0.044,0.132,0.03],[0.071,0.371,0.025,0.002,0.424,-0.232,0.345,0.004],[0.657,-0.086,0.005,0.003,0.049,0.211,-0.29,0.098],[0.102,-0.053,-0.003,0.002,0.407,-0.261,0.333,0.394]],"b":[-0.969,-1.703,-0.915,-0.394,0.063,1.543,0.261,0.497,-0.031]},{"w":[[0.507,0.331,0.062,-0.007,0.331,-0.144,0.286,-0.129,0.033],[1.075,-0.074,0.121,-0.002,0.131,0.068,-0.077,0.061,0.095],[0.994,0.053,0.03,0.003,0.075,-0.015,0.002,-0.115,0.077],[-0.009,0.426,0.064,-0.004,0.296,-0.109,0.178,0.133,-0.039],[0.102,0.593,0.015,-0.004,0.355,-0.063,0.193,0.106,0.081],[0.154,0.317,0.032,0.017,0.212,-0.054,0.145,0.045,-0.038],[0.076,0.369,0.025,0.002,0.445,-0.246,0.362,0.024,-0.051],[0.64,-0.078,0.005,0.002,-0.019,0.254,-0.345,0.033,0.165]],"b":[-0.968,-1.7,-0.913,-0.395,0.066,1.541,0.259,0.502]},{"w":[[0.594,0.274,0.055,-0.007,0.335,-0.121,0.212,-0.128],[0.978,-0.029,0.126,-0.002,0.174,0.006,0.04,0.163],[0.878,0.021,0.022,0.003,0.081,-0.071,0.034,0.188],[-0.01,0.479,0.073,-0.004,0.298,-0.103,0.218,-0.003],[0.102,0.649,0.024,-0.003,0.407,-0.092,0.286,0.012],[0.225,0.327,0.035,0.018,0.209,-0.022,0.118,-0.115],[0.04,0.375,0.024,0.002,0.422,-0.242,0.359,0.048],[-0.085,0.438,0.068,0.003,0.142,-0.067,0.498,0.134],[-0.114,0.132,0.021,0.002,0.446,-0.345,0.597,0.33]],"b":[-0.939,-1.758,-1.042,-0.355,0.1,1.613,0.237,0.248,-0.08]},{"w":[[0.596,0.271,0.054,-0.007,0.326,-0.114,0.2,-0.134,0.02],[0.988,-0.041,0.124,-0.002,0.134,0.036,-0.013,0.134,0.089],[0.879,0.019,0.022,0.003,0.076,-0.067,0.027,0.184,0.012],[-0.011,0.479,0.073,-0.004,0.299,-0.103,0.219,-0.003,-0.001],[0.115,0.633,0.022,-0.004,0.356,-0.052,0.218,-0.026,0.115],[0.225,0.328,0.035,0.018,0.211,-0.023,0.121,-0.113,-0.005],[0.033,0.383,0.026,0.002,0.446,-0.261,0.392,0.066,-0.055],[-0.053,0.402,0.062,0.003,0.019,0.028,0.333,0.042,0.277]],"b":[-0.937,-1.751,-1.041,-0.355,0.11,1.612,0.232,0.27]},{"w":[[0.585,0.32,0.062,-0.006,0.35,-0.128,0.264,-0.114,-0.105],[0.985,-0.066,0.12,-0.002,0.162,0.011,-0.001,0.152,0.083],[0.869,0.067,0.029,0.003,0.096,-0.078,0.086,0.202,-0.104],[-0.0,0.426,0.065,-0.004,0.281,-0.095,0.159,-0.019,0.119],[0.114,0.588,0.015,-0.004,0.388,-0.083,0.218,-0.006,0.138],[0.229,0.309,0.032,0.018,0.203,-0.019,0.097,-0.12,0.042],[0.04,0.376,0.024,0.002,0.422,-0.242,0.359,0.048,-0.0],[-0.083,-0.029,-0.004,0.001,0.393,-0.32,0.415,0.281,0.366]],"b":[-0.913,-1.779,-1.016,-0.384,0.066,1.602,0.237,-0.171]},{"w":[[0.59,0.321,0.062,-0.006,0.329,-0.111,0.242,-0.129,-0.125,0.054],[0.991,-0.064,0.121,-0.002,0.133,0.035,-0.032,0.131,0.057,0.073],[0.873,0.068,0.029,0.003,0.078,-0.063,0.067,0.19,-0.121,0.045],[-0.003,0.425,0.064,-0.004,0.296,-0.107,0.175,-0.008,0.133,-0.038],[0.121,0.59,0.015,-0.004,0.354,-0.055,0.182,-0.03,0.107,0.086],[0.227,0.308,0.032,0.018,0.21,-0.025,0.105,-0.115,0.049,-0.018],[0.035,0.374,0.024,0.002,0.446,-0.262,0.384,0.065,0.022,-0.061]],"b":[-0.904,-1.766,-1.008,-0.391,0.081,1.599,0.226]},{"w":[[0.447,0.215,0.046,-0.009,0.522],[1.031,-0.009,0.128,-0.004,0.238],[0.985,-0.076,0.019,0.002,0.165],[-0.075,0.367,0.063,-0.006,0.575],[0.016,0.516,0.013,-0.006,0.812],[0.102,0.365,0.034,0.016,0.289],[-0.265,0.604,0.025,-0.01,0.486],[-0.192,0.824,0.049,-0.01,0.272],[-0.038,0.631,0.03,0.004,0.231],[0.611,-0.038,0.013,-0.001,0.088],[-0.047,0.779,0.085,0.005,0.177],[0.011,0.581,0.043,0.003,0.172]],"b":[-0.813,-1.561,-1.09,-0.28,0.238,1.804,1.433,1.582,2.072,0.351,1.425,1.551]},{"w":[[0.446,0.19,0.044,-0.009,0.515,0.043],[1.029,-0.08,0.123,-0.004,0.217,0.123],[0.985,-0.099,0.017,0.002,0.158,0.039],[-0.075,0.345,0.062,-0.006,0.568,0.038],[0.014,0.427,0.006,-0.007,0.785,0.153],[0.102,0.356,0.033,0.016,0.287,0.014],[-0.267,0.512,0.019,-0.011,0.459,0.158],[-0.193,0.761,0.045,-0.01,0.253,0.108],[-0.04,0.55,0.024,0.003,0.207,0.139],[0.609,-0.123,0.007,-0.001,0.062,0.148],[-0.051,0.585,0.071,0.003,0.12,0.333]],"b":[-0.88,-1.751,-1.151,-0.338,0.0,1.782,1.187,1.414,1.856,0.122,0.908]},{"w":[[0.443,0.279,0.053,-0.008,0.537,-0.083],[1.035,-0.078,0.121,-0.004,0.222,0.089],[0.981,-0.005,0.027,0.003,0.181,-0.091],[-0.069,0.276,0.053,-0.006,0.554,0.118],[0.022,0.404,0.001,-0.007,0.786,0.143],[0.104,0.326,0.029,0.016,0.28,0.049],[-0.263,0.565,0.021,-0.01,0.477,0.051],[-0.185,0.705,0.036,-0.01,0.245,0.153],[-0.027,0.44,0.009,0.003,0.188,0.245],[0.613,-0.081,0.008,-0.001,0.078,0.056],[0.033,0.218,0.003,0.001,0.09,0.466]],"b":[-0.695,-1.688,-0.961,-0.448,0.034,1.734,1.361,1.364,1.724,0.271,0.887]},{"w":[[0.44,0.261,0.053,-0.008,0.529,-0.122,0.084],[1.031,-0.102,0.12,-0.004,0.212,0.038,0.11],[0.978,-0.023,0.026,0.003,0.174,-0.129,0.082],[-0.069,0.276,0.053,-0.006,0.554,0.118,-0.002],[0.018,0.377,0.0,-0.007,0.775,0.085,0.125],[0.104,0.327,0.029,0.016,0.281,0.051,-0.003],[-0.268,0.528,0.021,-0.011,0.462,-0.027,0.167],[-0.187,0.69,0.036,-0.01,0.239,0.121,0.068],[-0.029,0.426,0.009,0.003,0.182,0.213,0.068],[0.608,-0.115,0.008,-0.001,0.064,-0.015,0.153]],"b":[-0.77,-1.786,-1.034,-0.446,-0.077,1.736,1.212,1.304,1.663,0.135]},{"w":[[0.521,0.211,0.048,-0.009,0.533,-0.121],[0.91,-0.001,0.126,-0.003,0.221,0.197],[0.875,-0.069,0.017,0.003,0.149,0.181],[-0.071,0.367,0.064,-0.006,0.575,-0.007],[0.004,0.516,0.013,-0.006,0.81,0.019],[0.159,0.361,0.035,0.016,0.297,-0.093],[-0.431,0.614,0.022,-0.01,0.463,0.272],[-0.328,0.832,0.046,-0.009,0.253,0.223],[0.059,0.625,0.032,0.004,0.245,-0.159],[-0.095,0.781,0.084,0.005,0.17,0.078],[-0.165,0.592,0.039,0.004,0.147,0.288]],"b":[-0.771,-1.63,-1.154,-0.278,0.231,1.837,1.338,1.504,2.128,1.398,1.45]},{"w":[[0.531,0.173,0.045,-0.009,0.523,-0.139,0.064],[0.927,-0.059,0.122,-0.004,0.206,0.168,0.098],[0.877,-0.077,0.016,0.003,0.147,0.177,0.013],[-0.064,0.343,0.062,-0.006,0.569,-0.018,0.04],[0.03,0.423,0.007,-0.007,0.787,-0.026,0.157],[0.164,0.344,0.034,0.016,0.293,-0.102,0.029],[-0.411,0.541,0.017,-0.01,0.444,0.236,0.123],[-0.315,0.786,0.043,-0.01,0.241,0.2,0.079],[0.087,0.524,0.026,0.003,0.22,-0.208,0.17],[-0.04,0.583,0.071,0.003,0.121,-0.018,0.336]],"b":[-0.863,-1.772,-1.173,-0.336,0.003,1.795,1.159,1.39,1.882,0.91]},{"w":[[0.513,0.27,0.054,-0.008,0.546,-0.115,-0.076],[0.918,-0.063,0.119,-0.004,0.207,0.19,0.079],[0.865,0.01,0.025,0.003,0.166,0.189,-0.101],[-0.059,0.274,0.054,-0.006,0.555,-0.016,0.119],[0.018,0.405,0.001,-0.007,0.786,0.008,0.143],[0.164,0.318,0.03,0.016,0.288,-0.098,0.055],[-0.428,0.587,0.019,-0.01,0.457,0.269,0.035],[-0.314,0.722,0.035,-0.01,0.228,0.212,0.141],[0.083,0.426,0.011,0.003,0.202,-0.179,0.255],[-0.122,0.239,0.001,0.002,0.07,0.252,0.452]],"b":[-0.664,-1.74,-1.012,-0.443,0.032,1.76,1.288,1.307,1.772,0.819]},{"w":[[0.526,0.245,0.054,-0.008,0.538,-0.142,-0.124,0.105],[0.928,-0.083,0.119,-0.004,0.201,0.169,0.04,0.084],[0.872,-0.003,0.025,0.003,0.163,0.175,-0.126,0.056],[-0.059,0.274,0.054,-0.006,0.555,-0.016,0.118,0.001],[0.033,0.374,0.001,-0.007,0.777,-0.025,0.084,0.129],[0.166,0.315,0.03,0.016,0.287,-0.101,0.049,0.013],[-0.412,0.555,0.019,-0.01,0.447,0.236,-0.024,0.131],[-0.31,0.713,0.035,-0.01,0.226,0.202,0.124,0.037],[0.095,0.402,0.011,0.003,0.195,-0.204,0.21,0.099]],"b":[-0.751,-1.809,-1.058,-0.444,-0.074,1.75,1.181,1.277,1.691]},{"w":[[0.448,0.189,0.045,-0.009,0.512,0.041],[1.028,0.026,0.13,-0.003,0.251,-0.056],[0.983,-0.03,0.021,0.003,0.182,-0.073],[-0.074,0.35,0.063,-0.006,0.568,0.027],[0.017,0.493,0.012,-0.006,0.803,0.037],[0.104,0.334,0.032,0.016,0.278,0.048],[-0.274,0.746,0.032,-0.009,0.538,-0.224],[-0.178,0.589,0.038,-0.011,0.186,0.372],[0.603,0.085,0.019,0.0,0.132,-0.194],[-0.031,0.517,0.073,0.003,0.081,0.415],[0.023,0.373,0.033,0.002,0.096,0.33]],"b":[-0.898,-1.445,-0.94,-0.336,0.162,1.705,1.898,0.812,0.753,0.565,0.867]},{"w":[[0.447,0.175,0.044,-0.009,0.509,0.028,0.039],[1.025,-0.025,0.125,-0.004,0.238,-0.101,0.137],[0.981,-0.049,0.019,0.003,0.177,-0.09,0.052],[-0.075,0.337,0.061,-0.006,0.565,0.015,0.036],[0.013,0.435,0.007,-0.007,0.788,-0.014,0.155],[0.103,0.332,0.032,0.016,0.277,0.045,0.008],[-0.279,0.672,0.026,-0.01,0.519,-0.29,0.199],[-0.179,0.567,0.036,-0.011,0.18,0.352,0.059],[0.599,0.016,0.013,-0.0,0.115,-0.254,0.183],[-0.038,0.409,0.063,0.002,0.054,0.32,0.289]],"b":[-0.932,-1.564,-0.985,-0.367,0.027,1.698,1.726,0.761,0.594,0.314]},{"w":[[0.445,0.242,0.052,-0.008,0.521,0.084,-0.103],[1.032,-0.033,0.122,-0.004,0.242,-0.103,0.114],[0.98,0.012,0.027,0.003,0.188,-0.039,-0.081],[-0.07,0.286,0.054,-0.006,0.558,-0.024,0.124],[0.022,0.415,0.001,-0.007,0.791,-0.025,0.149],[0.105,0.313,0.029,0.016,0.275,0.03,0.042],[-0.27,0.685,0.024,-0.01,0.529,-0.273,0.117],[-0.175,0.554,0.033,-0.011,0.18,0.343,0.069],[0.607,0.025,0.011,-0.0,0.123,-0.242,0.115],[0.037,0.151,0.002,0.001,0.061,0.152,0.429]],"b":[-0.84,-1.51,-0.894,-0.406,0.077,1.681,1.832,0.773,0.687,0.625]},{"w":[[0.442,0.23,0.052,-0.008,0.516,0.072,-0.137,0.079],[1.028,-0.051,0.121,-0.004,0.234,-0.121,0.064,0.119],[0.977,-0.001,0.027,0.003,0.183,-0.052,-0.118,0.086],[-0.07,0.286,0.054,-0.006,0.558,-0.024,0.124,-0.0],[0.017,0.396,0.001,-0.007,0.783,-0.045,0.094,0.128],[0.105,0.314,0.029,0.016,0.275,0.031,0.044,-0.005],[-0.277,0.657,0.023,-0.01,0.517,-0.302,0.037,0.188],[-0.177,0.547,0.033,-0.011,0.178,0.336,0.05,0.045],[0.601,-0.001,0.01,-0.0,0.113,-0.268,0.042,0.171]],"b":[-0.889,-1.584,-0.948,-0.406,-0.003,1.684,1.714,0.745,0.58]},{"w":[[0.52,0.199,0.047,-0.009,0.528,0.018,-0.118],[0.912,0.01,0.126,-0.003,0.225,-0.018,0.194],[0.877,-0.045,0.018,0.003,0.159,-0.039,0.175],[-0.072,0.35,0.063,-0.006,0.569,0.027,-0.003],[0.002,0.49,0.011,-0.006,0.8,0.042,0.026],[0.157,0.342,0.034,0.016,0.29,0.031,-0.088],[-0.421,0.725,0.028,-0.009,0.506,-0.177,0.243],[-0.353,0.565,0.033,-0.011,0.148,0.428,0.291],[-0.121,0.504,0.07,0.003,0.062,0.444,0.149],[-0.188,0.343,0.026,0.002,0.049,0.398,0.351]],"b":[-0.81,-1.591,-1.071,-0.334,0.142,1.772,1.715,0.593,0.453,0.603]},{"w":[[0.532,0.177,0.046,-0.009,0.525,-0.008,-0.141,0.065],[0.932,-0.027,0.123,-0.004,0.22,-0.061,0.156,0.108],[0.881,-0.052,0.017,0.003,0.158,-0.047,0.168,0.021],[-0.065,0.337,0.062,-0.006,0.567,0.011,-0.016,0.039],[0.032,0.435,0.007,-0.007,0.792,-0.022,-0.031,0.161],[0.162,0.333,0.033,0.016,0.288,0.02,-0.098,0.026],[-0.39,0.669,0.023,-0.01,0.498,-0.243,0.186,0.165],[-0.352,0.563,0.032,-0.011,0.147,0.426,0.289,0.006],[-0.069,0.408,0.062,0.002,0.048,0.333,0.051,0.28]],"b":[-0.849,-1.657,-1.084,-0.357,0.045,1.756,1.616,0.589,0.284]},{"w":[[0.509,0.245,0.054,-0.008,0.534,0.059,-0.104,-0.091],[0.923,-0.037,0.12,-0.004,0.219,-0.06,0.18,0.094],[0.864,0.007,0.025,0.003,0.165,0.007,0.19,-0.103],[-0.057,0.287,0.054,-0.006,0.561,-0.029,-0.021,0.126],[0.02,0.415,0.001,-0.007,0.791,-0.024,0.004,0.149],[0.163,0.315,0.03,0.016,0.286,0.007,-0.096,0.053],[-0.41,0.679,0.021,-0.01,0.5,-0.218,0.23,0.091],[-0.349,0.547,0.03,-0.011,0.145,0.412,0.285,0.036],[-0.14,0.144,-0.001,0.001,0.025,0.223,0.292,0.395]],"b":[-0.768,-1.634,-1.025,-0.391,0.075,1.748,1.674,0.577,0.424]},{"w":[[0.523,0.23,0.054,-0.008,0.531,0.036,-0.134,-0.131,0.102],[0.936,-0.05,0.12,-0.004,0.217,-0.08,0.153,0.057,0.092],[0.872,-0.001,0.025,0.003,0.164,-0.005,0.174,-0.125,0.056],[-0.056,0.286,0.054,-0.006,0.561,-0.03,-0.022,0.125,0.004],[0.038,0.396,0.001,-0.007,0.787,-0.054,-0.036,0.096,0.134],[0.165,0.313,0.03,0.016,0.286,0.004,-0.1,0.048,0.012],[-0.388,0.657,0.021,-0.01,0.497,-0.252,0.184,0.029,0.156],[-0.349,0.547,0.03,-0.011,0.145,0.413,0.287,0.038,-0.004]],"b":[-0.812,-1.673,-1.049,-0.393,0.018,1.742,1.607,0.579]},{"w":[[0.46,0.16,0.043,-0.008,0.504,0.067],[1.057,-0.121,0.121,-0.002,0.201,0.136],[0.986,-0.079,0.019,0.002,0.164,0.004],[-0.06,0.304,0.06,-0.005,0.554,0.077],[0.045,0.392,0.006,-0.005,0.771,0.151],[0.12,0.288,0.029,0.017,0.264,0.093],[-0.141,0.069,-0.007,-0.004,0.31,0.649],[0.009,0.429,0.018,0.006,0.165,0.245],[0.645,-0.185,0.004,0.001,0.039,0.179],[-0.015,0.638,0.077,0.006,0.131,0.171],[0.043,0.442,0.034,0.005,0.126,0.169]],"b":[-0.919,-1.777,-1.097,-0.401,-0.001,1.657,0.406,1.685,0.068,1.155,1.284]},{"w":[[0.458,0.144,0.042,-0.008,0.499,0.061,0.037],[1.052,-0.17,0.118,-0.003,0.187,0.118,0.11],[0.984,-0.097,0.017,0.002,0.159,-0.003,0.04],[-0.061,0.291,0.059,-0.005,0.55,0.071,0.03],[0.039,0.33,0.001,-0.005,0.753,0.127,0.139],[0.119,0.286,0.029,0.017,0.263,0.092,0.004],[-0.145,0.03,-0.01,-0.004,0.298,0.634,0.09],[0.004,0.379,0.014,0.006,0.15,0.225,0.115],[0.639,-0.243,-0.0,0.0,0.022,0.157,0.131],[-0.028,0.496,0.066,0.005,0.09,0.117,0.321]],"b":[-0.966,-1.918,-1.148,-0.439,-0.18,1.652,0.291,1.538,-0.1,0.743]},{"w":[[0.458,0.221,0.05,-0.007,0.516,0.083,-0.095],[1.058,-0.166,0.116,-0.003,0.192,0.124,0.07],[0.985,-0.019,0.026,0.003,0.176,0.02,-0.094],[-0.058,0.235,0.051,-0.006,0.539,0.058,0.109],[0.046,0.313,-0.004,-0.005,0.755,0.13,0.123],[0.12,0.265,0.026,0.017,0.259,0.087,0.036],[-0.142,0.101,-0.003,-0.004,0.316,0.658,-0.05],[0.012,0.294,0.002,0.005,0.137,0.208,0.213],[0.645,-0.204,0.002,0.001,0.035,0.174,0.03],[0.05,0.153,-0.0,0.002,0.067,0.092,0.452]],"b":[-0.809,-1.858,-0.988,-0.527,-0.143,1.616,0.463,1.439,0.033,0.762]},{"w":[[0.454,0.209,0.05,-0.007,0.511,0.076,-0.131,0.079],[1.053,-0.182,0.116,-0.003,0.185,0.115,0.024,0.102],[0.981,-0.032,0.026,0.003,0.171,0.013,-0.131,0.082],[-0.058,0.236,0.051,-0.006,0.54,0.058,0.111,-0.006],[0.041,0.295,-0.004,-0.006,0.747,0.119,0.07,0.117],[0.121,0.266,0.026,0.017,0.26,0.088,0.04,-0.009],[-0.148,0.082,-0.003,-0.004,0.308,0.646,-0.106,0.124],[0.009,0.285,0.002,0.005,0.133,0.203,0.188,0.054],[0.638,-0.226,0.002,0.0,0.025,0.161,-0.034,0.142]],"b":[-0.869,-1.936,-1.051,-0.522,-0.232,1.622,0.369,1.398,-0.075]},{"w":[[0.551,0.134,0.044,-0.008,0.509,0.092,-0.142],[0.945,-0.089,0.121,-0.002,0.194,0.105,0.173],[0.865,-0.044,0.018,0.002,0.157,-0.029,0.188],[-0.044,0.3,0.06,-0.005,0.555,0.081,-0.025],[0.054,0.389,0.006,-0.005,0.771,0.153,-0.015],[0.196,0.266,0.03,0.017,0.268,0.114,-0.119],[-0.226,0.094,-0.007,-0.004,0.305,0.626,0.132],[0.152,0.388,0.019,0.007,0.173,0.285,-0.222],[-0.042,0.645,0.076,0.006,0.129,0.163,0.042],[-0.125,0.49,0.033,0.005,0.116,0.122,0.26]],"b":[-0.91,-1.788,-1.109,-0.399,0.0,1.665,0.397,1.7,1.152,1.266]},{"w":[[0.558,0.106,0.042,-0.008,0.503,0.085,-0.156,0.057],[0.956,-0.133,0.118,-0.003,0.184,0.094,0.15,0.091],[0.867,-0.052,0.017,0.002,0.155,-0.031,0.184,0.016],[-0.04,0.283,0.059,-0.005,0.551,0.077,-0.034,0.034],[0.073,0.317,0.001,-0.005,0.754,0.135,-0.053,0.146],[0.199,0.256,0.029,0.017,0.266,0.112,-0.124,0.02],[-0.217,0.057,-0.01,-0.004,0.296,0.616,0.113,0.075],[0.171,0.315,0.014,0.006,0.156,0.266,-0.261,0.149],[-0.001,0.486,0.066,0.005,0.091,0.123,-0.043,0.326]],"b":[-0.982,-1.903,-1.129,-0.443,-0.185,1.639,0.302,1.511,0.739]},{"w":[[0.547,0.193,0.051,-0.007,0.521,0.107,-0.138,-0.091],[0.948,-0.131,0.116,-0.003,0.186,0.095,0.17,0.065],[0.861,0.02,0.025,0.003,0.169,-0.013,0.192,-0.099],[-0.039,0.229,0.051,-0.006,0.541,0.063,-0.029,0.11],[0.059,0.309,-0.004,-0.005,0.755,0.133,-0.02,0.124],[0.198,0.24,0.026,0.017,0.263,0.108,-0.12,0.04],[-0.228,0.129,-0.003,-0.004,0.312,0.634,0.134,-0.054],[0.161,0.246,0.002,0.005,0.145,0.249,-0.231,0.22],[-0.106,0.203,-0.001,0.002,0.059,0.05,0.242,0.445]],"b":[-0.804,-1.863,-0.995,-0.526,-0.142,1.62,0.459,1.447,0.754]},{"w":[[0.558,0.172,0.051,-0.007,0.515,0.102,-0.162,-0.136,0.102],[0.956,-0.147,0.116,-0.003,0.181,0.091,0.151,0.029,0.081],[0.867,0.008,0.026,0.003,0.166,-0.016,0.178,-0.124,0.056],[-0.04,0.229,0.051,-0.006,0.541,0.063,-0.029,0.11,-0.002],[0.073,0.284,-0.004,-0.006,0.748,0.127,-0.05,0.069,0.124],[0.199,0.239,0.026,0.017,0.263,0.107,-0.123,0.036,0.009],[-0.217,0.107,-0.003,-0.004,0.305,0.629,0.108,-0.102,0.108],[0.171,0.228,0.002,0.005,0.14,0.244,-0.253,0.179,0.09]],"b":[-0.881,-1.925,-1.037,-0.524,-0.236,1.613,0.377,1.379]},{"w":[[0.46,0.152,0.043,-0.008,0.501,0.063,0.018],[1.058,-0.071,0.124,-0.001,0.22,0.165,-0.117],[0.987,-0.044,0.02,0.003,0.177,0.024,-0.082],[-0.06,0.305,0.06,-0.005,0.554,0.077,-0.001],[0.045,0.401,0.006,-0.005,0.774,0.156,-0.021],[0.119,0.282,0.029,0.017,0.261,0.089,0.015],[-0.136,0.289,0.003,-0.001,0.394,0.775,-0.512],[0.647,-0.062,0.01,0.003,0.086,0.249,-0.286],[-0.018,0.472,0.07,0.004,0.067,0.076,0.387],[0.041,0.315,0.029,0.003,0.078,0.097,0.294]],"b":[-0.949,-1.579,-0.959,-0.399,0.035,1.633,1.269,0.55,0.503,0.788]},{"w":[[0.458,0.141,0.042,-0.008,0.498,0.059,0.007,0.036],[1.052,-0.111,0.12,-0.002,0.21,0.153,-0.155,0.128],[0.985,-0.06,0.019,0.003,0.173,0.019,-0.097,0.051],[-0.061,0.295,0.059,-0.005,0.552,0.074,-0.011,0.031],[0.039,0.354,0.002,-0.005,0.763,0.142,-0.064,0.147],[0.119,0.281,0.029,0.017,0.261,0.089,0.014,0.003],[-0.143,0.241,-0.002,-0.001,0.382,0.76,-0.558,0.154],[0.641,-0.115,0.005,0.002,0.073,0.233,-0.336,0.169],[-0.03,0.381,0.061,0.003,0.045,0.048,0.303,0.286]],"b":[-0.977,-1.68,-0.999,-0.423,-0.081,1.63,1.148,0.417,0.277]},{"w":[[0.458,0.203,0.05,-0.008,0.508,0.071,0.06,-0.108],[1.06,-0.12,0.116,-0.002,0.213,0.157,-0.157,0.104],[0.985,-0.005,0.026,0.003,0.183,0.03,-0.049,-0.083],[-0.058,0.249,0.051,-0.005,0.546,0.068,-0.047,0.119],[0.047,0.335,-0.004,-0.005,0.765,0.145,-0.075,0.139],[0.12,0.265,0.026,0.017,0.259,0.087,0.001,0.036],[-0.135,0.259,-0.002,-0.001,0.39,0.77,-0.537,0.064],[0.649,-0.109,0.003,0.002,0.079,0.242,-0.325,0.099],[0.048,0.115,-0.0,0.002,0.049,0.065,0.13,0.424]],"b":[-0.895,-1.632,-0.917,-0.458,-0.035,1.614,1.237,0.501,0.575]},{"w":[[0.454,0.194,0.05,-0.008,0.504,0.066,0.05,-0.14,0.076],[1.054,-0.133,0.116,-0.002,0.208,0.15,-0.172,0.056,0.112],[0.981,-0.015,0.026,0.003,0.179,0.025,-0.06,-0.119,0.085],[-0.058,0.249,0.051,-0.005,0.546,0.068,-0.047,0.12,-0.003],[0.041,0.321,-0.004,-0.005,0.759,0.137,-0.091,0.087,0.122],[0.121,0.266,0.026,0.017,0.259,0.087,0.002,0.04,-0.009],[-0.143,0.241,-0.002,-0.001,0.382,0.76,-0.557,-0.001,0.154],[0.641,-0.127,0.003,0.002,0.071,0.231,-0.346,0.031,0.161]],"b":[-0.939,-1.696,-0.966,-0.457,-0.105,1.619,1.148,0.408]},{"w":[[0.555,0.143,0.044,-0.008,0.513,0.099,-0.024,-0.147],[0.956,-0.061,0.122,-0.002,0.207,0.126,-0.072,0.157],[0.87,-0.033,0.018,0.002,0.162,-0.021,-0.03,0.181],[-0.043,0.303,0.06,-0.005,0.556,0.084,-0.009,-0.027],[0.058,0.399,0.006,-0.005,0.776,0.161,-0.027,-0.021],[0.199,0.274,0.03,0.017,0.272,0.12,-0.021,-0.123],[-0.149,0.29,0.002,-0.001,0.392,0.77,-0.507,0.02],[-0.106,0.48,0.068,0.003,0.055,0.042,0.426,0.137],[-0.184,0.337,0.026,0.002,0.048,0.01,0.393,0.348]],"b":[-0.868,-1.666,-1.059,-0.384,0.047,1.7,1.258,0.428,0.597]},{"w":[[0.566,0.121,0.042,-0.008,0.51,0.099,-0.05,-0.169,0.064],[0.976,-0.097,0.119,-0.002,0.201,0.125,-0.114,0.12,0.108],[0.874,-0.04,0.018,0.002,0.161,-0.021,-0.038,0.174,0.021],[-0.036,0.29,0.059,-0.005,0.554,0.083,-0.024,-0.04,0.038],[0.088,0.346,0.002,-0.005,0.768,0.159,-0.09,-0.077,0.16],[0.204,0.266,0.029,0.017,0.271,0.12,-0.031,-0.132,0.025],[-0.12,0.237,-0.002,-0.001,0.385,0.768,-0.57,-0.036,0.16],[-0.055,0.386,0.061,0.003,0.042,0.039,0.316,0.04,0.279]],"b":[-0.907,-1.73,-1.072,-0.406,-0.049,1.686,1.163,0.261]},{"w":[[0.545,0.189,0.05,-0.007,0.519,0.103,0.016,-0.134,-0.095],[0.965,-0.104,0.116,-0.002,0.202,0.122,-0.11,0.145,0.089],[0.859,0.016,0.025,0.003,0.167,-0.017,0.014,0.195,-0.102],[-0.03,0.244,0.052,-0.005,0.549,0.078,-0.062,-0.044,0.123],[0.074,0.331,-0.004,-0.005,0.768,0.155,-0.088,-0.041,0.143],[0.205,0.251,0.027,0.017,0.269,0.118,-0.041,-0.13,0.049],[-0.142,0.26,-0.002,-0.001,0.389,0.767,-0.534,0.011,0.063],[-0.142,0.147,-0.001,0.001,0.026,-0.006,0.225,0.294,0.395]],"b":[-0.828,-1.704,-1.015,-0.436,-0.015,1.68,1.231,0.428]},{"w":[[0.559,0.174,0.051,-0.007,0.516,0.104,-0.007,-0.164,-0.135,0.102],[0.979,-0.118,0.116,-0.002,0.199,0.123,-0.131,0.118,0.053,0.093],[0.867,0.008,0.026,0.003,0.166,-0.016,0.001,0.179,-0.125,0.056],[-0.029,0.244,0.052,-0.005,0.549,0.078,-0.062,-0.045,0.122,0.004],[0.093,0.311,-0.003,-0.005,0.765,0.156,-0.119,-0.08,0.09,0.135],[0.206,0.249,0.027,0.017,0.269,0.118,-0.044,-0.134,0.044,0.013],[-0.12,0.237,-0.002,-0.001,0.385,0.768,-0.57,-0.036,0.0,0.16]],"b":[-0.872,-1.744,-1.039,-0.438,-0.072,1.674,1.163]},{"w":[[0.472,0.157,0.044,-0.008,0.475,0.096],[1.075,-0.111,0.124,-0.002,0.155,0.17],[0.995,-0.098,0.018,0.003,0.147,0.036],[-0.053,0.318,0.061,-0.005,0.535,0.082],[0.054,0.429,0.009,-0.005,0.742,0.144],[0.129,0.303,0.031,0.017,0.24,0.102],[-0.022,0.438,0.033,-0.003,-0.039,0.639],[-0.077,0.719,0.034,0.002,0.302,-0.145],[0.668,-0.167,0.008,0.001,-0.017,0.215],[-0.033,0.745,0.084,0.005,0.15,0.056],[0.075,0.434,0.037,0.006,0.054,0.243]],"b":[-0.951,-1.804,-1.142,-0.397,0.032,1.659,0.667,2.281,0.043,1.345,1.202]},{"w":[[0.47,0.144,0.043,-0.008,0.473,0.089,0.029],[1.068,-0.154,0.12,-0.002,0.15,0.145,0.1],[0.992,-0.113,0.017,0.003,0.145,0.028,0.035],[-0.055,0.307,0.06,-0.005,0.533,0.075,0.026],[0.044,0.37,0.004,-0.006,0.734,0.111,0.136],[0.129,0.304,0.031,0.017,0.24,0.102,-0.002],[-0.023,0.435,0.033,-0.003,-0.039,0.637,0.007],[-0.09,0.646,0.028,0.001,0.293,-0.187,0.169],[0.659,-0.219,0.003,0.001,-0.023,0.186,0.118],[-0.058,0.598,0.071,0.003,0.132,-0.026,0.338]],"b":[-0.986,-1.924,-1.184,-0.428,-0.131,1.661,0.658,2.078,-0.099,0.94]},{"w":[[0.47,0.222,0.051,-0.007,0.488,0.101,-0.088],[1.078,-0.171,0.117,-0.002,0.143,0.165,0.081],[0.992,-0.029,0.026,0.003,0.161,0.042,-0.093],[-0.049,0.233,0.052,-0.005,0.518,0.075,0.114],[0.058,0.327,-0.002,-0.005,0.721,0.136,0.136],[0.13,0.27,0.027,0.017,0.233,0.099,0.044],[-0.018,0.348,0.023,-0.004,-0.057,0.632,0.121],[-0.069,0.531,0.013,0.001,0.264,-0.16,0.253],[0.669,-0.201,0.004,0.001,-0.024,0.212,0.046],[0.09,0.095,-0.002,0.004,-0.014,0.218,0.455]],"b":[-0.833,-1.913,-1.018,-0.55,-0.151,1.599,0.504,1.941,-0.018,0.59]},{"w":[[0.463,0.216,0.051,-0.007,0.489,0.086,-0.119,0.069],[1.07,-0.179,0.117,-0.003,0.145,0.146,0.042,0.086],[0.985,-0.036,0.026,0.003,0.162,0.025,-0.128,0.078],[-0.048,0.235,0.052,-0.005,0.518,0.079,0.121,-0.015],[0.049,0.317,-0.002,-0.006,0.723,0.113,0.088,0.106],[0.132,0.272,0.027,0.017,0.233,0.104,0.053,-0.02],[-0.015,0.352,0.023,-0.004,-0.058,0.641,0.139,-0.04],[-0.078,0.521,0.013,0.001,0.265,-0.181,0.208,0.098],[0.658,-0.213,0.004,0.001,-0.022,0.186,-0.01,0.122]],"b":[-0.874,-1.963,-1.064,-0.541,-0.214,1.611,0.527,1.883,-0.09]},{"w":[[0.577,0.131,0.045,-0.007,0.472,0.13,-0.156],[0.969,-0.084,0.123,-0.002,0.158,0.135,0.16],[0.874,-0.067,0.017,0.003,0.15,-0.003,0.182],[-0.033,0.313,0.062,-0.005,0.534,0.088,-0.031],[0.068,0.425,0.009,-0.005,0.741,0.148,-0.021],[0.214,0.282,0.032,0.017,0.237,0.129,-0.128],[-0.057,0.447,0.033,-0.003,-0.038,0.628,0.052],[0.008,0.698,0.035,0.003,0.3,-0.118,-0.127],[-0.077,0.756,0.083,0.005,0.151,0.041,0.067],[-0.082,0.473,0.035,0.006,0.058,0.193,0.235]],"b":[-0.945,-1.811,-1.15,-0.396,0.033,1.664,0.664,2.286,1.342,1.192]},{"w":[[0.581,0.108,0.043,-0.008,0.47,0.121,-0.168,0.049],[0.976,-0.124,0.12,-0.002,0.153,0.119,0.14,0.083],[0.875,-0.074,0.016,0.002,0.15,-0.005,0.179,0.014],[-0.03,0.299,0.061,-0.005,0.533,0.082,-0.038,0.03],[0.08,0.358,0.005,-0.005,0.733,0.121,-0.055,0.142],[0.216,0.275,0.032,0.017,0.237,0.127,-0.132,0.014],[-0.057,0.446,0.033,-0.003,-0.038,0.628,0.052,0.001],[0.023,0.608,0.028,0.002,0.289,-0.155,-0.171,0.189],[-0.05,0.596,0.071,0.003,0.132,-0.024,-0.013,0.339]],"b":[-1.003,-1.91,-1.167,-0.432,-0.137,1.648,0.663,2.061,0.938]},{"w":[[0.57,0.192,0.052,-0.007,0.485,0.133,-0.151,-0.081],[0.974,-0.14,0.117,-0.002,0.147,0.132,0.155,0.074],[0.866,0.009,0.025,0.003,0.166,0.002,0.189,-0.101],[-0.024,0.225,0.052,-0.005,0.517,0.084,-0.039,0.116],[0.079,0.321,-0.002,-0.005,0.721,0.143,-0.03,0.137],[0.218,0.244,0.028,0.017,0.23,0.127,-0.132,0.05],[-0.048,0.357,0.023,-0.004,-0.056,0.623,0.044,0.119],[0.028,0.502,0.013,0.001,0.261,-0.129,-0.144,0.259],[-0.047,0.136,-0.002,0.003,-0.01,0.174,0.205,0.445]],"b":[-0.836,-1.91,-1.014,-0.551,-0.152,1.597,0.505,1.938,0.594]},{"w":[[0.575,0.18,0.052,-0.007,0.486,0.118,-0.169,-0.121,0.09],[0.978,-0.149,0.117,-0.003,0.148,0.12,0.141,0.043,0.069],[0.868,0.001,0.025,0.003,0.166,-0.008,0.177,-0.127,0.057],[-0.024,0.227,0.052,-0.005,0.517,0.085,-0.036,0.12,-0.01],[0.084,0.306,-0.002,-0.006,0.722,0.123,-0.053,0.087,0.113],[0.218,0.244,0.028,0.017,0.23,0.128,-0.131,0.052,-0.004],[-0.05,0.363,0.023,-0.004,-0.056,0.631,0.054,0.139,-0.046],[0.033,0.485,0.014,0.001,0.262,-0.15,-0.169,0.206,0.119]],"b":[-0.889,-1.951,-1.048,-0.545,-0.219,1.599,0.532,1.867]},{"w":[[0.477,0.11,0.042,-0.008,0.455,0.106,0.065],[1.074,-0.098,0.125,-0.002,0.161,0.167,-0.018],[0.99,-0.05,0.02,0.003,0.167,0.027,-0.067],[-0.049,0.284,0.06,-0.005,0.521,0.089,0.047],[0.059,0.378,0.007,-0.005,0.72,0.154,0.071],[0.134,0.251,0.029,0.017,0.218,0.112,0.073],[0.019,0.055,0.015,-0.004,-0.2,0.716,0.533],[0.656,-0.059,0.013,0.002,0.029,0.193,-0.151],[0.001,0.427,0.069,0.004,0.017,0.12,0.442],[0.106,0.148,0.023,0.005,-0.066,0.301,0.398]],"b":[-1.099,-1.762,-0.99,-0.504,-0.131,1.492,-0.548,0.387,0.337,0.296]},{"w":[[0.475,0.107,0.041,-0.008,0.457,0.1,0.057,0.019],[1.062,-0.114,0.122,-0.002,0.168,0.134,-0.062,0.11],[0.985,-0.057,0.019,0.003,0.171,0.012,-0.086,0.05],[-0.051,0.281,0.059,-0.005,0.522,0.083,0.039,0.019],[0.045,0.358,0.004,-0.006,0.729,0.114,0.019,0.133],[0.136,0.253,0.029,0.017,0.217,0.117,0.079,-0.015],[0.028,0.068,0.017,-0.004,-0.205,0.743,0.568,-0.088],[0.64,-0.082,0.009,0.001,0.039,0.146,-0.212,0.154],[-0.028,0.385,0.062,0.003,0.035,0.035,0.33,0.282]],"b":[-1.105,-1.795,-1.005,-0.51,-0.17,1.496,-0.522,0.341,0.254]},{"w":[[0.478,0.16,0.05,-0.007,0.457,0.12,0.117,-0.117],[1.074,-0.139,0.118,-0.002,0.159,0.155,-0.061,0.096],[0.99,-0.013,0.026,0.003,0.169,0.037,-0.029,-0.085],[-0.05,0.235,0.052,-0.005,0.519,0.075,-0.004,0.115],[0.059,0.321,-0.002,-0.005,0.718,0.138,0.013,0.133],[0.134,0.238,0.027,0.017,0.217,0.109,0.06,0.029],[0.019,0.062,0.016,-0.004,-0.199,0.718,0.539,-0.015],[0.656,-0.099,0.006,0.001,0.027,0.182,-0.192,0.094],[0.105,-0.022,-0.004,0.003,-0.073,0.253,0.221,0.399]],"b":[-1.06,-1.795,-0.962,-0.543,-0.176,1.482,-0.543,0.355,0.161]},{"w":[[0.471,0.162,0.05,-0.007,0.462,0.105,0.104,-0.141,0.059],[1.064,-0.137,0.118,-0.002,0.166,0.132,-0.082,0.059,0.094],[0.981,-0.012,0.026,0.003,0.175,0.016,-0.047,-0.119,0.083],[-0.048,0.235,0.052,-0.005,0.518,0.079,-0.0,0.121,-0.015],[0.048,0.323,-0.002,-0.006,0.726,0.111,-0.011,0.09,0.107],[0.137,0.238,0.026,0.017,0.215,0.116,0.066,0.04,-0.027],[0.029,0.059,0.016,-0.004,-0.206,0.742,0.56,0.022,-0.095],[0.641,-0.096,0.007,0.001,0.037,0.145,-0.224,0.037,0.144]],"b":[-1.069,-1.81,-0.975,-0.54,-0.193,1.486,-0.528,0.332]},{"w":[[0.576,0.101,0.044,-0.007,0.46,0.135,0.042,-0.151],[0.969,-0.088,0.122,-0.002,0.156,0.136,0.006,0.161],[0.874,-0.04,0.018,0.003,0.162,-0.007,-0.04,0.177],[-0.033,0.283,0.06,-0.005,0.521,0.093,0.043,-0.025],[0.067,0.377,0.007,-0.005,0.721,0.156,0.069,-0.012],[0.214,0.244,0.03,0.017,0.221,0.136,0.055,-0.122],[-0.061,0.062,0.013,-0.005,-0.203,0.693,0.551,0.122],[-0.081,0.434,0.067,0.004,0.013,0.096,0.461,0.126],[-0.085,0.165,0.019,0.004,-0.075,0.245,0.441,0.291]],"b":[-1.041,-1.824,-1.059,-0.494,-0.126,1.539,-0.595,0.288,0.183]},{"w":[[0.58,0.094,0.043,-0.008,0.463,0.124,0.023,-0.164,0.045],[0.976,-0.103,0.121,-0.002,0.163,0.114,-0.034,0.135,0.09],[0.876,-0.043,0.018,0.003,0.164,-0.013,-0.05,0.17,0.023],[-0.031,0.279,0.06,-0.005,0.523,0.087,0.033,-0.032,0.024],[0.079,0.354,0.004,-0.005,0.731,0.122,0.007,-0.053,0.141],[0.214,0.243,0.03,0.017,0.221,0.135,0.053,-0.123,0.004],[-0.071,0.081,0.016,-0.004,-0.211,0.72,0.6,0.155,-0.112],[-0.058,0.389,0.062,0.003,0.034,0.028,0.34,0.046,0.275]],"b":[-1.049,-1.841,-1.063,-0.499,-0.152,1.538,-0.575,0.238]},{"w":[[0.568,0.147,0.051,-0.007,0.461,0.145,0.09,-0.138,-0.104],[0.975,-0.124,0.117,-0.002,0.155,0.128,-0.032,0.15,0.082],[0.866,0.005,0.025,0.003,0.164,0.003,0.008,0.19,-0.103],[-0.023,0.231,0.052,-0.005,0.52,0.082,-0.011,-0.04,0.119],[0.078,0.318,-0.002,-0.005,0.719,0.143,0.007,-0.029,0.136],[0.217,0.226,0.027,0.017,0.221,0.132,0.036,-0.127,0.041],[-0.064,0.074,0.015,-0.005,-0.203,0.696,0.563,0.126,-0.027],[-0.055,0.002,-0.006,0.003,-0.079,0.209,0.268,0.244,0.376]],"b":[-1.011,-1.848,-1.029,-0.529,-0.165,1.527,-0.587,0.075]},{"w":[[0.572,0.146,0.051,-0.007,0.468,0.128,0.068,-0.158,-0.135,0.082],[0.979,-0.124,0.117,-0.003,0.161,0.112,-0.052,0.132,0.054,0.075],[0.869,0.005,0.025,0.003,0.168,-0.01,-0.008,0.176,-0.125,0.058],[-0.024,0.231,0.052,-0.005,0.519,0.084,-0.009,-0.038,0.122,-0.009],[0.085,0.318,-0.001,-0.006,0.728,0.119,-0.024,-0.058,0.092,0.115],[0.217,0.226,0.027,0.017,0.22,0.134,0.038,-0.125,0.044,-0.009],[-0.07,0.074,0.015,-0.004,-0.212,0.72,0.595,0.154,0.017,-0.117]],"b":[-1.017,-1.853,-1.033,-0.528,-0.174,1.528,-0.579]},{"w":[[0.473,0.154,0.044,-0.007,0.475,0.092,0.007],[1.076,-0.131,0.122,-0.002,0.157,0.141,0.045],[0.994,-0.083,0.019,0.003,0.146,0.058,-0.033],[-0.052,0.3,0.06,-0.005,0.536,0.056,0.04],[0.056,0.386,0.006,-0.004,0.745,0.081,0.098],[0.13,0.283,0.029,0.017,0.241,0.072,0.046],[-0.064,0.465,0.015,0.004,0.325,-0.516,0.58],[0.669,-0.197,0.006,0.002,-0.014,0.172,0.068],[-0.027,0.644,0.076,0.006,0.159,-0.092,0.23],[0.076,0.426,0.036,0.006,0.055,0.231,0.019]],"b":[-0.956,-1.834,-1.12,-0.424,-0.034,1.628,1.894,-0.002,1.192,1.19]},{"w":[[0.47,0.141,0.042,-0.008,0.474,0.085,0.007,0.029],[1.069,-0.173,0.119,-0.002,0.152,0.118,0.043,0.1],[0.992,-0.098,0.018,0.002,0.144,0.05,-0.034,0.035],[-0.054,0.29,0.059,-0.005,0.535,0.05,0.04,0.025],[0.046,0.329,0.001,-0.005,0.738,0.05,0.095,0.135],[0.13,0.284,0.03,0.017,0.242,0.073,0.046,-0.002],[-0.076,0.395,0.009,0.003,0.316,-0.554,0.577,0.164],[0.66,-0.247,0.001,0.001,-0.021,0.144,0.065,0.118],[-0.053,0.501,0.064,0.004,0.141,-0.169,0.224,0.336]],"b":[-0.991,-1.952,-1.162,-0.454,-0.194,1.631,1.699,-0.142,0.792]},{"w":[[0.47,0.212,0.05,-0.007,0.49,0.083,0.028,-0.091],[1.079,-0.181,0.116,-0.002,0.145,0.148,0.027,0.078],[0.992,-0.024,0.026,0.003,0.161,0.049,-0.012,-0.091],[-0.049,0.228,0.052,-0.005,0.519,0.066,0.014,0.112],[0.06,0.304,-0.004,-0.005,0.725,0.093,0.068,0.128],[0.131,0.257,0.026,0.017,0.235,0.076,0.037,0.04],[-0.059,0.344,0.0,0.003,0.295,-0.499,0.537,0.188],[0.67,-0.222,0.003,0.001,-0.02,0.175,0.059,0.038],[0.089,0.126,0.001,0.003,-0.02,0.274,-0.088,0.466]],"b":[-0.848,-1.926,-1.011,-0.557,-0.186,1.58,1.67,-0.048,0.635]},{"w":[[0.464,0.203,0.05,-0.007,0.491,0.064,0.035,-0.124,0.071],[1.071,-0.192,0.116,-0.002,0.147,0.124,0.035,0.037,0.087],[0.985,-0.034,0.026,0.003,0.162,0.028,-0.005,-0.128,0.078],[-0.048,0.23,0.052,-0.005,0.518,0.07,0.013,0.119,-0.014],[0.05,0.29,-0.004,-0.005,0.727,0.063,0.078,0.077,0.109],[0.132,0.26,0.026,0.017,0.235,0.081,0.035,0.049,-0.019],[-0.07,0.329,0.0,0.003,0.297,-0.532,0.547,0.132,0.12],[0.659,-0.237,0.003,0.001,-0.018,0.141,0.07,-0.02,0.125]],"b":[-0.893,-1.982,-1.061,-0.548,-0.255,1.592,1.594,-0.127]},{"w":[[0.578,0.123,0.044,-0.007,0.473,0.119,0.018,-0.157],[0.971,-0.1,0.122,-0.002,0.159,0.114,0.034,0.158],[0.871,-0.047,0.018,0.002,0.149,0.026,-0.046,0.184],[-0.03,0.294,0.06,-0.005,0.536,0.062,0.042,-0.033],[0.074,0.381,0.006,-0.004,0.745,0.086,0.1,-0.026],[0.218,0.257,0.03,0.017,0.24,0.095,0.055,-0.131],[0.041,0.434,0.016,0.005,0.322,-0.489,0.59,-0.158],[-0.064,0.655,0.076,0.006,0.16,-0.101,0.227,0.055],[-0.081,0.472,0.035,0.006,0.058,0.191,0.003,0.235]],"b":[-0.957,-1.833,-1.12,-0.424,-0.034,1.628,1.894,1.192,1.19]},{"w":[[0.582,0.1,0.043,-0.008,0.47,0.109,0.018,-0.169,0.049],[0.977,-0.139,0.119,-0.002,0.155,0.098,0.034,0.139,0.083],[0.872,-0.054,0.018,0.002,0.148,0.024,-0.046,0.181,0.014],[-0.028,0.28,0.059,-0.005,0.534,0.056,0.042,-0.04,0.03],[0.085,0.314,0.001,-0.005,0.737,0.059,0.099,-0.06,0.142],[0.219,0.251,0.03,0.017,0.239,0.092,0.055,-0.135,0.014],[0.057,0.345,0.009,0.003,0.311,-0.525,0.59,-0.202,0.188],[-0.037,0.495,0.064,0.004,0.14,-0.166,0.226,-0.024,0.339]],"b":[-1.015,-1.933,-1.136,-0.46,-0.203,1.612,1.67,0.789]},{"w":[[0.572,0.178,0.051,-0.007,0.487,0.11,0.037,-0.152,-0.085],[0.975,-0.147,0.116,-0.002,0.148,0.121,0.018,0.154,0.072],[0.865,0.018,0.026,0.003,0.164,0.016,-0.024,0.19,-0.099],[-0.023,0.22,0.052,-0.005,0.518,0.073,0.017,-0.039,0.114],[0.082,0.296,-0.004,-0.005,0.724,0.099,0.07,-0.034,0.129],[0.221,0.228,0.027,0.017,0.232,0.099,0.045,-0.134,0.045],[0.054,0.307,0.001,0.003,0.291,-0.469,0.546,-0.168,0.194],[-0.052,0.172,-0.0,0.003,-0.015,0.237,-0.101,0.21,0.457]],"b":[-0.855,-1.919,-1.002,-0.559,-0.187,1.574,1.662,0.645]},{"w":[[0.577,0.163,0.051,-0.007,0.488,0.088,0.047,-0.172,-0.127,0.092],[0.979,-0.159,0.116,-0.003,0.149,0.104,0.025,0.139,0.04,0.07],[0.868,0.008,0.026,0.003,0.165,0.003,-0.018,0.178,-0.124,0.056],[-0.023,0.221,0.052,-0.005,0.518,0.075,0.016,-0.037,0.118,-0.01],[0.088,0.276,-0.004,-0.005,0.726,0.071,0.082,-0.058,0.076,0.116],[0.22,0.228,0.027,0.017,0.232,0.1,0.045,-0.133,0.046,-0.002],[0.061,0.282,0.001,0.003,0.293,-0.504,0.561,-0.199,0.128,0.145]],"b":[-0.914,-1.964,-1.038,-0.553,-0.262,1.575,1.569]},{"w":[[0.478,0.113,0.042,-0.008,0.447,0.137,-0.044,0.088],[1.073,-0.102,0.123,-0.001,0.177,0.109,0.08,-0.061],[0.99,-0.05,0.02,0.003,0.169,0.021,0.008,-0.071],[-0.05,0.283,0.059,-0.005,0.524,0.075,0.019,0.037],[0.058,0.373,0.006,-0.005,0.736,0.096,0.082,0.028],[0.134,0.25,0.028,0.017,0.219,0.108,0.005,0.07],[0.652,-0.071,0.009,0.003,0.073,0.032,0.224,-0.27],[0.002,0.429,0.069,0.004,0.009,0.147,-0.038,0.462],[0.112,0.165,0.028,0.004,-0.127,0.521,-0.306,0.561]],"b":[-1.123,-1.718,-0.986,-0.494,-0.086,1.495,0.509,0.316,0.128]},{"w":[[0.476,0.11,0.042,-0.008,0.449,0.129,-0.039,0.079,0.016],[1.059,-0.122,0.12,-0.002,0.192,0.046,0.117,-0.129,0.121],[0.984,-0.059,0.019,0.003,0.176,-0.006,0.023,-0.1,0.052],[-0.052,0.28,0.059,-0.005,0.527,0.064,0.025,0.025,0.021],[0.042,0.349,0.002,-0.005,0.755,0.021,0.126,-0.053,0.144],[0.136,0.253,0.029,0.017,0.217,0.116,0.001,0.079,-0.015],[0.632,-0.101,0.005,0.002,0.096,-0.061,0.279,-0.37,0.179],[-0.03,0.382,0.061,0.003,0.046,-0.002,0.05,0.302,0.286]],"b":[-1.125,-1.734,-0.993,-0.497,-0.104,1.497,0.487,0.28]},{"w":[[0.478,0.163,0.05,-0.007,0.448,0.155,-0.048,0.143,-0.118],[1.072,-0.144,0.117,-0.002,0.176,0.095,0.084,-0.106,0.098],[0.99,-0.014,0.026,0.003,0.17,0.034,0.004,-0.031,-0.085],[-0.05,0.234,0.052,-0.005,0.523,0.058,0.023,-0.016,0.115],[0.058,0.315,-0.004,-0.005,0.735,0.076,0.087,-0.034,0.134],[0.134,0.238,0.026,0.017,0.218,0.104,0.007,0.057,0.029],[0.652,-0.113,0.003,0.002,0.072,0.018,0.228,-0.315,0.098],[0.111,-0.004,0.0,0.002,-0.131,0.463,-0.291,0.378,0.394]],"b":[-1.086,-1.749,-0.959,-0.53,-0.129,1.486,0.478,0.003]},{"w":[[0.472,0.163,0.05,-0.008,0.455,0.129,-0.032,0.122,-0.14,0.056],[1.061,-0.144,0.116,-0.002,0.19,0.046,0.115,-0.146,0.056,0.105],[0.98,-0.013,0.026,0.003,0.181,-0.006,0.029,-0.064,-0.119,0.086],[-0.049,0.234,0.052,-0.005,0.522,0.064,0.019,-0.011,0.12,-0.013],[0.044,0.316,-0.004,-0.005,0.751,0.021,0.121,-0.079,0.087,0.119],[0.137,0.238,0.026,0.017,0.215,0.116,-0.001,0.067,0.04,-0.027],[0.633,-0.112,0.003,0.002,0.095,-0.061,0.277,-0.379,0.031,0.17]],"b":[-1.086,-1.749,-0.96,-0.53,-0.129,1.486,0.478]},{"w":[[0.576,0.102,0.044,-0.007,0.458,0.142,-0.01,0.048,-0.15],[0.972,-0.091,0.122,-0.002,0.166,0.104,0.046,-0.019,0.155],[0.872,-0.037,0.018,0.002,0.156,0.016,-0.033,-0.022,0.181],[-0.031,0.281,0.06,-0.005,0.526,0.076,0.025,0.029,-0.028],[0.073,0.371,0.006,-0.004,0.738,0.096,0.087,0.022,-0.023],[0.216,0.241,0.03,0.017,0.228,0.113,0.034,0.036,-0.126],[-0.085,0.439,0.068,0.003,-0.001,0.143,-0.068,0.498,0.134],[-0.108,0.189,0.024,0.003,-0.152,0.51,-0.382,0.652,0.338]],"b":[-1.047,-1.797,-1.078,-0.48,-0.074,1.559,0.248,-0.044]},{"w":[[0.581,0.093,0.043,-0.008,0.465,0.119,0.007,0.018,-0.165,0.045],[0.982,-0.11,0.119,-0.002,0.181,0.054,0.083,-0.084,0.122,0.099],[0.874,-0.041,0.018,0.002,0.159,0.005,-0.025,-0.035,0.174,0.021],[-0.028,0.276,0.059,-0.005,0.531,0.062,0.036,0.011,-0.038,0.028],[0.09,0.342,0.002,-0.005,0.762,0.016,0.147,-0.081,-0.076,0.157],[0.217,0.24,0.029,0.017,0.229,0.109,0.036,0.031,-0.128,0.008],[-0.055,0.386,0.061,0.003,0.042,0.0,0.039,0.316,0.04,0.279]],"b":[-1.045,-1.793,-1.077,-0.478,-0.067,1.559,0.26]},{"w":[[0.567,0.148,0.051,-0.007,0.458,0.157,-0.017,0.1,-0.136,-0.105],[0.979,-0.128,0.116,-0.002,0.166,0.092,0.051,-0.061,0.144,0.084],[0.863,0.008,0.026,0.003,0.156,0.03,-0.04,0.03,0.195,-0.104],[-0.021,0.229,0.052,-0.005,0.526,0.059,0.033,-0.03,-0.044,0.119],[0.085,0.311,-0.004,-0.005,0.738,0.077,0.096,-0.047,-0.041,0.138],[0.22,0.223,0.027,0.017,0.228,0.107,0.036,0.015,-0.131,0.042],[-0.077,0.028,-0.0,0.001,-0.152,0.457,-0.357,0.469,0.289,0.366]],"b":[-1.021,-1.818,-1.052,-0.509,-0.109,1.548,-0.135]},{"w":[[0.573,0.145,0.051,-0.007,0.47,0.119,0.012,0.061,-0.16,-0.135,0.083],[0.985,-0.13,0.116,-0.002,0.179,0.054,0.081,-0.1,0.12,0.053,0.084],[0.867,0.007,0.026,0.003,0.164,0.005,-0.02,0.004,0.179,-0.125,0.055],[-0.022,0.229,0.052,-0.005,0.526,0.062,0.031,-0.027,-0.043,0.122,-0.006],[0.095,0.307,-0.003,-0.005,0.758,0.016,0.143,-0.109,-0.08,0.09,0.132],[0.219,0.223,0.027,0.017,0.227,0.109,0.035,0.017,-0.13,0.044,-0.005]],"b":[-1.01,-1.806,-1.045,-0.51,-0.091,1.548]},{"w":[[0.422,0.546,0.061,-0.011,0.182],[1.017,0.128,0.134,-0.005,0.107],[0.98,0.043,0.025,0.002,0.034],[-0.093,0.789,0.084,-0.007,0.107],[-0.006,1.137,0.044,-0.007,0.107],[-0.024,0.78,0.04,-0.0,0.108],[-0.283,0.945,0.042,-0.011,0.117],[-0.204,1.001,0.057,-0.011,0.087],[-0.046,0.8,0.038,0.004,0.045],[0.613,0.059,0.019,-0.0,-0.037],[-0.055,0.896,0.09,0.004,0.053],[0.005,0.707,0.049,0.003,0.032]],"b":[-0.404,-1.427,-0.908,0.383,1.273,1.329,1.935,1.814,2.335,0.572,1.584,1.749]},{"w":[[0.422,0.495,0.058,-0.011,0.18,0.071],[1.016,0.033,0.127,-0.005,0.102,0.134],[0.98,0.008,0.022,0.002,0.033,0.049],[-0.093,0.738,0.081,-0.007,0.104,0.072],[-0.007,0.995,0.034,-0.007,0.101,0.202],[-0.024,0.736,0.037,-0.001,0.106,0.063],[-0.284,0.814,0.033,-0.012,0.111,0.185],[-0.205,0.915,0.052,-0.011,0.083,0.122],[-0.047,0.692,0.031,0.003,0.04,0.151],[0.612,-0.049,0.011,-0.0,-0.042,0.153],[-0.057,0.656,0.074,0.003,0.042,0.34]],"b":[-0.528,-1.661,-0.993,0.257,0.92,1.219,1.612,1.6,2.07,0.304,0.989]},{"w":[[0.42,0.587,0.065,-0.011,0.185,-0.046],[1.023,0.036,0.125,-0.005,0.101,0.103],[0.976,0.111,0.032,0.002,0.038,-0.076],[-0.084,0.643,0.07,-0.007,0.098,0.163],[0.006,0.949,0.025,-0.008,0.096,0.21],[-0.019,0.703,0.032,-0.001,0.104,0.087],[-0.278,0.867,0.034,-0.012,0.112,0.087],[-0.195,0.849,0.042,-0.011,0.078,0.17],[-0.031,0.566,0.015,0.003,0.031,0.26],[0.617,-0.001,0.013,-0.0,-0.04,0.067],[0.031,0.282,0.006,0.001,0.007,0.474]],"b":[-0.331,-1.59,-0.787,0.126,0.94,1.191,1.797,1.544,1.924,0.466,0.998]},{"w":[[0.416,0.558,0.065,-0.011,0.184,-0.095,0.103],[1.019,0.003,0.124,-0.005,0.1,0.047,0.118],[0.973,0.086,0.031,0.002,0.038,-0.119,0.089],[-0.084,0.637,0.069,-0.007,0.098,0.153,0.02],[0.001,0.905,0.024,-0.008,0.095,0.136,0.155],[-0.02,0.692,0.032,-0.001,0.104,0.068,0.039],[-0.284,0.814,0.033,-0.012,0.111,-0.0,0.185],[-0.197,0.827,0.042,-0.011,0.077,0.134,0.077],[-0.034,0.545,0.014,0.002,0.03,0.224,0.075],[0.612,-0.045,0.012,-0.0,-0.042,-0.007,0.156]],"b":[-0.435,-1.707,-0.876,0.106,0.785,1.152,1.612,1.468,1.848,0.311]},{"w":[[0.467,0.55,0.062,-0.011,0.18,-0.073],[0.882,0.115,0.13,-0.005,0.115,0.22],[0.861,0.031,0.021,0.002,0.042,0.194],[-0.117,0.786,0.083,-0.007,0.108,0.039],[-0.055,1.133,0.043,-0.007,0.11,0.08],[-0.069,0.776,0.038,-0.0,0.111,0.074],[-0.474,0.927,0.036,-0.011,0.128,0.311],[-0.355,0.987,0.053,-0.011,0.096,0.246],[0.04,0.808,0.041,0.004,0.039,-0.14],[-0.112,0.891,0.089,0.004,0.057,0.094],[-0.179,0.689,0.043,0.003,0.043,0.3]],"b":[-0.362,-1.553,-1.019,0.361,1.227,1.286,1.757,1.673,2.415,1.53,1.577]},{"w":[[0.482,0.491,0.059,-0.011,0.176,-0.099,0.086],[0.901,0.042,0.125,-0.005,0.11,0.188,0.105],[0.864,0.018,0.02,0.002,0.041,0.188,0.02],[-0.104,0.739,0.08,-0.007,0.105,0.018,0.069],[-0.019,0.996,0.034,-0.007,0.102,0.021,0.199],[-0.06,0.739,0.036,-0.001,0.109,0.058,0.054],[-0.448,0.827,0.03,-0.012,0.122,0.268,0.144],[-0.339,0.926,0.049,-0.011,0.092,0.22,0.088],[0.072,0.683,0.033,0.003,0.032,-0.194,0.181],[-0.051,0.655,0.074,0.003,0.042,-0.009,0.341]],"b":[-0.498,-1.718,-1.051,0.252,0.913,1.202,1.53,1.533,2.129,0.992]},{"w":[[0.462,0.587,0.066,-0.011,0.182,-0.069,-0.041],[0.892,0.036,0.122,-0.005,0.11,0.211,0.088],[0.851,0.112,0.029,0.002,0.047,0.203,-0.09],[-0.099,0.643,0.069,-0.007,0.099,0.024,0.161],[-0.032,0.949,0.025,-0.008,0.098,0.061,0.206],[-0.06,0.703,0.031,-0.001,0.106,0.066,0.082],[-0.467,0.867,0.03,-0.012,0.124,0.305,0.067],[-0.338,0.849,0.039,-0.011,0.087,0.232,0.155],[0.07,0.566,0.017,0.002,0.024,-0.165,0.271],[-0.127,0.283,0.003,0.001,0.018,0.258,0.457]],"b":[-0.299,-1.688,-0.881,0.115,0.911,1.161,1.654,1.436,2.001,0.878]},{"w":[[0.477,0.553,0.066,-0.011,0.18,-0.099,-0.096,0.119],[0.904,0.011,0.122,-0.005,0.108,0.188,0.048,0.089],[0.858,0.095,0.029,0.002,0.046,0.187,-0.117,0.06],[-0.096,0.638,0.069,-0.007,0.099,0.02,0.153,0.017],[-0.012,0.906,0.024,-0.008,0.096,0.022,0.137,0.152],[-0.056,0.694,0.031,-0.001,0.106,0.058,0.068,0.03],[-0.448,0.826,0.03,-0.012,0.122,0.268,0.001,0.143],[-0.332,0.837,0.039,-0.011,0.087,0.221,0.135,0.042],[0.084,0.537,0.017,0.002,0.022,-0.192,0.223,0.105]],"b":[-0.404,-1.766,-0.934,0.1,0.778,1.134,1.529,1.399,1.908]},{"w":[[0.428,0.444,0.056,-0.011,0.177,0.127],[1.016,0.141,0.135,-0.005,0.107,-0.016],[0.978,0.075,0.026,0.002,0.036,-0.039],[-0.087,0.683,0.079,-0.007,0.101,0.132],[0.003,0.986,0.037,-0.007,0.099,0.189],[-0.015,0.626,0.032,-0.001,0.1,0.193],[-0.289,1.047,0.047,-0.011,0.122,-0.128],[-0.186,0.68,0.042,-0.012,0.069,0.402],[0.606,0.19,0.025,0.001,-0.03,-0.164],[-0.035,0.554,0.074,0.002,0.034,0.428],[0.021,0.429,0.036,0.002,0.017,0.348]],"b":[-0.7,-1.39,-0.816,0.075,0.83,0.879,2.234,0.874,0.955,0.584,0.937]},{"w":[[0.427,0.421,0.054,-0.011,0.176,0.108,0.055],[1.013,0.079,0.129,-0.005,0.105,-0.066,0.144],[0.977,0.05,0.024,0.002,0.035,-0.06,0.058],[-0.088,0.66,0.077,-0.007,0.1,0.113,0.055],[-0.001,0.907,0.031,-0.008,0.096,0.126,0.183],[-0.016,0.611,0.031,-0.001,0.099,0.18,0.035],[-0.294,0.955,0.039,-0.011,0.119,-0.203,0.216],[-0.187,0.652,0.04,-0.012,0.068,0.38,0.065],[0.602,0.109,0.018,0.0,-0.033,-0.229,0.188],[-0.041,0.429,0.064,0.002,0.029,0.327,0.29]],"b":[-0.751,-1.525,-0.87,0.024,0.659,0.846,2.032,0.814,0.778,0.312]},{"w":[[0.425,0.494,0.063,-0.011,0.18,0.165,-0.089],[1.02,0.074,0.126,-0.005,0.103,-0.067,0.12],[0.975,0.116,0.032,0.002,0.039,-0.008,-0.074],[-0.082,0.603,0.068,-0.007,0.096,0.07,0.144],[0.01,0.886,0.024,-0.008,0.093,0.112,0.181],[-0.014,0.604,0.029,-0.001,0.098,0.175,0.041],[-0.284,0.972,0.037,-0.011,0.118,-0.186,0.136],[-0.183,0.639,0.037,-0.012,0.067,0.371,0.074],[0.61,0.122,0.016,0.0,-0.034,-0.217,0.123],[0.037,0.19,0.004,0.001,0.002,0.163,0.431]],"b":[-0.648,-1.46,-0.772,-0.009,0.724,0.855,2.155,0.831,0.883,0.685]},{"w":[[0.421,0.476,0.062,-0.011,0.18,0.15,-0.128,0.092],[1.016,0.05,0.125,-0.005,0.103,-0.088,0.066,0.125],[0.972,0.098,0.031,0.002,0.039,-0.022,-0.114,0.091],[-0.082,0.6,0.068,-0.007,0.096,0.068,0.138,0.015],[0.004,0.857,0.023,-0.008,0.092,0.088,0.117,0.149],[-0.015,0.599,0.029,-0.001,0.098,0.171,0.03,0.027],[-0.292,0.934,0.036,-0.011,0.117,-0.219,0.049,0.202],[-0.185,0.629,0.036,-0.012,0.066,0.363,0.052,0.049],[0.604,0.089,0.015,0.0,-0.034,-0.245,0.048,0.174]],"b":[-0.711,-1.545,-0.835,-0.019,0.623,0.837,2.016,0.797,0.764]},{"w":[[0.462,0.455,0.058,-0.011,0.175,0.118,-0.056],[0.881,0.098,0.129,-0.005,0.114,0.021,0.222],[0.861,0.038,0.021,0.002,0.042,-0.008,0.193],[-0.122,0.672,0.078,-0.007,0.103,0.142,0.059],[-0.063,0.965,0.034,-0.008,0.102,0.207,0.109],[-0.078,0.607,0.03,-0.001,0.103,0.21,0.103],[-0.471,0.99,0.039,-0.011,0.131,-0.079,0.3],[-0.373,0.621,0.034,-0.012,0.078,0.453,0.31],[-0.131,0.524,0.07,0.002,0.039,0.454,0.157],[-0.195,0.361,0.027,0.002,0.027,0.406,0.357]],"b":[-0.646,-1.602,-1.0,0.019,0.726,0.78,1.947,0.579,0.434,0.596]},{"w":[[0.476,0.43,0.056,-0.011,0.173,0.089,-0.081,0.07],[0.903,0.059,0.126,-0.005,0.111,-0.024,0.183,0.109],[0.866,0.029,0.021,0.002,0.041,-0.017,0.185,0.023],[-0.113,0.655,0.076,-0.007,0.101,0.123,0.042,0.047],[-0.029,0.902,0.03,-0.008,0.097,0.137,0.047,0.174],[-0.074,0.601,0.029,-0.001,0.102,0.203,0.097,0.017],[-0.438,0.928,0.035,-0.011,0.126,-0.148,0.239,0.171],[-0.372,0.618,0.034,-0.012,0.078,0.45,0.307,0.007],[-0.076,0.423,0.063,0.002,0.031,0.34,0.057,0.28]],"b":[-0.688,-1.668,-1.014,-0.009,0.622,0.77,1.845,0.574,0.267]},{"w":[[0.451,0.499,0.064,-0.011,0.178,0.155,-0.043,-0.083],[0.894,0.049,0.122,-0.005,0.11,-0.022,0.208,0.095],[0.848,0.09,0.028,0.002,0.046,0.038,0.209,-0.1],[-0.104,0.599,0.068,-0.007,0.097,0.078,0.037,0.14],[-0.041,0.876,0.022,-0.008,0.095,0.13,0.083,0.171],[-0.074,0.592,0.028,-0.001,0.102,0.196,0.099,0.029],[-0.458,0.937,0.032,-0.011,0.127,-0.124,0.285,0.101],[-0.368,0.602,0.032,-0.012,0.077,0.437,0.304,0.036],[-0.143,0.154,-0.001,0.001,0.012,0.227,0.295,0.395]],"b":[-0.61,-1.643,-0.957,-0.042,0.652,0.768,1.903,0.563,0.424]},{"w":[[0.466,0.483,0.064,-0.011,0.177,0.132,-0.074,-0.125,0.105],[0.907,0.034,0.122,-0.005,0.109,-0.044,0.18,0.058,0.093],[0.856,0.081,0.028,0.002,0.045,0.025,0.192,-0.123,0.057],[-0.103,0.597,0.068,-0.007,0.097,0.076,0.034,0.136,0.009],[-0.021,0.854,0.022,-0.008,0.094,0.098,0.041,0.115,0.142],[-0.072,0.59,0.028,-0.001,0.102,0.194,0.096,0.025,0.01],[-0.435,0.913,0.032,-0.012,0.125,-0.161,0.237,0.037,0.16],[-0.369,0.602,0.032,-0.012,0.077,0.437,0.305,0.038,-0.004]],"b":[-0.655,-1.683,-0.981,-0.046,0.591,0.763,1.835,0.564]},{"w":[[0.447,0.422,0.054,-0.009,0.172,0.123],[1.049,-0.028,0.125,-0.003,0.093,0.156],[0.985,0.017,0.023,0.002,0.032,0.026],[-0.062,0.637,0.076,-0.005,0.094,0.151],[0.048,0.876,0.029,-0.004,0.085,0.261],[0.006,0.635,0.031,0.001,0.096,0.145],[-0.142,0.254,0.002,-0.004,0.057,0.691],[0.009,0.531,0.023,0.006,0.021,0.268],[0.652,-0.133,0.008,0.002,-0.054,0.192],[-0.017,0.709,0.08,0.006,0.037,0.187],[0.043,0.52,0.038,0.005,0.016,0.187]],"b":[-0.628,-1.709,-0.955,0.109,0.799,1.066,0.682,1.849,0.223,1.245,1.41]},{"w":[[0.445,0.392,0.052,-0.01,0.171,0.113,0.057],[1.044,-0.089,0.12,-0.004,0.091,0.134,0.118],[0.983,-0.007,0.021,0.002,0.031,0.017,0.047],[-0.064,0.609,0.073,-0.005,0.093,0.141,0.055],[0.04,0.786,0.023,-0.005,0.082,0.228,0.174],[0.004,0.611,0.03,0.001,0.095,0.136,0.046],[-0.147,0.2,-0.002,-0.005,0.055,0.671,0.103],[0.004,0.468,0.018,0.006,0.019,0.245,0.122],[0.647,-0.203,0.003,0.001,-0.056,0.167,0.133],[-0.031,0.541,0.067,0.004,0.032,0.126,0.325]],"b":[-0.709,-1.875,-1.021,0.032,0.554,1.001,0.537,1.678,0.036,0.788]},{"w":[[0.446,0.471,0.06,-0.009,0.174,0.136,-0.069],[1.05,-0.084,0.119,-0.004,0.09,0.141,0.079],[0.984,0.076,0.03,0.003,0.035,0.041,-0.083],[-0.06,0.537,0.064,-0.006,0.088,0.125,0.141],[0.051,0.755,0.016,-0.005,0.078,0.229,0.171],[0.007,0.59,0.026,0.001,0.093,0.133,0.064],[-0.143,0.276,0.005,-0.004,0.058,0.696,-0.031],[0.013,0.374,0.005,0.005,0.013,0.227,0.222],[0.653,-0.158,0.005,0.002,-0.055,0.186,0.035],[0.051,0.196,0.002,0.002,-0.001,0.102,0.457]],"b":[-0.542,-1.807,-0.851,-0.067,0.586,0.986,0.721,1.574,0.179,0.842]},{"w":[[0.441,0.453,0.059,-0.009,0.174,0.127,-0.112,0.094],[1.044,-0.105,0.118,-0.004,0.09,0.13,0.029,0.108],[0.979,0.059,0.03,0.003,0.035,0.032,-0.123,0.087],[-0.06,0.535,0.064,-0.006,0.088,0.124,0.137,0.01],[0.043,0.728,0.015,-0.005,0.078,0.215,0.108,0.139],[0.005,0.584,0.026,0.001,0.093,0.13,0.051,0.029],[-0.15,0.25,0.004,-0.004,0.058,0.683,-0.092,0.133],[0.01,0.363,0.005,0.005,0.013,0.221,0.195,0.058],[0.646,-0.186,0.005,0.002,-0.055,0.171,-0.03,0.143]],"b":[-0.621,-1.898,-0.924,-0.076,0.469,0.961,0.61,1.525,0.059]},{"w":[[0.518,0.408,0.055,-0.009,0.166,0.144,-0.108],[0.925,-0.003,0.123,-0.004,0.103,0.119,0.19],[0.857,0.044,0.022,0.002,0.043,-0.012,0.197],[-0.063,0.637,0.075,-0.005,0.094,0.151,0.002],[0.037,0.878,0.029,-0.004,0.085,0.258,0.017],[-0.02,0.641,0.031,0.001,0.098,0.137,0.04],[-0.239,0.273,0.001,-0.004,0.064,0.662,0.148],[0.15,0.502,0.025,0.007,0.01,0.31,-0.216],[-0.05,0.716,0.079,0.006,0.04,0.177,0.05],[-0.131,0.556,0.036,0.005,0.03,0.135,0.267]],"b":[-0.604,-1.752,-0.999,0.108,0.796,1.057,0.649,1.898,1.234,1.35]},{"w":[[0.528,0.366,0.052,-0.01,0.164,0.134,-0.128,0.074],[0.937,-0.056,0.12,-0.004,0.1,0.106,0.165,0.096],[0.859,0.032,0.021,0.002,0.042,-0.015,0.191,0.021],[-0.056,0.606,0.073,-0.005,0.092,0.143,-0.013,0.056],[0.06,0.78,0.023,-0.005,0.08,0.234,-0.031,0.178],[-0.015,0.617,0.03,0.001,0.097,0.132,0.029,0.042],[-0.228,0.225,-0.002,-0.005,0.062,0.65,0.125,0.086],[0.17,0.416,0.019,0.006,0.005,0.288,-0.258,0.156],[-0.006,0.533,0.067,0.004,0.03,0.132,-0.038,0.33]],"b":[-0.704,-1.881,-1.027,0.032,0.555,1.0,0.533,1.687,0.789]},{"w":[[0.515,0.455,0.06,-0.009,0.168,0.156,-0.105,-0.065],[0.928,-0.054,0.118,-0.004,0.1,0.106,0.187,0.072],[0.852,0.108,0.029,0.002,0.046,0.004,0.202,-0.09],[-0.056,0.536,0.064,-0.006,0.088,0.126,-0.005,0.141],[0.045,0.756,0.016,-0.005,0.079,0.227,0.008,0.171],[-0.017,0.596,0.026,0.001,0.095,0.126,0.037,0.063],[-0.241,0.299,0.004,-0.004,0.066,0.669,0.15,-0.036],[0.161,0.338,0.006,0.006,0.001,0.269,-0.228,0.229],[-0.109,0.235,0.001,0.002,0.013,0.056,0.245,0.448]],"b":[-0.523,-1.841,-0.887,-0.066,0.585,0.979,0.694,1.614,0.798]},{"w":[[0.527,0.428,0.06,-0.009,0.167,0.149,-0.132,-0.116,0.113],[0.937,-0.074,0.118,-0.004,0.099,0.102,0.166,0.034,0.084],[0.859,0.094,0.029,0.002,0.046,0.0,0.187,-0.117,0.06],[-0.055,0.533,0.064,-0.006,0.088,0.125,-0.008,0.136,0.011],[0.061,0.723,0.016,-0.005,0.077,0.219,-0.026,0.107,0.143],[-0.015,0.59,0.026,0.001,0.095,0.125,0.031,0.052,0.025],[-0.228,0.272,0.004,-0.004,0.064,0.662,0.122,-0.088,0.115],[0.171,0.316,0.006,0.005,-0.001,0.264,-0.251,0.187,0.094]],"b":[-0.613,-1.908,-0.935,-0.076,0.471,0.959,0.602,1.539]},{"w":[[0.446,0.376,0.052,-0.01,0.17,0.1,0.086],[1.049,0.019,0.127,-0.003,0.095,0.179,-0.088],[0.986,0.047,0.025,0.003,0.033,0.041,-0.056],[-0.063,0.595,0.074,-0.005,0.092,0.13,0.08],[0.047,0.826,0.027,-0.005,0.083,0.236,0.095],[0.004,0.555,0.028,0.0,0.093,0.105,0.151],[-0.138,0.495,0.013,-0.001,0.066,0.812,-0.455],[0.655,0.01,0.014,0.004,-0.048,0.265,-0.27],[-0.02,0.499,0.071,0.003,0.029,0.081,0.396],[0.041,0.358,0.031,0.003,0.01,0.105,0.305]],"b":[-0.788,-1.547,-0.851,-0.039,0.624,0.787,1.523,0.723,0.513,0.845]},{"w":[[0.444,0.359,0.051,-0.01,0.169,0.095,0.072,0.049],[1.044,-0.029,0.123,-0.003,0.094,0.165,-0.129,0.133],[0.983,0.027,0.023,0.003,0.033,0.035,-0.073,0.056],[-0.065,0.578,0.072,-0.006,0.091,0.125,0.065,0.047],[0.04,0.766,0.022,-0.005,0.081,0.218,0.043,0.169],[0.003,0.545,0.027,0.0,0.092,0.102,0.142,0.029],[-0.145,0.436,0.007,-0.002,0.065,0.795,-0.505,0.164],[0.648,-0.051,0.009,0.003,-0.05,0.247,-0.323,0.172],[-0.032,0.396,0.062,0.002,0.026,0.05,0.308,0.287]],"b":[-0.829,-1.659,-0.898,-0.078,0.482,0.763,1.385,0.578,0.271]},{"w":[[0.444,0.425,0.059,-0.01,0.173,0.108,0.125,-0.097],[1.052,-0.035,0.119,-0.003,0.092,0.17,-0.131,0.108],[0.984,0.086,0.03,0.003,0.036,0.047,-0.025,-0.078],[-0.06,0.527,0.064,-0.006,0.088,0.119,0.026,0.136],[0.05,0.744,0.016,-0.005,0.078,0.222,0.03,0.165],[0.005,0.538,0.026,0.0,0.092,0.102,0.137,0.034],[-0.137,0.457,0.007,-0.001,0.064,0.806,-0.485,0.076],[0.657,-0.042,0.007,0.003,-0.051,0.256,-0.312,0.104],[0.049,0.145,0.001,0.002,-0.003,0.071,0.137,0.426]],"b":[-0.738,-1.602,-0.811,-0.108,0.54,0.77,1.484,0.67,0.626]},{"w":[[0.44,0.412,0.059,-0.01,0.173,0.102,0.113,-0.134,0.087],[1.046,-0.052,0.119,-0.003,0.092,0.162,-0.147,0.058,0.117],[0.98,0.073,0.03,0.003,0.036,0.041,-0.037,-0.116,0.089],[-0.06,0.526,0.064,-0.006,0.088,0.118,0.025,0.132,0.009],[0.043,0.724,0.015,-0.005,0.078,0.213,0.011,0.106,0.138],[0.004,0.535,0.026,0.0,0.092,0.1,0.134,0.024,0.022],[-0.145,0.434,0.007,-0.002,0.064,0.795,-0.507,0.007,0.162],[0.649,-0.065,0.007,0.003,-0.05,0.245,-0.334,0.035,0.162]],"b":[-0.793,-1.675,-0.867,-0.114,0.453,0.756,1.383,0.568]},{"w":[[0.509,0.377,0.053,-0.01,0.165,0.125,0.061,-0.095],[0.93,0.017,0.124,-0.003,0.104,0.131,-0.039,0.182],[0.857,0.045,0.022,0.002,0.043,-0.011,-0.003,0.197],[-0.076,0.595,0.073,-0.006,0.093,0.125,0.085,0.02],[0.021,0.825,0.027,-0.005,0.084,0.225,0.105,0.04],[-0.046,0.554,0.027,-0.0,0.096,0.084,0.171,0.077],[-0.173,0.495,0.012,-0.001,0.069,0.798,-0.44,0.053],[-0.115,0.498,0.069,0.003,0.036,0.042,0.435,0.144],[-0.191,0.354,0.026,0.002,0.027,0.011,0.401,0.354]],"b":[-0.719,-1.678,-0.994,-0.053,0.595,0.732,1.485,0.409,0.589]},{"w":[[0.522,0.353,0.052,-0.01,0.163,0.125,0.033,-0.12,0.069],[0.951,-0.021,0.122,-0.004,0.101,0.13,-0.082,0.143,0.108],[0.861,0.037,0.021,0.002,0.042,-0.012,-0.012,0.188,0.023],[-0.067,0.578,0.072,-0.006,0.092,0.124,0.067,0.004,0.046],[0.054,0.764,0.022,-0.005,0.08,0.223,0.036,-0.021,0.172],[-0.043,0.549,0.026,-0.0,0.096,0.084,0.165,0.071,0.016],[-0.142,0.436,0.008,-0.002,0.064,0.796,-0.507,-0.005,0.165],[-0.061,0.399,0.061,0.002,0.028,0.039,0.323,0.045,0.279]],"b":[-0.76,-1.742,-1.007,-0.081,0.494,0.722,1.388,0.244]},{"w":[[0.499,0.421,0.059,-0.009,0.168,0.129,0.099,-0.082,-0.088],[0.941,-0.028,0.118,-0.004,0.1,0.127,-0.078,0.169,0.09],[0.845,0.095,0.029,0.002,0.046,-0.007,0.041,0.211,-0.1],[-0.06,0.527,0.064,-0.006,0.088,0.119,0.026,0.001,0.135],[0.039,0.744,0.015,-0.005,0.079,0.218,0.035,0.016,0.163],[-0.043,0.542,0.025,-0.0,0.095,0.083,0.16,0.073,0.026],[-0.165,0.459,0.007,-0.002,0.066,0.795,-0.472,0.043,0.072],[-0.145,0.157,-0.001,0.001,0.012,-0.005,0.229,0.297,0.395]],"b":[-0.683,-1.715,-0.953,-0.109,0.529,0.721,1.456,0.428]},{"w":[[0.514,0.404,0.06,-0.009,0.167,0.13,0.075,-0.114,-0.13,0.106],[0.954,-0.043,0.118,-0.004,0.099,0.128,-0.099,0.141,0.053,0.094],[0.854,0.086,0.029,0.002,0.046,-0.007,0.028,0.194,-0.123,0.057],[-0.059,0.526,0.064,-0.006,0.088,0.119,0.024,-0.002,0.132,0.009],[0.06,0.722,0.016,-0.005,0.077,0.219,0.002,-0.026,0.107,0.142],[-0.042,0.54,0.025,-0.0,0.095,0.083,0.158,0.07,0.022,0.01],[-0.141,0.433,0.007,-0.002,0.064,0.796,-0.509,-0.006,0.007,0.163]],"b":[-0.728,-1.755,-0.977,-0.113,0.468,0.716,1.386]},{"w":[[0.476,0.365,0.053,-0.009,0.16,0.191],[1.072,-0.057,0.126,-0.003,0.084,0.195],[1.0,-0.023,0.022,0.003,0.026,0.07],[-0.035,0.596,0.076,-0.004,0.083,0.204],[0.085,0.834,0.031,-0.003,0.07,0.321],[0.045,0.552,0.03,0.002,0.08,0.241],[-0.026,0.409,0.031,-0.004,0.014,0.627],[-0.068,0.873,0.042,0.003,0.054,-0.077],[0.676,-0.149,0.01,0.003,-0.063,0.221],[-0.03,0.814,0.087,0.005,0.043,0.087],[0.078,0.464,0.038,0.006,0.002,0.257]],"b":[-0.774,-1.805,-1.043,-0.012,0.651,0.862,0.601,2.485,0.145,1.416,1.252]},{"w":[[0.473,0.348,0.052,-0.009,0.16,0.182,0.038],[1.064,-0.104,0.122,-0.003,0.084,0.169,0.103],[0.997,-0.04,0.02,0.003,0.026,0.06,0.038],[-0.038,0.579,0.074,-0.004,0.083,0.195,0.036],[0.074,0.765,0.025,-0.004,0.069,0.283,0.149],[0.043,0.544,0.029,0.002,0.08,0.237,0.019],[-0.027,0.406,0.031,-0.004,0.014,0.625,0.007],[-0.081,0.792,0.035,0.002,0.053,-0.122,0.174],[0.666,-0.204,0.005,0.002,-0.063,0.19,0.118],[-0.057,0.656,0.074,0.003,0.042,-0.0,0.34]],"b":[-0.821,-1.934,-1.09,-0.057,0.464,0.838,0.593,2.267,-0.003,0.99]},{"w":[[0.474,0.416,0.059,-0.008,0.163,0.197,-0.063],[1.075,-0.127,0.118,-0.003,0.08,0.188,0.086],[0.997,0.045,0.029,0.003,0.03,0.077,-0.083],[-0.031,0.477,0.063,-0.005,0.077,0.192,0.146],[0.091,0.685,0.015,-0.004,0.062,0.305,0.183],[0.047,0.498,0.024,0.002,0.077,0.236,0.066],[-0.023,0.314,0.021,-0.004,0.009,0.617,0.116],[-0.06,0.654,0.018,0.001,0.042,-0.101,0.269],[0.677,-0.188,0.006,0.002,-0.065,0.216,0.048],[0.092,0.094,-0.001,0.004,-0.017,0.217,0.455]],"b":[-0.685,-1.927,-0.925,-0.219,0.392,0.768,0.436,2.104,0.077,0.608]},{"w":[[0.468,0.41,0.059,-0.009,0.164,0.182,-0.095,0.07],[1.067,-0.135,0.118,-0.003,0.082,0.169,0.047,0.087],[0.99,0.037,0.029,0.003,0.031,0.06,-0.119,0.078],[-0.029,0.478,0.063,-0.005,0.076,0.195,0.153,-0.016],[0.082,0.675,0.015,-0.004,0.064,0.283,0.137,0.103],[0.047,0.499,0.024,0.002,0.077,0.237,0.068,-0.004],[-0.019,0.318,0.021,-0.004,0.008,0.625,0.134,-0.039],[-0.069,0.645,0.018,0.001,0.044,-0.122,0.224,0.098],[0.666,-0.2,0.006,0.002,-0.063,0.19,-0.007,0.121]],"b":[-0.727,-1.98,-0.973,-0.209,0.329,0.771,0.46,2.045,0.004]},{"w":[[0.572,0.344,0.054,-0.008,0.151,0.223,-0.142],[0.957,-0.031,0.124,-0.003,0.094,0.158,0.17],[0.875,0.005,0.02,0.002,0.038,0.029,0.185],[-0.017,0.592,0.076,-0.004,0.081,0.21,-0.026],[0.1,0.831,0.031,-0.003,0.068,0.326,-0.021],[0.045,0.552,0.03,0.002,0.08,0.242,-0.001],[-0.064,0.417,0.031,-0.004,0.017,0.615,0.055],[0.016,0.854,0.043,0.003,0.046,-0.05,-0.124],[-0.079,0.825,0.086,0.005,0.048,0.071,0.072],[-0.082,0.5,0.036,0.005,0.017,0.204,0.237]],"b":[-0.753,-1.83,-1.07,-0.008,0.654,0.862,0.593,2.503,1.405,1.218]},{"w":[[0.577,0.316,0.052,-0.009,0.15,0.211,-0.155,0.056],[0.964,-0.074,0.121,-0.004,0.093,0.141,0.15,0.085],[0.876,-0.003,0.019,0.002,0.038,0.026,0.181,0.016],[-0.014,0.572,0.074,-0.004,0.081,0.202,-0.036,0.04],[0.112,0.753,0.025,-0.004,0.066,0.294,-0.058,0.156],[0.047,0.542,0.029,0.002,0.08,0.238,-0.006,0.02],[-0.064,0.417,0.031,-0.004,0.017,0.615,0.055,0.0],[0.032,0.757,0.036,0.002,0.042,-0.09,-0.17,0.194],[-0.051,0.654,0.074,0.003,0.042,0.001,-0.009,0.341]],"b":[-0.822,-1.933,-1.09,-0.057,0.464,0.838,0.593,2.267,0.99]},{"w":[[0.568,0.39,0.059,-0.008,0.154,0.227,-0.138,-0.056],[0.963,-0.096,0.117,-0.004,0.091,0.152,0.165,0.078],[0.867,0.081,0.028,0.003,0.042,0.035,0.192,-0.092],[-0.005,0.47,0.063,-0.005,0.074,0.2,-0.037,0.148],[0.114,0.678,0.015,-0.004,0.06,0.313,-0.034,0.185],[0.051,0.497,0.024,0.002,0.077,0.237,-0.006,0.066],[-0.055,0.323,0.021,-0.004,0.012,0.607,0.047,0.114],[0.038,0.627,0.019,0.002,0.033,-0.07,-0.144,0.276],[-0.047,0.133,-0.002,0.003,-0.004,0.173,0.205,0.445]],"b":[-0.674,-1.94,-0.94,-0.216,0.394,0.768,0.432,2.116,0.592]},{"w":[[0.572,0.379,0.06,-0.008,0.154,0.211,-0.156,-0.096,0.089],[0.967,-0.105,0.117,-0.004,0.091,0.14,0.151,0.048,0.068],[0.87,0.073,0.028,0.003,0.042,0.026,0.18,-0.117,0.056],[-0.006,0.472,0.063,-0.005,0.074,0.202,-0.035,0.153,-0.012],[0.119,0.664,0.015,-0.004,0.06,0.294,-0.057,0.136,0.11],[0.05,0.498,0.024,0.002,0.077,0.238,-0.005,0.068,-0.004],[-0.057,0.329,0.021,-0.004,0.012,0.615,0.056,0.134,-0.046],[0.044,0.611,0.019,0.001,0.033,-0.09,-0.168,0.223,0.118]],"b":[-0.727,-1.981,-0.973,-0.209,0.329,0.771,0.46,2.046]},{"w":[[0.487,0.232,0.047,-0.009,0.152,0.203,0.153],[1.073,-0.065,0.125,-0.003,0.083,0.196,0.009],[0.998,0.004,0.023,0.003,0.028,0.067,-0.031],[-0.024,0.456,0.069,-0.005,0.074,0.217,0.16],[0.101,0.631,0.021,-0.004,0.057,0.339,0.233],[0.06,0.355,0.02,0.002,0.068,0.259,0.226],[0.007,-0.016,0.011,-0.005,-0.012,0.665,0.487],[0.666,-0.03,0.015,0.003,-0.055,0.21,-0.137],[-0.0,0.427,0.068,0.004,0.019,0.121,0.444],[0.104,0.129,0.022,0.005,-0.018,0.286,0.384]],"b":[-1.154,-1.828,-0.966,-0.409,0.073,0.301,-0.61,0.486,0.313,0.297]},{"w":[[0.485,0.23,0.046,-0.009,0.152,0.2,0.148,0.012],[1.062,-0.079,0.123,-0.003,0.085,0.165,-0.032,0.108],[0.993,-0.002,0.022,0.003,0.029,0.054,-0.049,0.046],[-0.025,0.455,0.069,-0.005,0.075,0.214,0.156,0.008],[0.089,0.616,0.019,-0.004,0.059,0.306,0.188,0.117],[0.062,0.358,0.021,0.002,0.068,0.265,0.234,-0.022],[0.015,-0.006,0.013,-0.004,-0.014,0.689,0.52,-0.084],[0.65,-0.049,0.012,0.002,-0.053,0.166,-0.196,0.152],[-0.03,0.391,0.062,0.002,0.025,0.041,0.335,0.282]],"b":[-1.157,-1.86,-0.98,-0.412,0.038,0.307,-0.585,0.44,0.229]},{"w":[[0.487,0.282,0.055,-0.009,0.154,0.217,0.205,-0.118],[1.073,-0.105,0.119,-0.003,0.081,0.185,-0.033,0.095],[0.997,0.04,0.029,0.003,0.03,0.078,0.007,-0.085],[-0.024,0.406,0.061,-0.005,0.072,0.202,0.108,0.117],[0.101,0.572,0.012,-0.004,0.055,0.323,0.172,0.137],[0.06,0.353,0.02,0.002,0.068,0.258,0.223,0.006],[0.007,-0.009,0.012,-0.005,-0.012,0.667,0.495,-0.017],[0.666,-0.071,0.009,0.003,-0.057,0.198,-0.18,0.096],[0.104,-0.041,-0.005,0.004,-0.026,0.238,0.207,0.399]],"b":[-1.117,-1.858,-0.94,-0.446,0.03,0.299,-0.605,0.456,0.172]},{"w":[[0.481,0.284,0.055,-0.009,0.156,0.205,0.195,-0.138,0.051],[1.063,-0.102,0.119,-0.003,0.084,0.163,-0.052,0.058,0.092],[0.989,0.044,0.029,0.003,0.032,0.059,-0.01,-0.116,0.079],[-0.021,0.405,0.061,-0.005,0.071,0.209,0.114,0.128,-0.027],[0.092,0.576,0.012,-0.005,0.057,0.302,0.154,0.102,0.088],[0.063,0.352,0.02,0.002,0.067,0.264,0.229,0.017,-0.027],[0.016,-0.013,0.012,-0.004,-0.014,0.688,0.513,0.019,-0.089],[0.652,-0.065,0.01,0.002,-0.053,0.165,-0.209,0.04,0.141]],"b":[-1.125,-1.874,-0.953,-0.441,0.014,0.303,-0.59,0.431]},{"w":[[0.57,0.228,0.049,-0.009,0.145,0.229,0.136,-0.125],[0.957,-0.06,0.123,-0.003,0.093,0.159,0.033,0.175],[0.875,0.01,0.02,0.002,0.038,0.029,-0.006,0.184],[-0.02,0.456,0.069,-0.005,0.074,0.218,0.159,-0.007],[0.096,0.631,0.021,-0.004,0.058,0.337,0.234,0.008],[0.042,0.356,0.02,0.002,0.07,0.253,0.229,0.027],[-0.072,-0.013,0.009,-0.005,-0.006,0.64,0.503,0.118],[-0.086,0.431,0.066,0.003,0.027,0.094,0.461,0.129],[-0.089,0.138,0.018,0.004,-0.002,0.226,0.424,0.289]],"b":[-1.093,-1.913,-1.056,-0.406,0.069,0.287,-0.667,0.25,0.157]},{"w":[[0.573,0.224,0.048,-0.009,0.145,0.222,0.122,-0.134,0.032],[0.964,-0.071,0.121,-0.004,0.093,0.14,-0.003,0.15,0.085],[0.876,0.007,0.02,0.002,0.038,0.024,-0.014,0.179,0.019],[-0.019,0.455,0.069,-0.005,0.074,0.216,0.155,-0.01,0.01],[0.106,0.614,0.019,-0.004,0.058,0.31,0.183,-0.027,0.121],[0.039,0.36,0.02,0.002,0.07,0.259,0.241,0.035,-0.027],[-0.081,0.002,0.011,-0.005,-0.006,0.664,0.549,0.148,-0.106],[-0.062,0.393,0.062,0.002,0.027,0.032,0.345,0.05,0.274]],"b":[-1.098,-1.926,-1.059,-0.407,0.05,0.292,-0.651,0.207]},{"w":[[0.561,0.274,0.056,-0.008,0.148,0.24,0.185,-0.111,-0.108],[0.963,-0.094,0.117,-0.003,0.091,0.152,-0.004,0.164,0.079],[0.866,0.054,0.027,0.003,0.041,0.038,0.042,0.198,-0.104],[-0.009,0.405,0.061,-0.005,0.071,0.207,0.104,-0.022,0.119],[0.108,0.571,0.012,-0.004,0.054,0.324,0.17,-0.01,0.138],[0.042,0.355,0.02,0.002,0.07,0.253,0.228,0.027,0.004],[-0.074,-0.001,0.011,-0.005,-0.005,0.643,0.516,0.121,-0.028],[-0.056,-0.024,-0.007,0.003,-0.012,0.19,0.251,0.241,0.376]],"b":[-1.066,-1.933,-1.03,-0.436,0.034,0.286,-0.66,0.062]},{"w":[[0.565,0.276,0.056,-0.008,0.149,0.226,0.168,-0.128,-0.133,0.069],[0.967,-0.092,0.118,-0.004,0.092,0.139,-0.021,0.147,0.053,0.071],[0.869,0.056,0.028,0.003,0.042,0.028,0.029,0.185,-0.124,0.053],[-0.011,0.404,0.061,-0.005,0.071,0.212,0.11,-0.016,0.128,-0.025],[0.113,0.574,0.013,-0.005,0.055,0.307,0.147,-0.032,0.103,0.092],[0.04,0.354,0.019,0.002,0.069,0.259,0.236,0.034,0.015,-0.032],[-0.08,-0.003,0.01,-0.005,-0.006,0.663,0.544,0.148,0.013,-0.11]],"b":[-1.07,-1.937,-1.033,-0.434,0.028,0.288,-0.653]},{"w":[[0.476,0.371,0.054,-0.009,0.16,0.201,-0.015],[1.073,-0.072,0.125,-0.003,0.083,0.173,0.036],[0.999,-0.007,0.023,0.003,0.027,0.094,-0.04],[-0.034,0.588,0.075,-0.004,0.083,0.193,0.018],[0.087,0.806,0.029,-0.003,0.069,0.278,0.069],[0.044,0.568,0.031,0.002,0.081,0.265,-0.038],[-0.053,0.641,0.024,0.005,0.046,-0.433,0.567],[0.677,-0.178,0.007,0.003,-0.064,0.176,0.07],[-0.024,0.723,0.08,0.006,0.04,-0.053,0.223],[0.079,0.458,0.038,0.006,0.002,0.246,0.017]],"b":[-0.765,-1.827,-1.019,-0.023,0.61,0.885,2.145,0.103,1.281,1.242]},{"w":[[0.473,0.354,0.052,-0.009,0.16,0.192,-0.016,0.038],[1.065,-0.119,0.121,-0.003,0.083,0.147,0.035,0.102],[0.996,-0.024,0.022,0.003,0.027,0.085,-0.04,0.038],[-0.037,0.572,0.074,-0.004,0.083,0.184,0.018,0.036],[0.076,0.738,0.023,-0.004,0.068,0.241,0.067,0.149],[0.042,0.559,0.03,0.002,0.081,0.261,-0.039,0.019],[-0.066,0.563,0.017,0.004,0.045,-0.474,0.564,0.17],[0.668,-0.232,0.003,0.002,-0.064,0.147,0.068,0.118],[-0.051,0.568,0.067,0.004,0.039,-0.136,0.218,0.339]],"b":[-0.812,-1.954,-1.066,-0.067,0.425,0.861,1.933,-0.043,0.861]},{"w":[[0.474,0.417,0.059,-0.008,0.163,0.198,-0.001,-0.063],[1.075,-0.133,0.118,-0.003,0.08,0.177,0.018,0.084],[0.997,0.052,0.029,0.003,0.03,0.09,-0.022,-0.081],[-0.031,0.482,0.063,-0.005,0.077,0.201,-0.015,0.148],[0.092,0.676,0.014,-0.004,0.062,0.287,0.029,0.18],[0.045,0.516,0.025,0.002,0.078,0.269,-0.054,0.072],[-0.048,0.49,0.007,0.003,0.037,-0.422,0.52,0.208],[0.678,-0.208,0.004,0.003,-0.065,0.179,0.061,0.041],[0.09,0.121,0.001,0.003,-0.016,0.271,-0.087,0.465]],"b":[-0.684,-1.935,-0.916,-0.212,0.379,0.792,1.878,0.051,0.646]},{"w":[[0.468,0.408,0.059,-0.009,0.164,0.179,0.005,-0.095,0.07],[1.067,-0.143,0.118,-0.003,0.081,0.153,0.025,0.043,0.088],[0.99,0.042,0.029,0.003,0.031,0.069,-0.015,-0.117,0.077],[-0.029,0.484,0.063,-0.005,0.076,0.205,-0.016,0.155,-0.017],[0.082,0.663,0.014,-0.004,0.063,0.259,0.038,0.132,0.104],[0.046,0.516,0.025,0.002,0.078,0.271,-0.055,0.076,-0.006],[-0.058,0.476,0.007,0.003,0.039,-0.454,0.53,0.153,0.118],[0.667,-0.223,0.004,0.002,-0.063,0.145,0.072,-0.017,0.123]],"b":[-0.73,-1.992,-0.966,-0.201,0.311,0.796,1.801,-0.029]},{"w":[[0.572,0.346,0.055,-0.008,0.151,0.226,-0.005,-0.142],[0.959,-0.042,0.123,-0.003,0.094,0.143,0.024,0.169],[0.871,0.027,0.022,0.002,0.039,0.061,-0.053,0.188],[-0.016,0.583,0.075,-0.004,0.081,0.198,0.02,-0.028],[0.104,0.801,0.029,-0.003,0.067,0.282,0.071,-0.025],[0.043,0.568,0.031,0.002,0.081,0.265,-0.038,0.001],[0.053,0.613,0.025,0.005,0.036,-0.405,0.578,-0.156],[-0.065,0.733,0.079,0.006,0.044,-0.064,0.219,0.06],[-0.082,0.5,0.036,0.005,0.017,0.204,0.0,0.237]],"b":[-0.75,-1.845,-1.038,-0.02,0.612,0.884,2.161,1.275,1.218]},{"w":[[0.576,0.318,0.053,-0.009,0.15,0.215,-0.005,-0.155,0.056],[0.966,-0.084,0.12,-0.004,0.093,0.125,0.024,0.149,0.085],[0.872,0.019,0.021,0.002,0.038,0.058,-0.053,0.184,0.016],[-0.013,0.563,0.074,-0.004,0.08,0.19,0.02,-0.037,0.04],[0.117,0.723,0.023,-0.004,0.065,0.25,0.071,-0.062,0.156],[0.045,0.558,0.03,0.002,0.081,0.261,-0.038,-0.004,0.02],[0.069,0.516,0.018,0.004,0.032,-0.445,0.578,-0.202,0.194],[-0.037,0.563,0.067,0.004,0.038,-0.133,0.219,-0.021,0.341]],"b":[-0.818,-1.948,-1.058,-0.069,0.422,0.861,1.924,0.86]},{"w":[[0.568,0.388,0.059,-0.008,0.154,0.222,0.007,-0.138,-0.057],[0.964,-0.098,0.117,-0.003,0.091,0.148,0.007,0.164,0.077],[0.865,0.092,0.029,0.003,0.043,0.056,-0.033,0.193,-0.088],[-0.006,0.474,0.063,-0.005,0.074,0.207,-0.013,-0.036,0.149],[0.116,0.668,0.014,-0.004,0.059,0.294,0.031,-0.036,0.182],[0.048,0.515,0.025,0.002,0.078,0.27,-0.054,-0.004,0.073],[0.067,0.455,0.008,0.004,0.026,-0.391,0.531,-0.169,0.215],[-0.052,0.165,-0.0,0.003,-0.003,0.233,-0.1,0.21,0.456]],"b":[-0.677,-1.943,-0.926,-0.21,0.381,0.792,1.886,0.636]},{"w":[[0.573,0.373,0.059,-0.008,0.154,0.201,0.016,-0.157,-0.098,0.089],[0.967,-0.11,0.117,-0.004,0.091,0.132,0.014,0.15,0.046,0.069],[0.868,0.083,0.029,0.003,0.043,0.043,-0.028,0.182,-0.114,0.055],[-0.007,0.476,0.063,-0.005,0.074,0.21,-0.014,-0.034,0.155,-0.013],[0.122,0.65,0.015,-0.004,0.06,0.268,0.042,-0.059,0.131,0.112],[0.047,0.516,0.025,0.002,0.078,0.271,-0.055,-0.002,0.075,-0.006],[0.074,0.432,0.008,0.003,0.027,-0.425,0.545,-0.199,0.15,0.143]],"b":[-0.734,-1.987,-0.961,-0.202,0.31,0.796,1.795]},{"w":[[0.487,0.229,0.048,-0.01,0.15,0.297,-0.141,0.221],[1.073,-0.064,0.125,-0.003,0.084,0.168,0.043,-0.012],[0.998,0.004,0.023,0.003,0.028,0.088,-0.03,-0.016],[-0.023,0.455,0.07,-0.005,0.073,0.283,-0.1,0.208],[0.102,0.629,0.022,-0.004,0.056,0.397,-0.087,0.275],[0.061,0.352,0.023,0.001,0.065,0.411,-0.23,0.338],[0.665,-0.026,0.013,0.004,-0.053,0.074,0.205,-0.237],[-0.0,0.426,0.069,0.004,0.019,0.147,-0.039,0.463],[0.106,0.125,0.025,0.004,-0.022,0.471,-0.278,0.52]],"b":[-1.24,-1.802,-0.985,-0.47,0.02,0.161,0.61,0.289,0.128]},{"w":[[0.487,0.229,0.048,-0.01,0.15,0.297,-0.141,0.221,-0.0],[1.06,-0.078,0.122,-0.003,0.086,0.114,0.075,-0.071,0.114],[0.993,-0.002,0.022,0.003,0.029,0.067,-0.018,-0.039,0.045],[-0.023,0.455,0.07,-0.005,0.073,0.283,-0.1,0.208,0.0],[0.09,0.615,0.019,-0.005,0.059,0.344,-0.056,0.217,0.112],[0.066,0.357,0.024,0.001,0.064,0.431,-0.241,0.36,-0.042],[0.647,-0.048,0.009,0.003,-0.049,-0.008,0.253,-0.327,0.173],[-0.03,0.391,0.062,0.002,0.025,0.013,0.04,0.315,0.285]],"b":[-1.24,-1.816,-0.99,-0.47,0.005,0.166,0.588,0.253]},{"w":[[0.487,0.281,0.057,-0.009,0.153,0.314,-0.145,0.277,-0.121],[1.073,-0.105,0.118,-0.003,0.082,0.153,0.047,-0.056,0.096],[0.998,0.04,0.029,0.003,0.029,0.1,-0.034,0.024,-0.086],[-0.023,0.405,0.062,-0.006,0.071,0.266,-0.095,0.155,0.115],[0.102,0.571,0.013,-0.005,0.054,0.377,-0.082,0.212,0.136],[0.061,0.351,0.023,0.001,0.065,0.411,-0.229,0.336,0.002],[0.665,-0.069,0.006,0.004,-0.055,0.059,0.208,-0.283,0.1],[0.106,-0.044,-0.002,0.002,-0.029,0.413,-0.262,0.337,0.395]],"b":[-1.205,-1.83,-0.96,-0.503,-0.02,0.16,0.582,0.014]},{"w":[[0.483,0.283,0.057,-0.009,0.154,0.298,-0.135,0.264,-0.136,0.039],[1.062,-0.101,0.118,-0.003,0.085,0.113,0.073,-0.089,0.057,0.098],[0.989,0.043,0.029,0.003,0.031,0.068,-0.013,-0.003,-0.116,0.078],[-0.02,0.404,0.062,-0.005,0.07,0.281,-0.105,0.168,0.13,-0.037],[0.093,0.575,0.013,-0.005,0.056,0.343,-0.06,0.185,0.103,0.083],[0.066,0.348,0.023,0.001,0.064,0.431,-0.242,0.353,0.021,-0.048],[0.648,-0.062,0.007,0.003,-0.05,-0.008,0.251,-0.338,0.035,0.163]],"b":[-1.205,-1.831,-0.961,-0.503,-0.021,0.161,0.579]},{"w":[[0.561,0.226,0.05,-0.009,0.144,0.305,-0.118,0.195,-0.111],[0.957,-0.06,0.123,-0.003,0.093,0.155,0.008,0.029,0.174],[0.87,0.009,0.021,0.002,0.038,0.073,-0.07,0.03,0.193],[-0.027,0.455,0.07,-0.005,0.073,0.283,-0.101,0.21,0.005],[0.089,0.63,0.022,-0.004,0.057,0.395,-0.091,0.28,0.019],[0.024,0.353,0.022,0.0,0.068,0.407,-0.241,0.351,0.055],[-0.091,0.43,0.067,0.003,0.026,0.137,-0.067,0.495,0.137],[-0.114,0.133,0.021,0.002,-0.004,0.446,-0.345,0.598,0.33]],"b":[-1.172,-1.908,-1.102,-0.473,0.008,0.127,0.206,-0.074]},{"w":[[0.564,0.224,0.049,-0.009,0.144,0.296,-0.111,0.183,-0.118,0.02],[0.967,-0.071,0.121,-0.003,0.093,0.115,0.038,-0.024,0.144,0.09],[0.871,0.007,0.021,0.002,0.038,0.068,-0.066,0.022,0.189,0.012],[-0.027,0.455,0.07,-0.005,0.073,0.283,-0.101,0.21,0.005,-0.001],[0.102,0.614,0.019,-0.005,0.058,0.344,-0.051,0.211,-0.019,0.115],[0.018,0.36,0.023,0.001,0.068,0.432,-0.26,0.384,0.074,-0.055],[-0.06,0.393,0.061,0.002,0.027,0.013,0.029,0.329,0.045,0.277]],"b":[-1.17,-1.901,-1.101,-0.473,0.017,0.123,0.226]},{"w":[[0.551,0.274,0.057,-0.009,0.147,0.32,-0.125,0.25,-0.096,-0.111],[0.964,-0.094,0.117,-0.003,0.091,0.144,0.013,-0.01,0.163,0.08],[0.86,0.054,0.028,0.002,0.041,0.088,-0.077,0.082,0.207,-0.106],[-0.016,0.405,0.062,-0.006,0.07,0.267,-0.093,0.152,-0.011,0.116],[0.102,0.571,0.013,-0.005,0.054,0.377,-0.082,0.212,0.0,0.136],[0.024,0.354,0.022,0.0,0.068,0.408,-0.241,0.352,0.056,-0.003],[-0.08,-0.024,-0.004,0.001,-0.014,0.396,-0.321,0.416,0.28,0.367]],"b":[-1.149,-1.924,-1.081,-0.497,-0.02,0.127,-0.149]},{"w":[[0.556,0.276,0.057,-0.009,0.148,0.298,-0.107,0.226,-0.112,-0.132,0.057],[0.97,-0.092,0.118,-0.004,0.092,0.114,0.037,-0.041,0.142,0.052,0.075],[0.864,0.055,0.028,0.002,0.041,0.07,-0.062,0.063,0.194,-0.123,0.046],[-0.019,0.404,0.062,-0.005,0.07,0.281,-0.105,0.167,-0.0,0.13,-0.037],[0.109,0.574,0.013,-0.005,0.055,0.343,-0.054,0.176,-0.024,0.104,0.087],